29727222_64373845.xml	0.14431917667388916	-0.06834803521633148	-0.18726475536823273	0.010284418240189552	-0.19147919118404388	-0.7547603249549866	-0.3746618926525116	0.019519247114658356	0.3491327464580536	-0.2129972130060196	-0.5811240077018738	-0.10314574092626572	0.3082205653190613	-0.2938659191131592	-0.4486749768257141	0.01224720012396574	0.026328034698963165	-0.37498199939727783	0.5158363580703735	-0.7679975032806396	0.07610135525465012	-0.33071333169937134	0.5627778172492981	0.08767379820346832	0.2343001365661621	0.4598119258880615	-0.444158673286438	-0.28251227736473083	0.4682701826095581	-0.40587255358695984	0.11771861463785172	0.2714124917984009	0.06744339317083359	0.5084625482559204	-0.15881448984146118	0.19340766966342926	-0.9797577857971191	0.4186721742153168	-0.21248459815979004	-0.1283828765153885	-0.41565340757369995	-0.32866495847702026	-0.18960556387901306	-0.19882124662399292	0.5544084310531616	-0.1944631189107895	0.17726242542266846	-0.3644007444381714	0.21498864889144897	0.004601573571562767
29727222_64377048.xml	0.15469416975975037	-0.08007834106683731	-0.10779185593128204	-0.08389750123023987	-0.1607474833726883	-0.6127946376800537	-0.274549275636673	0.08769378066062927	0.39147838950157166	-0.17678070068359375	-0.4450431764125824	-0.07930322736501694	0.23530326783657074	-0.06108946353197098	-0.34596213698387146	0.06947829574346542	0.026847422122955322	-0.2510053515434265	0.3951660096645355	-0.5887006521224976	-0.06061618775129318	-0.37084075808525085	0.5881155729293823	-0.006772646214812994	0.29054343700408936	0.3475533723831177	-0.25512629747390747	-0.22085390985012054	0.47134700417518616	-0.30925452709198	0.04049397259950638	0.29937851428985596	-0.1105642169713974	0.4528869092464447	-0.10619863122701645	0.06724590063095093	-0.9483318328857422	0.37791576981544495	-0.1513626128435135	-0.11158429831266403	-0.39701613783836365	-0.16946889460086823	-0.09777040779590607	-0.31781116127967834	0.5519983172416687	-0.19106896221637726	0.21547451615333557	-0.4676612317562103	0.1544630229473114	0.2035934329032898
29727222_64387484.xml	0.0531931072473526	-0.20399382710456848	-0.2890072464942932	0.06886499375104904	-0.19013817608356476	-0.6271511316299438	-0.46773761510849	-0.07122478634119034	0.3633285462856293	-0.1880715787410736	-0.36983373761177063	-0.1754327267408371	0.2621120512485504	-0.01696695014834404	-0.43878355622291565	0.21578888595104218	0.10695276409387589	-0.1663770079612732	0.45982393622398376	-0.6629844903945923	-0.02903430163860321	-0.33421897888183594	0.3033273220062256	-0.014343195594847202	-0.08633983135223389	-0.16516336798667908	-0.05800848454236984	-0.499578595161438	0.35269448161125183	-0.1827540397644043	0.15209008753299713	0.2385629266500473	-0.40692374110221863	0.24940042197704315	0.11072628945112228	0.03539939597249031	-0.8168742656707764	0.3209053575992584	-0.1362413614988327	-0.45193392038345337	-0.38341856002807617	-0.19284996390342712	0.04452802985906601	-0.2635965049266815	0.5365943908691406	-0.5148932337760925	0.09532707184553146	-0.4457358419895172	0.2615084946155548	0.20580604672431946
29727222_64395243.xml	0.09116237610578537	-0.2459259331226349	-0.1332729607820511	0.27825430035591125	-0.13857483863830566	-0.8000980019569397	-0.6471329927444458	-0.12168485671281815	0.32949817180633545	-0.13962839543819427	-0.3706762492656708	-0.1715604066848755	0.23420961201190948	-0.06765388697385788	-0.35202425718307495	0.2371850311756134	0.02973911166191101	-0.16340553760528564	0.2127978652715683	-0.8632552623748779	-0.045895226299762726	-0.38619306683540344	0.2466157078742981	0.17601481080055237	-0.046681083738803864	0.10714815557003021	0.01197876874357462	-0.47825127840042114	0.3597702980041504	-0.1272171437740326	0.19928422570228577	0.17642372846603394	-0.19211100041866302	0.4766942262649536	0.10977557301521301	0.11579485982656479	-0.8191593885421753	0.0449209064245224	-0.33723732829093933	-0.03396787494421005	-0.2330121248960495	-0.3263251483440399	0.00999617949128151	-0.31259992718696594	0.34863919019699097	-0.5132038593292236	0.09263359010219574	-0.30562466382980347	0.26388731598854065	0.2578023672103882
29727231_64373931.xml	-0.11343787610530853	0.09229094535112381	-0.21209987998008728	-0.2879977524280548	-0.12775462865829468	0.18735603988170624	-0.025737322866916656	-0.008523926138877869	0.0695301741361618	-0.03345866501331329	-0.030860433354973793	-0.1273268759250641	-0.12487825751304626	0.29737842082977295	-0.3963961899280548	-0.2114158272743225	-0.1666484773159027	-0.09961754828691483	-0.019874056801199913	-0.08700143545866013	0.08596156537532806	0.36964738368988037	-0.013166585005819798	-0.1287529319524765	-0.28132981061935425	0.06179812178015709	0.05742917209863663	-0.0063485954888165	0.3372507691383362	0.01169692911207676	0.03851885721087456	0.3102078437805176	0.13618329167366028	0.23840643465518951	0.026077697053551674	-0.29211562871932983	-0.25810641050338745	0.11927122622728348	-0.21272225677967072	0.17872844636440277	0.17495405673980713	-0.27320218086242676	-0.3680311143398285	0.12846508622169495	-0.011654308065772057	0.147403746843338	0.03540613502264023	0.06878404319286346	-0.108073890209198	0.19370493292808533
29727231_64400789.xml	-0.09639522433280945	0.02002168819308281	-0.005403056275099516	-0.2329012155532837	-0.061247799545526505	-0.08320950716733932	0.16321948170661926	-0.19486182928085327	0.022617507725954056	-0.01998734287917614	0.05107523128390312	-0.11229072511196136	-0.12387318909168243	0.23992221057415009	-0.3470008671283722	-0.26446324586868286	0.04922429472208023	-0.04038074612617493	-0.18061324954032898	0.04619045928120613	-0.09252983331680298	0.14007966220378876	-0.10323501378297806	-0.05889779329299927	-0.10492651164531708	0.09223993867635727	0.26838618516921997	-0.03318633884191513	0.3347237706184387	-0.008271551690995693	0.03093290887773037	0.3358899652957916	0.30820292234420776	0.07582875341176987	-0.0012045495677739382	-0.26127585768699646	-0.27308377623558044	-0.10553951561450958	-0.40722519159317017	0.056920889765024185	0.32083240151405334	-0.1755283623933792	-0.23560267686843872	-0.13211023807525635	-0.16730734705924988	-0.02714291401207447	0.13311199843883514	0.062047626823186874	-0.11189404129981995	0.3337251543998718
29727231_64406120.xml	0.07219822704792023	0.1496611386537552	0.19555644690990448	-0.2264452427625656	-0.14063848555088043	0.2272365391254425	-0.10497067123651505	0.09063534438610077	-0.01812700368463993	0.11486306041479111	0.15768401324748993	0.07083917409181595	-0.2567853033542633	0.5270976424217224	-0.36516115069389343	-0.02714523859322071	0.15317420661449432	0.15726347267627716	-0.16267156600952148	0.12662555277347565	-0.22449126839637756	0.33686351776123047	-0.10369668155908585	-0.003926274366676807	-0.4346102178096771	-0.4036562442779541	0.43454283475875854	0.21579894423484802	0.3919468820095062	0.291276216506958	-0.2944689095020294	-0.09009373188018799	-0.014733565971255302	0.15024912357330322	0.18311984837055206	-0.07483305782079697	-0.137904092669487	0.03518250957131386	0.048892777413129807	0.21203717589378357	0.22084635496139526	-0.21306918561458588	-0.02072814851999283	0.2672780156135559	-0.4638296663761139	-0.1305713653564453	0.057932298630476	-0.008726816624403	0.10221269726753235	0.7620517611503601
29727231_64414670.xml	0.17039181292057037	0.1615470051765442	0.10686813294887543	-0.4268142879009247	-0.11972125619649887	-0.02477036416530609	-0.11848901212215424	-0.15810202062129974	-0.18452681601047516	0.2986495792865753	-0.04715598747134209	-0.15505468845367432	-0.25971031188964844	0.7637312412261963	-0.39717385172843933	-0.0035528596490621567	0.20011600852012634	0.1653372049331665	0.10347311198711395	0.07883664965629578	0.3049253523349762	0.5090450048446655	-0.23363369703292847	0.02906443364918232	-0.4139420986175537	-0.3343393802642822	0.42939066886901855	0.06378152966499329	0.2630123198032379	0.1501319855451584	-0.24696825444698334	-0.15483608841896057	-0.1972063034772873	0.4296160638332367	0.13319115340709686	0.07102206349372864	-0.2373361885547638	0.4681246280670166	-0.06984838843345642	-0.15805184841156006	-0.058020588010549545	-0.19390536844730377	-0.24938705563545227	0.2136300504207611	0.24041318893432617	-0.02325986884534359	0.16016998887062073	-0.09606898576021194	-0.003235336160287261	0.24525177478790283
29727231_64417260.xml	-0.08868732303380966	0.051091745495796204	0.17193058133125305	-0.21853414177894592	-0.012102783657610416	0.16880062222480774	0.3103739321231842	0.24510428309440613	0.05949981138110161	-0.06232441961765289	0.007239175960421562	0.01409503910690546	0.07693769782781601	0.2549501061439514	-0.3349028527736664	0.06806808710098267	0.3502272963523865	0.0896819531917572	0.17932678759098053	0.0381769984960556	0.49334079027175903	0.20729753375053406	0.12933994829654694	-0.5033454298973083	-0.21276283264160156	0.011378777213394642	-0.38902634382247925	0.14156517386436462	-0.0800306424498558	0.16294406354427338	-0.27627643942832947	0.11696261167526245	-0.3072540760040283	-0.09570470452308655	-0.08880981802940369	0.38191646337509155	0.05557319149374962	-0.06912777572870255	0.17627649009227753	0.007863273844122887	-0.22150921821594238	-0.3885849118232727	-1.0053688287734985	0.40974000096321106	-0.06131488457322121	-0.3540520966053009	0.055756695568561554	-0.25439780950546265	0.25272801518440247	0.3123329281806946
29727251_64373892.xml	-0.15507200360298157	0.10056843608617783	-0.05853908509016037	-0.16424936056137085	-0.37987977266311646	0.24990488588809967	-0.0061789914034307	-0.03855258598923683	0.3774396777153015	-0.02679028920829296	-0.12237947434186935	0.049402832984924316	-0.08307499438524246	0.10425952821969986	-0.13574832677841187	-0.28992852568626404	-0.05895496904850006	0.19482849538326263	0.08580467104911804	-0.2104891985654831	0.33150792121887207	0.1312674731016159	0.0048754215240478516	-0.06815049797296524	-0.06787043064832687	0.35837993025779724	-0.10111089050769806	-0.20033244788646698	0.31639769673347473	-0.08544164150953293	0.2465055286884308	0.24777483940124512	0.2208722084760666	0.6330689787864685	-0.0264497809112072	-0.3573603928089142	-0.5945627093315125	0.16661033034324646	-0.4831691384315491	0.13308949768543243	0.15525971353054047	-0.32828593254089355	-0.14797712862491608	0.020151864737272263	0.14519533514976501	-0.29514411091804504	0.12845627963542938	-0.13059982657432556	-0.1859319657087326	0.18372970819473267
29727251_64378083.xml	0.07317925244569778	0.23313157260417938	0.08055699616670609	-0.1591416299343109	-0.18105505406856537	0.1286924183368683	-0.007464355323463678	0.07516678422689438	0.4110056161880493	0.0323285274207592	-0.07966946065425873	0.22405461966991425	-0.27404800057411194	0.34761905670166016	0.1367398202419281	-0.052720434963703156	0.3313868045806885	0.22083963453769684	-0.08473283797502518	0.11740126460790634	-0.1342511624097824	0.06895218044519424	0.22663766145706177	-0.030772242695093155	0.008919763378798962	0.07821287214756012	0.21796727180480957	0.16486218571662903	0.40484389662742615	0.0076623414643108845	0.127794548869133	-0.08403439819812775	-0.047351956367492676	0.6011330485343933	-0.15725044906139374	-0.2513185143470764	-0.8641563057899475	0.2109357863664627	-0.2350272536277771	-0.22945867478847504	0.08207132667303085	-0.059777431190013885	0.27214038372039795	-0.4376377463340759	0.19469383358955383	-0.11182181537151337	0.16853418946266174	-0.3490646481513977	-0.1926017850637436	0.6846194267272949
29727251_64395127.xml	-0.23788237571716309	-0.08293186128139496	0.07569875568151474	0.32968267798423767	0.03938979282975197	0.18952886760234833	-0.19311323761940002	-0.017790058627724648	0.25390326976776123	0.1234673485159874	-0.1801634281873703	-0.13508783280849457	-0.22427904605865479	0.2847723364830017	-0.15265657007694244	-0.1890989989042282	0.02020520716905594	0.17874568700790405	-0.4293963611125946	-0.23353441059589386	0.09542713314294815	0.04073373228311539	-0.15638427436351776	-0.10944229364395142	-0.1629330813884735	0.31311747431755066	-0.0967368558049202	-0.12539343535900116	0.33235791325569153	0.004045951645821333	0.2896558344364166	0.4711989760398865	0.38879868388175964	0.4338221251964569	-0.22760066390037537	-0.2664470374584198	-0.5192997455596924	-0.10505811125040054	-0.6443864703178406	0.2922133803367615	0.4275484085083008	-0.08414694666862488	0.011601190082728863	-0.04377434030175209	-0.021350238472223282	-0.3369804620742798	0.05230560526251793	-0.2185177505016327	-0.22634175419807434	0.3908924162387848
29727251_64410899.xml	-0.031002482399344444	0.0010458123870193958	0.05299381539225578	-0.21639014780521393	-0.33138012886047363	-0.1174299418926239	-0.14114205539226532	-0.3079712986946106	0.21052102744579315	0.251741498708725	-0.10609691590070724	0.04235035553574562	-0.1988232582807541	0.3863542377948761	-0.027167538180947304	-0.10211792588233948	0.1991935670375824	0.40655517578125	-0.015022682957351208	-0.21358945965766907	0.41342127323150635	0.02693803608417511	-0.2577662169933319	-0.09022542834281921	-0.2273772805929184	-0.02671845071017742	0.4948435425758362	-0.1944386065006256	0.13498739898204803	0.1962715983390808	0.23819111287593842	0.07277920842170715	-0.2336888611316681	0.6500627994537354	0.1384733021259308	-0.29176419973373413	-0.6666616797447205	0.1069631576538086	-0.5810651779174805	-0.42615169286727905	0.027616307139396667	-0.1632796972990036	0.16370847821235657	-0.2614620625972748	0.6961297988891602	-0.4020463526248932	0.2714027762413025	-0.30438175797462463	-0.3552249073982239	0.32618650794029236
29727279_64375498.xml	-0.06630396097898483	-0.028822315856814384	-0.15920725464820862	-0.28578561544418335	-0.09884881973266602	0.15400223433971405	0.06655549257993698	-0.022333525121212006	0.10869668424129486	-0.07553882896900177	-0.03900966793298721	0.14756251871585846	-0.10013912618160248	0.06850799918174744	-0.3600750267505646	-0.1286313533782959	-0.036289654672145844	0.0820518434047699	0.15438179671764374	-0.02772442065179348	0.29886332154273987	0.20129214227199554	0.056720536202192307	-0.2400079369544983	-0.07856451719999313	0.05497463047504425	-0.06630964577198029	0.22095412015914917	0.32963699102401733	0.08501756936311722	0.12035197764635086	0.1499800682067871	0.1439582258462906	0.34696102142333984	0.06127086654305458	-0.32726147770881653	-0.47782668471336365	-0.11310726404190063	-0.3147452473640442	0.06702486425638199	0.08654394000768661	-0.19612117111682892	-0.3710130751132965	0.05659424513578415	0.06631272286176682	-0.10867618024349213	0.11764048784971237	0.00946514680981636	-0.20867449045181274	0.06946374475955963
29727279_64384080.xml	0.10111264884471893	0.2390916347503662	-0.06897551566362381	-0.2496761828660965	-0.311897337436676	0.20506857335567474	-0.013072168454527855	-0.21228455007076263	0.23120200634002686	0.035359833389520645	0.1557851880788803	-0.036246031522750854	-0.16960135102272034	0.3104085624217987	-0.2713783085346222	0.17165303230285645	0.08269183337688446	0.15537691116333008	-0.03127423673868179	-0.15687599778175354	0.18121059238910675	0.24137145280838013	-0.16300539672374725	-0.1616535633802414	-0.40300410985946655	-0.26215726137161255	0.5227728486061096	0.0957183763384819	0.25727546215057373	0.16333089768886566	0.1272391378879547	-0.059038855135440826	-0.47088390588760376	0.4588342308998108	0.24072837829589844	-0.47205498814582825	-0.4787488877773285	-0.0422724112868309	-0.06739362329244614	-0.002988683758303523	-0.10071361809968948	0.014122438617050648	0.022917291149497032	-0.10183596611022949	0.07026348263025284	-0.22206604480743408	0.1331513375043869	0.04332038015127182	-0.3497009575366974	0.6104195713996887
29727279_64414380.xml	0.058718714863061905	-0.06840337812900543	-0.15247899293899536	-0.28975626826286316	-0.0012300570961087942	0.14176174998283386	-0.03960089385509491	-0.16733112931251526	-0.10195033252239227	0.13271838426589966	0.2221664935350418	0.12290675938129425	0.13616688549518585	0.39827269315719604	-0.16421616077423096	0.12536899745464325	0.13918456435203552	0.3655298054218292	-0.044788703322410583	-0.19460627436637878	0.26774197816848755	0.4499245584011078	-0.1880669891834259	-0.21872688829898834	-0.3850570023059845	-0.4547862112522125	0.4352165460586548	0.035620544105768204	0.1285160779953003	0.16474057734012604	-0.028096234425902367	-0.1216871589422226	-0.3525320291519165	0.3228432536125183	0.17109525203704834	-0.3077591061592102	-0.4060819149017334	0.058819785714149475	-0.17039750516414642	-0.2910141050815582	0.0974874272942543	0.029358413070440292	-0.33314016461372375	0.2610286474227905	0.4534416198730469	-0.5037339329719543	0.31033313274383545	-0.0972144603729248	-0.14950686693191528	0.8017336130142212
29727285_64375177.xml	0.07969693839550018	0.21711303293704987	-0.0225004181265831	0.21184824407100677	-0.20554864406585693	-0.28905344009399414	0.5317062735557556	0.21813946962356567	-0.2502215802669525	-0.11949441581964493	-0.13902544975280762	-0.03134838864207268	0.08636398613452911	-0.04278165474534035	-0.27091121673583984	0.029042772948741913	0.6261050701141357	-0.5368332862854004	0.382338285446167	-0.3622247576713562	0.2553292512893677	-0.2349214106798172	0.5671361088752747	-0.2995748817920685	-0.09665272384881973	0.5160592198371887	-0.27710816264152527	-0.6187094449996948	-0.3100571632385254	-0.7144403457641602	-0.11749543249607086	0.08170287311077118	0.1385088711977005	-0.05081835016608238	-0.14786387979984283	0.7101010680198669	-0.54129558801651	0.2862846255302429	-0.29796499013900757	-0.08762646466493607	-0.4589840769767761	-0.8744856119155884	-0.7001186013221741	0.24864701926708221	-0.03776891902089119	-0.5756045579910278	0.6054639220237732	-0.11095940321683884	0.28944796323776245	0.02335505746304989
29727285_64379737.xml	0.3860846757888794	0.2696259319782257	0.09866613894701004	0.45170754194259644	-0.1867782175540924	-0.17069821059703827	0.48602473735809326	0.22255711257457733	-0.09564816951751709	-0.043463293462991714	0.04964008554816246	-0.037956878542900085	-0.05556212365627289	-0.16703756153583527	-0.21921609342098236	0.16048581898212433	0.7216360569000244	-0.4332021176815033	0.11351583153009415	-0.2002912014722824	0.30094102025032043	-0.3733026385307312	0.5541191101074219	-0.24859587848186493	0.030754880979657173	0.2651747465133667	-0.35028284788131714	-0.5404000878334045	-0.3598909378051758	-0.7218879461288452	-0.03659150376915932	-0.1730111837387085	0.2745715379714966	-0.023374246433377266	0.018323522061109543	0.3026386797428131	-0.5215452313423157	0.17938464879989624	-0.3331727981567383	-0.24607838690280914	-0.393297404050827	-0.6493040323257446	-0.5892471075057983	-0.018570726737380028	-0.1293211579322815	-0.6614048480987549	0.6695731282234192	-0.11265696585178375	0.07935669273138046	0.33264926075935364
29727285_64392286.xml	-0.10128136724233627	0.23359185457229614	0.31100285053253174	0.06075218319892883	-0.2729540467262268	-0.2481856793165207	0.22583390772342682	0.2935144901275635	-0.3279178738594055	0.34762024879455566	-0.2657252848148346	-0.4463512897491455	0.3798750936985016	0.120042584836483	-0.1801997423171997	-0.20406858623027802	0.6506423354148865	-0.68333500623703	-0.027532463893294334	-0.34941738843917847	0.5978522300720215	-0.1491982638835907	0.26241225004196167	-0.32227104902267456	0.12598365545272827	0.15851174294948578	-0.0706745982170105	-0.8327879309654236	-0.3748956024646759	-1.0198907852172852	0.06138545274734497	0.2231062650680542	-0.0003487869107630104	-0.033837925642728806	-0.511562168598175	0.9041633605957031	-0.24374718964099884	-0.023690739646553993	-0.5939399003982544	0.34218862652778625	-0.1292756348848343	-0.7639971375465393	-0.40224340558052063	-0.04897487163543701	-0.057412032037973404	-0.3640842139720917	0.3075796365737915	-0.4259268343448639	0.34682583808898926	0.18781304359436035
29727285_64409989.xml	0.29430335760116577	0.38080787658691406	-0.2110155075788498	0.23393253982067108	-0.238300159573555	-0.24518199265003204	0.5309328436851501	-0.20188716053962708	-0.05685693770647049	-0.06710049510002136	0.028413482010364532	-0.15654540061950684	0.05578004941344261	0.12952768802642822	-0.32145071029663086	0.15550655126571655	0.8606956005096436	-0.32987576723098755	0.28893864154815674	-0.19646336138248444	0.6253296136856079	-0.3674127757549286	0.1364062875509262	-0.29806360602378845	-0.08758783340454102	0.17281843721866608	-0.05583176389336586	-0.8652880191802979	-0.4318831264972687	-0.8416337370872498	-0.09372325241565704	-0.20841600000858307	-0.2066335529088974	0.11114151030778885	0.05075790360569954	0.19063997268676758	-0.4926047623157501	0.26915234327316284	-0.26228392124176025	-0.37921595573425293	-0.6369484066963196	-0.5281111598014832	-0.5938939452171326	0.1316957324743271	0.17216013371944427	-0.5996156334877014	0.7133000493049622	-0.052666425704956055	-0.09219914674758911	0.10222702473402023
29727310_64373619.xml	0.10228661447763443	0.14419275522232056	-0.1904670000076294	-0.007697818800806999	-0.042219918221235275	-0.0682021975517273	0.27706852555274963	-0.10875207930803299	0.03942415490746498	-0.12676511704921722	0.14792728424072266	-0.22306908667087555	-0.164720356464386	0.1909896582365036	-0.2136790007352829	-0.11119422316551208	0.21862252056598663	-0.03968505188822746	0.03580329567193985	-0.15860089659690857	0.3849450349807739	0.1760605424642563	-0.1944701224565506	-0.15513144433498383	-0.1284460425376892	-0.05759386345744133	0.17010441422462463	-0.23364569246768951	0.07326830923557281	0.17677219212055206	-0.04037034511566162	0.1533481329679489	-0.2652881145477295	0.26414406299591064	-0.18872103095054626	0.1155727431178093	-0.10370159894227982	-0.01710965298116207	-0.09483759105205536	0.14539682865142822	0.07213133573532104	-0.16840121150016785	-0.4226405918598175	0.38453763723373413	-0.09872103482484818	0.21848158538341522	0.17346830666065216	9.652030712459236e-05	-0.11732231825590134	0.41917693614959717
29727310_64377219.xml	0.16584639251232147	0.06557414680719376	0.07140859961509705	-0.26082587242126465	0.02564004808664322	0.09744440019130707	0.2740618586540222	0.05501784756779671	-0.004385022446513176	-0.01968860812485218	0.12129273265600204	-0.1550995111465454	-0.22777068614959717	0.2754424512386322	-0.2388349175453186	0.027184534817934036	0.19272221624851227	-0.1160661056637764	0.11468397080898285	0.020119410008192062	0.17547005414962769	0.20083151757717133	-0.03217555582523346	-0.23171254992485046	-0.073512963950634	-0.1749054193496704	0.1413658857345581	0.02539234608411789	0.08728881180286407	0.15793894231319427	-0.019887782633304596	0.0477876216173172	-0.31494423747062683	0.10910499840974808	-0.12109559774398804	0.2562529146671295	-0.16361799836158752	0.09759403765201569	-0.02176985703408718	0.02706589549779892	0.03370174765586853	-0.1542874425649643	-0.3581218719482422	-0.008217567577958107	-0.05792875960469246	0.24076707661151886	0.0796513557434082	0.017722995951771736	-0.12350219488143921	0.547320544719696
29727310_64387129.xml	0.2707382142543793	0.13626396656036377	0.16252170503139496	0.04789204150438309	-0.1427934318780899	-0.026363614946603775	0.3205639123916626	0.007226636633276939	-0.09209912270307541	0.05066341534256935	0.4952683746814728	-0.4156762361526489	-0.05773159861564636	0.158972829580307	-0.26476770639419556	-0.019148817285895348	0.3020046651363373	0.05191748961806297	0.2011844515800476	-0.0844992846250534	0.6030126810073853	0.2996658682823181	-0.11084795743227005	-0.2543277144432068	-0.5323910713195801	-0.5624554753303528	0.24184007942676544	-0.3084540367126465	-0.12631550431251526	-0.01284443773329258	-0.26110318303108215	-0.3383209705352783	-0.36624759435653687	0.2692478895187378	0.18192853033542633	0.003452097065746784	-0.06286753714084625	-0.05090159550309181	-0.1862758845090866	-0.2283879667520523	0.07225846499204636	-0.17314524948596954	-0.7205142974853516	0.3588196337223053	0.05664405971765518	-0.4147103726863861	0.364543080329895	-0.09287367016077042	-0.17062732577323914	0.3815864324569702
29727310_64396591.xml	0.07682390511035919	-0.14816506206989288	0.07736517488956451	0.018979309126734734	0.03981917351484299	-0.11549380421638489	0.26742807030677795	-0.0005994499661028385	-0.06492645293474197	0.04204793646931648	0.08975241333246231	-0.06223199516534805	-0.07376463711261749	0.20209866762161255	-0.15716607868671417	-0.088954858481884	0.31125354766845703	0.15601502358913422	-0.08242645114660263	-0.05992716923356056	0.1776394546031952	-0.028830446302890778	-0.04773414507508278	-0.22159503400325775	0.06838662922382355	0.18268395960330963	0.12949775159358978	-0.13310372829437256	0.12528401613235474	0.17140284180641174	0.01209975965321064	0.3622252345085144	0.05199076235294342	0.28533974289894104	-0.28601914644241333	0.16039302945137024	-0.3469375669956207	-0.05067283287644386	-0.33072617650032043	0.265535831451416	0.11026556044816971	-0.20998935401439667	-0.2669518291950226	0.226943701505661	-0.0263944361358881	-0.055087611079216	0.18694892525672913	-0.09056748449802399	0.03586440533399582	0.5086894035339355
29727311_64374975.xml	0.045933306217193604	0.014869456179440022	-0.02951241470873356	-0.2679313123226166	-0.1262621283531189	0.13693873584270477	0.4394865930080414	-0.005653941538184881	0.03774720057845116	-0.1706036478281021	0.23605598509311676	-0.26417481899261475	0.005600708536803722	0.21241125464439392	-0.37751245498657227	-0.09194821864366531	-0.05114101991057396	-0.20403128862380981	0.2681734561920166	0.028912927955389023	0.3248341679573059	0.24581260979175568	-0.07024617493152618	-0.032549064606428146	-0.08921048790216446	-0.18595875799655914	-0.00030795930069871247	-0.21373897790908813	0.24609771370887756	0.10810095816850662	-0.08676203340291977	0.10896289348602295	-0.1354278028011322	0.23620757460594177	-0.24465611577033997	0.07525067776441574	-0.022803841158747673	0.18187834322452545	-0.16920529305934906	0.2013460397720337	0.1996822953224182	-0.20458513498306274	-0.3959268629550934	0.32223352789878845	-0.3872429430484772	0.2560482919216156	0.10619272291660309	0.09463346749544144	-0.07678794115781784	0.40448197722435
29727311_64378987.xml	0.3250148892402649	-0.026055678725242615	0.12141083180904388	-0.15773463249206543	0.005455606151372194	-0.05410865694284439	0.18657748401165009	-0.05013206973671913	-0.03990248218178749	-0.10194959491491318	0.1437273621559143	-0.020595530048012733	-0.3296124041080475	0.33049842715263367	-0.1628839522600174	-0.13449378311634064	0.2394517958164215	-0.18918265402317047	0.07753996551036835	0.14112183451652527	0.009654957801103592	0.2004828155040741	-0.08376190811395645	-0.14268633723258972	-0.18308678269386292	-0.4055114984512329	0.3840499818325043	-0.1099051758646965	0.14306150376796722	0.3917219340801239	-0.18912097811698914	-0.23346103727817535	-0.2055174708366394	0.21907749772071838	-0.08788274228572845	0.36147624254226685	-0.2655854821205139	0.045530252158641815	-0.04499826207756996	-0.12577961385250092	0.06278008967638016	-0.1562345176935196	-0.12513074278831482	-0.08913079649209976	-0.12542469799518585	0.2130872756242752	0.2076459378004074	-0.0901208147406578	-0.07810179144144058	0.4605451822280884
29727311_64392882.xml	0.39025965332984924	0.14202946424484253	0.09727557748556137	-0.029215186834335327	-0.04169837012887001	-0.1732427030801773	0.28768178820610046	-0.2943249046802521	0.03575832024216652	-0.03464212641119957	0.08458445221185684	-0.3045199513435364	-0.25371721386909485	0.2914174795150757	-0.44325587153434753	-0.22456258535385132	0.32945874333381653	0.007070992141962051	0.15864631533622742	0.18923451006412506	0.7269169688224792	0.18596132099628448	-0.32677367329597473	-0.11978016048669815	-0.06441423296928406	-0.22906072437763214	0.04609159007668495	-0.29648444056510925	0.18470315635204315	0.19169606268405914	-0.3649049401283264	-0.26595795154571533	-0.1654653400182724	0.42341697216033936	-0.14618143439292908	-0.03137604147195816	-0.07302436232566833	0.20476840436458588	-0.007850528694689274	-0.18762049078941345	-0.00616463553160429	0.05452563613653183	-0.546103835105896	0.49299752712249756	0.09505749493837357	0.2787441909313202	0.43085893988609314	-0.14824408292770386	-0.2426762878894806	-0.012989706359803677
29727311_64397577.xml	0.14734570682048798	-0.02650005929172039	0.2170564830303192	-0.25933536887168884	-0.0670928880572319	-0.2763524353504181	0.33434638381004333	-0.17933541536331177	0.02015397883951664	-0.08737646043300629	0.10163969546556473	-0.3819645643234253	-0.07519354671239853	0.33064234256744385	-0.2517777979373932	-0.3627144396305084	0.344129353761673	-0.17372620105743408	0.07574843615293503	0.12771514058113098	0.2595118582248688	0.1953466385602951	-0.23269234597682953	-0.019822992384433746	0.050445470958948135	-0.15653611719608307	0.1506042778491974	-0.1691361516714096	0.25804585218429565	0.3099448084831238	-0.35188794136047363	-0.014995000325143337	-0.06152511015534401	0.23045514523983002	-0.2882968485355377	0.18740345537662506	-0.10548009723424911	0.2721325755119324	-0.15417838096618652	0.01679821126163006	0.27259400486946106	-0.021260060369968414	-0.020230645313858986	-0.11310501396656036	-0.3249254524707794	0.20067644119262695	0.2385765016078949	-0.25791430473327637	-0.1353672742843628	0.44985607266426086
29727311_64412405.xml	0.1328466683626175	-0.02240084856748581	-0.09618017077445984	0.26251205801963806	-0.19964466989040375	-0.20788221061229706	-0.07184044271707535	-0.2244856357574463	0.027454577386379242	-0.19547921419143677	-0.13077883422374725	-0.09359326958656311	-0.23240849375724792	0.4201523959636688	-0.20270414650440216	-0.19914866983890533	0.36170652508735657	-0.09599626809358597	-0.05318965017795563	-0.3061782717704773	0.4838385283946991	-0.011957874521613121	-0.37497684359550476	-0.06815899163484573	-0.21293915808200836	-0.08322498947381973	0.044014617800712585	-0.4633907377719879	-0.008112373761832714	0.4564262330532074	-0.36584746837615967	-0.09666289389133453	-0.27650490403175354	0.34535205364227295	-0.04262711852788925	0.4198298752307892	0.11629825830459595	0.01792147196829319	-0.024409668520092964	0.11166521906852722	0.013275760225951672	-0.3574284613132477	-0.3875671923160553	0.27586957812309265	-0.1310238391160965	0.25135645270347595	0.2891850769519806	-0.3011614680290222	0.01620105281472206	0.10667962580919266
29727356_64373502.xml	-0.033241961151361465	0.018795009702444077	-0.2888280749320984	-0.13002289831638336	-0.10947895050048828	-0.3041847050189972	0.46670839190483093	0.0403628945350647	0.10160373896360397	-0.4887870252132416	-0.5997215509414673	0.1245085746049881	-0.13086947798728943	0.426512748003006	0.052076809108257294	-0.12908020615577698	-0.13517186045646667	-0.056317038834095	0.036448195576667786	-0.5677847266197205	0.06531916558742523	-0.9958367943763733	0.3325333297252655	-0.04803464561700821	0.41113021969795227	0.3960798382759094	0.2038409411907196	-0.4360353946685791	-0.21085695922374725	-0.262981116771698	-0.2012343555688858	0.5061324238777161	0.4313218295574188	0.23625288903713226	0.21984338760375977	-0.12046609073877335	-0.2379792183637619	0.2043652981519699	-0.28765538334846497	0.030539097264409065	0.27575698494911194	-0.6488126516342163	-0.676542341709137	-0.002298364182934165	-0.14837530255317688	0.2589119076728821	0.12591508030891418	0.24245278537273407	0.12050480395555496	0.41657087206840515
29727356_64378880.xml	0.07706482708454132	-0.017001312226057053	-0.03551090136170387	-0.11068148165941238	-0.22702454030513763	-0.352430522441864	0.25435593724250793	0.009462262503802776	0.19775809347629547	-0.5067448616027832	-0.43157342076301575	0.08722680062055588	-0.09046860784292221	0.38109442591667175	0.16414648294448853	-0.041086990386247635	-0.13763239979743958	-0.18648526072502136	0.052716873586177826	-0.5784176588058472	-0.06008748337626457	-0.8598856925964355	0.24586142599582672	-0.16531041264533997	0.21049095690250397	0.21539944410324097	0.5092109441757202	-0.45890045166015625	-0.2736131250858307	0.09678410738706589	-0.19798962771892548	0.39188575744628906	0.30976471304893494	0.17471864819526672	0.5567038655281067	-0.06733236461877823	-0.3307815194129944	0.09711668640375137	-0.17158232629299164	-0.12330646812915802	0.13031348586082458	-0.616431474685669	-0.4539387822151184	-0.3275436460971832	-0.1220695972442627	0.3010922968387604	0.20963740348815918	0.22346952557563782	0.10696302354335785	0.6476274728775024
29727356_64391329.xml	0.053895920515060425	0.06760752946138382	-0.1711142361164093	-0.10980203002691269	-0.1049998477101326	-0.44029298424720764	0.5092460513114929	-0.008143178187310696	0.1257883459329605	-0.443412721157074	-0.5004904866218567	0.035032033920288086	-0.09512921422719955	0.384820818901062	0.13718146085739136	-0.10111948102712631	0.04970438778400421	-0.017933562397956848	-0.11385097354650497	-0.5106276273727417	-0.11154143512248993	-1.0217418670654297	0.21839666366577148	-0.03977625072002411	0.46039941906929016	0.3654613494873047	0.3900592625141144	-0.43375563621520996	-0.15303368866443634	-0.15451177954673767	-0.1940719187259674	0.5562514066696167	0.4867795705795288	0.1912943571805954	0.23385687172412872	-0.16778065264225006	-0.2774996757507324	0.15691889822483063	-0.24942731857299805	-0.002546135801821947	0.3142475187778473	-0.5217769742012024	-0.47903555631637573	-0.22491228580474854	-0.2746497392654419	0.26886841654777527	0.1856883466243744	0.24555468559265137	0.11545518785715103	0.7241281270980835
29727403_64373748.xml	0.08614275604486465	-0.24160778522491455	-0.44110310077667236	0.2269219607114792	-0.2477499544620514	-0.030362797901034355	-0.27733373641967773	0.1374453902244568	0.21281149983406067	-0.2851155698299408	-0.367143839597702	-0.26295503973960876	0.13964790105819702	0.2389346957206726	-0.36004844307899475	0.09020345658063889	-0.2897416353225708	-0.04510708525776863	-0.5383492112159729	-0.6260960698127747	-0.1882057785987854	0.18793272972106934	0.027893153950572014	-0.3210430443286896	-0.4452272951602936	0.25539401173591614	-0.7489295601844788	-0.3763678967952728	0.4146853983402252	-0.3398192524909973	0.4932258725166321	0.30197665095329285	0.014963292516767979	0.470099538564682	-0.2434568703174591	-0.030982522293925285	-0.38806596398353577	0.2224782109260559	-0.567615270614624	0.16175392270088196	0.14512495696544647	-0.5724653005599976	0.13646316528320312	-0.07759882509708405	-0.4345462918281555	-0.14577269554138184	-0.21684515476226807	-0.005976570304483175	0.2796427011489868	0.11281859874725342
29727403_64377750.xml	0.1729467809200287	-0.23073717951774597	-0.24983735382556915	0.22557203471660614	-0.0958864614367485	-0.2859077453613281	-0.3277232050895691	0.22208474576473236	0.15945422649383545	-0.18903572857379913	-0.4127495586872101	-0.13080115616321564	0.03335876762866974	0.3031699061393738	-0.2896052598953247	0.024138903245329857	-0.1364254206418991	-0.03791866824030876	-0.6153473258018494	-0.6385654211044312	-0.19927000999450684	0.10260162502527237	0.15626366436481476	-0.5962892770767212	-0.4729384481906891	0.37015238404273987	-0.5859839916229248	-0.20378732681274414	0.27737340331077576	-0.14862915873527527	0.40770402550697327	0.2258969098329544	-0.03949067369103432	0.39103829860687256	-0.13793110847473145	0.044138599187135696	-0.560134768486023	0.1454140543937683	-0.5030311942100525	0.031293559819459915	0.05418350547552109	-0.5626360177993774	0.2241959273815155	-0.12952971458435059	-0.03493571653962135	-0.05271955206990242	-0.12401526421308517	-0.1499379724264145	0.08399023860692978	0.1622791290283203
29727403_64385144.xml	0.1139630526304245	-0.18456748127937317	-0.19368349015712738	0.26532796025276184	-0.2007952481508255	-0.22307468950748444	-0.14490897953510284	0.08111914247274399	0.12389986962080002	-0.16501349210739136	-0.3837834298610687	-0.20661364495754242	0.11891914904117584	0.11939264833927155	-0.36455652117729187	0.14360788464546204	-0.049864139407873154	0.05906606465578079	-0.7727271914482117	-0.6028635501861572	-0.2609775960445404	0.0937323272228241	-0.05997665598988533	-0.3525722324848175	-0.31800755858421326	0.42651137709617615	-0.6205788254737854	-0.1403922736644745	0.31020286679267883	-0.18221819400787354	0.39536309242248535	0.3228313624858856	0.09959541261196136	0.5085889101028442	-0.22005769610404968	-0.053205542266368866	-0.4336046576499939	0.019009368494153023	-0.5314769744873047	0.14028242230415344	0.1533939093351364	-0.4302937984466553	0.2960297167301178	-0.29151251912117004	-0.5641412734985352	-0.37894555926322937	-0.14202404022216797	-0.12992744147777557	0.21883252263069153	0.361054390668869
29727403_64390156.xml	-0.16767491400241852	-0.2682717740535736	-0.2965807616710663	0.1515469253063202	0.01879402995109558	0.519263505935669	-0.0028172358870506287	0.20116540789604187	0.3963460624217987	-0.03350946679711342	-0.42508089542388916	0.0037513449788093567	0.10306844860315323	0.29651886224746704	-0.17582401633262634	0.45726102590560913	-0.1640043556690216	-0.08359163999557495	-0.3967425525188446	-0.2825394570827484	-0.11444644629955292	-0.03590413182973862	0.1759309023618698	-0.6124281883239746	-0.34587228298187256	0.22514556348323822	-0.5653846859931946	-0.12533095479011536	0.3438096046447754	-0.14104512333869934	0.34566912055015564	0.8238685131072998	-0.17816300690174103	0.297810435295105	0.05730623006820679	0.061585016548633575	-0.3004995286464691	0.026919567957520485	-0.15773265063762665	0.027529599145054817	-0.09289614856243134	-0.02209881693124771	-0.4199012815952301	-0.2537824213504791	-0.2790015637874603	-0.34465640783309937	0.030769653618335724	-0.18253985047340393	0.28449326753616333	0.22692467272281647
29727403_64403843.xml	-0.03528731316328049	-0.2918691635131836	-0.5455089211463928	0.3073875606060028	-0.1446741670370102	-0.19556023180484772	-0.30103784799575806	-0.021257666870951653	0.16379660367965698	-0.28069570660591125	-0.3838368058204651	-0.07238613814115524	0.24661414325237274	0.40403038263320923	-0.30207496881484985	0.2870699465274811	-0.04539724439382553	0.09347469359636307	-0.5876285433769226	-0.5315013527870178	-0.09681923687458038	0.21085894107818604	-0.07212019711732864	-0.6087902188301086	-0.8006702661514282	-0.09650819003582001	-0.4061727225780487	-0.3820967674255371	0.3763086795806885	-0.13326017558574677	0.3070763349533081	0.12381767481565475	-0.4313948154449463	0.38912978768348694	0.04117180407047272	-0.11867442727088928	-0.47220906615257263	-0.07040045410394669	-0.42860880494117737	-0.2527497112751007	-0.09809396415948868	-0.563094437122345	0.1677960604429245	-0.030073337256908417	-0.06853396445512772	-0.2613261938095093	-0.12777338922023773	-0.1735149621963501	0.11231153458356857	0.026414290070533752
29727479_64374732.xml	0.02601728029549122	0.18989694118499756	-0.3237065076828003	-0.4420863091945648	-0.08761001378297806	0.11170612275600433	0.18719492852687836	-0.13979801535606384	0.2713765501976013	-0.6551542282104492	-0.5843139886856079	0.017666159197688103	-0.27392786741256714	0.5962203145027161	-0.0845809355378151	0.0186967384070158	-0.6248714327812195	-0.16006594896316528	0.07450047135353088	-0.2540545165538788	0.3391769528388977	-0.31795385479927063	0.35260045528411865	-0.2456667721271515	0.00527840293943882	0.0835818350315094	0.13794654607772827	-0.2817594110965729	0.16363756358623505	0.11410121619701385	-0.031849462538957596	-0.06588643044233322	0.1475054770708084	0.46870309114456177	0.1381014883518219	-0.11170272529125214	-0.23613907396793365	-0.12550555169582367	0.015947038307785988	0.21079672873020172	0.4100862443447113	-0.32620251178741455	-0.7277018427848816	0.19469526410102844	-0.14099690318107605	-0.15160146355628967	-0.36613765358924866	0.28916364908218384	0.2586999833583832	-0.0017465639393776655
29727479_64381130.xml	0.20933204889297485	0.297272264957428	0.013917184434831142	-0.3038693964481354	-0.024476908147335052	0.011964363045990467	0.27799713611602783	-0.016007497906684875	0.2758829593658447	-0.49014589190483093	-0.2729083001613617	0.0302229393273592	-0.21137334406375885	0.5840730667114258	0.10138189792633057	0.33961519598960876	-0.40368592739105225	-0.15551775693893433	-0.0655609592795372	-0.10698071867227554	-0.22572262585163116	-0.38972997665405273	0.4201441705226898	-0.11624085158109665	-0.20099790394306183	-0.31303533911705017	0.7295234203338623	-0.07553369551897049	0.20681534707546234	0.24450746178627014	-0.022273149341344833	-0.039594944566488266	0.03506971150636673	0.377227246761322	0.2305551916360855	-0.094938725233078	-0.4930265247821808	-0.2746572494506836	0.04050329700112343	0.16519984602928162	0.3246966600418091	-0.1048119068145752	-0.15117812156677246	-0.10659228265285492	-0.44362562894821167	-0.24366925656795502	-0.25205081701278687	0.41829052567481995	0.13863734900951385	0.8526617288589478
29727479_64391721.xml	0.0821399986743927	0.35487601161003113	-0.12218061834573746	-0.21429458260536194	0.011906045489013195	0.057729572057724	0.36164483428001404	-0.0665072426199913	0.36967527866363525	-0.5346075892448425	-0.4185677468776703	-0.025808535516262054	-0.2591645419597626	0.554826021194458	0.03612227737903595	0.1908637136220932	-0.3111143410205841	-0.0604524090886116	-0.25342825055122375	-0.2311049848794937	-0.09885458648204803	-0.41471561789512634	0.2293410301208496	-0.12245862185955048	-0.010844794102013111	-0.009243638254702091	0.2912748456001282	-0.04263019189238548	0.2177751213312149	0.1678326278924942	0.0542055144906044	0.16107462346553802	0.12442127615213394	0.32604825496673584	-0.04428970068693161	-0.14202222228050232	-0.2765997052192688	-0.35828977823257446	0.07967553287744522	0.416877418756485	0.5215511918067932	-0.038745153695344925	-0.2697605788707733	-0.0880165696144104	-0.6637168526649475	-0.21292857825756073	-0.3866817355155945	0.31554725766181946	-0.004626877140253782	0.8322016596794128
29727479_64408515.xml	0.057525575160980225	-0.009804833680391312	-0.1498481184244156	-0.16625860333442688	0.17693890631198883	-0.14687612652778625	-0.02472342550754547	-0.341320663690567	-0.04311472922563553	-0.29693448543548584	-0.49045616388320923	-0.10067795217037201	-0.2155018299818039	1.15980064868927	-0.13746759295463562	0.409202516078949	-0.20922814309597015	0.07105112075805664	-0.16763736307621002	-0.25356096029281616	0.33985936641693115	-0.49470189213752747	-0.14001956582069397	-0.24700234830379486	-0.30589887499809265	-0.4650125503540039	0.8832592964172363	-0.41940659284591675	0.035491883754730225	0.37356311082839966	-0.16430243849754333	-0.05260647088289261	-0.16136164963245392	0.5055021047592163	0.37400081753730774	-0.09176752716302872	-0.07825972884893417	-0.19559752941131592	-0.20194734632968903	0.13638661801815033	0.4224717617034912	-0.05010582134127617	-0.4372079074382782	0.09261474013328552	0.12447836250066757	-0.3095296621322632	-0.2282181680202484	0.3487175405025482	0.0641351118683815	0.2284296452999115
29727587_64374280.xml	-0.0637502446770668	-0.10299038887023926	-0.22001709043979645	-0.3715496063232422	-0.17706017196178436	0.18684746325016022	0.05571886897087097	0.09302908927202225	0.16556844115257263	-0.15646705031394958	-0.24181506037712097	0.12306012958288193	0.035677470266819	0.3238705098628998	-0.35289666056632996	-0.03018142282962799	-0.28499916195869446	0.0962960422039032	0.13654924929141998	-0.2350723296403885	0.23523004353046417	0.2907946705818176	0.01341761089861393	-0.3163626790046692	-0.13509035110473633	0.10404788702726364	-0.09179335087537766	0.1142997145652771	0.35408535599708557	0.19126377999782562	0.09744444489479065	0.3048431873321533	-0.13867786526679993	0.54385906457901	-0.03501097485423088	-0.1408424824476242	-0.3065417408943176	-0.0273546501994133	-0.18437473475933075	0.18480418622493744	0.046070124953985214	-0.1015823483467102	-0.3799716532230377	0.1287921667098999	0.029380451887845993	-0.0968501940369606	0.024551840499043465	-0.16787175834178925	-0.11376484483480453	0.006647739093750715
29727587_64394947.xml	0.09899352490901947	0.021271828562021255	0.19285690784454346	-0.5452612638473511	-0.3702162802219391	0.03805801644921303	0.013132108375430107	-0.239900603890419	0.24240611493587494	0.07169640064239502	-0.11688313633203506	-0.32586246728897095	0.060756683349609375	0.461604505777359	-0.4541606605052948	0.23004506528377533	-0.32205721735954285	0.08570968359708786	0.34655454754829407	-0.04196646809577942	0.43234920501708984	0.33048108220100403	-0.26725542545318604	-0.021470479667186737	-0.35118117928504944	-0.3893510401248932	0.2288711667060852	0.058806780725717545	0.3871147632598877	0.30845752358436584	-0.050917040556669235	0.11226344853639603	-0.5214810967445374	0.4334978759288788	-0.03891464322805405	-0.15014515817165375	-0.2862108647823334	0.4891941249370575	0.012036426924169064	-0.3088650405406952	-0.25034159421920776	0.09399542957544327	0.10456787049770355	0.3485673666000366	0.03656826168298721	-0.13609488308429718	0.14570708572864532	-0.1284412443637848	-0.07962261140346527	0.323510080575943
29727587_64396374.xml	0.2194952368736267	0.012773288413882256	-0.054725535213947296	-0.2618390917778015	-0.08688518404960632	-0.052139729261398315	0.12701231241226196	0.0041476059705019	0.11221811175346375	-0.09956783801317215	-0.13273870944976807	0.12827259302139282	-0.013335369527339935	0.4407613277435303	-0.1864115446805954	-0.026917729526758194	0.1731887310743332	0.14766719937324524	-0.07973130792379379	0.0250561386346817	-0.12221672385931015	0.17425060272216797	0.03686385974287987	-0.2570941150188446	-0.12180756777524948	0.007277887314558029	0.2144855409860611	0.20865368843078613	0.5457538366317749	0.29724588990211487	-0.06505027413368225	0.20526647567749023	-0.09329603612422943	0.5836573243141174	-0.23034211993217468	-0.13076849281787872	-0.4900493323802948	-0.06635022163391113	0.0023231084924191236	0.17481409013271332	0.07106830179691315	0.10461235046386719	0.0832986831665039	-0.11915664374828339	-0.09149034321308136	-0.20919814705848694	0.12176965177059174	-0.17348717153072357	-0.026838574558496475	0.5046824812889099
29727587_64404504.xml	0.015300391241908073	0.18673807382583618	-0.35415083169937134	-0.22413496673107147	-0.10175900906324387	0.3403233289718628	0.17338648438453674	-0.09836151450872421	0.20461052656173706	0.00420638732612133	-0.013003616593778133	-0.156913623213768	-0.07314053922891617	0.5461352467536926	-0.2936641573905945	0.288017600774765	-0.017319809645414352	0.2317054718732834	-0.1986948549747467	-0.06589657068252563	0.05284326151013374	0.32896390557289124	-0.22394758462905884	-0.11623775959014893	-0.22326533496379852	-0.09688397496938705	0.16186116635799408	0.05330996960401535	0.36251014471054077	-0.0360129214823246	0.12468283623456955	0.377780556678772	-0.34433257579803467	0.5076737999916077	-0.20990359783172607	-0.3007410764694214	-0.271441251039505	-0.012475227937102318	-0.17160317301750183	0.3554457426071167	0.12236659228801727	0.22952915728092194	-0.038196686655282974	0.11734170466661453	-0.3684971332550049	-0.20332154631614685	-0.10596662759780884	-0.015340461395680904	-0.09614521265029907	0.5676944255828857
29727640_64374994.xml	0.23594900965690613	-0.039431143552064896	-0.1846761256456375	-0.22584150731563568	-0.11468242853879929	-0.19196218252182007	0.1617860347032547	0.4453788697719574	-0.09307972341775894	-0.2685999870300293	-0.03773941472172737	-0.14572618901729584	-0.26839715242385864	-0.05498917028307915	-0.3371772766113281	-0.45836013555526733	-0.16655711829662323	-0.12024308741092682	0.1972673386335373	-0.2501813471317291	0.4302968382835388	0.14541354775428772	-0.07030153274536133	-0.10153044760227203	-0.227104052901268	0.051171038299798965	-0.44032472372055054	-0.3353936970233917	-0.24686679244041443	0.21285006403923035	-0.4691215753555298	-0.13031478226184845	0.2291261851787567	0.573998212814331	-0.031662456691265106	0.10887206345796585	-0.05129599943757057	-0.08097625523805618	-0.30209389328956604	-0.022615548223257065	0.24195244908332825	-0.36440879106521606	-0.9366560578346252	0.36709266901016235	0.04395798221230507	0.09777425974607468	0.26454058289527893	-0.2931073307991028	-0.09959600865840912	-0.42417916655540466
29727640_64380702.xml	0.4550268054008484	0.05218501016497612	0.1473456174135208	-0.22253045439720154	-0.18728764355182648	-0.07859039306640625	0.07613205164670944	0.4962313175201416	-0.10024324059486389	-0.18395240604877472	0.1738823801279068	-0.05213995650410652	-0.43776634335517883	0.044699233025312424	-0.23086896538734436	-0.29423385858535767	0.09212160855531693	-0.07577507942914963	0.14087162911891937	-0.08492898941040039	0.01415865309536457	0.15306314826011658	-0.1100362241268158	-0.09542509913444519	-0.34449735283851624	-0.32634955644607544	0.13418781757354736	-0.22229981422424316	-0.17223796248435974	0.48160243034362793	-0.5678756833076477	-0.48210424184799194	-0.07217900454998016	0.6042829155921936	0.20006418228149414	0.17966875433921814	-0.17921245098114014	-0.0878763273358345	-0.021419594064354897	-0.2416796088218689	0.18709084391593933	-0.20853549242019653	-0.4033452272415161	0.06425241380929947	-0.05997807905077934	-0.01243596337735653	0.3542743921279907	-0.3506055474281311	-0.12954986095428467	0.11216611415147781
29727640_64397344.xml	0.29053598642349243	-0.17097268998622894	0.10562218725681305	-0.15049968659877777	-0.17204895615577698	-0.3823532164096832	0.12628909945487976	0.5031192898750305	-0.0928405150771141	-0.11368094384670258	0.16794852912425995	-0.2514350414276123	-0.23492057621479034	-0.14786267280578613	-0.08853156119585037	-0.4390324354171753	0.05473710596561432	0.03759348392486572	0.048673197627067566	-0.34998103976249695	0.19894976913928986	-0.003310516709461808	-0.20759785175323486	-0.05139661207795143	-0.22488097846508026	-0.0911618247628212	0.03864361718297005	-0.30217039585113525	-0.35387539863586426	0.4928763210773468	-0.4532710313796997	-0.0013145344564691186	0.1720423698425293	0.46536263823509216	0.06698355823755264	0.07350067049264908	-0.15727226436138153	-0.17672835290431976	-0.3901219964027405	-0.0008689815877005458	0.37075990438461304	-0.3018063008785248	-0.42071154713630676	0.010892014019191265	-0.10061343759298325	-0.036499734967947006	0.35758131742477417	-0.36063864827156067	-0.20313307642936707	0.23232755064964294
29727651_64373963.xml	0.2348550707101822	-0.1000891849398613	-0.040086887776851654	-0.4556160569190979	0.05384159833192825	-0.12358850240707397	-0.06363419443368912	0.13303276896476746	0.23449242115020752	-0.3908369839191437	0.07941184937953949	-0.2909301519393921	-0.5741857290267944	-0.05406118556857109	-0.031860727816820145	-0.1827019453048706	-0.25913769006729126	0.11276225000619888	0.512930691242218	-0.35175302624702454	-0.30860230326652527	-0.1197972372174263	0.18092578649520874	0.18641053140163422	0.0032422675285488367	-0.09751882404088974	-0.14251555502414703	-0.2453860193490982	0.3352094292640686	-0.07666772603988647	-0.17179538309574127	-0.2072499692440033	0.07751493901014328	0.43533045053482056	-0.34225597977638245	-0.19853948056697845	-0.9050431847572327	-0.3685811758041382	-0.25924551486968994	0.7722693681716919	0.4493233859539032	-0.09269899874925613	-0.29309526085853577	-0.18152564764022827	0.015494721941649914	-0.32240521907806396	-0.3870760202407837	0.13414746522903442	0.01501692645251751	0.08598820865154266
29727651_64381963.xml	0.2797742486000061	-0.2700671851634979	0.13905802369117737	-0.5775774717330933	0.4596743881702423	-0.23581938445568085	-0.112666554749012	0.3745541274547577	0.2510649561882019	-0.0753844678401947	-0.04808478057384491	-0.19704940915107727	-0.8155826926231384	0.1418808400630951	0.048608653247356415	-0.07169469445943832	-0.06551023572683334	0.24387595057487488	0.49035295844078064	-0.06045658513903618	-0.3735782206058502	-0.2817375361919403	0.25833529233932495	0.007740505039691925	0.1183696910738945	-0.4472193717956543	-0.07138986885547638	0.008822409436106682	0.16003520786762238	0.09040947258472443	-0.06716537475585938	-0.14972664415836334	-0.19224613904953003	0.29520711302757263	-0.3676943778991699	-0.06650403887033463	-1.1140027046203613	-0.1573602706193924	-0.26144522428512573	0.2365429401397705	0.41502201557159424	0.12322691082954407	-0.18471300601959229	-0.6401299834251404	0.6204939484596252	-0.05800141021609306	-0.4903879761695862	-0.11331449449062347	-0.2705645263195038	0.22821809351444244
29727651_64390088.xml	0.16818909347057343	-0.3903261721134186	-0.03684031218290329	-0.4950549602508545	0.2811432480812073	-0.26533445715904236	-0.0167540293186903	0.1826661229133606	0.2032196819782257	-0.1837151050567627	0.11369767040014267	-0.35090306401252747	-0.622205913066864	0.1233157366514206	0.10217438638210297	-0.19398579001426697	-0.14251327514648438	0.3156915009021759	0.4127511978149414	-0.20196479558944702	-0.2401382178068161	-0.2727939784526825	0.15581953525543213	0.20719732344150543	0.18376444280147552	-0.25330251455307007	0.02658385969698429	-0.26749852299690247	0.25917404890060425	0.021563025191426277	-0.1765662133693695	0.05224093422293663	0.021319501101970673	0.36410561203956604	-0.4388059079647064	-0.2717079222202301	-0.9498132467269897	-0.2688552737236023	-0.4866220951080322	0.6565662622451782	0.5481687188148499	-0.033007096499204636	-0.19723716378211975	-0.39375215768814087	0.24277038872241974	-0.07397166639566422	-0.45709243416786194	-0.0498751699924469	-0.11295042932033539	0.2686905860900879
29727651_64403668.xml	0.048194024711847305	-0.20867854356765747	0.15914367139339447	-0.35545191168785095	0.21025358140468597	-0.3456529676914215	-0.08119257539510727	0.18144123256206512	0.28603726625442505	-0.4392458200454712	-0.03765184059739113	-0.42688608169555664	-0.3826245367527008	-0.00447665574029088	0.12738825380802155	-0.36104318499565125	-0.12413965165615082	0.10571055114269257	0.6138092279434204	-0.35640057921409607	0.13405299186706543	0.0018056489061564207	0.3391968309879303	-0.2559496760368347	-0.17302249372005463	-0.004438623320311308	-0.4802633821964264	-0.29482290148735046	0.04492144659161568	0.0919918343424797	-0.28684213757514954	-0.01949579268693924	-0.07941196858882904	0.25862595438957214	-0.3620951175689697	0.012420649640262127	-0.7591546773910522	-0.42827108502388	-0.017380395904183388	0.5053360462188721	0.25372108817100525	-0.1444835066795349	-0.7928940653800964	-0.26100677251815796	0.5303623676300049	-0.4823257029056549	-0.39782336354255676	-0.30308952927589417	0.0021159371826797724	-0.14190533757209778
29727669_64374043.xml	0.01360552478581667	-0.05533283203840256	-0.42725974321365356	-0.6909635663032532	-0.13633833825588226	0.2863389551639557	0.0301361046731472	-0.4066140949726105	0.07580485939979553	-0.2591559886932373	-0.06160036846995354	0.27112165093421936	0.09304986149072647	0.1589481234550476	-0.42299628257751465	0.11780903488397598	-0.29422271251678467	0.09749151021242142	-0.09020867198705673	-0.31665071845054626	0.27062273025512695	0.42954525351524353	-0.18981657922267914	-0.22957009077072144	0.016386328265070915	-0.024068811908364296	0.07823929190635681	0.1713702380657196	0.40594983100891113	0.23115381598472595	0.17738786339759827	-0.0736604854464531	-0.45210614800453186	0.31115880608558655	-0.009403765201568604	-0.39902421832084656	-0.2846600115299225	-0.0031864671036601067	0.05115772783756256	0.0948307141661644	0.14493753015995026	0.16218554973602295	-0.1365898847579956	0.28702449798583984	0.0028273528441786766	-0.2922934591770172	0.027608467265963554	0.07585334777832031	-0.05610678344964981	0.5830084085464478
29727669_64379202.xml	0.27433517575263977	0.10844210535287857	-0.15673479437828064	-0.3582684397697449	-0.02943989261984825	0.012564864940941334	0.09334664791822433	0.06292260438203812	0.12514467537403107	-0.11454328149557114	-0.045575350522994995	0.16542962193489075	-0.06695432215929031	0.4790402948856354	-0.16877958178520203	0.08100229501724243	0.06786659359931946	0.030126895755529404	-0.08043531328439713	0.1340581476688385	-0.29515811800956726	0.29705557227134705	0.15108658373355865	-0.26410529017448425	-0.20488350093364716	-0.13127341866493225	0.32568037509918213	0.3030262887477875	0.5886204242706299	0.24610646069049835	-0.11702261865139008	0.09758692979812622	-0.17414911091327667	0.5585583448410034	-0.13172170519828796	-0.20913848280906677	-0.600192666053772	-0.11649768799543381	0.08791425824165344	0.096139095723629	-0.020362725481390953	0.17517291009426117	0.09946703910827637	-0.1505175232887268	-0.11477833241224289	-0.0549362450838089	0.15206296741962433	-0.1288919746875763	-0.0530906617641449	0.5464711785316467
29727669_64383259.xml	0.11548757553100586	-0.02079070173203945	-0.10750091820955276	-0.337923139333725	-0.15118098258972168	-0.10708470642566681	0.19502297043800354	-0.03133823722600937	0.07819877564907074	-0.12377747893333435	-0.09497178345918655	-0.07584468275308609	-0.05250370502471924	0.2956073582172394	-0.22763049602508545	-0.14022083580493927	-0.15062551200389862	0.1648494452238083	-0.12001694738864899	-0.1537168323993683	0.05819492042064667	0.16228066384792328	0.13596835732460022	-0.22169546782970428	-0.09929002076387405	0.1899115890264511	0.14645148813724518	-0.10749213397502899	0.36076775193214417	0.08350849896669388	0.08594419062137604	0.3297159969806671	0.09236518293619156	0.4460477828979492	-0.06636849790811539	-0.19361211359500885	-0.2815311551094055	-0.06064942106604576	-0.25519371032714844	0.09928175061941147	0.2234904021024704	-0.042344316840171814	-0.21572962403297424	0.10684845596551895	-0.019769882783293724	-0.28591272234916687	0.09009752422571182	-0.13341103494167328	0.0350891537964344	0.25637903809547424
29727669_64400367.xml	0.0802922174334526	0.0634748637676239	-0.31664860248565674	-0.3012333810329437	-0.13459640741348267	-0.15610837936401367	0.10347086936235428	-0.13051928579807281	0.0780387818813324	-0.06937340646982193	-0.07409163564443588	-0.025337878614664078	0.09591422230005264	0.7277070879936218	-0.09987625479698181	0.06009065732359886	0.27698394656181335	0.23144550621509552	-0.019625503569841385	-0.0136066609993577	0.18397438526153564	0.4422912299633026	-0.12376481294631958	-0.33376505970954895	-0.5320788621902466	-0.38088303804397583	0.37689322233200073	0.06606433540582657	0.3014484941959381	0.27921146154403687	-0.26585349440574646	-0.0049199750646948814	-0.5595664978027344	0.5969164967536926	-0.1468553990125656	-0.14488551020622253	-0.2674596607685089	-0.04565180093050003	0.0351242795586586	-0.2328515201807022	-0.017223559319972992	0.1642308086156845	-0.2099246382713318	-0.015726031735539436	0.2744044065475464	-0.4570586085319519	0.21079285442829132	-0.41344594955444336	-0.01441031601279974	0.3170202076435089
29727690_64374544.xml	0.04693840071558952	0.33708223700523376	-0.46310678124427795	0.55032879114151	-0.4171812832355499	-0.09754762798547745	-0.08902329951524734	0.00668990146368742	0.3715135455131531	-0.3620644509792328	0.13758531212806702	-0.26671528816223145	-0.048568084836006165	-0.12924602627754211	-0.24565650522708893	0.12885572016239166	0.16002050042152405	-0.19000433385372162	-0.05670034512877464	-0.4202013611793518	0.11208680272102356	-0.536037802696228	0.05090207979083061	0.2122982293367386	0.10201925784349442	-0.06379755586385727	0.05145679786801338	-0.16929346323013306	0.19742299616336823	-0.09313784539699554	-0.12934431433677673	0.05292327702045441	0.30947497487068176	0.34340864419937134	0.2507372200489044	-0.3983193039894104	-0.6336762309074402	0.17916540801525116	-0.2669166624546051	0.2840043604373932	-0.13927409052848816	-0.42547807097435	-0.35558822751045227	-0.06073163449764252	-0.19763213396072388	0.11091289669275284	0.28425106406211853	-0.00033375233761034906	0.3488735258579254	0.2648012638092041
29727690_64377832.xml	0.09078268706798553	0.23742084205150604	-0.36650168895721436	0.28991952538490295	-0.14098499715328217	-0.1759132742881775	-0.29847612977027893	0.2331317514181137	0.20426158607006073	-0.28090327978134155	-0.27803000807762146	-0.17505140602588654	-0.13035131990909576	0.26776549220085144	-0.13397157192230225	0.2560298442840576	0.3443962037563324	-0.2669495940208435	-0.04244674742221832	-0.24205510318279266	-0.3270527124404907	-0.5107842683792114	0.19719552993774414	0.1260557919740677	0.1986541748046875	-0.07187134772539139	0.23324255645275116	0.13734854757785797	0.2204515039920807	0.08270077407360077	-0.3293290138244629	0.07402540743350983	0.27067509293556213	0.2551499009132385	0.15461395680904388	0.07055480778217316	-0.7577194571495056	0.4759432375431061	-0.055890463292598724	0.18731296062469482	-0.11431249976158142	-0.3165701627731323	-0.1076987236738205	-0.412374883890152	-0.05742419883608818	0.16960762441158295	0.15923120081424713	-0.10932984203100204	0.5256191492080688	0.5165280699729919
29727690_64392818.xml	-0.1542830765247345	0.15908031165599823	-0.21876542270183563	0.817172110080719	-0.13008777797222137	0.11259588599205017	-0.12566429376602173	0.22392599284648895	0.3444705903530121	-0.1796826869249344	0.112108513712883	-0.3999345302581787	0.09873450547456741	0.29803189635276794	-0.29552948474884033	0.43065351247787476	0.115766242146492	-0.12380154430866241	0.059702951461076736	-0.2996283769607544	0.14748267829418182	-0.48250141739845276	0.01133725605905056	0.17084379494190216	-0.04459194466471672	-0.4511256217956543	0.21859824657440186	-0.3702506422996521	0.19911378622055054	-0.0681133046746254	-0.2278115153312683	0.09429746121168137	0.2004656344652176	0.27625930309295654	0.3417365550994873	-0.04512251913547516	-0.5063316226005554	0.3778602182865143	-0.42931264638900757	0.2275468409061432	0.04018902778625488	-0.3444742262363434	-0.4585682153701782	0.038318440318107605	-0.042321544140577316	-0.03263581916689873	0.14383165538311005	-0.16138677299022675	0.3560549020767212	0.23990444839000702
29727690_64397063.xml	-0.017099063843488693	0.2545875608921051	-0.4336399435997009	0.36042478680610657	-0.3016263544559479	-0.15695075690746307	-0.21935580670833588	0.16321782767772675	0.24151243269443512	-0.4520156681537628	-0.30421245098114014	-0.28092244267463684	-0.09497769922018051	-0.08445288240909576	-0.32750406861305237	0.1293657273054123	-0.08059346675872803	-0.3995043635368347	0.07545919716358185	-0.5637006759643555	-0.07433343678712845	-0.4639267921447754	0.258274644613266	0.05519022047519684	0.12078943103551865	0.05500862002372742	-0.025885488837957382	-0.0774071142077446	0.2664530873298645	-0.1117190271615982	-0.17488504946231842	0.08831572532653809	0.2828410863876343	0.3713918924331665	0.29503172636032104	0.06803291290998459	-0.5739951729774475	0.42013999819755554	-0.12853334844112396	0.19495123624801636	-0.08520032465457916	-0.5270663499832153	-0.46737584471702576	-0.09234672784805298	-0.01133243553340435	0.16043715178966522	0.09659883379936218	0.006132783833891153	0.5870084762573242	-0.019140511751174927
29727758_64373671.xml	0.0956592783331871	0.022155005484819412	-0.2782423496246338	-0.09854535013437271	-0.07975638657808304	-0.035486143082380295	0.3301137089729309	-0.1646748185157776	0.03689119219779968	-0.18733836710453033	0.28890085220336914	-0.21529042720794678	-0.1172873005270958	0.08523495495319366	-0.31525278091430664	-0.09847325831651688	0.15785986185073853	-0.06272082775831223	0.16465424001216888	-0.10120546817779541	0.524281919002533	0.14697524905204773	-0.18997253477573395	-0.09218898415565491	-0.08468195050954819	-0.24480076134204865	0.08099117875099182	-0.14230342209339142	0.1333683878183365	0.16127564013004303	-0.020310301333665848	-0.06827709823846817	-0.22601068019866943	0.312194287776947	-0.138991117477417	-0.13231897354125977	-0.13109147548675537	-0.11583132296800613	-0.26426345109939575	0.09113874286413193	0.24050088226795197	-0.11708264797925949	-0.460601270198822	0.17074255645275116	-0.17598430812358856	0.1530229151248932	0.16647788882255554	0.044834036380052567	-0.23844896256923676	0.25108781456947327
29727758_64378470.xml	0.32625722885131836	-0.11206758767366409	0.09371282160282135	-0.12148940563201904	0.2721230983734131	0.07821118086576462	0.39344269037246704	-0.0497102215886116	-0.08643405884504318	-0.04508247599005699	0.31730350852012634	0.22767670452594757	-0.08773694187402725	-0.07807634025812149	-0.22273455560207367	0.1172335222363472	0.22491832077503204	-0.017511336132884026	0.07131291925907135	-0.017496025189757347	0.24551762640476227	0.10100816935300827	-0.011003576219081879	-0.17804385721683502	0.14434093236923218	-0.37430891394615173	0.10999342799186707	0.25457966327667236	0.13803091645240784	0.31067606806755066	0.04964657872915268	-0.24891701340675354	-0.21794284880161285	0.14153937995433807	-0.17427627742290497	0.18183067440986633	-0.35004863142967224	-0.10783059895038605	-0.09057164937257767	-0.06304831057786942	0.20208323001861572	-0.02618374302983284	-0.45119768381118774	0.1543353945016861	0.000947831547819078	0.13727828860282898	0.2199397087097168	0.12842972576618195	-0.270082026720047	0.9598268866539001
29727279_64402094.xml	0.10989231616258621	0.04476180300116539	0.022869840264320374	0.05455977842211723	-0.019314667209982872	0.04128163680434227	0.1371210366487503	0.0138815026730299	0.19310052692890167	0.0005851503228768706	-0.007294462062418461	0.07837256789207458	-0.11344920098781586	0.07668677717447281	-0.23622097074985504	-0.053667034953832626	0.07820238173007965	0.1125914454460144	-0.17085199058055878	-0.04758836328983307	0.03075709007680416	0.04386422410607338	-0.003969167359173298	-0.2883650064468384	-0.11808615177869797	0.06676886230707169	0.06229110434651375	0.20113183557987213	0.3391433656215668	0.15856130421161652	0.18979187309741974	0.2274976223707199	0.14126743376255035	0.39410826563835144	-0.07048941403627396	-0.2716081738471985	-0.4805237650871277	-0.26562929153442383	-0.23149622976779938	0.120710588991642	0.17349912226200104	-0.021823545917868614	-0.17597101628780365	-0.0908978134393692	-0.037825748324394226	-0.1724359095096588	0.1322677731513977	-0.026349805295467377	-0.276015043258667	0.453172892332077
29727356_64385377.xml	-0.2151494026184082	0.06379435211420059	-0.36405742168426514	-0.18881095945835114	-0.16688907146453857	-0.32032373547554016	0.47747769951820374	-0.16982418298721313	0.13772010803222656	-0.5525578260421753	-0.35125458240509033	-0.12539443373680115	0.021710269153118134	0.6358405351638794	0.23529961705207825	0.13368681073188782	0.1119767352938652	-0.011907261796295643	0.16726961731910706	-0.5809064507484436	0.17773666977882385	-0.8346261382102966	0.13701622188091278	-0.3127964437007904	-0.12097696214914322	-0.07126089930534363	0.6216889023780823	-0.5998852252960205	-0.439853698015213	-0.19863644242286682	-0.3127928674221039	0.39211347699165344	-0.1595049798488617	0.04421396926045418	0.43353986740112305	-0.3273751735687256	-0.1847897619009018	0.1855214238166809	-0.060559239238500595	-0.43045246601104736	0.12279588729143143	-0.4217170476913452	-0.6675728559494019	-0.08641065657138824	0.03201507776975632	-0.034279003739356995	0.20546850562095642	0.2565167248249054	0.21209023892879486	0.523525595664978
29727640_64387715.xml	0.4136996567249298	-0.06668063253164291	0.15474385023117065	-0.21698123216629028	-0.08644670993089676	-0.10368987917900085	0.09929833561182022	0.5332145094871521	-0.15347950160503387	0.035152703523635864	0.18442393839359283	-0.1537560671567917	-0.250379353761673	0.18370136618614197	-0.15424774587154388	-0.19160357117652893	0.13378550112247467	0.02397141605615616	0.16288328170776367	-0.10932087153196335	0.20231834053993225	0.14245262742042542	-0.10178688168525696	-0.11807269603013992	-0.3480583727359772	-0.1711999624967575	-0.032111626118421555	-0.32289984822273254	-0.36215654015541077	0.2336953580379486	-0.4906674027442932	-0.12404000759124756	0.016190364956855774	0.5763144493103027	0.025753870606422424	0.18987590074539185	-0.23992936313152313	-0.0053078713826835155	-0.2441091388463974	-0.037634339183568954	0.047832075506448746	-0.2958545386791229	-0.627018928527832	0.13623163104057312	0.18130408227443695	0.037763986736536026	0.32158753275871277	-0.18279477953910828	-0.12817275524139404	0.14867039024829865
29727758_64387892.xml	0.25424623489379883	0.06749122589826584	0.03799721226096153	0.10856898874044418	-0.015446469187736511	0.09798973053693771	0.4745478928089142	-0.023958329111337662	0.06286294758319855	0.004393791314214468	0.41032490134239197	-0.1354040801525116	-0.2172141671180725	-0.045168448239564896	-0.20040768384933472	-0.16645419597625732	0.40515249967575073	0.12600325047969818	-0.018891658633947372	0.19262337684631348	0.23070654273033142	0.007891878485679626	-0.10306078940629959	-0.035765640437603	0.03573295846581459	-0.1456800103187561	0.1510857492685318	-0.07446771115064621	0.10850714892148972	-0.003538877470418811	-0.027551183477044106	0.11324972659349442	0.2568127512931824	0.246839240193367	-0.15345948934555054	-0.22860048711299896	-0.31986671686172485	-0.1297001987695694	-0.44209152460098267	0.2279766947031021	0.27069127559661865	-0.13674788177013397	-0.408271849155426	0.13937658071517944	-0.2980089485645294	0.12396454811096191	0.24583087861537933	0.16576172411441803	-0.30113503336906433	0.7169435620307922
29727919_64384435.xml	0.18631501495838165	-0.34374332427978516	-0.07179199904203415	0.14026066660881042	-0.06257244199514389	-0.15199871361255646	0.025478264316916466	-0.2462134212255478	0.01651175320148468	-0.07657396048307419	0.19683149456977844	-0.5836325883865356	0.04189389571547508	0.23651324212551117	-0.3434123396873474	0.012696522288024426	0.19294211268424988	0.003781207837164402	0.030819186940789223	-0.17674541473388672	0.5758745074272156	0.1447448581457138	-0.046059854328632355	-0.5580095052719116	-0.5484084486961365	-0.4293860197067261	0.14577798545360565	-0.45053356885910034	0.07851720601320267	0.09322793036699295	0.06875991076231003	0.14125682413578033	-0.26904818415641785	0.1988241821527481	0.0987398624420166	-0.3933207392692566	-0.1531732827425003	0.021673591807484627	-0.2893315255641937	-0.1106448695063591	0.22732095420360565	0.08019023388624191	-0.2611529529094696	0.0710684210062027	0.1791333258152008	-0.6771999597549438	0.15301677584648132	0.03556579351425171	-0.04334951564669609	0.3184562027454376
29728251_64381405.xml	0.38818883895874023	0.21175895631313324	-0.07496459037065506	-0.24877014756202698	-0.14085742831230164	0.05871915444731712	0.3877374827861786	-0.4097786247730255	-0.0030016314703971148	-0.25935098528862	0.3346167206764221	-0.23867060244083405	-0.3201231360435486	0.3559533953666687	-0.07737141847610474	0.1001628041267395	0.044595833867788315	-0.014687445014715195	0.2386743724346161	-0.02545291744172573	0.2825382947921753	0.06991945952177048	0.04518886283040047	-0.008083050139248371	-0.4283045530319214	-0.6160872578620911	0.6808598041534424	-0.33801183104515076	0.2929016649723053	0.21312843263149261	-0.05838944762945175	-0.22874683141708374	-0.4708976149559021	0.45257189869880676	0.1647903472185135	-0.14635758101940155	-0.18979445099830627	-0.291973352432251	-0.02063710242509842	0.03989039734005928	0.20932061970233917	-0.03408682346343994	-0.21431919932365417	0.15799260139465332	-0.21708466112613678	-0.03287004679441452	0.07886834442615509	0.4519076943397522	-0.29665786027908325	0.7221401333808899
29728379_64379994.xml	0.1068066656589508	-0.021715791895985603	0.08302582055330276	-0.26952430605888367	0.04712813347578049	-0.11583267897367477	0.33556485176086426	-0.023498831316828728	-0.009694855660200119	0.07636399567127228	0.027684291824698448	-0.0641598254442215	-0.15799404680728912	0.3610721528530121	-0.1544271558523178	-0.02301471307873726	-0.0224586334079504	0.009567821398377419	-0.16984711587429047	0.0012157781748101115	-0.06514943391084671	0.1974053829908371	0.03909455984830856	-0.3025437295436859	0.04690811410546303	0.17409706115722656	0.20824094116687775	-0.015148172155022621	0.08339902758598328	0.019928699359297752	0.11393595486879349	0.4267990291118622	0.1003553718328476	0.17518459260463715	-0.21959446370601654	0.08534398674964905	-0.504977822303772	-0.04081811010837555	-0.46735137701034546	0.09805838018655777	0.0606410950422287	0.04781528189778328	-0.09313642233610153	-0.15154099464416504	0.14001840353012085	-0.0825127512216568	0.18939699232578278	-0.31942299008369446	-0.1358305811882019	0.38552507758140564
29728837_64377247.xml	0.15917858481407166	0.24534092843532562	-0.2399131953716278	0.041886795312166214	-0.2345871925354004	-0.2029755711555481	-0.11534623801708221	-0.08611530065536499	0.07223493605852127	-0.24720756709575653	-0.3325236141681671	0.21067506074905396	-0.149093359708786	0.10188013315200806	-0.34948989748954773	0.07067517191171646	0.11655065417289734	0.21114031970500946	-0.5077923536300659	-0.4241076111793518	-0.06916946917772293	-0.03020627051591873	0.05481709912419319	-0.5671259164810181	-0.37781479954719543	0.40271398425102234	-0.4055948853492737	0.019172651693224907	0.17154307663440704	-0.0060617378912866116	0.19437678158283234	-0.1494346708059311	-0.3277241885662079	0.4339088499546051	-0.05378564074635506	-0.06840796768665314	-0.5967655777931213	-0.16780592501163483	-0.02099204622209072	-0.1895751953125	-0.3808072507381439	-0.3517811894416809	0.13833869993686676	0.20609742403030396	0.17053766548633575	-0.3083602786064148	0.044725481420755386	-0.22335073351860046	0.04850643500685692	0.1563684344291687
29729008_64378360.xml	0.03848041221499443	-0.1678777039051056	-0.35877206921577454	-0.30093681812286377	0.13946078717708588	-0.2332826405763626	0.25518476963043213	-0.3827577531337738	-0.2351026087999344	-0.10344831645488739	0.23000507056713104	-0.005964975338429213	0.16141195595264435	0.16168053448200226	-0.386813223361969	-0.04152724891901016	-0.01818230003118515	-0.2968953251838684	0.20950481295585632	-0.24290798604488373	0.4631747603416443	0.35821205377578735	-0.30353477597236633	-0.020055726170539856	-0.005319506395608187	-0.3290591537952423	0.2845268249511719	-0.20308645069599152	0.20014485716819763	0.07116197794675827	-0.007584104314446449	-0.17336535453796387	-0.2466220110654831	0.0659061148762703	-0.2434316724538803	0.20468035340309143	-0.2868051826953888	-0.013329674489796162	-0.3491778075695038	0.014885306358337402	0.21905609965324402	-0.2610240578651428	-0.4336782693862915	0.46974658966064453	-0.042721230536699295	0.21332699060440063	0.31997421383857727	0.1593976765871048	-0.12278369814157486	0.33987122774124146
29729211_64405149.xml	0.12492562085390091	0.11586179584264755	-0.024313248693943024	-0.1986263543367386	-0.09583768993616104	-0.09768173098564148	0.304607093334198	-0.1837707906961441	-0.1642889678478241	0.0013492313446477056	0.253829687833786	-0.466085821390152	-0.022534435614943504	0.44761982560157776	-0.20930790901184082	0.009413066320121288	0.2137516736984253	-0.13187412917613983	0.23042812943458557	-0.16664597392082214	0.4511882960796356	0.4048023521900177	-0.2594558000564575	-0.14341986179351807	-0.47131550312042236	-0.43842756748199463	0.4251616299152374	-0.3491688072681427	-0.11911045014858246	-0.05065913870930672	-0.25758257508277893	-0.09575158357620239	-0.466474711894989	0.15614578127861023	-0.018357601016759872	0.23751340806484222	-0.0894041508436203	0.049960680305957794	-0.15338988602161407	-0.0868808850646019	-0.04505772516131401	-0.24532602727413177	-0.5302688479423523	0.2929558753967285	-0.051425572484731674	-0.13968922197818756	0.2418076992034912	-0.012368720024824142	-0.07811395823955536	0.3476778566837311
29729517_64385152.xml	0.07260052859783173	-0.02600524015724659	-0.21589148044586182	-0.3773224651813507	0.04737411439418793	0.04671434685587883	0.3669206202030182	-0.0013274451484903693	-0.1523977369070053	-0.021340884268283844	0.17839844524860382	-0.1983487457036972	-0.01575148105621338	0.41297778487205505	-0.3653465807437897	-0.029235631227493286	-0.05219825357198715	-0.3488994836807251	0.4114523231983185	0.033225204795598984	0.2642589211463928	0.37858495116233826	0.013913726434111595	-0.10282543301582336	-0.15131112933158875	-0.32850536704063416	0.16395318508148193	-0.15799005329608917	0.233196422457695	-0.16023920476436615	-0.0343230739235878	0.02942296303808689	-0.12457060068845749	0.16271188855171204	-0.19022789597511292	0.26247647404670715	-0.28566622734069824	0.15938034653663635	-0.3474876880645752	0.10300152748823166	0.1289878487586975	-0.33078107237815857	-0.49849826097488403	0.21407344937324524	-0.1477794498205185	0.328698992729187	0.15738807618618011	0.16773591935634613	-0.13500511646270752	0.15816037356853485
29729813_64373673.xml	0.1458362191915512	0.1048378124833107	-0.10138433426618576	-0.056086961179971695	-0.18912243843078613	0.154033362865448	0.4947945773601532	-0.2376275509595871	0.16018988192081451	-0.1546679139137268	0.5232347846031189	-0.01671893522143364	-0.09182076156139374	0.06910891085863113	-0.32057806849479675	0.050355084240436554	0.32691848278045654	-0.027111757546663284	0.08292330801486969	0.11897992342710495	0.4655618667602539	0.045275188982486725	-0.18715082108974457	-0.1375102698802948	0.013193672522902489	-0.19391901791095734	0.11994362622499466	-0.15936420857906342	0.10708823055028915	0.03604472056031227	0.06064224988222122	-0.0957639217376709	-0.23922817409038544	0.2367156744003296	-0.09537811577320099	-0.1771756112575531	-0.16590619087219238	-0.2279210239648819	-0.29131218791007996	0.2245943695306778	0.18637068569660187	-0.12848201394081116	-0.4162158966064453	0.19777034223079681	-0.39200618863105774	-0.019899116829037666	0.27605101466178894	0.17086926102638245	-0.19822004437446594	0.48156532645225525
29729993_64373656.xml	-0.07580071687698364	0.029623348265886307	-0.6480907201766968	-0.7500228881835938	-0.40966522693634033	0.05424576625227928	0.09464029967784882	0.14517122507095337	0.2732314467430115	-0.14497986435890198	-0.29154014587402344	-0.07013783603906631	0.22439582645893097	0.4396742284297943	-0.12981802225112915	0.11670960485935211	-0.6995715498924255	0.03350232169032097	-0.06713280826807022	-0.3019956946372986	-0.04352201148867607	0.30392494797706604	0.24797753989696503	0.30271318554878235	-0.07131808251142502	0.020430253818631172	-0.04896041750907898	-0.1519993543624878	0.4069448411464691	-0.36168327927589417	0.20200027525424957	0.33288639783859253	0.2033797800540924	0.7771946787834167	-0.08569833636283875	-0.36620402336120605	-0.5687223076820374	0.2323673963546753	-0.5105783343315125	-0.22636303305625916	0.030849236994981766	-0.2010471671819687	-0.04555644094944	-0.15631426870822906	-0.43937957286834717	-0.361493855714798	0.02124420553445816	-0.2735632061958313	0.17127622663974762	0.2406991720199585
29730216_64375133.xml	-0.02711312286555767	-0.0014837025664746761	-0.1208544373512268	-0.12878865003585815	0.09751562029123306	-0.2589763104915619	0.12321886420249939	0.0037854390684515238	-0.10936537384986877	0.02615964040160179	0.04836467653512955	-0.06734108179807663	-0.01903581991791725	0.23209962248802185	-0.289919912815094	-0.1846090704202652	0.010163385421037674	-0.32267406582832336	0.2646566927433014	-0.1344475895166397	0.24986223876476288	0.178306445479393	0.015981074422597885	-0.039753712713718414	-0.17456087470054626	-0.1706610471010208	0.11015976220369339	0.06522689759731293	0.17992734909057617	0.01933727227151394	-0.08603385090827942	0.06310208141803741	0.062107838690280914	0.06167363002896309	-0.09663999080657959	0.24896381795406342	-0.39008212089538574	-0.04881776124238968	-0.2919537127017975	0.008123692125082016	0.027246827259659767	-0.5473994016647339	-0.6002468466758728	0.11761943995952606	0.08503609895706177	0.3890102207660675	0.20721027255058289	0.07055775076150894	-0.17170503735542297	0.055481985211372375
29727758_64400854.xml	0.33676138520240784	-0.1651865541934967	0.17273485660552979	-0.05663298815488815	0.06660045683383942	-0.04093150421977043	0.19240838289260864	-0.24048170447349548	-0.1998283416032791	0.0966951996088028	0.38924893736839294	-0.14124912023544312	-0.07405155897140503	0.11129472404718399	-0.329512357711792	0.053775519132614136	0.04878367856144905	0.032852742820978165	0.22576488554477692	-0.16663706302642822	0.706189751625061	0.22291606664657593	-0.302560418844223	-0.05553005635738373	-0.14115117490291595	-0.5938307642936707	0.2642230689525604	-0.1543388068675995	-0.017702769488096237	0.3278404474258423	-0.13069801032543182	-0.34947776794433594	-0.24198967218399048	0.2745184004306793	0.010548064485192299	0.06992272287607193	-0.26509764790534973	0.11017832159996033	-0.22929754853248596	-0.20002734661102295	0.051578305661678314	-0.07954580336809158	-0.4429641664028168	0.4941580295562744	0.20545023679733276	0.15476177632808685	0.3765145540237427	0.02383487857878208	-0.284707635641098	0.5700640678405762
29727803_64376131.xml	-0.028485631570219994	0.15140770375728607	-0.18075360357761383	-0.0302052553743124	-0.1994905322790146	-0.2624087929725647	-0.2521798610687256	-0.4172424376010895	0.48449987173080444	-0.14092159271240234	-0.32992249727249146	-0.11852488666772842	-0.2907336950302124	0.2464081346988678	-0.10065361112356186	-0.291822612285614	-0.0294994805008173	0.10215473175048828	-0.39402422308921814	-0.4371097981929779	0.22096416354179382	-0.018673652783036232	-0.07237641513347626	-0.25390246510505676	-0.23992137610912323	0.2910715937614441	0.1697765737771988	-0.2673123776912689	0.43241095542907715	0.23060397803783417	0.35717254877090454	0.24562478065490723	-0.2508428990840912	0.3844299912452698	0.03360408544540405	-0.29975834488868713	-0.4183390736579895	-0.11998044699430466	-0.06249655783176422	-0.0625794306397438	0.2871387302875519	-0.16418041288852692	0.013003491796553135	-0.04270073026418686	0.2694568634033203	-0.34478744864463806	-0.03561379015445709	-0.045278556644916534	-0.014456676319241524	0.3233107030391693
29727803_64382592.xml	-0.04142676293849945	-0.15580038726329803	0.5372723937034607	0.06499294191598892	-0.14356206357479095	0.12470341473817825	4.267341137165204e-05	-0.2601016163825989	0.2207818180322647	-0.12390837073326111	-0.2623347342014313	0.07665736228227615	-0.4233647882938385	0.1717902421951294	0.20511536300182343	-0.2320990115404129	-0.19521132111549377	-0.04339226707816124	-0.7022184133529663	-0.43449780344963074	-0.04571378603577614	0.3326452672481537	0.025135507807135582	-0.42185962200164795	-0.42774879932403564	-0.05869492143392563	0.30972597002983093	-0.050626497715711594	0.2990345060825348	0.3086718022823334	-0.11164721101522446	-0.009910504333674908	-0.47084906697273254	0.17179347574710846	0.3206610083580017	0.020719384774565697	-0.5424667596817017	0.12966497242450714	-0.02882269397377968	0.01022771280258894	0.036913756281137466	-0.074810691177845	-0.08049533516168594	-0.12162203341722488	0.4879208505153656	-0.37129080295562744	0.14934347569942474	-0.2866261899471283	-0.06693854928016663	0.33733880519866943
29727803_64389702.xml	0.035634011030197144	0.0010157006327062845	-0.030884794890880585	-0.3623906672000885	-0.2228798270225525	-0.04030574485659599	0.09053546190261841	-0.14507634937763214	0.12589538097381592	-0.061719849705696106	-0.26090267300605774	0.006237206049263477	-0.15834547579288483	0.3164766728878021	-0.20850756764411926	-0.2208275943994522	-0.11664169281721115	0.20808842778205872	-0.11703837662935257	-0.10786555707454681	0.040389034897089005	0.07283574342727661	0.0868801474571228	-0.15130513906478882	-0.08858378231525421	0.2797151505947113	0.12534649670124054	-0.2106829285621643	0.353664368391037	-0.011550522409379482	0.11491815745830536	0.300813764333725	0.21448300778865814	0.5054172277450562	-0.0067199887707829475	-0.22877056896686554	-0.4111570715904236	0.058516282588243484	-0.29922032356262207	-0.0675608366727829	0.11655855923891068	-0.13828517496585846	-0.17770271003246307	0.0029416228644549847	0.17371197044849396	-0.3324647545814514	0.10666509717702866	-0.10595710575580597	0.03294681757688522	0.15897926688194275
29727803_64410410.xml	-0.14369194209575653	-0.08931609988212585	0.4895878732204437	-0.24594232439994812	-0.36588725447654724	-0.20332267880439758	0.19400064647197723	-0.4020159840583801	0.22022877633571625	-0.03145802766084671	-0.030646029859781265	0.09160725772380829	-0.17645086348056793	0.2195824384689331	0.23638200759887695	-0.29386746883392334	0.06839918345212936	0.29188406467437744	-0.428152471780777	-0.45008838176727295	0.4409651458263397	0.32350578904151917	-0.17642147839069366	-0.25376278162002563	-0.17958883941173553	-0.08600582927465439	0.3879384398460388	-0.013056234456598759	0.21015474200248718	0.2528427839279175	-0.23321539163589478	-0.16895456612110138	-0.6885766386985779	0.20535904169082642	0.2897828221321106	-0.22606489062309265	-0.5030392408370972	0.18462002277374268	-0.17138032615184784	-0.26846522092819214	0.12377012521028519	-0.13058346509933472	-0.09471357613801956	0.008851409889757633	0.6110706925392151	-0.49106213450431824	0.43610453605651855	-0.5182104706764221	-0.2361675649881363	0.3279300034046173
29727808_64385593.xml	0.30835554003715515	0.05961350351572037	-0.05852920934557915	-0.16284829378128052	0.12444509565830231	0.0030086305923759937	0.36640048027038574	0.18352985382080078	-0.2028593122959137	0.028036288917064667	0.34578371047973633	-0.00907407607883215	-0.1757119745016098	0.39885109663009644	-0.25901105999946594	-0.013524062000215054	0.4214673638343811	0.09148479253053665	0.05816227197647095	0.1989552080631256	-0.009814376942813396	0.1570461541414261	0.13258984684944153	-0.1391220986843109	-0.10641420632600784	-0.32674768567085266	0.24885950982570648	0.051134880632162094	0.24861331284046173	-0.04686736315488815	-0.2540830671787262	-0.11504398286342621	0.06653711199760437	0.3028729259967804	-0.19932398200035095	-0.05876133218407631	-0.36539778113365173	-0.07196903973817825	-0.2997514009475708	0.07655391842126846	0.1936948150396347	0.01776845194399357	-0.3217293322086334	0.1757960319519043	-0.12900616228580475	-0.021205494180321693	0.31985318660736084	-0.0823662281036377	-0.1183333545923233	0.4847297668457031
29727808_64395875.xml	0.21341121196746826	-0.06267707049846649	0.21842996776103973	-0.3084518015384674	-0.1560050994157791	-0.15249347686767578	0.060636233538389206	-0.22038525342941284	-0.1461348831653595	0.16540713608264923	0.19304259121418	-0.4614769220352173	-0.10019613802433014	0.47372081875801086	-0.3223598599433899	-0.015462358482182026	0.09031173586845398	0.07069006562232971	0.2591628134250641	-0.1958133727312088	0.7459177374839783	0.34379446506500244	-0.36961016058921814	-0.18990448117256165	-0.30928152799606323	-0.4651372730731964	0.43379732966423035	-0.2561070919036865	0.024838963523507118	0.19442236423492432	-0.13384702801704407	-0.14887724816799164	-0.44070497155189514	0.3974400758743286	0.194646418094635	0.044641923159360886	-0.2020328789949417	0.2815667390823364	-0.31294146180152893	-0.177217498421669	0.003033408196642995	-0.14234255254268646	-0.3096715211868286	0.1681259572505951	0.2779955565929413	-0.03396201878786087	0.32002854347229004	-0.15767015516757965	-0.3074931502342224	0.20955048501491547
29727808_64401443.xml	0.22471828758716583	-0.14622297883033752	-0.0046627698466181755	-0.026860691606998444	0.039332401007413864	-0.10166756808757782	0.2636970281600952	-0.02746586874127388	-0.16362182796001434	-0.0571565218269825	0.1269157975912094	-0.14818444848060608	-0.06950309872627258	0.18991217017173767	-0.3298230767250061	-0.1257137805223465	0.09339093416929245	0.03068678453564644	0.11285441368818283	-0.03983205184340477	0.3396206498146057	0.08108574897050858	0.011072649620473385	-0.22400394082069397	-0.13408255577087402	-0.08864530175924301	0.06713727116584778	-0.11079860478639603	0.212569460272789	0.12826938927173615	-0.0979325994849205	0.0770951360464096	0.1509486436843872	0.37024441361427307	-0.06680066138505936	-0.04918713495135307	-0.25473228096961975	-0.1816873848438263	-0.3824438452720642	0.14526329934597015	0.20288166403770447	-0.15499529242515564	-0.5033228397369385	0.20030976831912994	0.013342883437871933	-0.06204717233777046	0.2175946831703186	0.026356952264904976	-0.13161353766918182	0.09296241402626038
29727856_64374655.xml	-0.028435422107577324	-0.015120793133974075	-0.06335251033306122	0.05175377056002617	0.0188631322234869	-0.2810969352722168	-0.10469978302717209	-0.1110754981637001	-0.04501070827245712	-0.04375293850898743	0.24353300034999847	-0.3060612082481384	-0.3230718970298767	-0.12664161622524261	-0.2531042695045471	-0.23815719783306122	0.1772649884223938	-0.1875595599412918	0.3585405945777893	-0.3975068926811218	0.0910046324133873	0.015760572627186775	0.1638316959142685	0.03726351261138916	-0.019965101033449173	-0.1447037309408188	0.1150912493467331	0.2321922779083252	0.41495272517204285	0.13921773433685303	-0.1367645114660263	0.1281350702047348	-0.036377523094415665	0.03559819236397743	0.11674541234970093	0.31734499335289	-0.6427242159843445	0.09100286662578583	-0.22016845643520355	0.2942171096801758	-0.13336019217967987	-0.5744346976280212	-0.5342842936515808	-0.15710145235061646	0.37468117475509644	0.45212802290916443	0.08917146921157837	0.007954688742756844	0.08100848644971848	0.03992312401533127
29727856_64384026.xml	0.148347407579422	0.04814969375729561	0.019727028906345367	0.0602806992828846	0.1004275232553482	-0.45803526043891907	0.0026282283943146467	-0.026745174080133438	-0.05207134038209915	-0.04818211495876312	0.1773800402879715	-0.14184696972370148	-0.3406829833984375	0.03559035062789917	-0.28552621603012085	-0.3342188596725464	0.5324748754501343	-0.0629367008805275	0.20320303738117218	-0.01782611384987831	-0.10915936529636383	-0.023747658357024193	0.0271175354719162	0.1547815054655075	0.1342160850763321	-0.2845187485218048	0.21864373981952667	0.3193838596343994	0.5802304744720459	0.41872885823249817	-0.49021783471107483	-0.04524848610162735	0.0967109203338623	0.010565190576016903	0.007885953411459923	0.27911099791526794	-0.5450782775878906	0.10770950466394424	0.061246804893016815	0.03517107665538788	-0.22066745162010193	-0.41261112689971924	-0.43587392568588257	-0.12059962749481201	0.1551690399646759	0.5629651546478271	0.2911436855792999	-0.28693288564682007	0.09342728555202484	0.22023403644561768
29727856_64402333.xml	0.19931592047214508	-0.06084972992539406	-0.1311940848827362	0.11498156934976578	0.33388227224349976	-0.5009360313415527	-0.27561959624290466	-0.5515750646591187	-0.15486188232898712	0.034986864775419235	0.16419717669487	-0.33028048276901245	-0.39363792538642883	0.06166082248091698	-0.534780740737915	-0.2006813883781433	0.34585896134376526	-0.11452145874500275	-0.018394822254776955	-0.13821780681610107	0.38618385791778564	0.19488602876663208	-0.3605097830295563	0.4361766278743744	0.14447066187858582	-0.5911704897880554	-0.009971781633794308	0.13756968080997467	0.6093654036521912	0.19271177053451538	-0.41875192523002625	-0.54315185546875	0.01990164816379547	-0.05272490531206131	-0.015925463289022446	0.1405835896730423	-0.4085950553417206	0.35746344923973083	-0.06488779932260513	-0.1860545426607132	0.01937401108443737	-0.1294226348400116	-0.5924843549728394	0.20591357350349426	0.35852476954460144	0.4386322498321533	0.23609717190265656	-0.1385936290025711	0.11261904239654541	-0.07862947881221771
29727856_64407653.xml	0.012868414632976055	-0.06327883899211884	0.038661371916532516	0.07910098135471344	0.16309775412082672	-0.39056551456451416	0.07013939321041107	0.006590590812265873	-0.2047208994626999	0.09159630537033081	0.2586856186389923	-0.32313936948776245	-0.3611007034778595	-0.08574001491069794	-0.35775670409202576	-0.2486167997121811	0.5410741567611694	0.0981595516204834	0.21233615279197693	-0.23038187623023987	-0.049197111278772354	-0.02372477389872074	-0.04946811869740486	0.04133680835366249	0.18190473318099976	-0.20175893604755402	0.3038405776023865	0.3070536255836487	0.42489662766456604	0.17169344425201416	-0.22681964933872223	0.2601289749145508	0.07067736983299255	0.039743222296237946	0.026188334450125694	0.3263915479183197	-0.5858221054077148	0.02734191343188286	-0.32330575585365295	0.23104381561279297	-0.06747205555438995	-0.3432857394218445	-0.5013290047645569	-0.1897791624069214	0.3099900484085083	0.35339903831481934	0.1939377784729004	-0.19951288402080536	-0.012740762904286385	0.1606839895248413
29727856_64412907.xml	-0.20269933342933655	0.08670210093259811	-0.1458946019411087	0.055033497512340546	0.016589319333434105	-0.07388641685247421	0.12267483025789261	0.2477988302707672	-0.045147188007831573	-0.09303104132413864	0.27706828713417053	-0.2640719413757324	-0.10695439577102661	0.09376055747270584	-0.2965662479400635	-0.19827474653720856	0.31858623027801514	0.02838391438126564	0.48646149039268494	-0.31590327620506287	0.2165871411561966	0.2895423471927643	0.2352478802204132	-0.0998004823923111	-0.23233523964881897	-0.2052461951971054	-0.16950425505638123	0.07713009417057037	0.2173929661512375	-0.09499290585517883	-0.40161067247390747	0.07708773016929626	-0.1381019800901413	-0.017452074214816093	0.049400750547647476	0.43242383003234863	-0.3313777446746826	0.09609697759151459	-0.026087917387485504	0.13642705976963043	-0.21988998353481293	-0.6770634055137634	-1.2449524402618408	0.1772119402885437	0.39048781991004944	0.06538830697536469	0.06358329206705093	-0.3340454399585724	0.2581729590892792	-0.20248331129550934
29727919_64374004.xml	0.16284877061843872	-0.2566227316856384	-0.07768867909908295	0.2330540418624878	-0.043001286685466766	0.00967332161962986	0.05335367098450661	-0.1347692608833313	0.06134989857673645	-0.2390289157629013	-0.034425314515829086	-0.3369368314743042	-0.1675873100757599	-0.008972988463938236	-0.3799559473991394	-0.2781103849411011	-0.0038360990583896637	-0.21645084023475647	-0.11547375470399857	-0.3468173146247864	0.3475949764251709	-0.019677674397826195	0.05826650932431221	-0.5076159834861755	-0.07989631593227386	0.28248128294944763	-0.2096686214208603	-0.34571927785873413	0.21351082623004913	0.12499227374792099	0.2618694603443146	0.331832617521286	0.10722407698631287	0.36177605390548706	-0.10631115734577179	-0.11563264578580856	-0.12426848709583282	-0.0030517035629600286	-0.32958629727363586	0.2978707253932953	0.3776930868625641	-0.020831629633903503	-0.27811184525489807	0.019059056416153908	0.08366196602582932	-0.20405101776123047	0.07418418675661087	0.030753711238503456	-0.11778973788022995	0.07182137668132782
29727919_64376971.xml	0.43050628900527954	-0.26577478647232056	0.15194249153137207	0.3000328838825226	0.13878092169761658	-0.056920066475868225	0.12257114052772522	0.031143803149461746	0.053880807012319565	-0.12042462080717087	0.15833552181720734	-0.35901182889938354	-0.26418185234069824	0.024708455428481102	-0.3533494770526886	-0.11030230671167374	0.23823921382427216	-0.09919945895671844	-0.2869653105735779	-0.17382332682609558	0.11560598760843277	-0.05971044301986694	0.1677275002002716	-0.6009198427200317	-0.06283219158649445	-0.012170176021754742	-0.0030601934995502234	-0.15784315764904022	0.2567201852798462	0.08045644313097	0.1962698996067047	0.2352622151374817	0.022738974541425705	0.2608000636100769	0.009338014759123325	-0.34841328859329224	-0.2363501936197281	-0.04781942442059517	-0.2964257001876831	0.18863458931446075	0.43671372532844543	0.23090839385986328	-0.15909233689308167	-0.19021715223789215	0.061377767473459244	-0.2928345501422882	0.20019522309303284	0.0690607950091362	-0.2613855004310608	0.46177753806114197
29727919_64391176.xml	0.24863164126873016	-0.38105884194374084	-0.013926740735769272	0.24668769538402557	0.09913540631532669	-0.2074931114912033	0.3875478506088257	-0.0914192646741867	-0.07223474979400635	-0.22851452231407166	0.07348015159368515	-0.5836020112037659	-0.008748496882617474	0.06467366218566895	-0.3013170063495636	-0.19141250848770142	0.19120171666145325	-0.14394301176071167	-0.22993233799934387	-0.14832055568695068	0.10494659841060638	-0.015397089533507824	0.15230894088745117	-0.6147042512893677	-0.16767357289791107	0.08323727548122406	-0.04811423271894455	-0.3893979489803314	0.12462905794382095	-0.07596549391746521	-0.01134837232530117	0.5188464522361755	0.3120488226413727	0.09706272929906845	-0.19422666728496552	-0.3265719413757324	-0.10169289261102676	-0.13284806907176971	-0.4525975286960602	0.18461167812347412	0.5059033632278442	0.15691806375980377	-0.2239963710308075	-0.14649096131324768	-0.16278038918972015	-0.6220306158065796	0.1307058483362198	-0.06351394206285477	-0.042620521038770676	0.35840973258018494
29727919_64397737.xml	0.2721681594848633	-0.43522509932518005	0.16865116357803345	0.3312544524669647	0.03177741542458534	0.14568789303302765	0.05134804919362068	0.1235087588429451	-0.05398723855614662	-0.07575548440217972	0.011875705793499947	-0.24021212756633759	-0.12284965068101883	0.29622939229011536	-0.3375871479511261	-0.16019785404205322	0.17814520001411438	0.12136618047952652	-0.1291254758834839	-0.30308619141578674	0.4322701692581177	0.021050769835710526	0.10751642286777496	-0.7442010641098022	-0.3579097390174866	-0.026144178584218025	-0.11172361671924591	-0.3590981364250183	-0.006201385986059904	0.24738463759422302	-0.05995035544037819	0.26693961024284363	-0.06351882219314575	0.3228279650211334	0.12613998353481293	-0.12728317081928253	0.039548054337501526	-0.06785410642623901	-0.24475885927677155	0.2431686669588089	0.2900494337081909	-0.01808520406484604	-0.6357807517051697	0.15168415009975433	0.29097211360931396	-0.48939040303230286	0.1295241415500641	-0.12134481966495514	-0.1273077130317688	0.15326184034347534
29727944_64374940.xml	-0.160066619515419	0.013484791852533817	-0.09292950481176376	0.20278400182724	-0.0849146768450737	0.3681771159172058	-0.3267030119895935	-0.0998852327466011	0.5824943780899048	-0.036787718534469604	-0.47006165981292725	-0.12584887444972992	-0.35321301221847534	0.33350321650505066	-0.21148137748241425	0.05273975804448128	-0.43968161940574646	-0.04773770645260811	-0.541750967502594	-0.3242041766643524	0.02708769589662552	0.1210855171084404	0.08689926564693451	-0.10277213901281357	-0.225211501121521	0.3023698329925537	-0.2454962432384491	-0.4350852966308594	0.4935767948627472	-0.37916839122772217	0.6391395330429077	0.21350641548633575	0.06472479552030563	0.5274544358253479	-0.2247469574213028	0.048579659312963486	-0.5739114284515381	0.17527225613594055	-0.5065804719924927	0.11823221296072006	0.41306808590888977	-0.12442294508218765	0.08086029440164566	0.1920902132987976	-0.28193753957748413	-0.7259953022003174	-0.26304519176483154	-0.06786403059959412	0.33847281336784363	0.05687560886144638
29727944_64381182.xml	0.006047516595572233	0.28674888610839844	-0.11949774622917175	0.49820104241371155	-0.05802231654524803	0.34992125630378723	-0.21072258055210114	-0.16338802874088287	0.8267256617546082	-0.11123000830411911	-0.0848916545510292	-0.07427913695573807	-0.4418838918209076	0.11889544129371643	-0.08679632842540741	0.26786574721336365	-0.13225696980953217	-0.004211978986859322	-0.7131120562553406	-0.19498710334300995	-0.06381899863481522	0.05087461695075035	-0.008637739345431328	-0.09675657004117966	-0.2598145306110382	0.010251925326883793	0.027672532945871353	-0.26883262395858765	0.4802252948284149	-0.21434244513511658	0.7286043763160706	-0.03733092546463013	-0.27932417392730713	0.5212924480438232	-0.1673070341348648	-0.3541315197944641	-0.6941636800765991	-0.19192056357860565	-0.36911582946777344	-0.09687108546495438	0.39782679080963135	0.32904884219169617	0.38236555457115173	-0.03652721270918846	-0.3629341125488281	-0.6997128129005432	-0.02942815236747265	-0.11132825165987015	-0.0787276178598404	0.5469909906387329
29727944_64390682.xml	-0.020969092845916748	-0.10416533052921295	0.05376604199409485	0.26520150899887085	-0.1745673269033432	0.4170750677585602	-0.2981334328651428	-0.21211986243724823	0.38686603307724	0.0023138076066970825	0.039220768958330154	-0.20071439445018768	-0.23365704715251923	0.44525662064552307	-0.39740920066833496	0.3004550039768219	-0.32704249024391174	0.013004680164158344	-0.2769988179206848	-0.1740294247865677	0.26726508140563965	0.10926828533411026	-0.22553876042366028	-0.006018532440066338	-0.47971704602241516	-0.3112090528011322	0.11676795035600662	-0.503355860710144	0.4272753596305847	-0.2528233230113983	0.41582486033439636	-0.15503735840320587	-0.11673512309789658	0.4387003183364868	-0.005937432404607534	-0.5092620849609375	-0.5322607159614563	0.0648016631603241	-0.6245563626289368	0.10502517223358154	0.2519690692424774	0.16101105511188507	0.35751020908355713	0.4060417711734772	-0.33899062871932983	-0.8180082440376282	0.09463784098625183	0.00042277685133740306	-0.01936229318380356	0.09230189770460129
