29019536_62784831.xml	-0.15265025198459625 0.25142329931259155 0.3672623336315155 -0.2844557464122772 -0.23451948165893555 0.07079514116048813 0.24488982558250427 -0.05309606343507767 0.3620174527168274 -0.09213040769100189 -0.5629600882530212 0.3100767731666565 -0.4545290470123291 -0.10917410999536514 -0.1931842714548111 -0.09745368361473083 -0.006012629717588425 0.15285652875900269 -0.2732491195201874 -0.2943390905857086 0.18249040842056274 -0.03252716362476349 0.18641285598278046 -0.4115307033061981 0.2612265944480896 0.7787479758262634 -0.0876283347606659 0.07328919321298599 0.26881757378578186 0.09182488173246384 0.633806049823761 0.14430192112922668 -0.09105990082025528 0.4702407717704773 -0.014064285904169083 0.36290985345840454 -0.5609976649284363 0.018420418724417686 -0.2619648873806 -0.2603793442249298 0.19339853525161743 -0.20653991401195526 0.07293044030666351 -0.178855761885643 0.043531306087970734 -0.8083637356758118 0.028080454096198082 -0.41305437684059143 -0.07451283931732178 0.18763937056064606
29019536_62792024.xml	-0.1431482881307602 0.32870975136756897 0.2839246392250061 -0.30905213952064514 -0.21710734069347382 0.08246663212776184 0.22388412058353424 -0.0013417742447927594 0.36782515048980713 -0.0980299860239029 -0.5725717544555664 0.3783377707004547 -0.48159241676330566 -0.0690343827009201 -0.27968716621398926 -0.13832548260688782 -0.07886099815368652 0.1027713268995285 -0.29066917300224304 -0.26435938477516174 0.10730195045471191 -0.009979535825550556 0.29796212911605835 -0.408122718334198 0.21239149570465088 0.7071449756622314 -0.06478843837976456 0.08757209777832031 0.30551576614379883 0.024095483124256134 0.5630016326904297 0.02973935939371586 -0.07845927774906158 0.40898460149765015 0.0556039996445179 0.3489435911178589 -0.48706144094467163 -0.014190067537128925 -0.141321063041687 -0.3619830012321472 0.21866421401500702 -0.17746402323246002 -0.08252821117639542 -0.09146387130022049 0.06652133166790009 -0.8083322644233704 0.011159734800457954 -0.42686840891838074 -0.006022734101861715 0.07669947296380997
29019536_62796810.xml	-0.028513295575976372 0.29383596777915955 0.12109009921550751 -0.23143476247787476 -0.30144432187080383 0.6607751250267029 0.33865630626678467 0.07582487165927887 0.3507190942764282 -0.15919628739356995 -0.18389393389225006 0.2881752550601959 -0.48126354813575745 0.016011353582143784 -0.383466511964798 0.00784680712968111 -0.15454819798469543 0.23636989295482635 -0.0354355052113533 0.02779153548181057 0.26195573806762695 -0.0008894723141565919 0.21503187716007233 -0.3009164035320282 0.10484230518341064 0.37331223487854004 -0.1310737580060959 -0.14232712984085083 0.31263214349746704 -0.22973977029323578 0.36481475830078125 -0.08587642759084702 0.08209405839443207 0.5267429947853088 0.029678361490368843 -0.312858909368515 -0.4852234721183777 -0.010845589451491833 -0.254067599773407 0.021917195990681648 0.1661394238471985 0.019339943304657936 -0.06174205243587494 0.4159320294857025 -0.23040172457695007 -0.8164747953414917 0.11860828846693039 -0.15001338720321655 -0.19322852790355682 0.12232334911823273
29019599_62783989.xml	-0.05031567066907883 -0.011184638366103172 0.09486410021781921 0.22522804141044617 -0.020141955465078354 0.01147136464715004 -0.22003600001335144 -0.09321639686822891 0.40598437190055847 -0.36950308084487915 -0.3442057967185974 -0.08588800579309464 -0.3731585144996643 -0.1355855017900467 -0.5112878680229187 -0.09587989747524261 -0.27251580357551575 -0.09928412735462189 -0.7438741326332092 -0.4111744165420532 -0.1989564448595047 0.18757815659046173 -0.11612202972173691 -0.6217398047447205 -0.4058866500854492 0.28824687004089355 -0.7298334240913391 0.19744543731212616 0.3723006248474121 0.20778511464595795 0.6110565066337585 -0.07271695137023926 -0.0609276257455349 0.16164623200893402 -0.2214091420173645 0.1630403995513916 -0.48236674070358276 -0.1805427223443985 -0.3100382685661316 0.042702339589595795 0.33549895882606506 -0.2851669490337372 0.1261856108903885 -0.21178266406059265 -0.31602743268013 -0.22788435220718384 -0.4695102274417877 -0.08018903434276581 0.08622297644615173 0.21541380882263184
29019599_62788377.xml	-0.0484994538128376 -0.1311691850423813 0.10025674104690552 0.18696826696395874 -0.021839914843440056 -0.06398839503526688 -0.08273202925920486 -0.1806321144104004 0.27590930461883545 -0.288195937871933 -0.2170533686876297 -0.05899271368980408 -0.26679837703704834 0.002066919580101967 -0.43521520495414734 -0.09301967173814774 -0.1707182079553604 -0.030530991032719612 -0.7097669243812561 -0.3279089331626892 -0.27800819277763367 0.10448497533798218 -0.11947065591812134 -0.4943293333053589 -0.31519240140914917 0.2826657295227051 -0.5748212337493896 -0.003022027900442481 0.32777589559555054 0.08086284250020981 0.6306132674217224 0.025769425556063652 0.02532355487346649 0.13479866087436676 -0.35076603293418884 0.13804353773593903 -0.4776459336280823 -0.19152958691120148 -0.531502902507782 0.048623498529195786 0.3695429563522339 -0.3290346562862396 0.2941373288631439 -0.25719350576400757 -0.30316320061683655 -0.287762850522995 -0.4304235875606537 -0.09275061637163162 0.09201309084892273 0.27266931533813477
29019599_62798239.xml	-0.001245177467353642 -0.012040316127240658 -0.17082902789115906 0.09108055382966995 -0.03275270015001297 0.33883631229400635 0.039728712290525436 -0.06570993363857269 0.0751756802201271 -0.23598964512348175 -0.010739431716501713 -0.29872605204582214 -0.22738142311573029 0.3224737346172333 -0.48458707332611084 0.05228100344538689 -0.24601030349731445 0.1305437535047531 -0.5535585880279541 -0.18177761137485504 -0.3143199682235718 0.32684624195098877 -0.1900954693555832 -0.28338631987571716 -0.441324919462204 0.047824677079916 -0.46677839756011963 -0.16172169148921967 0.30527937412261963 -0.2672163248062134 0.35457831621170044 0.10498595982789993 0.15601126849651337 0.2175373136997223 -0.41654422879219055 -0.19561737775802612 -0.40390676259994507 0.1095544621348381 -0.547501266002655 0.42381080985069275 0.2626517117023468 -0.21805109083652496 0.31258276104927063 0.2516833543777466 -0.5647116899490356 -0.22744810581207275 -0.4647587239742279 0.05385920777916908 0.15753506124019623 0.4099957346916199
29019599_62815449.xml	0.2340807318687439 -0.13809911906719208 0.339455246925354 0.24319419264793396 0.1693304181098938 -0.02761702612042427 0.23379670083522797 -0.2085050344467163 -0.1149124875664711 -0.13626983761787415 -0.3770877718925476 0.2826370894908905 -0.0898161381483078 0.48411887884140015 -0.921725869178772 0.18640033900737762 0.07112227380275726 0.09744632244110107 -0.7078959345817566 0.08072172850370407 -0.3194369077682495 0.2517435550689697 -0.5208308100700378 -0.632498562335968 -0.3126077651977539 0.031095020473003387 -0.4421474039554596 0.23758357763290405 0.32983142137527466 0.13492818176746368 0.19212016463279724 -0.35352739691734314 0.017879419028759003 0.5622254014015198 -0.32288026809692383 0.31278520822525024 -0.17725113034248352 -0.47738415002822876 -0.4477509558200836 -0.15282964706420898 0.05224074423313141 0.11454936861991882 -0.057092998176813126 -0.5551725625991821 -0.26917392015457153 -0.03307384252548218 -0.1573513001203537 -0.4518093168735504 -0.3708043098449707 -0.37503674626350403
29019660_62785677.xml	-0.20616047084331512 0.37448588013648987 0.05791286379098892 -0.05387590453028679 0.09893190115690231 -0.20797941088676453 -0.05065678432583809 -0.028121033683419228 0.20152528584003448 -0.4347251355648041 -0.571853756904602 -0.06927485764026642 -0.5368543267250061 0.07946595549583435 -0.3616456687450409 -0.18213602900505066 -0.31831595301628113 -0.36847835779190063 -0.4765893220901489 -0.4818374812602997 0.1363183856010437 -0.1582009643316269 0.1447599083185196 -0.2717920243740082 -0.09171240776777267 0.37181392312049866 -0.09945788234472275 0.22667835652828217 0.06024077534675598 0.41126522421836853 0.14986129105091095 -0.07530347257852554 0.23091432452201843 -0.034873731434345245 0.29247531294822693 0.22473593056201935 0.03674069419503212 -0.3658483326435089 0.11837753653526306 -0.023098355159163475 0.5761935114860535 -0.3447875380516052 -0.8028624057769775 -0.19840332865715027 -0.2874060571193695 -0.046173080801963806 -0.35538703203201294 0.01515053492039442 -0.003053109161555767 0.08045478165149689
29019660_62793031.xml	-0.19403992593288422 0.3935454189777374 0.14199800789356232 -0.04393770173192024 0.07415828853845596 -0.22806574404239655 0.044518642127513885 -0.1597774624824524 0.1453634351491928 -0.39600297808647156 -0.4993976354598999 -0.049595948308706284 -0.5535902380943298 0.0770910382270813 -0.3017006814479828 -0.1736658215522766 -0.16186314821243286 -0.32547762989997864 -0.44198501110076904 -0.3587650954723358 0.11224447190761566 -0.26239022612571716 0.08185985684394836 -0.18901385366916656 0.02096623182296753 0.4366450905799866 -0.020904911682009697 0.09973154217004776 0.031214101240038872 0.3408726751804352 0.17378778755664825 -0.013314049690961838 0.32775551080703735 -0.10823016613721848 0.2438354194164276 0.2790851294994354 -0.038457851856946945 -0.3584130108356476 -0.007916185073554516 0.0339767262339592 0.5274580717086792 -0.4544192850589752 -0.6287845969200134 -0.2555120587348938 -0.3442864716053009 -0.06758000701665878 -0.33194559812545776 0.09194241464138031 0.05578354746103287 0.1907166689634323
29019660_62798654.xml	-0.1133170872926712 0.34964045882225037 -0.00422246428206563 -0.20615218579769135 0.2144351303577423 -0.2783728241920471 -0.059653885662555695 -0.04545753076672554 0.07879169285297394 -0.3755720853805542 -0.544609546661377 -0.11858335882425308 -0.572445273399353 0.30487963557243347 -0.3167118728160858 -0.2983911633491516 -0.32870110869407654 -0.39187631011009216 -0.45542478561401367 -0.2950167953968048 -0.006507319398224354 -0.2579785883426666 0.17682085931301117 -0.2815197706222534 -0.023580968379974365 0.0944790467619896 0.12364589422941208 0.0417935810983181 -0.05096298083662987 0.24181345105171204 -0.00603634025901556 -0.12490043044090271 0.35596024990081787 -0.1819685697555542 0.27748173475265503 0.08508970588445663 -0.06628989428281784 -0.21001069247722626 0.004541805014014244 -0.3170362114906311 0.5395714640617371 -0.19603772461414337 -0.5731775760650635 -0.21956178545951843 0.05870140343904495 -0.036851659417152405 -0.22911733388900757 -0.09930028766393661 0.02417256310582161 0.07901951670646667
29019696_62784643.xml	-0.21586400270462036 0.21173915266990662 -0.2947150766849518 -0.3024289011955261 -0.048327669501304626 -0.46207675337791443 -0.13138410449028015 0.18747152388095856 0.38732558488845825 -0.5863330960273743 0.04142547771334648 -0.16416195034980774 0.12426053732633591 -0.25944435596466064 -0.37863868474960327 0.07720588147640228 -0.3342374265193939 -0.2567960023880005 0.16251374781131744 -0.5917940735816956 -0.12727200984954834 0.07648178189992905 0.23191164433956146 -0.083891861140728 0.1921510547399521 -0.0858403667807579 0.07251216471195221 0.719498336315155 0.3937091827392578 0.41614487767219543 0.11846260726451874 0.06432657688856125 -0.0305947195738554 0.29006651043891907 0.029265834018588066 -0.1021045371890068 -0.8562912344932556 -0.06531641632318497 -0.04639922454953194 0.31406116485595703 -0.050210919231176376 0.07085852324962616 -0.3916744887828827 -0.48230651021003723 0.06267890334129333 -0.020027605816721916 -0.09824736416339874 -0.3786431849002838 0.14483024179935455 0.3956190347671509
29019696_62787905.xml	-0.0918838307261467 0.1411941796541214 -0.315423846244812 -0.16712243854999542 -0.06441821902990341 -0.5551186800003052 -0.10254059731960297 0.1688021421432495 0.31277206540107727 -0.5472137331962585 0.05380037799477577 -0.14781318604946136 0.137342631816864 -0.22364605963230133 -0.3481421172618866 0.07750837504863739 -0.2578612267971039 -0.1302616149187088 0.11612032353878021 -0.4455919861793518 -0.21952825784683228 -0.0199139267206192 0.1805182248353958 0.006584789138287306 0.23261074721813202 0.003290136344730854 0.1901460886001587 0.35154274106025696 0.3231225609779358 0.3224913477897644 0.1169385239481926 0.08200269192457199 0.19057825207710266 0.36125731468200684 -0.014314617030322552 -0.060559600591659546 -0.870305597782135 -0.0771331638097763 -0.25840264558792114 0.27749335765838623 -0.12049228698015213 0.015169278718531132 -0.43663185834884644 -0.3713959753513336 0.19588208198547363 -0.06162119656801224 -0.016494348645210266 -0.36106476187705994 0.4013156294822693 0.22700096666812897
29019696_62791557.xml	-0.007405242417007685 0.23919141292572021 -0.6009260416030884 -0.41148999333381653 -0.02182720974087715 -0.011827538721263409 -0.10853861272335052 0.2643132507801056 0.22569215297698975 -0.4751332402229309 0.12619595229625702 -0.14287948608398438 0.03355909511446953 0.2638978958129883 -0.4047849178314209 0.26961758732795715 -0.4144756495952606 -0.050256259739398956 0.2534434497356415 -0.27525511384010315 -0.2756510376930237 0.14093412458896637 0.22573967278003693 0.10825163125991821 0.10108592361211777 -0.4320701062679291 0.29188358783721924 0.29863375425338745 0.3855113089084625 -0.06530924886465073 -0.101653091609478 -0.025672927498817444 0.15292838215827942 0.327094703912735 0.08232256770133972 -0.3324124217033386 -0.734460711479187 0.11343638598918915 -0.159774512052536 0.4940648674964905 -0.15148311853408813 0.10442765802145004 -0.5896353125572205 -0.027207229286432266 0.011477899737656116 0.06805802881717682 -0.16399164497852325 -0.07492969930171967 0.4253576695919037 0.2365579754114151
29019815_62784044.xml	0.45804882049560547 0.2061602771282196 0.46990182995796204 -0.10105139017105103 -0.5211976170539856 0.022906554862856865 0.009560631588101387 0.49668392539024353 0.21368464827537537 0.1443743109703064 -0.2589415907859802 0.03554196283221245 -0.6546024084091187 -0.7728240489959717 -0.015715448185801506 -0.7756341695785522 0.23580464720726013 -0.22058093547821045 -0.16230326890945435 -0.2989492416381836 0.35228127241134644 -0.49413517117500305 0.06087194010615349 -0.22777476906776428 0.6413754820823669 0.5927047729492188 -0.2796279191970825 -0.029912713915109634 -0.6010695695877075 -0.3098585605621338 0.3374687433242798 0.3495580852031708 0.4136865437030792 0.4564982056617737 -0.2937559187412262 -0.052723973989486694 -0.47994592785835266 -0.1949411779642105 -0.22200952470302582 -0.5565205812454224 -0.013449164107441902 -0.5390753149986267 -0.3864583969116211 -0.07182326912879944 0.09599112719297409 0.08259855955839157 0.5422245264053345 -0.32202625274658203 0.19673912227153778 0.07016298174858093
29019815_62793649.xml	0.6049703359603882 0.16845139861106873 0.39954134821891785 -0.08531323820352554 -0.5362706780433655 -0.13604502379894257 0.09876751154661179 0.5358383059501648 0.20397517085075378 0.10591520369052887 -0.16082486510276794 -0.05383341759443283 -0.5848203897476196 -0.7325414419174194 0.06582480669021606 -0.7619373798370361 0.30243077874183655 -0.13401398062705994 -0.22605940699577332 -0.29131609201431274 0.28842711448669434 -0.5197888612747192 0.030334826558828354 -0.10314848273992538 0.6612783074378967 0.47504109144210815 -0.20697113871574402 -0.09498519450426102 -0.5734496116638184 -0.4171316623687744 0.2763269543647766 0.4023061692714691 0.5016904473304749 0.4604904055595398 -0.2532476782798767 -0.12757574021816254 -0.41603440046310425 -0.21482989192008972 -0.37799349427223206 -0.5491331815719604 0.05451526865363121 -0.5011958479881287 -0.4336654841899872 -0.0953235998749733 0.07464314997196198 0.09364296495914459 0.5489906072616577 -0.23746627569198608 0.26664620637893677 0.10649162530899048
29019815_62811104.xml	0.4380181133747101 0.09418827295303345 0.6818913817405701 0.119637630879879 -0.1899546980857849 0.038697369396686554 -0.13078822195529938 0.5012286305427551 0.06460225582122803 0.09760705381631851 -0.35145944356918335 -0.26679643988609314 -0.7299354076385498 -0.421041876077652 -0.11217117309570312 -0.6237136721611023 0.21371965110301971 -0.485927939414978 -0.2287992388010025 -0.3689625561237335 0.1351650059223175 -0.40697789192199707 -0.17156517505645752 -0.3003760874271393 0.46532243490219116 0.27108001708984375 -0.2445383220911026 0.0746350884437561 -0.44592010974884033 -0.3186369240283966 0.352493017911911 0.4012705087661743 0.35355859994888306 0.3680337071418762 -0.3148241937160492 0.025958659127354622 -0.3351597189903259 -0.3772955536842346 -0.24776428937911987 -0.6580789685249329 0.2021685689687729 -0.1779714822769165 -0.22437520325183868 -0.5058820247650146 0.028225405141711235 0.36263972520828247 0.5058314204216003 -0.3866604268550873 -0.09185156226158142 -0.18737711012363434
29020066_62783817.xml	0.03945351392030716 0.08873086422681808 0.19458147883415222 0.14738720655441284 0.21695710718631744 -0.1621817648410797 0.009413393214344978 -0.3210131824016571 0.17991036176681519 -0.34683138132095337 0.06928033381700516 -0.32660868763923645 -0.7696073651313782 -0.05643239617347717 -0.12818194925785065 -0.3206082880496979 -0.2790067195892334 -0.08865854889154434 0.173097163438797 -0.31181588768959045 0.14762991666793823 -0.20561732351779938 0.37243935465812683 0.07968688756227493 -0.09438429027795792 -0.250761479139328 -0.05913510173559189 0.2116239070892334 0.6789724230766296 0.2756228744983673 -0.07233341038227081 -0.12562036514282227 0.20350141823291779 0.025929616764187813 0.12955130636692047 0.029422014951705933 -0.47546806931495667 -0.47248968482017517 0.019316472113132477 0.35906174778938293 0.3473411798477173 -0.35049647092819214 -0.6581581830978394 -0.01957360841333866 -0.020380744710564613 0.21427083015441895 -0.2591874301433563 0.21646428108215332 -0.1779358685016632 -0.03847891464829445
29020066_62789479.xml	-0.030296625569462776 -0.09197470545768738 0.2155478298664093 0.2592508792877197 0.2679183781147003 -0.4670192301273346 0.05818928778171539 -0.5111824870109558 0.1605168879032135 -0.25735899806022644 0.05555174872279167 -0.13575686514377594 -0.7172387838363647 -0.11904669553041458 0.11303486675024033 -0.3070022761821747 0.1299106925725937 -0.002106203231960535 0.028208870440721512 -0.25935161113739014 0.13822616636753082 -0.4933842420578003 0.36586543917655945 0.07798127084970474 0.1809617280960083 0.0025507682003080845 -0.005864690989255905 0.06119057536125183 0.48532426357269287 0.2943725287914276 0.15608085691928864 0.03581196814775467 0.320345938205719 0.015280231833457947 0.008790175430476665 0.33800482749938965 -0.6047121286392212 -0.5202419757843018 -0.42603999376296997 0.21773818135261536 0.33996227383613586 -0.5027737617492676 -0.5770243406295776 -0.4576129615306854 0.2996908128261566 0.09819398075342178 -0.23190218210220337 0.08113708347082138 -0.12379584461450577 0.10713928937911987
29020066_62798359.xml	0.15325619280338287 0.05454639345407486 -0.004103228449821472 0.0062478771433234215 0.2939506471157074 0.024669820442795753 0.10289112478494644 -0.3284277021884918 -0.02125948667526245 -0.31026479601860046 0.08647733181715012 -0.617782711982727 -0.9297156929969788 0.15880441665649414 -0.16679656505584717 -0.38730382919311523 -0.31948330998420715 -0.012422437779605389 0.24038267135620117 -0.12388710677623749 0.14518943428993225 -0.10962523519992828 0.37673765420913696 0.23013706505298615 -0.07202733308076859 -0.4399605989456177 0.03533180058002472 -0.15614354610443115 0.6332089304924011 -0.06788137555122375 -0.3144111931324005 -0.03567783534526825 0.39965060353279114 -0.025960588827729225 0.08068756014108658 -0.16007985174655914 -0.3943811058998108 -0.04430900141596794 -0.1605193316936493 0.3778590261936188 0.2818853557109833 -0.23010332882404327 -0.6026827096939087 0.42542919516563416 0.06322476267814636 0.2860369384288788 -0.23705048859119415 0.24490182101726532 -0.08167397975921631 -0.06337564438581467
29020154_62784536.xml	-0.15595757961273193 0.23527464270591736 -0.07849916070699692 -0.21245881915092468 -0.07580143213272095 0.11266911774873734 0.06606272608041763 0.036995962262153625 0.05748309567570686 -0.06429553776979446 -0.07704014331102371 0.054537370800971985 -0.11780832707881927 0.08816410601139069 -0.4969921410083771 -0.15059705078601837 -0.12273669987916946 -0.2062661498785019 -0.06445728242397308 -0.16144557297229767 0.03276490420103073 0.31320706009864807 -0.026209456846117973 -0.1982349455356598 -0.22071318328380585 0.1665683537721634 -0.0188169926404953 0.3198578357696533 0.31525668501853943 0.10116314142942429 0.07134629040956497 0.2094150334596634 0.06589844077825546 0.13644060492515564 0.026760781183838844 -0.13557271659374237 -0.2720928490161896 -0.1581861674785614 -0.04789452999830246 0.20724691450595856 0.08118411153554916 -0.26206180453300476 -0.4593806266784668 0.07351890951395035 -0.16152380406856537 0.10109350085258484 0.05392171069979668 0.07888612896203995 -0.206343412399292 0.20338839292526245
29020154_62786692.xml	-0.18965058028697968 0.07334773242473602 0.1701781451702118 0.1581784039735794 0.13568884134292603 -0.06015617027878761 -0.20843999087810516 -0.18086689710617065 0.18058842420578003 0.063789963722229 -0.174536794424057 -0.19849422574043274 -0.30375590920448303 0.09538997709751129 -0.37584319710731506 -0.1416444033384323 0.12131261080503464 -0.129475936293602 -0.5045393705368042 -0.16181160509586334 -0.07766878604888916 0.12129074335098267 -0.07639776170253754 -0.17562323808670044 -0.2251291573047638 0.16337959468364716 -0.02931864932179451 0.16951395571231842 0.42996394634246826 0.19686254858970642 0.3479214608669281 0.2627227008342743 0.18767639994621277 0.023648599162697792 -0.02422468177974224 0.06280095875263214 -0.23800639808177948 -0.16401740908622742 -0.29027172923088074 0.046316131949424744 0.538993775844574 -0.16065609455108643 -0.10613317787647247 -0.3191736340522766 -0.18083901703357697 -0.17122481763362885 -0.17331057786941528 0.05029797554016113 -0.06250064074993134 0.4208534359931946
29020154_62799687.xml	0.045257966965436935 0.19001436233520508 -0.2522818148136139 -0.07082569599151611 0.1280236840248108 0.25449782609939575 -0.06162425875663757 -0.035099711269140244 -0.10500157624483109 0.05240262672305107 -0.06920354068279266 -0.39989420771598816 -0.295620322227478 0.3807108998298645 -0.4436017870903015 0.005051278509199619 -0.2370639443397522 -0.19725948572158813 -0.2553473114967346 -0.04010956734418869 -0.17071294784545898 0.4787423014640808 -0.028793983161449432 -0.07406086474657059 -0.4627023935317993 -0.12081826478242874 0.1206381693482399 0.008112117648124695 0.38784071803092957 -0.23116427659988403 0.059163469821214676 0.24995949864387512 0.2653736472129822 0.17384862899780273 -0.10213134437799454 -0.275973916053772 -0.30688005685806274 0.0804947093129158 -0.19728873670101166 0.2651671767234802 0.24472777545452118 -0.007430380210280418 -0.2766070067882538 0.2670523226261139 -0.24969013035297394 0.013271350413560867 -0.07253625988960266 0.2599027454853058 -0.06813909858465195 0.3156752288341522
29020161_62785920.xml	-0.22869423031806946 0.5174095630645752 -0.3006560206413269 0.07866564393043518 -0.0472818948328495 -0.06200309842824936 -0.09441214799880981 -0.07809028774499893 0.32101860642433167 -0.44209200143814087 -0.19811569154262543 -0.222270205616951 -0.17609895765781403 0.16493751108646393 -0.41897180676460266 0.09803842753171921 -0.14220976829528809 -0.3349829912185669 -0.3200776278972626 -0.2686496675014496 0.08004222065210342 0.18049195408821106 -0.18768033385276794 -0.4023498594760895 -0.27046817541122437 0.11495162546634674 0.32409337162971497 0.2289915382862091 0.21056891977787018 0.31258851289749146 0.24759654700756073 0.0043693967163562775 0.04666734114289284 0.18770352005958557 0.11863208562135696 -0.22829650342464447 -0.3636970818042755 -0.07642289996147156 0.014472441747784615 0.27932778000831604 0.5061906576156616 0.0035888287238776684 -0.3324671983718872 0.022805670276284218 -0.2728430926799774 -0.06346797943115234 -0.13375937938690186 0.23877370357513428 0.10504239797592163 0.3353688418865204
29020161_62790299.xml	-0.16109400987625122 0.21133296191692352 0.09771670401096344 0.07667876780033112 0.03301553428173065 -0.24082641303539276 0.06148742884397507 -0.162358820438385 0.21184808015823364 -0.2617568373680115 -0.2367701530456543 -0.07564662396907806 -0.22322426736354828 0.10603046417236328 -0.3418312072753906 0.0015352870104834437 0.03763488307595253 -0.07448919862508774 -0.5408557057380676 0.06257007271051407 -0.04986337572336197 -0.13128551840782166 -0.09981687366962433 -0.3650605082511902 0.07176924496889114 0.3804214596748352 0.40124568343162537 0.14491821825504303 0.1487724781036377 0.34837037324905396 0.3099418580532074 0.24662435054779053 0.5191023349761963 0.15554851293563843 0.15637633204460144 -0.030781494453549385 -0.40750062465667725 -0.1364128291606903 -0.411304771900177 0.06773630529642105 0.5530722737312317 -0.13743378221988678 -0.33533814549446106 -0.2854328453540802 -0.142115518450737 -0.23913811147212982 -0.11105480045080185 0.16081230342388153 0.3381328582763672 0.3506670296192169
29020161_62800632.xml	-0.0874185562133789 0.1304905116558075 -0.24575498700141907 -0.33388572931289673 0.20834696292877197 0.3695710003376007 -0.15538349747657776 -0.1584530472755432 -0.021450962871313095 -0.35723137855529785 -0.2186175286769867 -0.01663939654827118 -0.0705559253692627 0.22322756052017212 -0.5214735865592957 0.3088304400444031 -0.27388644218444824 -0.30792343616485596 -0.2726909816265106 -0.12609060108661652 0.013828271068632603 0.34758085012435913 -0.2504912316799164 -0.3046821653842926 0.002951642731204629 -0.15196408331394196 0.27595657110214233 0.36769574880599976 0.19755856692790985 0.2223527729511261 0.1438308209180832 -0.21999084949493408 0.20724529027938843 -0.0008294569561257958 0.1613333374261856 -0.23641863465309143 -0.3226768374443054 0.24843016266822815 -0.09480661153793335 0.2435322403907776 0.5733874440193176 0.13930732011795044 -0.31568801403045654 0.09948105365037918 -0.18837642669677734 -0.13272762298583984 -0.22158703207969666 0.43803176283836365 0.24113187193870544 0.6478527784347534
29020298_62784875.xml	-0.20275786519050598 0.29728183150291443 -0.0279059037566185 -0.1595763862133026 -0.17970791459083557 0.04553907737135887 0.0269638579338789 0.11336203664541245 0.18444189429283142 -0.09018775820732117 -0.11704066395759583 -0.1470055878162384 -0.09296222776174545 0.04981273040175438 -0.5054606795310974 -0.20314018428325653 -0.23020170629024506 -0.26303884387016296 -0.3510943055152893 -0.2810664772987366 0.03392162173986435 0.3066425919532776 -0.04993068799376488 0.03756467252969742 -0.195305734872818 0.22219371795654297 -0.21773341298103333 0.10805609822273254 0.27318599820137024 0.14955206215381622 0.04413386434316635 0.23641785979270935 0.21258804202079773 0.002507892670109868 0.10310282558202744 -0.09915565699338913 0.04331162944436073 -0.10158646106719971 -0.07226991653442383 0.1392831653356552 0.1897512674331665 -0.2659142017364502 -0.4148009419441223 0.02951885759830475 -0.604728102684021 0.04886586591601372 0.015361230820417404 -0.16062642633914948 -0.05887053906917572 0.2648956775665283
29020298_62787518.xml	-0.21017171442508698 0.05275074392557144 0.015267287380993366 -0.2669221758842468 -0.020333075895905495 -0.26609861850738525 0.09551559388637543 -0.026086866855621338 0.007598788011819124 0.00016206398140639067 -0.18260742723941803 0.1559307873249054 -0.2281339466571808 0.00830816850066185 -0.46691659092903137 -0.24788913130760193 -0.017588157206773758 -0.03728129342198372 -0.4327445328235626 -0.1770804226398468 -0.045196861028671265 -0.02068488486111164 0.01856202632188797 -0.09739691764116287 0.11266768723726273 0.38335514068603516 -0.007814941927790642 0.18953768908977509 0.1101255789399147 0.14679253101348877 0.17994767427444458 0.23217934370040894 0.3142862319946289 -0.03730417415499687 0.10312964022159576 0.009678598493337631 -0.20764955878257751 -0.23003742098808289 -0.32158714532852173 -0.2383343130350113 0.14725835621356964 -0.3377169668674469 -0.415036678314209 -0.3007577657699585 -0.0685323104262352 -0.10537511855363846 0.08299057185649872 -0.31754282116889954 -0.042364444583654404 0.07691772282123566
29020298_62791820.xml	-0.18831992149353027 0.09954462200403214 -0.2786787748336792 -0.24193419516086578 -0.07190049439668655 0.008649691008031368 0.06304598599672318 0.19603058695793152 0.12722530961036682 -0.135633185505867 -0.09097321331501007 -0.38215726613998413 0.058635413646698 0.2594723701477051 -0.3435980975627899 -0.2726009488105774 -0.24533124268054962 -0.12309663742780685 -0.06326223164796829 -0.0533909909427166 -0.021545525640249252 0.3147028386592865 0.10157550871372223 0.056520529091358185 -0.44099387526512146 -0.11232736706733704 -0.1093287244439125 -0.21469749510288239 0.24685752391815186 -0.047492582350969315 -0.31623125076293945 0.37902724742889404 0.3823356628417969 -0.023884892463684082 -0.037822943180799484 -0.3531172573566437 -0.003949155565351248 0.13855107128620148 -0.057083241641521454 -0.1815689504146576 0.12089359760284424 -0.2798280119895935 -0.542813777923584 0.3336431086063385 -0.2903956472873688 -0.014640028588473797 0.016703946515917778 -0.20132942497730255 0.15093165636062622 0.3017802834510803
29020313_62788021.xml	0.049188558012247086 0.21613703668117523 0.19655829668045044 -0.4071497619152069 -0.11916248500347137 -0.06642375886440277 0.3698379397392273 -0.11256908625364304 0.3605242371559143 -0.4063186049461365 -0.79914391040802 0.36738282442092896 -0.4887099862098694 0.22706781327724457 -0.2260429710149765 -0.04884498193860054 -0.5660035610198975 -0.1057574599981308 -0.04512178525328636 -0.4786413311958313 0.06543012708425522 -0.19669906795024872 0.3401833772659302 -0.32516130805015564 0.03839770331978798 0.3185803294181824 -0.21066738665103912 0.28004392981529236 0.32890212535858154 0.19169050455093384 0.4050353169441223 -0.08774011582136154 -0.17506001889705658 0.35680291056632996 -0.13750682771205902 0.4439784288406372 -0.263927161693573 -0.5650895237922668 0.017047034576535225 -0.17824772000312805 0.39442625641822815 -0.1570213884115219 -0.3285643756389618 -0.31846439838409424 -0.18771320581436157 -0.49616655707359314 -0.3659791648387909 -0.195949524641037 -0.2374427616596222 -0.14193406701087952
29020313_62792452.xml	0.37760767340660095 0.055818989872932434 -0.04058849811553955 -0.5057617425918579 -0.5099320411682129 0.353071928024292 0.20028842985630035 0.01163856964558363 0.4363758862018585 -0.18299362063407898 -0.6701128482818604 0.3074692189693451 -0.33259063959121704 -0.0005552939837798476 0.05970100313425064 -0.07538348436355591 -0.4355517625808716 0.02740573137998581 -0.5292312502861023 -0.3287198543548584 0.13487188518047333 -0.6389958262443542 0.6976531744003296 -0.2364586442708969 0.27042433619499207 0.19784340262413025 -0.08031142503023148 0.1832418292760849 0.17576347291469574 -0.2795887589454651 0.40798327326774597 0.31159183382987976 0.0033791083842515945 0.3915204107761383 -0.3805195987224579 0.41241076588630676 0.0031438791193068027 -1.1212446689605713 -0.13148647546768188 0.10116781294345856 0.09759347885847092 0.005109425168484449 -0.40128228068351746 -0.2730841636657715 -0.3583042621612549 0.1534605622291565 -0.3050803244113922 0.05046847090125084 0.2992531955242157 0.22159568965435028
29020313_62797613.xml	0.20872704684734344 0.22795215249061584 0.18506735563278198 -0.40157511830329895 0.08870917558670044 -0.3386480212211609 0.43358728289604187 -0.15440349280834198 0.07448525726795197 -0.3314209580421448 -0.8204370737075806 0.18861302733421326 -0.48181119561195374 0.24455872178077698 -0.12759143114089966 -0.03184737637639046 -0.5792577862739563 -0.3313283622264862 0.06324965506792068 -0.3707922399044037 -0.1551639884710312 -0.14611685276031494 0.3097474277019501 -0.2889479696750641 -0.03155289590358734 0.16156940162181854 -0.007088941987603903 0.3534047603607178 0.34142109751701355 0.15932993590831757 0.3152623176574707 -0.048172276467084885 0.004710622131824493 0.26754361391067505 -0.3061378002166748 0.43159738183021545 -0.5859299302101135 -0.5907756686210632 -0.057644542306661606 -0.22249726951122284 0.2787506580352783 -0.020388932898640633 -0.04828442633152008 -0.4586680233478546 -0.07966765761375427 -0.36256054043769836 -0.21368849277496338 -0.07976226508617401 -0.4274672567844391 -0.0015081251040101051
29020334_62802223.xml	0.2479872703552246 0.14009304344654083 -0.2838970720767975 -0.31307339668273926 0.022682493552565575 0.21916505694389343 0.45091700553894043 0.0846950113773346 -0.10602550953626633 -0.09985631704330444 0.1690712571144104 -0.24908247590065002 -0.188605397939682 0.3613813817501068 -0.3330601453781128 0.08173379302024841 -0.09045320749282837 -0.18984770774841309 0.23444904386997223 0.06440762430429459 0.07724827527999878 0.3557159900665283 0.026549527421593666 0.010118682868778706 -0.13228373229503632 -0.39594483375549316 0.2779525816440582 -0.21568690240383148 0.22822175920009613 -0.2250920534133911 -0.08286109566688538 0.016939304769039154 -0.14756719768047333 0.24752838909626007 -0.17427070438861847 0.12797409296035767 -0.17777390778064728 0.1781090795993805 -0.18135201930999756 0.11937899142503738 0.11700822412967682 -0.14204718172550201 -0.42651718854904175 0.35990676283836365 -0.3653065264225006 0.3070064187049866 0.05934997648000717 0.19168879091739655 -0.10248998552560806 0.42645248770713806
29020334_62804201.xml	0.10166188329458237 -0.09363745898008347 0.13549603521823883 -0.19610300660133362 -0.04742547869682312 -0.26832184195518494 0.33322054147720337 -0.08831078559160233 0.009450249373912811 0.017361756414175034 0.04673411697149277 0.12114832550287247 0.01657421700656414 0.1576480269432068 -0.19241470098495483 0.024284884333610535 0.15180684626102448 0.11190753430128098 -0.10820754617452621 -0.023434268310666084 -0.050217948853969574 -0.0063644889742136 0.051125749945640564 -0.2276705801486969 0.07154923677444458 0.20483915507793427 0.27266350388526917 0.08391952514648438 0.24904780089855194 0.14053547382354736 0.2086845487356186 0.34515300393104553 0.08374664932489395 0.2687951624393463 -0.1729269027709961 0.1531556248664856 -0.44989126920700073 -0.2679517865180969 -0.43613508343696594 0.08259235322475433 0.08809133619070053 -0.16514809429645538 -0.10773778706789017 -0.1703726202249527 -0.04951617866754532 -0.22077734768390656 0.16277754306793213 -0.05791037529706955 -0.014238681644201279 0.43738028407096863
29020334_62812774.xml	0.11219315230846405 0.22694987058639526 0.08434794843196869 0.2458081692457199 0.20698535442352295 -0.10284414142370224 0.20549270510673523 -0.10121280699968338 0.0219208262860775 -0.06755984574556351 -0.18642756342887878 0.3097072243690491 -0.5860047936439514 0.4839398264884949 -0.3972409963607788 0.0415295735001564 0.39827972650527954 -0.06673706322908401 -0.275624543428421 0.06646496057510376 0.4152226448059082 0.25898367166519165 -0.18571171164512634 -0.3444138169288635 0.07619202882051468 0.13738800585269928 -0.20454108715057373 0.07891744375228882 -0.03488185629248619 0.18784263730049133 0.016049595549702644 -0.3892074227333069 -0.195685476064682 0.30484217405319214 -0.2199176400899887 0.6915152072906494 -0.08945757150650024 -0.15516969561576843 -0.2984124422073364 -0.16678529977798462 0.14292411506175995 0.017800284549593925 -0.6760371327400208 0.03675048053264618 0.1442563682794571 0.059609077870845795 0.2616177499294281 -0.7096705436706543 -0.1656644344329834 -0.4335225224494934
29020688_62786950.xml	0.3235788941383362 0.06859827041625977 0.047467950731515884 -0.17208389937877655 -0.04509998857975006 0.28850188851356506 0.4269697666168213 -0.09377782046794891 0.11386441439390182 -0.10398726910352707 0.11439640074968338 -0.34271225333213806 -0.24237796664237976 0.045934177935123444 -0.40131258964538574 0.01893695630133152 -0.036255016922950745 -0.060726895928382874 0.2883036732673645 0.22555957734584808 0.4373229742050171 0.12644438445568085 -0.08723198622465134 0.007788459304720163 -0.07984589785337448 -0.35914871096611023 -0.08219107240438461 -0.10488834232091904 0.23226377367973328 0.11610366404056549 -0.12220636755228043 -0.04963342100381851 -0.0443115197122097 0.3918491303920746 -0.19376735389232635 -0.094581738114357 -0.11595722287893295 0.20990510284900665 -0.07313868403434753 -0.018704582005739212 0.04504837095737457 -0.0037260851822793484 -0.3929522633552551 0.3346517086029053 -0.3072981536388397 0.1786389797925949 0.03189960867166519 0.20001572370529175 -0.20319299399852753 0.36850813031196594
29020688_62790416.xml	0.20795059204101562 -0.10399192571640015 0.15020644664764404 -0.11826581507921219 -0.13968750834465027 -0.1863645613193512 0.37677696347236633 -0.13480117917060852 0.11048630625009537 -0.12181876599788666 0.07629013061523438 0.15394333004951477 -0.12730997800827026 -0.0991189181804657 -0.23599673807621002 -0.14035667479038239 0.12044230103492737 0.05789943039417267 -0.04963504150509834 0.02581201307475567 0.22065149247646332 -0.13459065556526184 0.025183411315083504 -0.235504150390625 0.17516115307807922 0.16603825986385345 0.03032318502664566 -0.08916506171226501 0.07676799595355988 0.1674899011850357 0.18584062159061432 0.05037584900856018 0.18396681547164917 0.24755226075649261 -0.09076406806707382 0.09248089790344238 -0.3025301396846771 -0.3146619200706482 -0.45322394371032715 -0.06599795818328857 0.17338727414608002 -0.1652650386095047 -0.3323701322078705 -0.1745271384716034 -0.008264999836683273 -0.1786215752363205 0.21122516691684723 -0.10609926283359528 -0.07990025728940964 0.2125357687473297
29020688_62792056.xml	0.1206594780087471 0.15803593397140503 0.12776659429073334 -0.32645028829574585 -0.10973958671092987 0.1640653908252716 0.44751399755477905 -0.051698025315999985 0.08422680199146271 -0.2459040731191635 0.013436109758913517 -0.07766178995370865 -0.10970285534858704 -0.005947910714894533 -0.43597647547721863 0.027438059449195862 -0.04218202084302902 -0.14538699388504028 0.2142273485660553 0.003803663421422243 0.30049842596054077 0.15789757668972015 0.019804468378424644 -0.2221619188785553 -0.03680189698934555 -0.03846968337893486 -0.039211563766002655 0.18064087629318237 0.28531184792518616 0.3506920039653778 -0.01694105565547943 0.08401867002248764 -0.2568795084953308 0.2190074622631073 -0.0955997034907341 0.15042497217655182 -0.08478721231222153 -0.11080262064933777 0.1709374636411667 0.24375374615192413 0.03256341814994812 -0.1504858136177063 -0.3745192885398865 0.20853041112422943 -0.48901572823524475 0.10988414287567139 -0.033209819346666336 0.20686814188957214 -0.12807109951972961 0.5059556365013123
29020976_62795385.xml	-0.2687915563583374 -0.0928170308470726 0.5251628160476685 -0.3983043432235718 -0.2906944751739502 -0.27753978967666626 0.18090443313121796 -0.12955832481384277 0.277294784784317 -0.030605653300881386 -0.49968045949935913 0.17622196674346924 0.18422459065914154 -0.09827036410570145 -0.4867241382598877 0.022190090268850327 -0.03222763538360596 0.054708220064640045 0.07222868502140045 -0.08398399502038956 0.3531830906867981 -0.16294057667255402 -0.12602749466896057 -0.041678283363580704 0.2157527357339859 0.5609897971153259 -0.3670010268688202 0.5425516963005066 0.3364022970199585 0.6415929794311523 0.11606220155954361 0.46787768602371216 0.13112546503543854 0.3075021803379059 -0.2451832890510559 0.14385856688022614 -0.36157456040382385 -0.052830275148153305 -0.2393694519996643 -0.23563076555728912 -0.2653224468231201 -0.22144660353660583 -0.0739363506436348 -0.31218260526657104 -0.14401811361312866 -0.21782930195331573 0.1288834810256958 -0.46088871359825134 -0.09497300535440445 0.1899285763502121
29020976_62795678.xml	-0.2046947330236435 -0.04298631474375725 0.4623865783214569 -0.3882298767566681 -0.3225065767765045 -0.3933189809322357 0.1345040500164032 -0.12228841334581375 0.3110709488391876 -0.0003003593301400542 -0.32168740034103394 0.08534611761569977 0.2675846517086029 -0.010577001608908176 -0.29693809151649475 -0.07707001268863678 -0.02012689597904682 0.09339217096567154 -0.060895584523677826 -0.13186348974704742 0.2513614296913147 -0.19510048627853394 -0.13073565065860748 0.11531668901443481 0.23374859988689423 0.5226694345474243 -0.19082456827163696 0.217425137758255 0.2844860255718231 0.45557716488838196 0.08515455573797226 0.47973698377609253 0.2592010200023651 0.1073845773935318 -0.20022420585155487 0.011862402781844139 -0.42086830735206604 -0.05245672166347504 -0.24930806457996368 -0.12691724300384521 -0.22754380106925964 -0.3719817101955414 0.09626629203557968 -0.20299650728702545 -0.36099904775619507 -0.24192270636558533 0.14609304070472717 -0.327176958322525 0.08564827591180801 0.5058057904243469
29020976_62799676.xml	-0.1475166380405426 -0.265916109085083 0.3846600651741028 -0.5060011148452759 -0.18435968458652496 -0.34235507249832153 0.042300011962652206 -0.02001398243010044 0.3830277919769287 0.03307327255606651 -0.3648383617401123 0.20907878875732422 0.16503900289535522 0.19569705426692963 -0.33513808250427246 -0.1281183511018753 -0.11266014724969864 0.19143100082874298 -0.0857161432504654 -0.04833705723285675 0.20703114569187164 -0.2883336842060089 -0.03204870596528053 -0.03910622373223305 0.2703051269054413 0.22780318558216095 -0.06457056105136871 0.13977780938148499 0.3251694142818451 0.5326577425003052 0.04193703085184097 0.5168672204017639 0.09163513034582138 -0.013989197090268135 -0.09046314656734467 -0.05071482062339783 -0.333723247051239 -0.02381753921508789 -0.25361883640289307 -0.31928592920303345 -0.17272891104221344 -0.2522607147693634 0.10445529967546463 -0.14174771308898926 -0.08263886719942093 -0.15206263959407806 0.1535971760749817 -0.46895426511764526 0.11110276728868484 0.4129375219345093
29020976_62814545.xml	-0.26705992221832275 -0.09388256818056107 0.038324981927871704 -0.5533729791641235 -0.20742952823638916 -0.7440977692604065 -0.19643908739089966 -0.7418607473373413 0.27574408054351807 -0.10260625928640366 -0.3626895546913147 -0.11445809155702591 -0.08585988730192184 0.42705830931663513 -0.5641109943389893 0.05924657732248306 -0.09666750580072403 0.1553257256746292 0.20523379743099213 0.30488166213035583 0.32120421528816223 -0.2730051279067993 -0.5492511987686157 -0.04994047433137894 0.28361281752586365 0.2724752128124237 -0.16914746165275574 0.8326362371444702 0.05918114632368088 0.3417826294898987 0.41421687602996826 0.42563939094543457 -0.2963187098503113 0.18413741886615753 -0.095418781042099 0.2320621758699417 -0.3356880843639374 0.2449357807636261 -0.5258424878120422 -0.9394214153289795 -0.44485941529273987 -0.17262952029705048 -0.10236360132694244 -0.3043927252292633 0.34799137711524963 -0.1912369579076767 -0.033796656876802444 -0.76455157995224 -0.4371059536933899 0.02484825626015663
29020983_62785377.xml	0.04397231340408325 -0.20469215512275696 0.10544571280479431 0.14483773708343506 -0.04355621337890625 -0.40056031942367554 0.2763950228691101 0.08378016203641891 -0.015137811191380024 -0.192056342959404 -0.10881195962429047 -0.14101584255695343 -0.05528774484992027 -0.17984239757061005 -0.5131998062133789 -0.15708257257938385 0.07280174642801285 -0.26387307047843933 -0.2805942893028259 -0.4228946566581726 0.1328778713941574 -0.09182391315698624 0.08589468151330948 -0.28986862301826477 0.15777038037776947 0.5116123557090759 -0.1272548884153366 -0.2512436807155609 0.189132958650589 0.4130408465862274 0.3655351996421814 0.3746665120124817 0.0882534310221672 0.10391318798065186 -0.2346225380897522 0.41545578837394714 0.07794611901044846 -0.1332673728466034 -0.27818602323532104 0.06080526113510132 0.3666623532772064 -0.22835762798786163 -0.24291111528873444 -0.06751885265111923 -0.2945441007614136 -0.14629215002059937 0.10252125561237335 -0.211086705327034 0.1361057162284851 0.2502216398715973
29020983_62787160.xml	0.08830003440380096 -0.2663485109806061 -0.08289133012294769 0.1535697728395462 0.026196449995040894 -0.4569980204105377 0.2181197553873062 0.08555915206670761 -0.07271948456764221 -0.20550325512886047 -0.16014835238456726 -0.07508047670125961 -0.09780588746070862 -0.137095108628273 -0.422514945268631 -0.24725192785263062 0.22647544741630554 -0.24337247014045715 -0.31379127502441406 -0.42998331785202026 0.04889291897416115 -0.058282386511564255 0.08626597374677658 -0.40896710753440857 0.1264258772134781 0.48457619547843933 -0.03073590248823166 -0.3782794773578644 0.16128754615783691 0.302566260099411 0.40411093831062317 0.42312905192375183 0.16824722290039062 0.10533308982849121 -0.13704778254032135 0.4590723514556885 0.0035792833659797907 -0.15306314826011658 -0.3912699520587921 0.0014850901206955314 0.3792668879032135 -0.33853909373283386 -0.24508753418922424 -0.16015751659870148 -0.17766185104846954 -0.1598762571811676 0.15023405849933624 -0.15947537124156952 0.112826406955719 0.20004092156887054
29020983_62790704.xml	0.08470426499843597 -0.16782894730567932 -0.3739106357097626 -0.017827479168772697 0.023999718949198723 0.03700019791722298 0.2835116982460022 0.052200641483068466 -0.16929367184638977 -0.15680918097496033 0.044399842619895935 -0.27690422534942627 -0.08869137614965439 0.13403046131134033 -0.4429776966571808 -0.057532891631126404 -0.020296776667237282 -0.3784812390804291 -0.18447934091091156 -0.17643149197101593 -0.004849083721637726 0.1794140636920929 0.09003997594118118 -0.19145530462265015 0.018960710614919662 0.17655856907367706 0.05469761788845062 -0.5349121689796448 0.16744659841060638 -0.13033539056777954 0.2681177258491516 0.4315156042575836 0.16999098658561707 0.20446041226387024 -0.2388342171907425 0.15339723229408264 -0.07363463193178177 0.13706104457378387 -0.4509616494178772 0.270749568939209 0.2832358777523041 -0.21949881315231323 -0.2039664089679718 0.15316130220890045 -0.3967236578464508 -0.03496718034148216 0.09263750910758972 0.11370887607336044 0.16362585127353668 0.28118038177490234
29021071_62785641.xml	-0.005058170761913061 -0.03201037272810936 0.19264613091945648 0.10088147968053818 0.329571396112442 -0.21197524666786194 0.048521626740694046 -0.10854472219944 -0.006529371254146099 -0.09224541485309601 -0.21350745856761932 0.025234781205654144 -0.26396942138671875 -0.06450951844453812 -0.46532514691352844 -0.013546552509069443 -0.025354955345392227 -0.5165531039237976 -0.053719472140073776 -0.19914402067661285 0.15569354593753815 0.0866897702217102 -0.000103253114502877 -0.4756552278995514 -0.10578984767198563 -0.0392322912812233 -0.16178280115127563 0.504545271396637 0.23896732926368713 0.3557160198688507 0.25128045678138733 -0.04246199131011963 -0.14204064011573792 -0.05915002524852753 -0.15439827740192413 0.580982506275177 -0.3411085903644562 -0.4159749448299408 -0.09378527104854584 -0.03236246109008789 0.19009406864643097 -0.15625618398189545 -0.3680596649646759 -0.22687941789627075 -0.03932812809944153 0.08571935445070267 -0.005670671351253986 -0.04158458486199379 -0.2646085023880005 0.006353342439979315
29021071_62791474.xml	0.11129593104124069 0.02990121766924858 -0.04975360259413719 -0.21480196714401245 -0.02656378597021103 -0.17745332419872284 0.4081867039203644 -0.004624248947948217 -0.05062617361545563 -0.1614997237920761 0.04724380373954773 0.08783050626516342 -0.05557546392083168 -0.04760747030377388 -0.3187975585460663 -0.050615109503269196 0.03140393644571304 -0.3247361183166504 0.12557515501976013 -0.015770254656672478 0.053566690534353256 0.05909328907728195 0.07859811931848526 -0.12915968894958496 0.033971548080444336 -0.002694100607186556 0.10963429510593414 -0.021380368620157242 0.12478195875883102 0.122109055519104 0.08547613769769669 0.03624073415994644 0.08194650709629059 0.09110886603593826 -0.1532396525144577 0.31648924946784973 -0.3596014678478241 -0.2116764783859253 -0.27944284677505493 -0.031489595770835876 -0.03491309657692909 -0.3005428910255432 -0.3106359541416168 -0.07810506224632263 -0.24227328598499298 0.09778841584920883 0.19931656122207642 0.013633373193442822 -0.030681906268000603 0.2365419715642929
29021071_62796724.xml	0.19585445523262024 0.08175280690193176 -0.10262482613325119 -0.2855975031852722 0.17459359765052795 0.12524811923503876 0.42801788449287415 0.06602691113948822 -0.2396066039800644 -0.0707467794418335 0.05111508071422577 -0.024308087304234505 -0.22277997434139252 0.28980934619903564 -0.48700666427612305 0.03554501011967659 0.0585203692317009 -0.2451920062303543 0.24448135495185852 0.12308423966169357 0.13977958261966705 0.2536958158016205 0.004234651103615761 -0.2937958836555481 -0.1304948776960373 -0.28427714109420776 0.15626280009746552 0.10118589550256729 0.1513509899377823 -0.010846910998225212 -0.14006075263023376 0.046334996819496155 -0.10586921125650406 0.1057538241147995 -0.13436323404312134 0.20283383131027222 -0.29280370473861694 -0.05780500918626785 -0.0906575471162796 0.11112021654844284 -0.12146581709384918 -0.11853182315826416 -0.5007208585739136 0.33724531531333923 -0.15092012286186218 0.22144323587417603 0.19333375990390778 0.14711692929267883 -0.21302063763141632 0.19466157257556915
29021127_62788562.xml	0.06725449115037918 -0.11564583331346512 0.17642682790756226 -0.07646597921848297 -0.12291964143514633 -0.21728232502937317 0.3273301422595978 -0.09417125582695007 0.16093756258487701 -0.15395741164684296 0.051794420927762985 -0.013931778259575367 -0.02899899147450924 -0.2197272777557373 -0.25351613759994507 -0.14501339197158813 0.1271173655986786 -0.12670275568962097 0.08148094266653061 -0.04000716283917427 0.3650088608264923 -0.14643363654613495 -0.03903283178806305 -0.12113889306783676 0.17273269593715668 0.10018707811832428 -0.18396370112895966 0.010355074889957905 0.05077202990651131 0.3042006492614746 0.1398288607597351 0.07815466076135635 0.08817468583583832 0.18189340829849243 -0.1638336181640625 0.2604590952396393 -0.25921630859375 -0.16761724650859833 -0.3707166910171509 -0.09130201488733292 0.07406086474657059 -0.2548202872276306 -0.3058491051197052 -0.21834510564804077 -0.185305655002594 0.0032654909882694483 0.14449940621852875 -0.12451190501451492 -0.08221641927957535 0.27264901995658875
29021127_62793629.xml	0.24743162095546722 -0.005554066970944405 -0.04364301636815071 -0.2992488443851471 -0.11264068633317947 0.37869036197662354 0.40611129999160767 0.001822492922656238 0.08598486334085464 -0.11656470596790314 0.17256085574626923 -0.1931689977645874 -0.14578519761562347 0.18851374089717865 -0.45347893238067627 0.06640992313623428 -0.08388243615627289 0.08472894132137299 0.23227109014987946 0.21736690402030945 0.34314465522766113 0.17022991180419922 -0.02579505927860737 -0.052568189799785614 -0.019799640402197838 -0.29391050338745117 -0.06065734103322029 -0.06551595032215118 0.271494597196579 -0.001393880695104599 -0.12840566039085388 0.029960688203573227 0.03308285400271416 0.30784207582473755 -0.12196166813373566 -0.24871008098125458 -0.1328214704990387 0.13121409714221954 -0.17344550788402557 0.16559788584709167 0.09618877619504929 -0.013877063058316708 -0.4021621644496918 0.4123077988624573 -0.40163102746009827 0.012498646043241024 0.05678100883960724 0.1418980360031128 -0.05793137848377228 0.38715746998786926
29021246_62784155.xml	-0.1703168749809265 0.2784670889377594 0.13513760268688202 -0.19108273088932037 -0.3421320617198944 0.21248993277549744 0.16473470628261566 0.03222641348838806 0.2007797509431839 -0.1045653373003006 -0.07571551203727722 0.07668052613735199 -0.2747456729412079 -0.19706623256206512 -0.42190104722976685 -0.35992345213890076 -0.016138171777129173 0.08150047063827515 0.014332332648336887 -0.1589246690273285 0.3156033754348755 0.13992562890052795 0.017813416197896004 -0.13375209271907806 0.00750000961124897 0.39640724658966064 -0.08578955382108688 0.015725038945674896 0.2193089723587036 0.05028963461518288 0.09564551711082458 0.0569111593067646 0.26064932346343994 0.2653138041496277 0.14732787013053894 -0.2451700121164322 -0.30192670226097107 0.006316578481346369 -0.23190468549728394 0.018602989614009857 0.13488993048667908 -0.3075111508369446 -0.3143581449985504 0.24265176057815552 -0.15340818464756012 -0.17161449790000916 0.207518070936203 -0.18172554671764374 -0.16349151730537415 0.09211796522140503
29021246_62794103.xml	-0.04293787479400635 0.16765278577804565 0.18953049182891846 -0.16984158754348755 -0.283121258020401 -0.14263205230236053 0.2325485497713089 -0.052928853780031204 0.10060782730579376 0.0015288469148799777 -0.0595216266810894 0.17436814308166504 -0.29436421394348145 -0.18468275666236877 -0.287295937538147 -0.2949479818344116 0.196506068110466 0.20846275985240936 -0.2846231758594513 -0.06555629521608353 0.1321001648902893 -0.056976739317178726 0.001534824725240469 -0.06910469383001328 0.18079015612602234 0.5363547801971436 0.056305427104234695 -0.08391019701957703 0.03068392351269722 0.012371777556836605 0.23911641538143158 0.09187901765108109 0.47287723422050476 0.23865284025669098 0.12198501080274582 -0.1238478571176529 -0.4262077510356903 -0.16857649385929108 -0.4996488094329834 -0.24661341309547424 0.12394638359546661 -0.36152341961860657 -0.278647243976593 -0.1728980541229248 -0.03870007023215294 -0.39747124910354614 0.249557763338089 -0.2983356714248657 -0.026202790439128876 0.1888469010591507
29021246_62796466.xml	-0.0521588996052742 0.16582182049751282 -0.02072978764772415 -0.2532211244106293 -0.2718789875507355 0.3919042646884918 0.07586812227964401 0.06419629603624344 0.23424269258975983 -0.06177811697125435 0.02945113740861416 -0.0964742973446846 -0.3685254156589508 0.08887749910354614 -0.35362571477890015 -0.3361695408821106 -0.04908020421862602 0.20253413915634155 0.06266175210475922 0.13973256945610046 0.23194842040538788 0.09034542739391327 0.11496903747320175 0.04867561534047127 -0.03317088261246681 0.06012086197733879 -0.06327942758798599 -0.22388261556625366 0.29814133048057556 -0.20559179782867432 -0.07608871161937714 0.03135429322719574 0.38661661744117737 0.23199918866157532 0.055915433913469315 -0.5824017524719238 -0.31354638934135437 0.34350258111953735 -0.3092363476753235 -0.15293896198272705 0.17293515801429749 -0.22158291935920715 -0.2296886444091797 0.5230244398117065 -0.05429289862513542 -0.1148311048746109 0.18071022629737854 -0.0885540246963501 -0.03120426833629608 0.242397740483284
29021274_62784125.xml	-0.025162888690829277 0.08616254478693008 -0.04333461448550224 -0.22980362176895142 -0.011135382577776909 -0.38224953413009644 -0.056582070887088776 0.025824815034866333 0.12427409738302231 -0.2664809226989746 0.1265643686056137 -0.17691215872764587 -0.3543627858161926 -0.22434914112091064 -0.28514209389686584 -0.24008247256278992 -0.17845609784126282 -0.038257092237472534 0.20533069968223572 -0.4689103066921234 -0.1284548044204712 0.17777657508850098 0.28174954652786255 -0.08977162837982178 0.01451061386615038 -0.04889915883541107 0.057757534086704254 0.6122029423713684 0.6292800903320312 0.3696441054344177 0.012217811308801174 0.1193084716796875 -0.01944192498922348 0.20503471791744232 0.17393116652965546 0.08916950225830078 -0.828346848487854 -0.1607060730457306 -0.11858214437961578 0.14599469304084778 -0.1371356099843979 -0.19142042100429535 -0.3785955607891083 -0.3809114098548889 0.36553797125816345 0.10562790930271149 0.034037720412015915 -0.3309893310070038 -0.007595298811793327 -0.046737831085920334
29021274_62787931.xml	0.08286022394895554 0.01975981518626213 -0.08188828080892563 -0.15763311088085175 -0.023609209805727005 -0.5199092626571655 0.06150038540363312 0.014174950309097767 0.0740232914686203 -0.1217944398522377 0.20906825363636017 -0.10108144581317902 -0.2275114804506302 -0.1281372457742691 -0.20482899248600006 -0.16648562252521515 -0.08263769745826721 0.08386023342609406 -0.015357326716184616 -0.32579463720321655 -0.3411627411842346 0.06405067443847656 0.19842705130577087 0.11157849431037903 0.15703637897968292 -0.07499158382415771 0.23401418328285217 0.35417553782463074 0.501817524433136 0.1567826122045517 0.06325022876262665 0.238924041390419 0.19217869639396667 0.20838752388954163 0.04239963740110397 0.12874799966812134 -0.8236544132232666 -0.1780543476343155 -0.381313294172287 0.10557425022125244 -0.197662815451622 -0.16165482997894287 -0.3495350480079651 -0.35524988174438477 0.2993657886981964 0.04308678209781647 0.08980520069599152 -0.375956267118454 0.15922565758228302 0.0722799077630043
29021274_62794956.xml	0.061700329184532166 0.11986005306243896 -0.3151673674583435 -0.2376897633075714 -0.059320542961359024 -0.10893241316080093 -0.013874105177819729 0.05878174677491188 -0.07273919880390167 -0.1949836164712906 0.2881626784801483 -0.371574342250824 -0.2616330087184906 -0.021439585834741592 -0.29174840450286865 -0.03488529846072197 -0.22017066180706024 -0.02947225421667099 0.3122248649597168 -0.3445979058742523 -0.25074121356010437 0.3763566017150879 0.2810533046722412 0.15671516954898834 -0.17411738634109497 -0.23562100529670715 0.19315914809703827 0.39913561940193176 0.7086989879608154 -0.04210944473743439 -0.10732870548963547 0.17446869611740112 0.16694258153438568 0.3338128924369812 0.035728055983781815 -0.11670775711536407 -0.9038055539131165 0.06574223190546036 -0.2582370340824127 0.5006574988365173 -0.20560979843139648 -0.24089331924915314 -0.4257776737213135 0.08709809929132462 0.10505456477403641 0.046660128980875015 0.038348983973264694 0.030061641708016396 0.20453360676765442 0.02577955462038517
29021283_62784298.xml	-0.18093398213386536 -0.21205909550189972 0.6479306221008301 0.06560863554477692 0.1513899713754654 -0.43181726336479187 0.22798043489456177 -0.06729789823293686 0.008839055895805359 -0.014996143989264965 -0.03038923814892769 -0.36093395948410034 0.06749962270259857 -0.05010925233364105 -0.4960852861404419 -0.000588687602430582 -0.10567442327737808 -0.2701592445373535 -0.12299587577581406 -0.22725772857666016 0.361349493265152 0.08625111728906631 -0.10520658642053604 -0.25974538922309875 0.05556232109665871 0.34287089109420776 -0.2711486220359802 0.36219021677970886 0.28881317377090454 0.5364894270896912 0.05341706424951553 0.4165678024291992 0.06986886262893677 -0.2456701695919037 -0.3668895363807678 0.3733782470226288 -0.20797379314899445 -0.1906265765428543 -0.3086943030357361 0.35416725277900696 0.23281560838222504 -0.19731293618679047 -0.2307128608226776 0.13386845588684082 -0.5111904144287109 0.03437507152557373 0.04445957764983177 -0.20274996757507324 0.034764181822538376 0.321683794260025
29021283_62790056.xml	-0.13303041458129883 -0.16858220100402832 0.7717645168304443 0.09555403143167496 0.015451828017830849 -0.319604754447937 0.1436011642217636 -0.21040555834770203 0.16754019260406494 -0.03890308365225792 -0.07953491806983948 -0.24263641238212585 0.04225357994437218 -0.11135589331388474 -0.4856105446815491 0.016030296683311462 -0.01929762028157711 -0.27490636706352234 -0.10108530521392822 -0.08756408095359802 0.33254945278167725 0.02113102562725544 -0.1436792016029358 -0.2973009943962097 0.06427492946386337 0.3701908588409424 -0.2950804829597473 0.24994345009326935 0.29716214537620544 0.5083892345428467 0.1182437613606453 0.3354291319847107 0.1042000949382782 -0.22629037499427795 -0.3622601330280304 0.4225873351097107 -0.24262598156929016 -0.15686456859111786 -0.2824620008468628 0.20340460538864136 0.13277895748615265 -0.15127956867218018 -0.0643652155995369 0.10898594558238983 -0.39657512307167053 -0.07615059614181519 0.10530919581651688 -0.2074185162782669 0.07009562849998474 0.3163354992866516
29021283_62797395.xml	0.1774284988641739 -0.09897640347480774 0.35796576738357544 0.17927679419517517 0.02819255366921425 0.049963004887104034 0.1748020201921463 -0.09166182577610016 0.11640613526105881 -0.018554555252194405 0.31636276841163635 -0.48506826162338257 -0.0471234992146492 0.005480763968080282 -0.4735791087150574 0.0018342279363423586 -0.21245069801807404 -0.26819363236427307 -0.047698259353637695 0.03354928642511368 0.4720710217952728 0.11085313558578491 -0.07130595296621323 -0.03950916975736618 -0.1645217388868332 -0.1333540678024292 -0.3628562092781067 -0.028872765600681305 0.21824520826339722 0.15160112082958221 -0.0828765407204628 0.10885737836360931 0.2880091369152069 -0.037950508296489716 -0.19975018501281738 -0.26257264614105225 -0.14801691472530365 -0.0539090596139431 -0.2980404794216156 0.3754502236843109 0.17344200611114502 -0.06826020032167435 -0.3994625210762024 0.3802143335342407 -0.5376171469688416 0.12447135150432587 0.16121990978717804 0.08168428391218185 -0.15423022210597992 0.36910057067871094
29021457_62784384.xml	0.28618568181991577 0.08262871205806732 0.15075013041496277 -0.14734403789043427 -0.11263875663280487 0.06054503843188286 0.265007883310318 -0.010548079386353493 0.050941064953804016 -0.18959853053092957 0.002455698326230049 0.07099299132823944 -0.2860431969165802 -0.04317876324057579 -0.24246163666248322 -0.21122151613235474 0.0850810781121254 -0.22857439517974854 0.11413414776325226 -0.22106966376304626 0.28538984060287476 0.15021249651908875 -0.15369220077991486 -0.4978674352169037 0.2642481029033661 0.06108919531106949 -0.1048375591635704 0.6401217579841614 0.09105274081230164 0.38859736919403076 0.3723922371864319 0.21884660422801971 -0.28287750482559204 0.06423699855804443 -0.23911328613758087 0.13382737338542938 -0.14034515619277954 -0.3517673909664154 0.27867481112480164 -0.09206216782331467 0.012200256809592247 -0.44642728567123413 -0.4390941858291626 -0.08858592808246613 -0.2863582372665405 -0.08436764776706696 0.05216359719634056 -0.08413996547460556 0.12274666875600815 0.19132529199123383
29021457_62789226.xml	0.03431715816259384 0.09852209687232971 0.11142148077487946 -0.20962294936180115 -0.1536579728126526 -0.07241854071617126 0.2881390452384949 -0.034359876066446304 0.17049995064735413 -0.1494460105895996 -0.10697607696056366 0.12313728034496307 -0.09148962795734406 -0.06267251074314117 -0.20800665020942688 -0.03293896093964577 0.07106851786375046 -0.051571402698755264 -0.07220996916294098 -0.14643988013267517 0.13113056123256683 -0.00038455030880868435 0.08080040663480759 -0.2610940635204315 0.1105804592370987 0.2620585858821869 -0.02107369527220726 0.12237833440303802 0.18658646941184998 0.26656773686408997 0.26370999217033386 0.15011407434940338 -0.10959985107183456 0.27806556224823 -0.10653960704803467 0.23506338894367218 -0.3115121126174927 -0.13011014461517334 -0.12868590652942657 0.06433194875717163 0.07992088049650192 -0.19445234537124634 -0.1849898099899292 -0.1486000269651413 -0.14885255694389343 -0.15062370896339417 0.03584394231438637 -0.08907341957092285 -0.017426704987883568 0.41130295395851135
29021457_62798641.xml	0.1543036699295044 0.11361070722341537 -0.3546253442764282 -0.6556079983711243 -0.050025783479213715 0.33290910720825195 0.5156379342079163 0.1439637839794159 -0.320259153842926 -0.0017847500275820494 0.06683804839849472 -0.45793500542640686 -0.23628796637058258 0.40677469968795776 -0.4259098768234253 0.17713366448879242 -0.15806056559085846 0.00047358174924738705 0.1311519593000412 0.06612588465213776 0.020741721615195274 0.5260303020477295 -0.09334252029657364 0.13335570693016052 -0.05195467919111252 -0.3465893864631653 0.21850436925888062 -0.003486145054921508 0.13328403234481812 -0.3895549476146698 -0.06445815414190292 0.1694543957710266 -0.041843220591545105 0.3082888424396515 -0.24901221692562103 -0.07160191982984543 -0.19529597461223602 0.43694108724594116 -0.43186697363853455 0.09837261587381363 0.18573668599128723 0.035886622965335846 -0.15922440588474274 0.1898062378168106 -0.5766729712486267 -0.05554027855396271 -0.05703464895486832 0.03161463141441345 -0.025313250720500946 0.4934427738189697
29021624_62784339.xml	0.022881684824824333 -0.011680162511765957 -0.18808308243751526 0.09389907121658325 0.13612040877342224 0.08636220544576645 -0.09429468959569931 -0.03962733596563339 0.103675976395607 -0.2887011766433716 0.059519682079553604 -0.15003564953804016 -0.3256678283214569 0.01674645021557808 -0.43096187710762024 0.048359259963035583 -0.29969850182533264 -0.25726091861724854 0.039993397891521454 -0.30390504002571106 -0.2568729817867279 0.20563174784183502 0.1366669237613678 -0.13325203955173492 -0.1332141011953354 -0.20210622251033783 -0.08983097225427628 0.2092052698135376 0.6752722859382629 -0.017637355253100395 0.0647093802690506 0.03180745989084244 0.05546514317393303 0.16596992313861847 -0.014268607832491398 0.18210892379283905 -0.7104793787002563 -0.24643643200397491 -0.232435405254364 0.4948027431964874 -0.12034377455711365 0.006413683295249939 -0.26060208678245544 0.009315621107816696 -0.05969243124127388 -0.09474087506532669 -0.07882771641016006 -0.05865396931767464 0.13147762417793274 -0.2663595676422119
29019815_62798510.xml	0.6007246375083923 0.059782642871141434 0.4574069678783417 -0.244371235370636 -0.47904208302497864 -0.029559090733528137 0.013305366039276123 0.4504893720149994 0.19184516370296478 0.12919560074806213 -0.22641396522521973 -0.18539150059223175 -0.7254717350006104 -0.5617033839225769 0.05050356686115265 -0.8552292585372925 0.19692805409431458 -0.1939576417207718 -0.2108694165945053 -0.19416740536689758 0.298780232667923 -0.5739745497703552 0.03515508398413658 -0.11302633583545685 0.6376316547393799 0.34131962060928345 -0.1549011468887329 -0.2159559577703476 -0.5955786108970642 -0.3569866418838501 0.2871165871620178 0.33937689661979675 0.5053927898406982 0.35107189416885376 -0.33674564957618713 -0.2845248878002167 -0.4104992151260376 0.029318222776055336 -0.34824973344802856 -0.7366958856582642 0.02948479913175106 -0.4720759689807892 -0.24027179181575775 -0.15074482560157776 0.23863695561885834 0.061018433421850204 0.47669777274131775 -0.22673819959163666 0.26102644205093384 0.11134521663188934
29020334_62784345.xml	0.017802294343709946 0.0203266479074955 0.06003103777766228 -0.15140099823474884 0.05018248409032822 -0.25585851073265076 0.28781139850616455 0.03453867882490158 -0.00947897881269455 -0.14578528702259064 -0.07163964211940765 0.052178919315338135 -0.061336323618888855 -0.08189449459314346 -0.36464959383010864 -0.101316437125206 0.07308648526668549 -0.2856030762195587 0.22716780006885529 -0.1841925084590912 0.24505509436130524 0.1514546126127243 0.026635143905878067 -0.3332696259021759 -0.04467565938830376 0.013897707685828209 -0.02338530123233795 0.30639395117759705 0.2231445461511612 0.42791858315467834 0.1304328888654709 0.036097411066293716 -0.1790745109319687 0.17312008142471313 -0.1284123659133911 0.4403381645679474 -0.32191574573516846 -0.1758742332458496 -0.06907308101654053 -0.07121919840574265 0.08160386979579926 -0.25574108958244324 -0.38565143942832947 -0.11236131936311722 -0.02384190633893013 0.2202782928943634 0.1331646889448166 -0.0885862484574318 -0.24826377630233765 0.1867951601743698
29021127_62784228.xml	0.16808271408081055 0.017118792980909348 0.1664074957370758 -0.16407285630702972 -0.06326170265674591 0.0587325282394886 0.5051906108856201 -0.04242391884326935 0.012294425629079342 -0.19507859647274017 0.1319374442100525 -0.06879662722349167 -0.06820858269929886 -0.17360274493694305 -0.5402493476867676 -0.05397634580731392 0.03383582457900047 -0.10722533613443375 0.23731468617916107 0.056542083621025085 0.43681010603904724 0.10334716737270355 -0.16559766232967377 -0.2591586709022522 0.07479545474052429 -0.1376267820596695 -0.16718915104866028 0.24353598058223724 0.1692996472120285 0.32713931798934937 -0.04302787408232689 -0.04983087629079819 -0.0359044224023819 0.22325585782527924 -0.0779656171798706 0.05118785798549652 -0.11744923889636993 -0.1913330852985382 -0.07582748681306839 0.10213388502597809 0.08192181587219238 -0.08088884502649307 -0.4350234568119049 0.1211865097284317 -0.44414761662483215 0.06692125648260117 0.14075426757335663 0.01381585095077753 -0.30385005474090576 0.27005013823509216
29021624_62791840.xml	0.13235262036323547 -0.13996292650699615 0.02166839875280857 0.24532142281532288 0.08522103726863861 -0.39245909452438354 -0.05298949405550957 -0.15474702417850494 0.22551031410694122 -0.15014894306659698 0.02278122864663601 -0.15088067948818207 -0.3128058910369873 -0.14419908821582794 -0.1878683716058731 -0.04429825395345688 -0.17000412940979004 -0.17114774882793427 -0.3024898171424866 -0.31606611609458923 -0.3398989140987396 -0.0345253124833107 0.07551635056734085 -0.07735615223646164 0.07462893426418304 0.034848831593990326 0.06725874543190002 0.08346108347177505 0.46590280532836914 0.2257501631975174 0.28903114795684814 0.2605677843093872 0.21742476522922516 0.1552705019712448 -0.1336926370859146 0.3487655222415924 -0.7806938290596008 -0.3284892737865448 -0.4744240343570709 0.14123483002185822 -0.10783371329307556 0.02906096912920475 -0.1055690199136734 -0.48108166456222534 0.16204209625720978 -0.08413323014974594 0.09131581336259842 -0.354210764169693 0.20885030925273895 -0.1020912453532219
29022499_62795006.xml	-0.1560559868812561 0.03266591578722 -0.1886170506477356 -0.1251690685749054 -0.11211217194795609 0.3233337104320526 0.6648017168045044 -0.14799925684928894 -0.06927362829446793 -0.3175905644893646 -0.03815046697854996 -0.01013174094259739 -0.1346488893032074 0.015251867473125458 -0.1688576638698578 -0.26890164613723755 -0.09412973374128342 -0.32299715280532837 -0.09654402732849121 -0.16841958463191986 0.2782427966594696 0.5385950803756714 -0.08914756029844284 0.035388607531785965 -0.06745485961437225 -0.085153728723526 -0.06999435275793076 -0.27122288942337036 0.1736808717250824 -0.39491599798202515 -0.3530777096748352 -0.0688672736287117 -0.14832104742527008 0.1285727620124817 -0.1463806927204132 0.1307070404291153 -0.2723880112171173 0.37178152799606323 -0.17478443682193756 0.19632025063037872 -0.05940462276339531 -0.42938941717147827 -0.8159210681915283 0.4801047742366791 -0.15899236500263214 0.2245161384344101 0.23328915238380432 0.04888635128736496 0.015256362967193127 -0.0663938894867897
29023600_62784542.xml	0.061317600309848785 0.5351284742355347 0.295968621969223 -0.06960152834653854 -0.17571839690208435 -0.021740823984146118 -0.38009318709373474 0.10033293068408966 0.16215728223323822 0.16407611966133118 -0.38016870617866516 0.2972477972507477 -0.3685454726219177 -0.10716922581195831 -0.2991204261779785 -0.24934729933738708 0.17682933807373047 -0.3357064127922058 -0.876771867275238 0.12271394580602646 -0.17809896171092987 0.10695549845695496 0.049544356763362885 -0.13717132806777954 0.049619607627391815 0.28904804587364197 0.04485170915722847 0.17677587270736694 0.24046368896961212 0.13778792321681976 0.2915654182434082 -0.04057621210813522 0.11130615323781967 0.291161447763443 -0.24303318560123444 0.45972922444343567 -0.14618709683418274 -0.6526041030883789 0.024753831326961517 0.05339841544628143 0.15890006721019745 -0.075334332883358 -0.14488521218299866 -0.07594936341047287 -0.22898755967617035 -0.028371276333928108 -0.0034017637372016907 -0.27925553917884827 0.32782304286956787 0.3682709336280823
29024162_62784903.xml	-0.07161164283752441 0.041431576013565063 0.025293920189142227 0.21411752700805664 -0.26590394973754883 -0.1446687877178192 -0.1743626594543457 -0.14367973804473877 0.5700317621231079 -0.20444710552692413 -0.04233497381210327 -0.08951921761035919 -0.1868838518857956 -0.10619445890188217 -0.06921754777431488 0.008294031023979187 -0.07587937265634537 0.03252870589494705 -0.4678665101528168 -0.47503557801246643 0.22629836201667786 -0.0819840133190155 -0.15958856046199799 -0.11068437248468399 -0.1935805231332779 -0.01041359268128872 0.100641630589962 -0.17487846314907074 0.23047830164432526 0.41270238161087036 0.401140034198761 -0.01580231450498104 -0.3094771206378937 0.3209782838821411 0.0687076523900032 -0.1627403050661087 -0.382120281457901 -0.20715157687664032 -0.241983100771904 -0.18073074519634247 0.2589768171310425 0.013385879807174206 0.3266485631465912 -0.11254026740789413 -0.30529895424842834 -0.520188570022583 0.07150331139564514 -0.3527839481830597 -0.035928819328546524 0.5374366044998169
29024714_62793722.xml	-0.2058815062046051 0.2817610204219818 -0.09301454573869705 -0.410005658864975 -0.3967733085155487 0.2737075090408325 0.49858376383781433 0.001970775192603469 0.14697834849357605 -0.1745627224445343 0.04085081070661545 0.004728767089545727 0.20654423534870148 0.45895132422447205 -0.2645358741283417 0.3060454726219177 -0.02950671687722206 -0.0027502402663230896 -0.14722579717636108 0.13487833738327026 0.08519793301820755 0.02688179351389408 -0.11023356765508652 -0.09784971177577972 0.2672256529331207 0.3012077510356903 0.34421035647392273 -0.1862642765045166 -0.11539805680513382 -0.1864660084247589 0.15373991429805756 0.20554916560649872 0.33195820450782776 0.47692474722862244 -0.1458618938922882 -0.14187133312225342 -0.4941868484020233 0.3181891441345215 -0.6984843611717224 0.3514682352542877 0.1787387877702713 0.007745076902210712 -0.040152642875909805 -0.15279701352119446 -0.38064131140708923 -0.4791942238807678 0.11861684918403625 -0.11913710087537766 0.3337894082069397 0.44881728291511536
29025439_62797172.xml	0.03277679905295372 -0.019512156024575233 -0.007658442482352257 -0.020091138780117035 0.23329539597034454 0.2177780419588089 0.13912087678909302 0.017337188124656677 -0.008013260550796986 0.06410408020019531 0.09084641933441162 -0.15925951302051544 -0.13205444812774658 0.5332856774330139 -0.43414974212646484 0.22107182443141937 -0.13175630569458008 -0.22956937551498413 -0.029719701036810875 0.02270643040537834 0.01221318356692791 0.0902077853679657 -0.04785734787583351 0.10946282744407654 -0.17825697362422943 -0.42512741684913635 -0.009545622393488884 0.0036076561082154512 0.16649174690246582 -0.2296641319990158 -0.12017931789159775 0.039955656975507736 0.010114612989127636 -0.14383243024349213 -0.2867856025695801 0.21761244535446167 -0.08578655868768692 -0.10904650390148163 -0.2892918884754181 0.24857714772224426 0.17781603336334229 -0.18219850957393646 -0.4663713276386261 0.3675447702407837 -0.5665464401245117 0.22479748725891113 -0.09035862982273102 0.16867385804653168 0.06057922542095184 0.35214537382125854
29026356_62794845.xml	-0.10583170503377914 0.3726230561733246 -0.27587103843688965 -0.4311193823814392 -0.04405421391129494 -0.05622011423110962 0.1598304957151413 0.09673389047384262 -0.09427148103713989 -0.10558949410915375 -0.2197740375995636 -0.026202769950032234 -0.18776170909404755 0.544178307056427 -0.1058841198682785 -0.29452526569366455 -0.34252363443374634 -0.1757604032754898 -0.13318517804145813 -0.3797999918460846 -0.00039377162465825677 0.04157879576086998 0.3179960548877716 0.18691273033618927 -0.24396571516990662 0.1494390219449997 0.08752899616956711 -0.19108907878398895 0.21723954379558563 -0.13297075033187866 -0.14943233132362366 0.18427693843841553 0.3286724388599396 0.13121987879276276 0.12380953878164291 -0.24087181687355042 -0.12390604615211487 -0.19267846643924713 -0.02321081981062889 0.20750375092029572 0.18896518647670746 -0.586948573589325 -0.6374534368515015 0.19540385901927948 -0.2622036635875702 0.11663376539945602 -0.018958112224936485 0.12361128628253937 -0.24396444857120514 0.37229493260383606
29028036_62784804.xml	-0.12098374217748642 0.1283073127269745 -0.023653846234083176 -0.14179076254367828 -0.0628437027335167 -0.29597535729408264 -0.14784200489521027 0.029289783909916878 0.2676762342453003 -0.21520404517650604 -0.09463392943143845 -0.1475665122270584 -0.36284512281417847 -0.3084051311016083 -0.2045588493347168 -0.2080080360174179 -0.2574932873249054 -0.14776934683322906 -0.05275268852710724 -0.5358768701553345 -0.21990907192230225 0.16505339741706848 0.3258383274078369 -0.15560179948806763 0.03335157781839371 0.19402189552783966 0.02894987165927887 0.4068440794944763 0.614013135433197 0.16167403757572174 0.3308194577693939 0.13776561617851257 0.00921842735260725 0.240994393825531 0.05342720076441765 0.11918888986110687 -1.0438734292984009 0.006948102731257677 -0.20938308537006378 0.05716222897171974 -0.0012239854549989104 -0.1100277453660965 0.07752220332622528 -0.3161892592906952 0.2510198652744293 -0.3334103524684906 0.03902652859687805 -0.37351059913635254 0.09452086687088013 0.05759907886385918
29028510_62803249.xml	-0.09255816787481308 0.36441126465797424 0.1178627461194992 0.01582186669111252 -0.08974561840295792 0.056207235902547836 0.3977603018283844 0.25012069940567017 0.29123061895370483 -0.2507938742637634 -0.13433633744716644 -0.010648570954799652 -0.14317837357521057 0.474612832069397 -0.17504486441612244 0.09510168433189392 0.1697627753019333 -0.005544675048440695 -0.17648574709892273 0.16987881064414978 0.16211067140102386 0.13872931897640228 -0.33865758776664734 -0.18140709400177002 0.29519760608673096 0.05396783724427223 0.2989628314971924 0.2889004945755005 -0.2626747488975525 0.3076465427875519 -0.03620702773332596 -0.033603087067604065 0.2418098896741867 0.555641233921051 -0.21598897874355316 0.12667550146579742 -0.36778441071510315 0.23978154361248016 -0.5311036109924316 0.15927168726921082 0.40659990906715393 0.2021590918302536 -0.2864167094230652 -0.5376051664352417 -0.14656312763690948 0.2060740888118744 0.04524504393339157 -0.562680184841156 -0.14627137780189514 0.39832520484924316
29030152_62784138.xml	-0.17689335346221924 0.3609897494316101 -0.07380618900060654 -0.3416013717651367 -0.33026447892189026 0.08649133890867233 0.01349533163011074 0.2514752447605133 0.21276028454303741 -0.08319392800331116 -0.21028943359851837 0.09963790327310562 -0.0697980672121048 0.06772318482398987 -0.3977155387401581 -0.2597232162952423 -0.15203319489955902 0.08131670951843262 -0.22662878036499023 -0.3970000445842743 0.042492177337408066 0.308022141456604 0.05224141106009483 -0.1852889358997345 -0.14221245050430298 0.37241336703300476 -0.07305528223514557 0.2582700848579407 0.27685853838920593 0.1258976012468338 0.030038220807909966 0.2214067578315735 0.030136097222566605 0.39037105441093445 0.1938578486442566 -0.25752589106559753 -0.22295889258384705 0.007238881662487984 0.059039156883955 0.04485033452510834 0.09669690579175949 -0.22427713871002197 -0.39179250597953796 0.07666485756635666 -0.12076586484909058 -0.1804574728012085 0.12222294509410858 -0.3122082054615021 -0.1321330964565277 0.31000232696533203
29030381_62790018.xml	-0.4894196689128876 -0.013446187600493431 0.4158032238483429 -0.10101613402366638 -0.10869687050580978 0.3170894980430603 0.37726402282714844 0.24397917091846466 0.22094400227069855 -0.08338435739278793 0.2969861328601837 -0.17892807722091675 -0.14411967992782593 0.1439380943775177 -0.6602978110313416 0.0523146316409111 -0.062194500118494034 0.732431173324585 -0.14974631369113922 -0.5328739285469055 0.02358897589147091 -0.5098751187324524 -0.2489330768585205 0.27459028363227844 0.1205831840634346 0.033569060266017914 -0.8702467679977417 0.467312216758728 0.1916782408952713 -0.25368157029151917 -0.26585161685943604 0.06746536493301392 0.1936233937740326 0.24307914078235626 0.19797146320343018 -0.04908394813537598 -0.413370817899704 -0.02105473354458809 -0.337012380361557 -0.10170674324035645 -0.38125547766685486 -0.23814085125923157 -0.03860349953174591 -0.21917632222175598 -0.8302649855613708 -0.19362643361091614 -0.18158018589019775 -0.7360695600509644 -0.4424841105937958 0.11008092015981674
29021624_62798013.xml	-0.05596593767404556 -0.24143293499946594 -0.1919419765472412 0.22635015845298767 0.2414059191942215 -0.12171528488397598 -0.2013007402420044 0.01119270920753479 0.0700303241610527 -0.2265697866678238 0.08454390615224838 -0.44643110036849976 -0.33810970187187195 0.13508906960487366 -0.18468062579631805 -0.2156696319580078 -0.2431480586528778 -0.17196102440357208 0.015515906736254692 -0.3199264407157898 0.0345194973051548 0.22783803939819336 0.38187679648399353 -0.20859409868717194 -0.3273889422416687 -0.17615538835525513 -0.20472563803195953 -0.17403565347194672 0.4903044104576111 -0.12575846910476685 -0.11225075274705887 0.10373731702566147 0.18015116453170776 0.04678758606314659 -0.07473350316286087 0.2544281780719757 -0.5673230886459351 -0.025706877931952477 -0.404310017824173 0.15448777377605438 0.04238881915807724 -0.1493966281414032 -0.6271566152572632 0.2592277526855469 0.34960809350013733 -0.3268232047557831 0.010145344771444798 -0.31945860385894775 0.4206242859363556 -0.5341154932975769
29021894_62786149.xml	-0.00919960904866457 0.07525600492954254 -0.3207385540008545 -0.09500925242900848 -0.13301320374011993 0.33883199095726013 -0.015583583153784275 0.05118867754936218 0.2708977460861206 -0.07629645615816116 -0.2777530550956726 0.006890647113323212 -0.05260195955634117 0.36127814650535583 -0.4810599386692047 0.37646880745887756 -0.41404321789741516 -0.12554931640625 -0.6623929738998413 -0.19901898503303528 -0.3267276883125305 0.054901305586099625 0.08904621750116348 -0.03490392863750458 -0.16117097437381744 0.1315169334411621 -0.09972270578145981 0.03896293044090271 0.46525445580482483 -0.19505874812602997 0.31427937746047974 0.39114120602607727 0.09060966968536377 0.31248170137405396 -0.04086122289299965 -0.24808984994888306 -0.21327050030231476 -0.32978373765945435 -0.2368675172328949 0.3787815570831299 0.23374544084072113 0.036532867699861526 -0.1130317971110344 -0.12511146068572998 -0.8362763524055481 -0.55762779712677 -0.20204295217990875 0.015378715470433235 0.2575126886367798 0.3983376622200012
29021894_62788955.xml	-0.06192398443818092 -0.0850495919585228 -0.11961477249860764 0.08393313735723495 -0.11870410293340683 -0.16360197961330414 -0.163239523768425 -0.08474152535200119 0.3690357506275177 -0.012858938425779343 -0.34721750020980835 -0.11465161293745041 0.02567506581544876 0.11890628933906555 -0.2630399167537689 0.1607528179883957 -0.22610503435134888 -0.13102003931999207 -0.7339396476745605 -0.39031413197517395 -0.148167684674263 -0.13168935477733612 0.046643491834402084 -0.09543470293283463 -0.052891805768013 0.3287925720214844 -0.17347069084644318 0.04523057863116264 0.3971295952796936 0.03046155534684658 0.4835442304611206 0.4912174344062805 0.11557012051343918 0.2908400893211365 -0.09289918094873428 -0.07238013297319412 -0.3667933940887451 -0.22524474561214447 -0.376997709274292 0.14308573305606842 0.3081752061843872 -0.1054721474647522 0.05321192741394043 -0.5159373879432678 -0.5064195990562439 -0.49601393938064575 -0.13524095714092255 -0.16749346256256104 0.18819919228553772 0.5056667327880859
29021894_62792173.xml	0.01094211544841528 -0.07441867142915726 -0.43470433354377747 -0.17455697059631348 -0.1741475611925125 0.5089837312698364 -0.21052135527133942 -0.009781783446669579 0.20885148644447327 0.0008461268153041601 -0.15177538990974426 -0.22094431519508362 -0.09597838670015335 0.4834229350090027 -0.32796987891197205 0.32156023383140564 -0.4175044000148773 -0.09805863350629807 -0.4743773341178894 -0.195878803730011 -0.2466260939836502 0.16032160818576813 0.09462594985961914 -0.027062062174081802 -0.2336912900209427 -0.04637189581990242 -0.09641063213348389 -0.2162352204322815 0.4407879114151001 -0.43526414036750793 0.36694082617759705 0.388414204120636 0.06529705226421356 0.30678749084472656 -0.15080609917640686 -0.37325963377952576 -0.34954220056533813 0.0903308317065239 -0.40292325615882874 0.41532227396965027 0.2786673307418823 -0.07216808944940567 0.08178449422121048 -0.03512221947312355 -0.553082287311554 -0.4658775329589844 -0.24892154335975647 0.1447240561246872 0.39190545678138733 0.46891701221466064
29022358_62787318.xml	0.07133438438177109 -0.3970826268196106 -0.474819153547287 -0.21079617738723755 -0.10788500308990479 0.5133665204048157 -0.0035559972748160362 0.015535769984126091 0.07071814686059952 0.010857981629669666 -0.5427640080451965 0.13759993016719818 -0.03548218309879303 0.4441806674003601 -0.5648818016052246 0.5570366978645325 -0.2472108006477356 0.008954353630542755 -0.24054501950740814 -0.2328297644853592 -0.21487566828727722 -0.350349098443985 -0.027210772037506104 -0.3418814241886139 0.07063444703817368 -0.009683806449174881 -0.37543925642967224 0.16263902187347412 0.2157246172428131 -0.3190824091434479 0.184541255235672 0.7245162129402161 -0.06571286171674728 0.17077049612998962 0.017026958987116814 -0.2212243676185608 -0.26688677072525024 0.09265168011188507 -0.2542479634284973 0.2039535790681839 -0.19494061172008514 -0.01682901568710804 -0.09086424112319946 -0.2893373966217041 -0.47217872738838196 -0.21235042810440063 -0.07654508203268051 0.03121788613498211 0.23919448256492615 0.22976399958133698
29022358_62790027.xml	0.13611309230327606 -0.22220902144908905 -0.19528982043266296 0.2032639980316162 -0.1697908192873001 0.14027513563632965 -0.03782365843653679 -0.0060143619775772095 0.265436053276062 0.04338008910417557 -0.5982357859611511 0.09974752366542816 0.08511269092559814 0.17675575613975525 -0.36003658175468445 0.38145339488983154 -0.17013509571552277 -0.1295832097530365 -0.4779251217842102 -0.41472992300987244 -0.16288326680660248 -0.5288012027740479 0.07415709644556046 -0.20902572572231293 0.03699508309364319 0.30091920495033264 -0.4351579248905182 0.0986497700214386 0.2818652391433716 -0.09218968451023102 0.24460771679878235 0.7819172739982605 0.028242478147149086 0.32111838459968567 -0.08254885673522949 -0.035141073167324066 -0.3089580833911896 -0.13213306665420532 -0.1525368094444275 0.26498857140541077 -0.1860378086566925 -0.10059607028961182 -0.08758069574832916 -0.337602823972702 -0.4727898836135864 -0.24059146642684937 -0.02805197238922119 -0.030187902972102165 0.19316108524799347 0.4550098478794098
29022358_62795191.xml	0.1102028414607048 -0.12230279296636581 -0.34575626254081726 -0.016610365360975266 -0.12840168178081512 0.5833117365837097 0.09167009592056274 0.10407164692878723 0.02901511639356613 0.10993606597185135 -0.4869447350502014 0.06356313079595566 -0.11280682682991028 0.4677427411079407 -0.43888285756111145 0.5729790925979614 -0.32009875774383545 -0.02972431108355522 -0.31404513120651245 -0.3384881317615509 -0.2674924433231354 -0.3914366066455841 0.03153334558010101 -0.1977190375328064 -0.04605342075228691 0.1980893760919571 -0.41907528042793274 0.046736571937799454 0.14383435249328613 -0.4459335505962372 0.09471014142036438 0.7480606436729431 0.03691847249865532 0.296787828207016 -0.028766818344593048 -0.15016604959964752 -0.3427622616291046 0.17637543380260468 -0.21195901930332184 0.4438934624195099 -0.2811937928199768 -0.07446648180484772 -0.15680460631847382 0.10365667194128036 -0.5623217821121216 -0.11678975075483322 0.0037637765053659678 0.08724931627511978 0.24858078360557556 0.33336523175239563
29022479_62784896.xml	-0.20849232375621796 0.2385064661502838 -0.2499758005142212 0.22447897493839264 -0.12149547785520554 -0.12878593802452087 0.319497287273407 -0.34654709696769714 0.36153772473335266 -0.6350226402282715 0.11143969744443893 -0.03390158712863922 -0.31014448404312134 -0.4316650629043579 -0.13798868656158447 -0.11475375294685364 0.15278634428977966 -0.17730852961540222 -0.09464459121227264 -0.3547963798046112 0.2523748278617859 -0.1488240510225296 -0.08341525495052338 -0.1714816689491272 0.22801147401332855 -0.10018597543239594 0.20284901559352875 0.22455602884292603 0.2514914572238922 0.25688567757606506 -0.21103937923908234 -0.13364176452159882 -0.22239966690540314 0.07752127945423126 0.16929516196250916 -0.1040867492556572 -0.7091383934020996 -0.04470277950167656 0.01075770240277052 0.4704405665397644 -0.012952367775142193 -0.19787997007369995 -0.6453075408935547 0.015338711440563202 0.0837794616818428 0.1626734584569931 0.030669717118144035 0.06348026543855667 0.1787405014038086 0.15882223844528198
29022479_62788022.xml	-0.12645500898361206 0.05463690310716629 -0.153278186917305 0.2948354184627533 -0.12111056596040726 0.005544736050069332 0.4225353002548218 -0.15116912126541138 0.3503631353378296 -0.5867260694503784 0.1214258223772049 0.011899512261152267 -0.2664537727832794 -0.40468478202819824 0.010846162214875221 -0.08375082910060883 0.017632395029067993 -0.0989498570561409 -0.19623178243637085 -0.26047444343566895 0.05765041336417198 -0.21728144586086273 0.03698323294520378 0.02070857584476471 0.3609168827533722 -0.1152239665389061 0.0900687426328659 0.11612638086080551 0.23063814640045166 0.11489687114953995 -0.27115151286125183 -0.12649616599082947 0.0748937651515007 0.12876495718955994 0.16875657439231873 -0.06090650334954262 -0.7116522192955017 0.04365791380405426 -0.22513853013515472 0.3414202332496643 -0.011228279210627079 -0.25658562779426575 -0.6358587145805359 -0.12972526252269745 -0.04684354364871979 0.13552244007587433 0.1039443388581276 -0.10215501487255096 0.2752399444580078 0.15640266239643097
29022479_62793394.xml	-0.03865906968712807 0.12570732831954956 -0.3186115026473999 0.15202245116233826 -0.05864821746945381 0.3895098567008972 0.3765725791454315 -0.1302286833524704 0.29796746373176575 -0.6122844815254211 0.15692733228206635 -0.2053547203540802 -0.319088339805603 -0.11613435298204422 -0.11148262023925781 -0.0007752419332973659 -0.11456461250782013 -0.17077888548374176 0.018262915313243866 -0.11466941982507706 0.09781288355588913 0.03743633255362511 0.036135442554950714 0.04921571910381317 0.21230170130729675 -0.36329445242881775 0.18639035522937775 -0.09556470066308975 0.2826085090637207 -0.09049997478723526 -0.4228346049785614 -0.15472367405891418 -0.020906858146190643 0.2766788601875305 0.12923038005828857 -0.24004945158958435 -0.6802147626876831 0.4468657076358795 -0.0759890079498291 0.5725692510604858 -0.030471069738268852 -0.0824105516076088 -0.7056722640991211 0.21281714737415314 0.08536770194768906 0.2728385925292969 -0.06187198683619499 0.14801403880119324 0.31679463386535645 0.14608296751976013
29022481_62787485.xml	-0.11012453585863113 0.058619365096092224 0.061024751514196396 -0.2676807641983032 0.044722091406583786 -0.35535451769828796 0.2409788817167282 0.03634004667401314 -0.053447045385837555 -0.09544314444065094 -0.1706911027431488 0.22031201422214508 -0.08014676719903946 -0.16657067835330963 -0.488834410905838 -0.20181655883789062 0.08923850208520889 -0.3597114682197571 0.16152910888195038 -0.1618078202009201 0.2550300061702728 0.15154246985912323 -0.04366253688931465 -0.30088093876838684 0.06347983330488205 0.10820920020341873 -0.052699729800224304 0.4964216649532318 0.12897682189941406 0.4498959481716156 0.14105486869812012 0.07439827919006348 -0.0008987465989775956 -0.004250679165124893 0.028773397207260132 0.43861332535743713 -0.3018663227558136 -0.24335409700870514 -0.19267505407333374 -0.24757090210914612 -0.011597497388720512 -0.4231970012187958 -0.5499916672706604 -0.3022336959838867 0.053197331726551056 0.3339349031448364 0.2179991751909256 -0.18952502310276031 -0.3240835964679718 0.04150378331542015
29022481_62791045.xml	-0.06331027299165726 0.11518550664186478 -0.024362076073884964 -0.19367636740207672 -0.06506986171007156 -0.3686579167842865 0.20552165806293488 0.034455351531505585 0.08601367473602295 -0.09317798167467117 -0.01383605133742094 0.12544065713882446 -0.02976873144507408 -0.07809782773256302 -0.24896080791950226 -0.20649956166744232 0.08487527817487717 -0.28762367367744446 0.006930612958967686 -0.191917285323143 0.07309529185295105 0.017658080905675888 0.03571011871099472 -0.00950910896062851 0.03931214660406113 0.12817613780498505 0.09176253527402878 0.09328529238700867 0.12867453694343567 0.1635926365852356 0.07702703028917313 0.07123558223247528 0.12636582553386688 -0.03089168667793274 0.0005936890956945717 0.2765410840511322 -0.2992578446865082 -0.19276507198810577 -0.23674286901950836 -0.1632290482521057 0.06494711339473724 -0.5327191352844238 -0.4348366856575012 -0.1747773140668869 -0.21218238770961761 0.26276692748069763 0.19885723292827606 -0.06732303649187088 -0.09563421458005905 0.3044193685054779
29022481_62796521.xml	0.031281620264053345 0.009329307824373245 0.1480310559272766 -0.35005515813827515 -0.09928160160779953 -0.028452642261981964 0.2522140145301819 0.1322201043367386 -0.30804869532585144 0.08432518690824509 0.2150556594133377 -0.09503740072250366 -0.09199351817369461 0.16689865291118622 -0.40842732787132263 -0.024977397173643112 0.05025389418005943 -0.1879073977470398 0.16367757320404053 -0.18184243142604828 0.06933557242155075 0.24549433588981628 -0.14212416112422943 0.013852865435183048 -0.27634942531585693 -0.3752007782459259 0.4531327486038208 0.07193727791309357 0.002708552638068795 0.2587340176105499 -0.10861796885728836 -0.04862409085035324 -0.04551991820335388 0.06640423834323883 0.21554242074489594 0.3247150480747223 -0.15460917353630066 -0.048680491745471954 -0.2652621567249298 -0.031090205535292625 0.0703335627913475 -0.46657595038414 -0.34782934188842773 -0.058237072080373764 -0.33532020449638367 0.09614206850528717 0.16107259690761566 0.029481088742613792 -0.1550125926733017 0.5059673190116882
29022499_62784674.xml	-0.09716107696294785 0.07592309266328812 0.052603479474782944 -0.2610665261745453 -0.044433072209358215 -0.18243582546710968 0.24441221356391907 0.011422368697822094 0.05254225805401802 -0.1608528345823288 -0.0938199907541275 0.108615443110466 -0.14393499493598938 -0.1124059185385704 -0.3698045611381531 -0.20306278765201569 0.06630653142929077 -0.21732842922210693 0.11569742858409882 -0.14875271916389465 0.24466849863529205 0.0696399137377739 -0.025221196934580803 -0.16289550065994263 0.07608662545681 0.11830870807170868 -0.060009125620126724 0.2626149654388428 0.10803201794624329 0.3792361319065094 0.08046837151050568 0.06721366941928864 -0.047340475022792816 0.07218373566865921 0.0017202561721205711 0.28122007846832275 -0.17330624163150787 -0.16743244230747223 -0.10005348920822144 -0.09520088136196136 0.09022918343544006 -0.40832826495170593 -0.5086449980735779 -0.18139296770095825 -0.13532951474189758 0.20414267480373383 0.07153645902872086 -0.09884174913167953 -0.1967911571264267 0.20261269807815552
29022499_62789243.xml	-0.1480383276939392 0.04420182481408119 0.09469258040189743 -0.07393869757652283 -0.04137435182929039 -0.2780137360095978 0.29919084906578064 -0.06349658221006393 0.052244991064071655 -0.08488734066486359 0.06380168348550797 -0.10481550544500351 -0.07736441493034363 -0.047687895596027374 -0.36442384123802185 -0.24115309119224548 0.11424896866083145 -0.2911905348300934 -0.07984939962625504 -0.12266221642494202 0.11376281082630157 0.1016102284193039 -0.16283969581127167 -0.05201840400695801 0.07496018707752228 0.2017502337694168 0.0630064308643341 -0.031255580484867096 0.12466886639595032 0.25520649552345276 0.2127687782049179 0.2187444120645523 0.1533794403076172 -0.024667207151651382 -0.1208459660410881 0.34763967990875244 -0.0956442579627037 -0.1477537602186203 -0.4150567352771759 -0.05938209593296051 0.33078497648239136 -0.3708166480064392 -0.3966919183731079 -0.30166640877723694 -0.327937513589859 0.23741479218006134 0.1343853771686554 -0.1183222159743309 -0.12974968552589417 0.27665960788726807
29022500_62785013.xml	0.19666142761707306 0.04842853546142578 0.16198581457138062 -0.21961265802383423 0.22165802121162415 0.09530496597290039 0.7006864547729492 -0.13627095520496368 -0.005021890625357628 -0.24549216032028198 -0.019446419551968575 0.4109911322593689 -0.3975772559642792 0.0885525792837143 -0.14014221727848053 0.08697517961263657 -0.034607890993356705 -0.002611138392239809 0.15287549793720245 0.030849916860461235 -0.024425845593214035 -0.35711121559143066 0.16971760988235474 -0.4303363859653473 0.09251435101032257 0.032190676778554916 0.16486763954162598 0.19072870910167694 0.20275947451591492 0.21954694390296936 0.13426713645458221 0.20180979371070862 -0.13207653164863586 0.06781565397977829 -0.06798550486564636 0.3943856954574585 -0.3967173993587494 -0.5758059620857239 0.05698566511273384 0.1883382499217987 -0.05856886878609657 -0.23604729771614075 -0.5708165764808655 0.22544346749782562 -0.2522766590118408 0.3347134292125702 0.025539888069033623 0.3863048553466797 -0.16263030469417572 0.4688519835472107
29022500_62793760.xml	0.15115918219089508 0.0967378169298172 0.25562748312950134 -0.355554461479187 0.07208054512739182 -0.2628484070301056 0.49579206109046936 -0.2000378519296646 -0.022164583206176758 -0.2174314558506012 -0.09807319939136505 0.006209297105669975 -0.20648491382598877 0.06402362138032913 -0.15699809789657593 -0.02340163290500641 0.13759878277778625 -0.1906602680683136 0.21116088330745697 -0.10817990452051163 0.13850682973861694 -0.05169546231627464 0.21158498525619507 -0.3224061131477356 -0.03178345784544945 0.014303154312074184 0.19919662177562714 0.3559042811393738 0.33955666422843933 0.42786821722984314 0.10454244166612625 0.08764240145683289 -0.24455784261226654 0.16904284060001373 -0.14932261407375336 0.291185200214386 -0.3745118975639343 -0.36135751008987427 0.04847622290253639 0.1511407494544983 0.18486955761909485 -0.1747550070285797 -0.17145276069641113 -0.3126773536205292 -0.199616476893425 -0.01527498196810484 -0.06639066338539124 0.22155962884426117 -0.3797202408313751 0.6308029294013977
29022500_62798606.xml	0.21891862154006958 0.15397778153419495 -0.14165423810482025 -0.4876520335674286 0.12202636152505875 0.35452303290367126 0.46057164669036865 -0.11605233699083328 -0.11291172355413437 -0.20417694747447968 0.013660754077136517 0.1059633418917656 -0.34390154480934143 0.47125232219696045 -0.2866992950439453 0.18155130743980408 -0.07773489505052567 -0.11933714896440506 0.34211015701293945 0.1593254655599594 0.09583646059036255 0.08045902848243713 0.31592145562171936 -0.23272673785686493 -0.16189800202846527 -0.31193962693214417 0.24357309937477112 0.10481733083724976 0.3702705204486847 -0.08565966039896011 -0.05120948329567909 -0.0024846033193171024 -0.25426629185676575 0.1692713499069214 -0.06264042854309082 -0.01782263070344925 -0.32416582107543945 -0.2431689202785492 0.12462175637483597 0.3136422336101532 0.0003420128778088838 -0.17873314023017883 -0.4999367594718933 0.32173243165016174 -0.24758008122444153 0.07610160857439041 -0.09946596622467041 0.5276394486427307 -0.1844920665025711 0.4074278473854065
29022614_62784717.xml	0.19196827709674835 -0.22563116252422333 0.5195073485374451 -0.03502834215760231 -0.1735377311706543 0.20487920939922333 0.020654188469052315 0.1348641961812973 0.04495228826999664 0.015488899312913418 0.1933031529188156 -0.2136339545249939 -0.2637218236923218 0.01795392669737339 -0.29961758852005005 0.02952919714152813 -0.025747405365109444 0.04537579417228699 0.18817563354969025 -0.12091641128063202 0.2344573736190796 -0.1098160669207573 -0.4741271138191223 -0.05601995065808296 -0.3457571268081665 -0.37076276540756226 0.008944797329604626 0.0356355756521225 -0.2479732185602188 0.45146968960762024 -0.38739699125289917 -0.15949666500091553 -0.12572772800922394 0.36950239539146423 -0.0485464446246624 0.14945709705352783 -0.21431994438171387 -0.36636584997177124 -0.21858705580234528 0.277300626039505 0.2608652114868164 -0.2579483985900879 -0.28758737444877625 0.05177699774503708 -0.4239998757839203 -0.19108879566192627 0.009098717011511326 0.06846469640731812 -0.09968195855617523 0.3675343692302704
29022614_62793212.xml	0.16681382060050964 -0.12720295786857605 0.40329715609550476 -0.07710562646389008 -0.1241520419716835 -0.14482665061950684 0.14010244607925415 -0.006218608468770981 0.22092632949352264 -0.14832447469234467 8.674946002429351e-05 -0.15937843918800354 -0.31557944416999817 -0.289052277803421 -0.17601454257965088 -0.19420915842056274 0.03245139122009277 -0.2491396963596344 0.05766060948371887 -0.054942574352025986 0.23746684193611145 -0.30763015151023865 -0.24276556074619293 0.014989899471402168 -0.008184901438653469 0.08891471475362778 -0.4272070527076721 -0.010823030956089497 -0.2332674264907837 0.34349918365478516 -0.177835151553154 -0.10805878788232803 0.13301609456539154 0.2316928505897522 -0.3156690001487732 0.15124943852424622 -0.35715362429618835 -0.33388498425483704 -0.29353922605514526 0.09826548397541046 0.24463129043579102 -0.29302963614463806 -0.30849483609199524 -0.33657631278038025 -0.29975664615631104 -0.04896766319870949 -0.01234186626970768 -0.014132116921246052 -0.11390163004398346 0.1748722940683365
