29135840_62979848.xml	-0.12304849922657013 0.25325214862823486 -0.06520241498947144 -0.00144392519723624 -0.0309369545429945 0.11620593070983887 0.02300204150378704 -0.03925589099526405 0.043617185205221176 0.021241025999188423 0.13638275861740112 -0.3199588656425476 -0.11615381389856339 0.22840385138988495 -0.37587210536003113 -0.08259457349777222 -0.06173133850097656 -0.17389792203903198 -0.3255942463874817 -0.09853606671094894 -0.13522681593894958 0.37806060910224915 -0.04642507806420326 -0.012133748270571232 -0.38631486892700195 0.0614507757127285 0.09321805089712143 0.08800318092107773 0.4370271563529968 -0.008494599722325802 0.16758322715759277 0.29594510793685913 0.18270379304885864 0.2051517814397812 -0.09027177840471268 -0.25068730115890503 -0.21262584626674652 -0.050059400498867035 -0.21522334218025208 0.341932088136673 0.3864537477493286 -0.16014724969863892 -0.22442981600761414 0.0017611512448638678 -0.35782402753829956 -0.05050598457455635 -0.06200771778821945 0.1999305933713913 -0.1073494628071785 0.5552851557731628
29135840_62983843.xml	-0.1464988887310028 0.3102026879787445 -0.1928607076406479 -0.36761146783828735 -0.16725735366344452 0.3561241328716278 0.05861508101224899 0.022977314889431 0.045784831047058105 -0.08403220772743225 0.03291742503643036 -0.006180908996611834 -0.19878773391246796 0.24936217069625854 -0.4822448194026947 -0.029638273641467094 -0.11511678248643875 -0.07004104554653168 0.02530229091644287 -0.016098255291581154 -0.032155949622392654 0.3995155692100525 0.09435996413230896 -0.07542390376329422 -0.26802825927734375 0.05746668577194214 0.0589744932949543 0.10605189204216003 0.37224966287612915 -0.09329403191804886 0.07411407679319382 0.12906013429164886 0.09251467883586884 0.22331611812114716 0.1253262609243393 -0.20276017487049103 -0.21591152250766754 0.030517226085066795 -0.08263175934553146 0.18442344665527344 0.16731135547161102 -0.25752687454223633 -0.505012035369873 0.16806933283805847 -0.19743749499320984 0.029284518212080002 -0.020969189703464508 0.18417991697788239 -0.03660206496715546 0.27687758207321167
29135840_62992524.xml	-0.16280387341976166 0.2959482967853546 -0.3384256660938263 -1.0265896320343018 -0.03522110730409622 0.5422543287277222 0.40025079250335693 0.0871366560459137 -0.2461337447166443 0.3779098391532898 0.03762158751487732 -0.5085074305534363 -0.2954132854938507 0.6527180671691895 -0.6163966655731201 0.1268850564956665 -0.04963670298457146 0.166858971118927 -0.009537627920508385 0.19703836739063263 0.004030755255371332 0.6457865238189697 -0.17529995739459991 0.39626699686050415 0.007151731289923191 -0.5334361791610718 0.3428548574447632 0.1936282366514206 0.32481786608695984 -0.8269692063331604 0.09504608064889908 0.07249312102794647 -0.0368507020175457 0.23187381029129028 -0.05749281123280525 -0.3420603573322296 -0.13547077775001526 0.8916696310043335 -0.4605140686035156 -0.2679722309112549 0.5014480352401733 -0.06452435255050659 -0.13198143243789673 -0.018711021170020103 -0.610085129737854 -0.24485230445861816 -0.2624598741531372 0.08466386795043945 -0.1553027182817459 0.6288748383522034
29135882_62978431.xml	-0.42128199338912964 0.30642586946487427 -0.036886878311634064 -0.16833922266960144 -0.10042844712734222 -0.2930406332015991 0.15316526591777802 -0.07826698571443558 0.4045967757701874 0.035733260214328766 -0.31563013792037964 0.0031853921245783567 -0.3921698033809662 0.3381502032279968 0.3268548548221588 0.06133917719125748 -0.276725172996521 0.3099265694618225 0.1481807380914688 -0.8351321816444397 -0.5993496775627136 -0.6490233540534973 0.2761158347129822 0.8198692798614502 0.4633907675743103 0.04997406527400017 -0.16354341804981232 -0.0709453821182251 0.6912097334861755 -0.4590679705142975 0.1699816882610321 0.15486425161361694 0.20158199965953827 0.23206879198551178 -0.15711382031440735 0.3324986398220062 -0.6429071426391602 -0.03359852358698845 -0.6578121185302734 0.1873808354139328 0.43062224984169006 -0.4572942852973938 -0.31049689650535583 -0.7597012519836426 0.026177942752838135 0.16310341656208038 -0.32587292790412903 -0.4747747480869293 -0.031682077795267105 0.49322351813316345
29135882_62987996.xml	-0.46236398816108704 0.2329419106245041 0.049064841121435165 -0.16833634674549103 -0.07268386334180832 -0.177567720413208 0.23900119960308075 -0.03642018139362335 0.4629036784172058 0.06255601346492767 -0.24498172104358673 0.16659808158874512 -0.44705453515052795 0.3304433822631836 0.2899661660194397 -0.00012447865447029471 -0.3195652961730957 0.3055118918418884 0.11773111671209335 -0.7747526168823242 -0.5568941831588745 -0.6445772647857666 0.235670804977417 0.6671767234802246 0.6213754415512085 -0.0005692985141649842 -0.2384483516216278 0.011834514327347279 0.7298993468284607 -0.34970614314079285 0.21197395026683807 0.1532049924135208 0.1059684306383133 0.1259307563304901 -0.08157120645046234 0.41461101174354553 -0.6483522653579712 -0.011632712557911873 -0.5335743427276611 0.14637254178524017 0.40937095880508423 -0.46216464042663574 -0.37461817264556885 -0.7771493196487427 0.13046102225780487 0.1302570253610611 -0.26474615931510925 -0.5936355590820312 -0.035050541162490845 0.3597859740257263
29135882_63007187.xml	-0.43201181292533875 0.23695527017116547 -0.09885196387767792 -0.21740518510341644 -0.14493083953857422 -0.25657084584236145 0.1668866127729416 -0.10121400654315948 0.4087975025177002 -0.018481185659766197 -0.27009111642837524 -0.02268899232149124 -0.4635503590106964 0.37262728810310364 0.28799331188201904 -0.049577172845602036 -0.30319273471832275 0.22513678669929504 0.12608084082603455 -0.7276003956794739 -0.5913953185081482 -0.5806308388710022 0.25647762417793274 0.7528997659683228 0.4646524488925934 0.08833493292331696 -0.19508112967014313 -0.20822173357009888 0.6478341817855835 -0.4086550176143646 0.20698341727256775 0.2132679671049118 0.2762947082519531 0.15680567920207977 -0.1531277894973755 0.29971131682395935 -0.6479126811027527 0.13514931499958038 -0.7288036942481995 0.12053230404853821 0.3757179081439972 -0.4693564772605896 -0.2684587836265564 -0.834861695766449 0.13824878633022308 0.2528060972690582 -0.3438122272491455 -0.5211100578308105 -0.0019671993795782328 0.4073008894920349
29135908_62977882.xml	0.09304928034543991 -0.03931684419512749 0.13582965731620789 -0.23265008628368378 -0.17671716213226318 -0.21317924559116364 0.3407600224018097 0.227778822183609 0.15365277230739594 -0.1343657523393631 0.009662977419793606 0.12137697637081146 -0.13248468935489655 -0.0838017389178276 -0.37256166338920593 -0.18926604092121124 -0.04355977848172188 0.25565817952156067 -0.09090138971805573 -0.12270534783601761 0.15851397812366486 -0.06762290745973587 0.16308501362800598 -0.28780239820480347 0.19776739180088043 0.25653839111328125 -0.04065829515457153 0.07221722602844238 0.14941681921482086 0.39263343811035156 0.08162339776754379 0.20161716639995575 0.09327446669340134 0.2410186380147934 -0.05876411125063896 -0.0013600568054243922 -0.21670281887054443 -0.10028298199176788 -0.23408037424087524 -0.25921815633773804 0.14611296355724335 -0.0375186912715435 -0.2013649046421051 0.15806658565998077 0.01605001837015152 -0.21101705729961395 0.2375502735376358 -0.5476094484329224 0.040576208382844925 0.2792474925518036
29135908_62980126.xml	0.010486943647265434 0.10484681278467178 -0.13956661522388458 -0.1552494764328003 -0.32695820927619934 -0.24597960710525513 0.12772534787654877 -0.048220884054899216 0.32139766216278076 -0.2929705083370209 -0.08217379450798035 0.020676277577877045 -0.09893277287483215 -0.20485134422779083 -0.3356429934501648 -0.2070903778076172 -0.04269521310925484 0.0731399804353714 -0.06415390223264694 -0.4014376699924469 0.4651764929294586 0.03204872086644173 -0.034982070326805115 -0.26860567927360535 0.02605498768389225 0.2136947065591812 -0.05080727860331535 -0.022684410214424133 0.15525254607200623 0.40211665630340576 0.20363517105579376 0.013983107171952724 -0.23120442032814026 0.4172218143939972 0.06153261661529541 -0.18805113434791565 -0.1727033108472824 -0.15585844218730927 -0.06680505722761154 -0.28773146867752075 0.08076763898134232 -0.048498980700969696 -0.24215862154960632 0.0010498971678316593 0.04621298983693123 -0.20967677235603333 0.2308509796857834 -0.44017502665519714 -0.14227621257305145 0.09943760931491852
29135908_63006208.xml	0.058185674250125885 -0.12073663622140884 -0.05521872639656067 -0.5444358587265015 -0.24697862565517426 -0.11671697348356247 0.22415773570537567 0.0677005797624588 0.1822749823331833 -0.3431830108165741 -0.14971144497394562 -0.08243681490421295 -0.262738972902298 -0.22509461641311646 -0.4602130651473999 -0.2531845271587372 -0.3042386770248413 -0.07509955018758774 0.04326225072145462 -0.07701532542705536 0.246221125125885 0.06937865912914276 0.17935119569301605 -0.24678514897823334 0.19417773187160492 0.1172361969947815 -0.16466063261032104 -0.003046916564926505 0.19014033675193787 0.32146143913269043 0.21568746864795685 -0.014730689115822315 0.07205285131931305 0.19829699397087097 0.030455248430371284 -0.13605213165283203 -0.22063878178596497 0.15970881283283234 -0.2748076021671295 -0.5159438252449036 0.19742020964622498 0.011393467895686626 -0.08471464365720749 -0.17263732850551605 -0.007459468208253384 -0.22389116883277893 0.0818931981921196 -0.4606059491634369 0.014214408583939075 -0.03290412575006485
29135983_62980926.xml	0.22563287615776062 0.23969854414463043 -0.35432446002960205 0.3758070766925812 -0.21563616394996643 -0.419283390045166 -0.11853483319282532 0.12246903032064438 0.09134259074926376 0.09840883314609528 -0.08704353868961334 -0.32520633935928345 -0.19990907609462738 -0.04032119736075401 -0.16485467553138733 -0.2929220497608185 0.25770798325538635 -0.4278354346752167 0.2829406261444092 -0.48395082354545593 0.24233610928058624 -0.13771378993988037 0.9389349818229675 0.08226454257965088 -0.165991872549057 0.2893810570240021 -0.4489780366420746 -0.13924483954906464 0.08265918493270874 -0.2558504045009613 -0.020102450624108315 0.19736924767494202 0.6827168464660645 0.03208806365728378 0.046971697360277176 0.014434297569096088 -0.766434371471405 0.3787461221218109 -0.13373471796512604 -0.3727075159549713 -0.3161008059978485 -0.9558548331260681 -0.4680735170841217 -0.30886921286582947 0.3192535638809204 -0.424037367105484 0.3794056177139282 -0.2646646201610565 0.3890729546546936 -0.03992489352822304
29135983_62984798.xml	0.21820537745952606 0.2006441205739975 -0.3492904603481293 0.400004506111145 -0.2075778990983963 -0.40381547808647156 -0.14691798388957977 0.17644675076007843 0.057670608162879944 0.10117252171039581 -0.18324413895606995 -0.16747307777404785 -0.1671801060438156 -0.08263077586889267 -0.2991815507411957 -0.2283349633216858 0.3001556396484375 -0.45078006386756897 0.2061755359172821 -0.5384920835494995 0.1365526020526886 -0.17228657007217407 0.922906219959259 0.10415631532669067 -0.19537027180194855 0.3924943804740906 -0.48321297764778137 -0.08407115936279297 0.1572376787662506 -0.3003849983215332 -0.02257894165813923 0.15611326694488525 0.5755375623703003 0.05430326610803604 0.06387351453304291 0.046831320971250534 -0.7921174764633179 0.32348477840423584 -0.05967314913868904 -0.4407561123371124 -0.2831798493862152 -0.9197888970375061 -0.6280450820922852 -0.22509709000587463 0.25369492173194885 -0.48415708541870117 0.40987977385520935 -0.25498682260513306 0.40409135818481445 -0.24037466943264008
29135983_62999979.xml	0.4033178687095642 0.26366329193115234 -0.36135196685791016 0.37710168957710266 -0.13395047187805176 -0.503239095211029 0.20451173186302185 0.09822677820920944 -0.12939567863941193 0.22511690855026245 -0.07786879688501358 -0.33309194445610046 -0.37811392545700073 -0.02823420986533165 -0.2563062608242035 -0.016576450318098068 0.4287951588630676 -0.2616177797317505 0.008503356017172337 -0.19743779301643372 -0.057198017835617065 -0.18620705604553223 0.7983682751655579 0.04731162264943123 -0.022844107821583748 0.22873662412166595 -0.2591972053050995 -0.06516559422016144 -0.03173615038394928 -0.22504930198192596 -0.08634161949157715 0.47560104727745056 0.7768652439117432 -0.1732248216867447 0.0682305321097374 -0.01869283989071846 -0.6999279856681824 0.2805428206920624 -0.20556357502937317 -0.3568355143070221 -0.4222717881202698 -0.7417358756065369 -0.45549678802490234 -0.4535764455795288 0.1718318611383438 -0.4828616976737976 0.43155956268310547 -0.47226375341415405 0.35667601227760315 0.08385667204856873
29136021_62979218.xml	-0.05905347317457199 0.08696392923593521 0.15965783596038818 0.44161558151245117 0.10639569908380508 0.21138493716716766 0.4193604588508606 -0.10158051550388336 0.25554198026657104 0.07497859001159668 0.18073908984661102 -0.13652120530605316 -0.14076106250286102 0.334392249584198 -0.10732408612966537 0.13077577948570251 -0.17706406116485596 -0.07814449071884155 -0.6377520561218262 0.013554660603404045 0.07957730442285538 0.038429416716098785 -0.08050668239593506 -0.19128192961215973 0.008696387521922588 0.23625831305980682 -0.21356138586997986 -0.3380891978740692 0.10910241305828094 -0.19113728404045105 0.4103028178215027 0.4952615797519684 0.43425148725509644 0.4436740577220917 -0.3517116606235504 -0.13467276096343994 -0.4478331506252289 -0.31723809242248535 -0.8353256583213806 0.6213846206665039 0.4471617639064789 0.22141927480697632 -0.04888767749071121 -0.11444596201181412 -0.44831356406211853 -0.4471461772918701 0.14956793189048767 -0.2924046814441681 -0.40545472502708435 0.508283257484436
29136021_62986944.xml	-0.006500661373138428 -0.022548632696270943 0.22955121099948883 0.29402074217796326 0.03698805719614029 0.3160286843776703 0.2577071487903595 -0.24458184838294983 0.2374916523694992 0.17650792002677917 0.1309940665960312 -0.10648243129253387 -0.16535523533821106 0.35181891918182373 -0.166961207985878 0.21084173023700714 -0.09618865698575974 -0.03538898751139641 -0.6253047585487366 0.08160939812660217 0.24194778501987457 0.085457444190979 -0.05797106772661209 -0.2177407294511795 -0.0032723969779908657 0.27531325817108154 -0.25569137930870056 -0.27750441431999207 0.06825606524944305 -0.16374608874320984 0.4616871178150177 0.37015482783317566 0.3052792549133301 0.4742231070995331 -0.21876974403858185 -0.054867397993803024 -0.34114792943000793 -0.25778770446777344 -0.8946415781974792 0.43166452646255493 0.3519858717918396 0.1954500675201416 -0.18682879209518433 -0.31395018100738525 -0.21468062698841095 -0.49392169713974 0.060280393809080124 -0.2691006660461426 -0.2829446494579315 0.34587526321411133
29136021_63006149.xml	-0.00017466905410401523 -0.023212527856230736 0.1975722312927246 0.24227535724639893 0.013055253773927689 0.23041608929634094 0.28127145767211914 -0.24437285959720612 0.26079076528549194 0.13959459960460663 0.12798607349395752 -0.10487464815378189 -0.11366461217403412 0.33292222023010254 -0.15568827092647552 0.18361620604991913 -0.11696948111057281 -0.05298267677426338 -0.6397037506103516 0.12327668070793152 0.1462574303150177 0.04451575502753258 -0.0845927968621254 -0.21786224842071533 0.018193162977695465 0.2147536426782608 -0.2633996605873108 -0.22787606716156006 0.12705455720424652 -0.1887703239917755 0.4835284650325775 0.35762691497802734 0.3288402855396271 0.43549835681915283 -0.29835373163223267 -0.0987120121717453 -0.41801589727401733 -0.27967292070388794 -0.8595544695854187 0.43196970224380493 0.3876492381095886 0.2069075107574463 -0.04859151318669319 -0.3608867824077606 -0.30364441871643066 -0.5359052419662476 0.04530337080359459 -0.21877263486385345 -0.28373098373413086 0.3963252902030945
29136030_62977679.xml	0.24576295912265778 0.05434088036417961 -0.08526008576154709 0.07136787474155426 -0.006122945342212915 0.02901872992515564 0.40819790959358215 0.18595071136951447 0.1198393851518631 -0.1376798152923584 0.26089105010032654 -0.14357724785804749 -0.0669720247387886 0.11762098968029022 -0.12711063027381897 -0.06539571285247803 0.12530218064785004 0.0523655079305172 0.14985644817352295 -0.039529599249362946 0.22618050873279572 0.1608855128288269 0.06444653123617172 -0.11279450356960297 -0.14094269275665283 -0.21688619256019592 0.009487267583608627 -0.015336177311837673 0.2419131100177765 0.15989188849925995 -0.02169124223291874 0.102857306599617 0.0009221447980962694 0.4768960773944855 -0.18765565752983093 -0.06755047291517258 -0.26470932364463806 -0.06519820541143417 -0.28643351793289185 0.17164623737335205 0.2689546048641205 -0.0536276251077652 -0.4246990382671356 0.1979987919330597 -0.18395406007766724 0.1796225905418396 0.22360599040985107 0.020243480801582336 -0.31050464510917664 0.5451598167419434
29136030_62991798.xml	0.1498725563287735 -0.14415422081947327 -0.06872641295194626 -0.5300981402397156 -0.02991412580013275 0.19314292073249817 0.3122757375240326 0.015769120305776596 -0.020159121602773666 0.009250563569366932 0.16500619053840637 -0.23114784061908722 -0.2467048317193985 0.2515240013599396 -0.3271086812019348 0.051173191517591476 0.2583312690258026 0.2162725180387497 0.19679726660251617 0.1686747968196869 0.3076615333557129 0.18111251294612885 0.026623796671628952 -0.14515332877635956 0.07650990784168243 -0.37748852372169495 0.08318392187356949 0.15024268627166748 0.2473796159029007 0.12614509463310242 0.11465205252170563 -0.03875581547617912 -0.20136378705501556 0.35993149876594543 -0.04803505912423134 -0.08270559459924698 -0.1962471455335617 0.24119757115840912 -0.3957275152206421 -0.2789633572101593 0.40854597091674805 0.10652102530002594 -0.14449769258499146 -0.35590943694114685 -0.04887513816356659 -0.18958859145641327 -0.05204787105321884 -0.14226588606834412 -0.19031253457069397 0.4934731125831604
29136030_62999879.xml	0.23766103386878967 -0.34612104296684265 0.19560706615447998 -0.10068414360284805 0.1120927631855011 0.0669233426451683 0.1244511678814888 -0.06384843587875366 -0.008349698036909103 0.08371265232563019 0.2970272898674011 -0.15255886316299438 0.15933017432689667 0.4612438678741455 -0.2807167172431946 0.22281427681446075 -0.3745212256908417 0.00014451210154220462 0.11881183832883835 -0.09592637419700623 0.13308866322040558 0.3872186839580536 -0.08736058324575424 0.2600117027759552 -0.17924056947231293 -0.6162316799163818 0.18872852623462677 -0.16738297045230865 0.37588968873023987 0.06831375509500504 -0.07949261367321014 -0.15193331241607666 0.03809388726949692 0.22728659212589264 -0.25844094157218933 0.11052869260311127 -0.16231495141983032 0.25703731179237366 -0.59074467420578 -0.12131157517433167 0.5116866230964661 0.02845207415521145 -0.20116198062896729 0.4232954978942871 -0.14651498198509216 0.1373337060213089 0.22377215325832367 -0.025685450062155724 -0.053348105400800705 0.666113555431366
29136030_63006725.xml	-0.048085395246744156 -0.017193417996168137 0.26055699586868286 0.2638549208641052 0.14717906713485718 0.36533164978027344 0.018196970224380493 0.2595197260379791 0.07721183449029922 0.09614777565002441 0.16341254115104675 -0.19067390263080597 0.035466331988573074 0.6197091341018677 -0.15582413971424103 0.285422682762146 0.04625023901462555 0.010163526982069016 0.13016676902770996 -0.031064841896295547 0.20741155743598938 0.3574231266975403 0.2433186173439026 -0.40831708908081055 -0.6192612648010254 -0.2695121765136719 -0.18244901299476624 -0.07749409228563309 0.22061309218406677 -0.15043222904205322 -0.12080587446689606 -0.011479309760034084 -0.10444628447294235 0.24146880209445953 -0.15302446484565735 0.08513487875461578 -0.3692471981048584 -0.03975556045770645 -0.32374027371406555 0.11238919198513031 0.1421399861574173 -0.10187646001577377 -0.5479393601417542 0.37446901202201843 0.09527929872274399 -0.4111320376396179 0.17450647056102753 -0.24069233238697052 -0.057871896773576736 0.21869982779026031
29136056_62977595.xml	0.10822457820177078 0.17280155420303345 0.1298750638961792 -0.18224139511585236 -0.15543685853481293 0.3102952837944031 0.4146430492401123 0.09053978323936462 0.26183396577835083 -0.13551801443099976 0.1235419437289238 0.024230195209383965 -0.07782546430826187 0.14114578068256378 -0.2466224581003189 0.16559478640556335 -0.06980610638856888 0.20552341639995575 0.07134497165679932 -0.02496783807873726 0.09828066825866699 0.014373851008713245 0.04322638735175133 -0.1036679670214653 -0.01931728795170784 -0.11211489140987396 -0.09873135387897491 0.39635270833969116 0.2604106664657593 0.18326333165168762 -0.05988645926117897 0.15127134323120117 -0.11791376024484634 0.419047474861145 -0.22897320985794067 -0.2650749981403351 -0.30611276626586914 -0.1675102263689041 -0.0007897616596892476 0.32734009623527527 0.11677758395671844 0.12770989537239075 -0.17035016417503357 0.16599078476428986 -0.43210068345069885 -0.14052622020244598 0.006237195339053869 -0.07509849965572357 -0.2721065580844879 0.744194746017456
29136056_62983059.xml	-0.02867000550031662 0.06216266751289368 0.09058329463005066 0.2226227968931198 0.019378069788217545 -0.04801834747195244 -0.16440469026565552 -0.37392458319664 0.3459426462650299 -0.16562600433826447 -0.0808878019452095 -0.26273155212402344 -0.2556784749031067 0.2161482274532318 -0.408530056476593 -0.00319625879637897 -0.1754073202610016 -0.1242658942937851 -0.39651399850845337 -0.285347044467926 0.36592090129852295 0.054151929914951324 -0.2438812553882599 -0.21865136921405792 -0.28011250495910645 -0.052648719400167465 -0.2532694339752197 0.10176336765289307 0.20971357822418213 0.2793312668800354 0.15133623778820038 0.01380677055567503 -0.17181318998336792 0.13070610165596008 -0.10208315402269363 -0.15658767521381378 -0.04577411711215973 -0.3929625153541565 -0.10121248662471771 0.11471287161111832 0.34185776114463806 0.19515810906887054 -0.3392389118671417 -0.040222007781267166 -0.18342135846614838 -0.24991276860237122 -0.10716593265533447 -0.12583985924720764 -0.14995446801185608 0.07344355434179306
29136056_62995868.xml	0.11921665072441101 0.2780836522579193 -0.08689484000205994 0.10497549176216125 -0.3870866894721985 -0.03551740199327469 -0.31127581000328064 -0.05408254638314247 0.2943340241909027 0.34034264087677 -0.143441304564476 -0.20376534759998322 0.10036051273345947 0.29627180099487305 -0.04227512329816818 -0.06171310320496559 -0.09889919310808182 -0.047320395708084106 -0.501395583152771 -0.1446126103401184 0.5311774015426636 -0.18862324953079224 -0.22021633386611938 0.09086509793996811 -0.0073680817149579525 -0.1184464544057846 -0.04472377896308899 -0.37868520617485046 -0.045828137546777725 -0.1871097832918167 0.1341099590063095 0.33332279324531555 -0.12090345472097397 0.6498669385910034 -0.4815593957901001 -0.07156984508037567 -0.13260699808597565 -0.45677056908607483 -0.4276239573955536 0.44867828488349915 0.027391571551561356 -0.013831118121743202 -0.3097580671310425 0.26460304856300354 0.06364662945270538 0.24234026670455933 0.10979393869638443 -0.22803138196468353 0.07897131145000458 0.3523932695388794
29136083_62979594.xml	0.08116619288921356 0.03488878533244133 -0.26956650614738464 -0.33507588505744934 0.3542492389678955 -0.27953487634658813 0.28867918252944946 -0.03718561306595802 -0.11401689052581787 -0.29634973406791687 -0.23201940953731537 -0.42523762583732605 -0.4815763831138611 0.41350919008255005 -0.057015907019376755 -0.2110118716955185 -0.3342643082141876 -0.4436108469963074 -0.1718723326921463 -0.23968735337257385 0.1923566311597824 -0.1132117360830307 0.2721799612045288 0.1524672657251358 -0.08176649361848831 -0.36109620332717896 -0.07077097147703171 -0.22859932482242584 0.014535962603986263 0.17976129055023193 -0.18212071061134338 0.10438402742147446 -0.016957122832536697 -0.017676839604973793 0.009823162108659744 0.2648750841617584 0.18308565020561218 -0.176004558801651 -0.021095100790262222 -0.1736680120229721 0.2956799566745758 -0.28470027446746826 -0.6333842277526855 -0.23484167456626892 -0.36267271637916565 0.491183340549469 -0.2415238618850708 -0.017817726358771324 -0.30355414748191833 0.3581303656101227
29136083_62983300.xml	0.03893726319074631 0.0052405064925551414 -0.2132720798254013 -0.17981645464897156 0.20300698280334473 -0.42772176861763 0.2769787311553955 -0.08809264749288559 -0.049952443689107895 -0.4075908958911896 -0.2999976575374603 -0.4373762011528015 -0.32205909490585327 0.286717027425766 -0.01887783221900463 -0.3079613745212555 -0.3913167119026184 -0.4179356098175049 -0.09292403608560562 -0.4483339190483093 0.32911980152130127 -0.12458919733762741 0.2560359239578247 0.24373772740364075 -0.12022870033979416 -0.12483571469783783 -0.179153710603714 -0.3123917281627655 0.10616056621074677 0.23648451268672943 -0.10612764954566956 0.14147847890853882 0.1482856422662735 0.07537403702735901 -0.04295623302459717 0.3608129024505615 0.21813270449638367 -0.2776016294956207 -0.11630186438560486 -0.02380737103521824 0.44576194882392883 -0.48515188694000244 -0.7742630243301392 -0.14213845133781433 -0.5448679327964783 0.40499186515808105 -0.27742329239845276 0.07979818433523178 -0.16875140368938446 0.21469783782958984
29136083_63000463.xml	0.08240561187267303 0.06617733836174011 -0.33668673038482666 -0.4508172869682312 0.24867910146713257 -0.14175380766391754 0.2574816048145294 -0.1179950088262558 -0.22429680824279785 -0.4156023859977722 -0.2892777621746063 -0.429675430059433 -0.5539028644561768 0.29413604736328125 -0.32351335883140564 -0.19228047132492065 -0.43481898307800293 -0.5636783838272095 -0.08982957899570465 -0.21460728347301483 0.34742435812950134 0.057156581431627274 0.2550189197063446 0.13868555426597595 -0.12850244343280792 -0.24018138647079468 -0.26379725337028503 -0.282605916261673 0.012997979298233986 0.05339091643691063 -0.11046019196510315 -0.08267392218112946 0.07060506194829941 -0.045642878860235214 0.0992618277668953 0.33776068687438965 0.3395948112010956 -0.13112831115722656 -0.0673799142241478 -0.13811613619327545 0.32601791620254517 -0.39415666460990906 -0.8864594101905823 -0.05415942519903183 -0.5318477153778076 0.25954803824424744 -0.3118811547756195 0.16531310975551605 -0.06260593980550766 -0.08725886791944504
29136168_62986125.xml	-0.27637454867362976 0.29350271821022034 0.10840023308992386 0.0036793833132833242 -0.04456990584731102 0.23497292399406433 0.15958312153816223 0.1648126095533371 0.28999704122543335 -0.12912461161613464 -0.19825254380702972 0.09380698204040527 -0.26402685046195984 0.18161673843860626 -0.33237725496292114 -0.1278126984834671 -0.4235241711139679 0.1525987833738327 -0.6235008835792542 -0.2319212108850479 -0.39433562755584717 0.0036545058246701956 -0.24864870309829712 -0.07064283639192581 -0.23041614890098572 0.3096432089805603 -0.48980435729026794 -0.03544435277581215 0.06959956884384155 -0.0198502317070961 0.15715603530406952 0.28875604271888733 0.31854748725891113 0.08699426054954529 -0.031046584248542786 -0.08812928944826126 -0.2653939127922058 0.04063571244478226 -0.2455608993768692 -0.2873220443725586 -0.11275595426559448 -0.2918757200241089 -0.06423214823007584 0.13813698291778564 -0.5189012885093689 0.5253940224647522 -0.056855522096157074 -0.4014497697353363 -0.23216241598129272 0.45313480496406555
29136168_62988705.xml	-0.22906671464443207 0.35533687472343445 -0.05464717745780945 -0.007567974738776684 -0.08349597454071045 0.32853400707244873 0.2456401288509369 0.26590126752853394 0.30105558037757874 -0.09305374324321747 -0.20304922759532928 0.19925186038017273 -0.20359301567077637 0.24273160099983215 -0.4129558801651001 -0.039856795221567154 -0.483864426612854 0.1515858918428421 -0.494550496339798 -0.14088045060634613 -0.42380666732788086 0.11581795662641525 -0.2575882375240326 -0.11916281282901764 -0.24465569853782654 0.15815678238868713 -0.522006094455719 0.0377722792327404 0.15326565504074097 -0.0705077275633812 0.19856423139572144 0.2637006640434265 0.3586798906326294 0.22061072289943695 -0.11207189410924911 -0.08007670193910599 -0.22178006172180176 0.14579322934150696 -0.2596965432167053 -0.3852115869522095 -0.0684850737452507 -0.21843023598194122 -0.13189569115638733 0.27906081080436707 -0.4209761917591095 0.5499176979064941 0.08647328615188599 -0.39709213376045227 -0.21497973799705505 0.34852078557014465
29136168_62999698.xml	-0.15009833872318268 0.103714719414711 0.09312937408685684 -0.06995059549808502 -0.00907826703041792 0.08481922745704651 0.03767117112874985 0.10916173458099365 0.24512624740600586 -0.11634452641010284 -0.28004100918769836 0.00139204494189471 -0.33286958932876587 0.08419648557901382 -0.4022268056869507 -0.06921998411417007 -0.5031589269638062 0.188685342669487 -0.6575267314910889 -0.19044871628284454 -0.37326905131340027 0.016201401129364967 -0.22715745866298676 -0.15729613602161407 -0.18088695406913757 0.2520240545272827 -0.5561823844909668 0.06603386253118515 0.09275294840335846 0.10130010545253754 0.3117961287498474 0.26686277985572815 0.33294978737831116 0.019609756767749786 0.01706693321466446 -0.08550731092691422 -0.3293035626411438 0.1549738645553589 -0.26857858896255493 -0.5131680369377136 -0.1878102868795395 -0.3100374937057495 -0.08710217475891113 -0.048233699053525925 -0.22416013479232788 0.5414000749588013 -0.14470404386520386 -0.36782050132751465 0.025631682947278023 0.28214648365974426
29136207_62977759.xml	-0.339668333530426 0.2014486938714981 0.09516040235757828 -0.07013750076293945 0.022525861859321594 0.36588945984840393 -0.12637858092784882 -0.03856971859931946 0.5116347074508667 0.1107146218419075 -0.43192264437675476 0.061822522431612015 -0.5316373109817505 0.10757187753915787 -0.1832467019557953 0.06112375855445862 0.02692015841603279 0.11714459955692291 -0.5877425670623779 -0.024362049996852875 -0.17769870162010193 0.1866506189107895 0.06548620015382767 -0.20100879669189453 0.06036216393113136 0.38144513964653015 -0.008108100853860378 0.1630898267030716 0.501225471496582 -0.0036648057866841555 0.7940364480018616 0.3482612371444702 -0.052069466561079025 0.28078487515449524 -0.1384667456150055 0.0785931721329689 -0.644259512424469 0.2070888727903366 -0.363821804523468 -0.2694378197193146 0.4607613980770111 -0.05619459226727486 0.3688155710697174 -0.428352415561676 -0.13032756745815277 -0.5272855758666992 -0.27613046765327454 -0.2056334763765335 0.024837331846356392 0.6769824028015137
29136207_62980526.xml	-0.271948903799057 0.22908234596252441 -0.06735347956418991 -0.064881332218647 -0.17621612548828125 0.39399564266204834 -0.1660917103290558 -0.1302282214164734 0.43728122115135193 0.0494527742266655 -0.45227235555648804 0.018273169174790382 -0.4010821580886841 0.2475462257862091 -0.2925350069999695 -0.022233961150050163 -0.2339179962873459 0.010725025087594986 -0.46794769167900085 -0.1377696543931961 -0.04694250226020813 0.23615679144859314 0.11117524653673172 -0.011274619027972221 -0.17918062210083008 0.4844845235347748 -0.10014599561691284 -0.23444266617298126 0.5697194933891296 -0.33152636885643005 0.7170682549476624 0.309635728597641 0.24763821065425873 0.45622432231903076 -0.11099296808242798 -0.025508014485239983 -0.5416147112846375 0.18206043541431427 -0.5271224975585938 0.024584412574768066 0.3909146189689636 -0.26873594522476196 0.04072427377104759 0.00039228759123943746 -0.24315859377384186 -0.6764550805091858 -0.22263243794441223 0.054399050772190094 0.2227744311094284 0.20914092659950256
29136207_62995725.xml	-0.24498578906059265 0.029032597318291664 0.004017546772956848 -0.2816775441169739 -0.052331361919641495 0.48656073212623596 -0.3093566298484802 -0.421766072511673 0.3454499840736389 -0.013129042461514473 -0.5138968229293823 0.3604868948459625 -0.1839711219072342 -0.054671429097652435 -0.2699114680290222 0.063754603266716 -0.4673195779323578 -0.10070720314979553 -0.5903327465057373 -0.36807307600975037 0.019951362162828445 0.32259851694107056 -0.07905136048793793 0.16903620958328247 0.07960183173418045 0.40654256939888 -0.24657289683818817 -0.05285502225160599 0.48871487379074097 -0.06855300068855286 0.7351989150047302 -0.09635384380817413 0.17656272649765015 0.3196139633655548 -0.05265418067574501 0.047814540565013885 -0.4995054006576538 0.22770388424396515 -0.36743345856666565 -0.2733605206012726 0.502295196056366 -0.13063228130340576 0.00642395718023181 -0.0513593852519989 -0.1264955997467041 -0.6678351163864136 -0.18781901895999908 0.09318528324365616 0.2103702872991562 0.5367515087127686
29136221_62977860.xml	-0.12879489362239838 0.4355837106704712 1.0409907102584839 1.0018774271011353 -0.009138423018157482 0.0758400484919548 0.14512315392494202 -0.12557415664196014 -0.09378107637166977 0.28428906202316284 -0.5400058627128601 -0.48757749795913696 -0.1785779893398285 0.40312066674232483 -0.07688193023204803 -0.5878471732139587 -0.2551620304584503 -1.3751182556152344 -0.29235756397247314 -0.8033502101898193 0.16000519692897797 0.1638047844171524 -0.461439847946167 -0.23943208158016205 -0.01266522891819477 0.2184341549873352 -0.06921320408582687 -0.792870819568634 -0.039604537189006805 -1.159034252166748 0.1889553666114807 0.5764535665512085 0.021784165874123573 0.6464257836341858 -0.3101617395877838 0.5463852286338806 -0.052553441375494 0.5102155804634094 -0.32149815559387207 0.42051810026168823 -0.24855844676494598 -0.6384527683258057 -0.2153501957654953 -0.035317450761795044 -0.040901560336351395 0.2926740050315857 0.9743713140487671 -0.25038567185401917 -0.053889378905296326 -0.2330322563648224
29136221_62991108.xml	-0.11741863936185837 0.3825894892215729 1.0552922487258911 0.7092909812927246 0.07932613044977188 0.09745893627405167 0.1686190962791443 -0.17974801361560822 -0.16527946293354034 0.3401809334754944 -0.5913150310516357 -0.49787673354148865 -0.24597260355949402 0.40450820326805115 -0.14934700727462769 -0.46643710136413574 -0.30116406083106995 -1.3800383806228638 -0.37458959221839905 -0.7193149328231812 0.11897791177034378 0.09254367649555206 -0.4569929838180542 -0.3374011218547821 0.0706806555390358 0.12450926750898361 -0.005427265539765358 -0.7354460954666138 -0.0419253408908844 -1.138438105583191 0.22637733817100525 0.47126150131225586 -0.05501623824238777 0.438616544008255 -0.19786635041236877 0.4272230565547943 -0.11918547749519348 0.5234795212745667 -0.3182150721549988 0.31608033180236816 -0.317897230386734 -0.5351749062538147 -0.18436793982982635 -0.09727306663990021 -0.035932011902332306 0.24355395138263702 0.8588061332702637 -0.19259794056415558 -0.05347689241170883 -0.3048502802848816
29136221_63008576.xml	-0.09113746881484985 0.4502926468849182 1.1636974811553955 0.8169379830360413 -0.05887347832322121 -0.005687478464096785 0.15046581625938416 -0.12576109170913696 0.011489423923194408 0.34063947200775146 -0.5001529455184937 -0.5187830924987793 -0.08999071270227432 0.52281653881073 -0.2013012170791626 -0.5840608477592468 -0.32171979546546936 -1.4347386360168457 -0.2540925443172455 -0.7091952562332153 0.07244527339935303 0.17862066626548767 -0.4765850305557251 -0.25519561767578125 0.056718610227108 0.05871409922838211 0.012841067276895046 -0.8670855164527893 0.059814807027578354 -1.088041067123413 0.18614687025547028 0.5117411613464355 0.008459034375846386 0.4838172495365143 -0.3312995731830597 0.3854787349700928 0.019787784665822983 0.5852053761482239 -0.31991177797317505 0.2879442870616913 -0.19643041491508484 -0.5500668287277222 -0.07896865904331207 -0.05552871152758598 -0.03241375461220741 0.29734471440315247 1.0182874202728271 -0.3202055096626282 -0.030876535922288895 -0.2544462978839874
29136267_62977502.xml	-0.09632429480552673 0.4987242817878723 0.11348771303892136 -0.5411689281463623 -0.12801265716552734 0.38951897621154785 0.20945826172828674 0.42951905727386475 -0.05897178873419762 0.22426533699035645 -0.5739874243736267 -0.4210084080696106 0.1816035807132721 0.6073446869850159 0.29469242691993713 0.032181572169065475 0.22404231131076813 -0.3499439060688019 -0.8003734946250916 -0.2607029974460602 0.520194411277771 -0.45432528853416443 -0.5581373572349548 -0.6076768636703491 1.0476319789886475 0.3622994124889374 0.5602571368217468 0.19047418236732483 -0.31884491443634033 -0.26162099838256836 0.5301284790039062 0.46256566047668457 -0.6870182752609253 0.6302561163902283 -0.6987989544868469 0.4483010470867157 -0.28854459524154663 -0.3606014549732208 -0.8718406558036804 -0.44524598121643066 0.1366601586341858 0.521364152431488 -0.3818146586418152 -0.3085097074508667 0.08077970147132874 -0.0715690404176712 0.3270154297351837 -0.6715061664581299 0.25968071818351746 -0.2842705249786377
29136267_62979287.xml	0.022895993664860725 0.5022224187850952 0.07919719070196152 -0.5243304371833801 -0.14958789944648743 0.3985312879085541 0.2306552529335022 0.4278090000152588 -0.08244411647319794 0.24037787318229675 -0.6861958503723145 -0.5013682842254639 0.11624112725257874 0.5769159197807312 0.33629968762397766 0.08120883256196976 0.22493073344230652 -0.31700995564460754 -0.790129542350769 -0.2733626961708069 0.5265690088272095 -0.39648932218551636 -0.5798317193984985 -0.6071760654449463 1.050215482711792 0.37975695729255676 0.5996473431587219 0.18318156898021698 -0.27172911167144775 -0.2906550168991089 0.5479680299758911 0.4342072010040283 -0.7073959112167358 0.607697606086731 -0.6898319721221924 0.49937644600868225 -0.32452133297920227 -0.36117270588874817 -0.9114952683448792 -0.4415130913257599 0.1289038062095642 0.5471646785736084 -0.39463964104652405 -0.3791043162345886 0.02787313424050808 -0.022200342267751694 0.3961597979068756 -0.6158227920532227 0.2857591509819031 -0.3689984679222107
29136267_62992599.xml	-0.01798621565103531 0.5039597153663635 0.11986857652664185 -0.5599516034126282 -0.15632747113704681 0.4128563702106476 0.21602244675159454 0.4630768299102783 -0.12946051359176636 0.2895352840423584 -0.6504412889480591 -0.44601836800575256 0.07616901397705078 0.5736632943153381 0.2769926190376282 0.04335632175207138 0.23268304765224457 -0.3486783504486084 -0.7629373669624329 -0.2575034201145172 0.5155712366104126 -0.4686703085899353 -0.6107975244522095 -0.5533860325813293 1.0594346523284912 0.377872109413147 0.5481756329536438 0.15938466787338257 -0.3032607138156891 -0.24987632036209106 0.5457550883293152 0.5158815979957581 -0.7553192973136902 0.6230328679084778 -0.6766809225082397 0.4718632996082306 -0.27013060450553894 -0.25015610456466675 -0.9449573159217834 -0.40300166606903076 0.19646774232387543 0.5189468264579773 -0.3693423271179199 -0.26049795746803284 0.04442763328552246 -0.07640407979488373 0.39142391085624695 -0.6416801810264587 0.3312419056892395 -0.32508066296577454
29136318_62978696.xml	-0.18382921814918518 0.26589736342430115 -0.01802121475338936 -0.2593296468257904 -0.0375586599111557 -0.49056848883628845 -0.1577426642179489 0.31603315472602844 0.2601335346698761 -0.2597599923610687 -0.02765125222504139 0.328228622674942 0.11529289931058884 -0.2319350242614746 -0.6726254820823669 -0.19012638926506042 -0.01729627698659897 0.1617535799741745 -0.16756722331047058 -0.5308158993721008 -0.41109544038772583 0.17958815395832062 0.08590014278888702 -0.05592649430036545 -0.1005556732416153 0.2178621143102646 -0.3583945035934448 0.38876983523368835 0.3632988929748535 0.09799432009458542 0.18587300181388855 -0.17689429223537445 0.059159740805625916 -0.0063925450667738914 0.010185850784182549 -0.030016278848052025 -0.5795559287071228 -0.2787066102027893 -0.06538066267967224 -0.09793880581855774 -0.14587445557117462 -0.394061803817749 -0.26128241419792175 -0.10907283425331116 -0.013312098570168018 -0.05737707018852234 -0.13228003680706024 -0.45995795726776123 -0.03314216062426567 0.35713261365890503
29136318_62982313.xml	-0.11821723729372025 0.22253963351249695 -0.15842260420322418 -0.3140846788883209 -0.06804575771093369 -0.3112317621707916 -0.3040744960308075 0.1378052830696106 0.2838999927043915 -0.21374711394309998 -0.0795205682516098 0.1903340220451355 -0.026493409648537636 -0.11239129304885864 -0.7090919613838196 -0.18789894878864288 -0.14033304154872894 0.11192412674427032 -0.032662782818078995 -0.31667816638946533 -0.4050876796245575 0.22849485278129578 0.025717217475175858 0.028285270556807518 -0.15919999778270721 0.09076345711946487 -0.3870558738708496 0.13791875541210175 0.3604874610900879 -0.1166517436504364 0.24959461390972137 -0.2434575855731964 0.13359084725379944 0.05894877016544342 0.0262366384267807 -0.1522185355424881 -0.6255310773849487 -0.02368335798382759 -0.09667079895734787 -0.2858586311340332 -0.26757559180259705 -0.47674697637557983 -0.25488725304603577 -0.15581770241260529 0.1446862369775772 0.08221134543418884 -0.22510096430778503 -0.2894565761089325 0.07474227249622345 0.1361454725265503
29136318_63007509.xml	-0.15133598446846008 0.1642071008682251 -0.28575238585472107 -0.5291599035263062 -0.06190063804388046 -0.4355311989784241 -0.2648102939128876 0.1319226324558258 0.20668163895606995 -0.34480586647987366 -0.17160716652870178 0.09063593298196793 -0.14253002405166626 -0.20745567977428436 -0.6741929650306702 -0.2950647473335266 -0.2500380873680115 0.025283288210630417 -0.07262228429317474 -0.38816097378730774 -0.3777121603488922 0.3403603136539459 0.04167519882321358 -0.005657756235450506 -0.06923943012952805 0.11843369901180267 -0.45331504940986633 0.13958555459976196 0.22092898190021515 -0.12052000313997269 0.2899197041988373 -0.3111860156059265 0.13125717639923096 -0.010106589645147324 -0.009588804095983505 -0.0784960463643074 -0.6295204162597656 0.06564892828464508 -0.2226279377937317 -0.40574273467063904 -0.20929855108261108 -0.4818703830242157 -0.24581018090248108 -0.38004809617996216 0.27778902649879456 0.12739136815071106 -0.3646025061607361 -0.44840148091316223 0.0336209274828434 0.014450573362410069
29136356_62977872.xml	-0.08640900999307632 0.22784177958965302 0.1641797125339508 -0.02763349935412407 -0.2977842390537262 0.11288488656282425 0.20531323552131653 0.1600690335035324 0.4277234971523285 0.02741287834942341 -0.11954835802316666 0.2339612990617752 -0.15986233949661255 -0.08017806708812714 -0.04146657884120941 -0.11947450786828995 0.17322982847690582 0.3845171332359314 -0.16315284371376038 -0.21027883887290955 0.056201349943876266 -0.10677599161863327 0.06693471968173981 -0.09506146609783173 0.10631883144378662 0.3547862768173218 0.019692599773406982 0.2494884431362152 0.25452765822410583 0.12092497199773788 0.3497008979320526 0.20031195878982544 0.11365900188684464 0.598186731338501 -0.09985804557800293 -0.2063724845647812 -0.6292181015014648 -0.08546459674835205 -0.39795243740081787 -0.10390850156545639 0.24588513374328613 -0.16322463750839233 0.07123809307813644 -0.27724871039390564 -0.0370708629488945 -0.3775974214076996 0.11252996325492859 -0.33447691798210144 -0.27544236183166504 0.6770609021186829
29136356_62983693.xml	-0.15334703028202057 0.16072015464305878 -0.1160082221031189 -0.21734067797660828 -0.23899352550506592 0.6080581545829773 0.11940138041973114 0.052641842514276505 0.2255946844816208 -0.01971426047384739 -0.11416134238243103 0.033080995082855225 -0.2999798059463501 0.132089763879776 -0.3592393398284912 0.0042741852812469006 0.041589196771383286 0.24010634422302246 -0.10478856414556503 0.028620120137929916 0.027686363086104393 0.15128622949123383 -0.04017556086182594 -0.009397459216415882 -0.002347193192690611 0.12864522635936737 -0.024954184889793396 -0.023807097226381302 0.29728877544403076 -0.2599179446697235 0.29906806349754333 0.1960904449224472 0.18122807145118713 0.49771544337272644 -0.07964714616537094 -0.36108025908470154 -0.4694262742996216 0.1195383295416832 -0.5330138802528381 0.09562329202890396 0.2028663009405136 0.00122223945800215 0.09315601736307144 -0.043511781841516495 -0.29176101088523865 -0.4448462426662445 -0.021831827238202095 -0.10432421416044235 -0.12812982499599457 0.37065383791923523
29136356_62997890.xml	-0.29434046149253845 0.09052954614162445 0.06043589115142822 -0.2450493723154068 -0.18190129101276398 0.3890269696712494 -0.18292635679244995 -0.17276634275913239 0.4666615128517151 -0.04690339043736458 -0.31420859694480896 -0.23902897536754608 -0.5285838842391968 0.03786627575755119 -0.3126447796821594 -0.16837407648563385 -0.08721065521240234 -0.14416827261447906 -0.21897834539413452 -0.06006959453225136 0.15625259280204773 0.1982431858778 -0.04900624230504036 -0.0948527529835701 -0.0353417731821537 0.16387227177619934 -0.26176485419273376 -0.021391522139310837 0.19546593725681305 -0.03419623523950577 0.5371812582015991 0.02537667565047741 0.06355663388967514 0.2597881257534027 -0.04250538721680641 -0.004281914327293634 -0.36761462688446045 0.36968994140625 -0.5239654183387756 -0.5414785742759705 0.4546348452568054 0.01723598688840866 0.14696753025054932 -0.7370347380638123 0.10175181925296783 -0.3263795077800751 -0.22303831577301025 -0.368097722530365 -0.13994133472442627 0.0802929475903511
29136397_62979000.xml	0.10644152760505676 0.09576084464788437 -0.2380048632621765 -0.4936646819114685 -0.12943558394908905 0.3314201235771179 0.5025652647018433 0.10203961282968521 -0.015910927206277847 -0.16294793784618378 0.2769525945186615 -0.04095084220170975 -0.13498352468013763 -0.0017318115569651127 -0.5411791801452637 0.12579594552516937 -0.022995926439762115 -0.2766574025154114 0.30928701162338257 0.1054399386048317 0.41200947761535645 0.281269371509552 -0.006519638933241367 -0.095030777156353 0.04646604508161545 -0.3881072402000427 -0.12461745738983154 0.20506946742534637 0.02770904265344143 -0.02015768736600876 0.06416460871696472 -0.19915872812271118 -0.20597711205482483 0.13986365497112274 -0.016151098534464836 0.05771467089653015 -0.11904901266098022 0.01641830988228321 -0.19594548642635345 -0.014401738531887531 0.011825674213469028 -0.17647850513458252 -0.606670081615448 -0.07120122015476227 -0.49609044194221497 0.21376043558120728 0.040598418563604355 0.08974923193454742 -0.23228830099105835 0.282760888338089
29136397_62983348.xml	0.05464629828929901 0.09010738134384155 -0.19405779242515564 -0.27163299918174744 -0.05501415953040123 0.1337049901485443 0.2782464623451233 0.10489396750926971 -0.14748185873031616 -0.08059212565422058 0.23689588904380798 -0.10248454660177231 -0.16095061600208282 -0.0028941365890204906 -0.49387380480766296 -0.09637918323278427 0.06982336193323135 -0.16816124320030212 0.21704798936843872 0.05272938311100006 0.32344233989715576 0.23442374169826508 -0.023777345195412636 0.053005117923021317 -0.13778804242610931 -0.22606252133846283 -0.08317288011312485 0.10527787357568741 0.03822581470012665 -0.005015401169657707 -0.10408633947372437 -0.10993769019842148 0.23115821182727814 0.14631387591362 0.034528277814388275 -0.09010529518127441 -0.13690495491027832 -0.0010960588697344065 -0.2779929041862488 -0.03809715062379837 0.07329542934894562 -0.4085623323917389 -0.7476819157600403 0.10836953669786453 -0.299480676651001 0.2512950897216797 0.1303873509168625 0.1402520090341568 -0.17156420648097992 0.18798111379146576
29136397_62991406.xml	0.04633624106645584 0.09846805781126022 -0.0716494619846344 -0.3828924894332886 -0.07696647942066193 0.053258802741765976 0.312368243932724 0.04712092876434326 -0.0068067023530602455 -0.17706196010112762 0.1288043111562729 0.039285991340875626 -0.21375295519828796 -0.15819479525089264 -0.48927244544029236 -0.09352447092533112 0.06543273478746414 -0.2501227557659149 0.1517123132944107 0.1055382788181305 0.2628638744354248 0.16231076419353485 0.009232847951352596 -0.12255412340164185 0.04383627325296402 -0.13866464793682098 -0.09933767467737198 0.2563008964061737 0.04797521233558655 0.1784096658229828 0.06409288942813873 -0.12711867690086365 0.04966893792152405 0.05322905629873276 0.07087409496307373 0.05411060154438019 -0.15047688782215118 -0.07149717211723328 -0.20148800313472748 -0.22120773792266846 0.05307544767856598 -0.2908186614513397 -0.5977377891540527 -0.17324940860271454 -0.24031512439250946 0.20138050615787506 0.08143322169780731 0.014390213415026665 -0.18118229508399963 0.19840820133686066
29136509_62979846.xml	0.12508928775787354 0.11083134263753891 -0.08027584105730057 -0.13350223004817963 -0.022800013422966003 0.08513327687978745 0.26937365531921387 -0.05070403590798378 0.05713249742984772 -0.12079284340143204 0.13465838134288788 -0.4191279113292694 -0.12637020647525787 0.23498329520225525 -0.2979157567024231 -0.025069015100598335 -0.10372388362884521 -0.31358498334884644 -0.05606768652796745 -0.04089945927262306 0.06133664399385452 0.3502577543258667 -0.0637945756316185 -0.08334261178970337 -0.23940950632095337 -0.19147877395153046 0.09318838268518448 -0.19326679408550262 0.2664285898208618 0.008785325102508068 0.09164001792669296 0.1266046166419983 -0.08356114476919174 0.24232614040374756 -0.1737523078918457 0.05919380113482475 -0.12361688166856766 0.09716007113456726 -0.20641352236270905 0.19286730885505676 0.28338074684143066 0.0054374984465539455 -0.2232929766178131 -0.04553753510117531 -0.37439170479774475 0.1334991157054901 -0.0031760225538164377 0.12311895191669464 -0.14374592900276184 0.4342350661754608
29136509_63005934.xml	0.017037857323884964 0.20214591920375824 -0.3220061659812927 -0.13544996082782745 -0.19566136598587036 -0.00915961991995573 0.25200092792510986 -0.239994615316391 0.10419014096260071 -0.23971472680568695 -0.09979797154664993 -0.27369818091392517 -0.2678079307079315 -0.09960060566663742 -0.4893896281719208 0.08249013125896454 -0.0010098449420183897 -0.46761131286621094 -0.015928246080875397 -0.19679677486419678 0.10716219246387482 0.12808012962341309 -0.19461901485919952 -0.11224398016929626 -0.003264507744461298 -0.07609624415636063 0.044703930616378784 -0.0788017138838768 0.06693208962678909 0.0014348310651257634 0.22039878368377686 -0.04182163625955582 -0.3466031551361084 0.04864678904414177 -0.12017565965652466 0.21692121028900146 -0.16344262659549713 0.02915596030652523 -0.1738063544034958 -0.20397137105464935 0.1206875592470169 0.008595599792897701 -0.05793721228837967 -0.31445980072021484 -0.31537777185440063 0.04493361711502075 0.05545143410563469 -0.11867164820432663 -0.048071518540382385 0.07229738682508469
29136511_62981270.xml	0.12363888323307037 0.15509483218193054 -0.22189195454120636 -0.09460756927728653 -0.2547873258590698 0.21732152998447418 0.2314094603061676 0.2484319657087326 0.35296353697776794 -0.17008060216903687 0.05003473907709122 0.011935647577047348 0.01749902032315731 0.1924559772014618 -0.06984972208738327 0.04860464483499527 -0.18480417132377625 0.24531368911266327 -0.030190158635377884 -0.19370779395103455 -0.0475386381149292 0.18141821026802063 0.18453460931777954 -0.11749241501092911 -0.1370544284582138 0.0456925630569458 0.04717941954731941 0.013163900002837181 0.42291614413261414 0.019528083503246307 0.16574296355247498 0.25035709142684937 0.006269528530538082 0.7532094120979309 -0.15778177976608276 -0.42853236198425293 -0.5658360123634338 -0.04690363630652428 -0.2476845681667328 0.18009300529956818 0.22159278392791748 0.0638468936085701 -0.006297082174569368 0.12352675199508667 -0.23721083998680115 -0.23061111569404602 0.1583913117647171 -0.17151197791099548 -0.1572580635547638 0.631147563457489
29136511_62984534.xml	0.08301607519388199 -0.07438378036022186 -0.2165530025959015 -0.24860036373138428 -0.3173278272151947 0.1826113760471344 0.0613139271736145 0.04612649232149124 0.35419589281082153 -0.19520115852355957 -0.08885450661182404 -0.009718816727399826 -0.07757450640201569 0.1650879979133606 -0.1231340542435646 -0.05253145843744278 -0.18315744400024414 0.23400704562664032 0.03835926949977875 -0.17941813170909882 0.24175791442394257 0.14569979906082153 0.15260431170463562 -0.1373513787984848 -0.04933174327015877 0.12103379517793655 -0.10897448658943176 -0.15238995850086212 0.3645198941230774 0.014089678414165974 0.21178627014160156 0.1757287234067917 0.028430521488189697 0.7158024311065674 -0.04836840555071831 -0.3283255100250244 -0.42189326882362366 0.08765287697315216 -0.38093262910842896 0.015840554609894753 0.23267532885074615 -0.05796172469854355 -0.16800150275230408 0.02428882196545601 -0.030766578391194344 -0.35592684149742126 0.040849123150110245 -0.18286702036857605 0.019601574167609215 0.2045365571975708
29136511_63001301.xml	0.04744347557425499 -0.018889170140028 -0.2969975471496582 -0.3993433713912964 -0.3548292815685272 0.25494807958602905 0.1334167718887329 0.03021087497472763 0.29476025700569153 -0.2769677937030792 -0.22049489617347717 0.01787053793668747 -0.1045745238661766 0.11168456822633743 -0.26919251680374146 -0.04103076457977295 -0.3117463290691376 0.06762731820344925 0.19255532324314117 -0.11917117983102798 0.2960914373397827 0.23606392741203308 0.16918887197971344 -0.15148209035396576 -0.052233077585697174 0.11118543148040771 -0.2184758186340332 -0.10541562736034393 0.33403825759887695 -0.006882920861244202 0.2159481942653656 0.1025174930691719 0.028320617973804474 0.727098822593689 -0.06482581049203873 -0.21064232289791107 -0.3636757433414459 0.1578919142484665 -0.3580673038959503 -0.16148528456687927 0.1215730607509613 0.01179580669850111 -0.23314782977104187 -0.06683335453271866 0.05005738139152527 -0.3054017722606659 0.06627816706895828 -0.26848843693733215 -0.06036730855703354 -0.054801203310489655
29136533_62983998.xml	0.13329997658729553 0.05837883800268173 -0.21775411069393158 -0.367030531167984 -0.3996996581554413 0.40587836503982544 0.12854191660881042 0.050985466688871384 0.36975207924842834 -0.5099033117294312 0.08772366493940353 -0.06238832697272301 -0.19608983397483826 -0.10803244262933731 -0.5944353342056274 -0.02092081494629383 -0.4504421353340149 0.1285877674818039 -0.2025820016860962 -0.005610553082078695 -0.11584953218698502 0.43696150183677673 0.0970212072134018 -0.3614862263202667 -0.32663387060165405 -0.058829717338085175 -0.6331128478050232 0.052512213587760925 0.45140236616134644 -0.09140143543481827 0.3758557438850403 -0.2603749930858612 -0.0723416730761528 0.3313726782798767 -0.09193624556064606 -0.4909200966358185 -0.34044232964515686 0.2532995343208313 -0.21288612484931946 -0.09053640067577362 0.15387827157974243 -0.15851585566997528 0.17198286950588226 0.21233712136745453 -0.5194916725158691 -0.1831986904144287 -0.3136751651763916 0.03452787920832634 0.12104838341474533 0.2514118552207947
29136533_62988766.xml	0.22661912441253662 -0.02232917584478855 -0.3069925904273987 -0.17942781746387482 -0.28493568301200867 0.24602076411247253 0.07015325129032135 0.06817677617073059 0.18200749158859253 -0.39579519629478455 0.02911793813109398 -0.03243115916848183 -0.16580970585346222 -0.01114196889102459 -0.47563982009887695 -0.04800380766391754 -0.24960589408874512 0.22522641718387604 -0.32651516795158386 -0.18570873141288757 -0.14045795798301697 0.32620832324028015 -0.023503705859184265 -0.39344847202301025 -0.38099706172943115 0.033173397183418274 -0.49148544669151306 -0.09225276857614517 0.2972482144832611 0.025524083524942398 0.3453781306743622 -0.13725169003009796 0.016950085759162903 0.46054431796073914 -0.07826919853687286 -0.4099772572517395 -0.3210242688655853 0.007469475734978914 -0.27777644991874695 0.043155115097761154 0.15304143726825714 -0.2619189918041229 0.02633765898644924 0.06606993824243546 -0.3295413553714752 -0.17672228813171387 -0.2999301552772522 0.03343304991722107 0.07389751821756363 0.23673361539840698
29136533_62996028.xml	0.16009840369224548 -0.009256183169782162 -0.31745654344558716 -0.40618979930877686 -0.3392571210861206 0.20978954434394836 0.1372320055961609 0.03910602256655693 0.20697979629039764 -0.4515201151371002 -0.05701383203268051 -0.05159434303641319 -0.23437735438346863 -0.2112773358821869 -0.57285475730896 -0.01603107340633869 -0.3619121015071869 0.1015947163105011 -0.33773744106292725 -0.1603708416223526 -0.11470853537321091 0.3518676459789276 -0.01930481195449829 -0.3873280882835388 -0.1849779635667801 -0.0005766959511674941 -0.5443406701087952 0.13828422129154205 0.222422793507576 0.045294035226106644 0.4471481144428253 -0.21281959116458893 -0.03339114412665367 0.3327980041503906 -0.07043426483869553 -0.3824388384819031 -0.40015390515327454 0.10004102438688278 -0.2931724786758423 -0.19476653635501862 0.08239780366420746 -0.14788459241390228 0.17854000627994537 -0.25802338123321533 -0.3872888386249542 -0.21991853415966034 -0.3392532169818878 -0.12761402130126953 0.046803925186395645 0.23357219994068146
29136534_62986708.xml	-0.020716296508908272 0.46031928062438965 0.045581020414829254 -0.18974973261356354 -0.06270446628332138 0.3342532217502594 0.4916166067123413 0.17935383319854736 0.013899918645620346 -0.04013540968298912 0.20205068588256836 0.12981002032756805 -0.23784004151821136 0.0783897116780281 -0.4291519224643707 0.07168246805667877 0.3242148458957672 0.007358018774539232 0.05277975648641586 0.03610370308160782 -0.0005843762774020433 0.21119876205921173 -0.06639612466096878 -0.10865015536546707 -0.056977562606334686 -0.07361101359128952 0.1174275204539299 0.43496572971343994 0.16355304419994354 0.13704395294189453 0.0011712375562638044 0.06410634517669678 -0.2076026201248169 0.1687285304069519 -0.09214665740728378 0.17775903642177582 -0.09985531121492386 -0.12772402167320251 0.12380743771791458 0.18313775956630707 0.1161230280995369 -0.22249405086040497 -0.497032105922699 0.16675370931625366 -0.4947161078453064 0.17940004169940948 0.02485761046409607 0.11222667247056961 -0.24523460865020752 0.7996587157249451
29136534_62989094.xml	-0.08018114417791367 0.22853043675422668 -0.14833030104637146 -0.35370948910713196 -0.05536850169301033 0.3597247004508972 0.28007838129997253 0.07722236961126328 -0.0533914789557457 -0.03426412492990494 0.11901166290044785 0.040436986833810806 -0.2429657280445099 0.1375502049922943 -0.5354216694831848 0.02556462213397026 0.1493426263332367 -0.03557203337550163 0.12165350466966629 0.05148732662200928 0.1310967653989792 0.3277484178543091 -0.02846251055598259 -0.0902421846985817 -0.05164751410484314 -0.0944921001791954 0.08369617164134979 0.18377861380577087 0.22036828100681305 -0.03501255810260773 0.00979990791529417 -0.007065369747579098 -0.12459005415439606 0.08425852656364441 0.02598971128463745 0.1028558537364006 -0.08830533921718597 0.05474773421883583 -0.06375864893198013 0.0811844915151596 0.14119340479373932 -0.33758652210235596 -0.553643524646759 0.28061002492904663 -0.3683396577835083 0.13797014951705933 -0.016414199024438858 0.14708073437213898 -0.0017089014872908592 0.36368709802627563
29136534_63000921.xml	-0.07698553055524826 -0.24527676403522491 0.04037156701087952 -0.5083160996437073 -0.015157893300056458 -0.14240330457687378 0.42449453473091125 -0.3583219051361084 -0.2819136679172516 -0.04878702759742737 -0.019680170342326164 0.33587518334388733 0.007137115113437176 -0.17686036229133606 -0.4652864336967468 -0.03157494217157364 0.26175427436828613 -0.13594470918178558 -0.010867955163121223 -0.16474549472332 0.1288260966539383 -0.06098049879074097 -0.25573277473449707 -0.009412864223122597 0.579319179058075 0.08209770917892456 0.08303738385438919 0.11604925245046616 -0.04518265649676323 0.14502857625484467 0.15104711055755615 -0.12231827527284622 0.08837007731199265 -0.21662798523902893 -0.1494203507900238 0.447601854801178 -0.19520962238311768 -0.0014909866731613874 -0.4952428936958313 -0.27208489179611206 0.28043845295906067 -0.33505356311798096 -0.18958023190498352 -0.3569796085357666 -0.1494608372449875 -0.03748037666082382 0.1985141932964325 -0.16972723603248596 -0.037413619458675385 0.6265116930007935
29136537_62978188.xml	-0.03707493469119072 0.05313687026500702 -0.02102060429751873 -0.17877064645290375 -0.7159829139709473 0.3700409531593323 0.4314747452735901 0.09187328070402145 0.10267981886863708 -0.1859135776758194 -0.05648750811815262 0.22710517048835754 0.23339708149433136 -0.04867956042289734 -0.3760295808315277 0.2989116311073303 0.11155177652835846 -0.2721312940120697 0.11472062021493912 -0.47886088490486145 0.00044545758282765746 -0.19139568507671356 0.056916411966085434 -0.022763799875974655 0.048527806997299194 0.29486197233200073 -0.022838063538074493 -0.12789317965507507 -0.060479018837213516 -0.0857694074511528 0.18941780924797058 0.24277019500732422 -0.2263001650571823 0.4448563754558563 0.07660878449678421 0.22818198800086975 -0.17884089052677155 0.06937268376350403 -0.3197293281555176 0.26680895686149597 -0.180552676320076 -0.3990437984466553 0.04970159754157066 -0.4678666889667511 -0.7797070145606995 -0.5150882005691528 0.2511832118034363 -0.048210740089416504 0.022320762276649475 0.6222468018531799
29136537_62982319.xml	0.061198264360427856 0.02420211397111416 -0.1234390139579773 -0.1635006219148636 -0.7825817465782166 0.3279646933078766 0.2642931640148163 0.10794931650161743 0.1392192840576172 -0.15506672859191895 -0.13151726126670837 0.24607816338539124 0.25398457050323486 0.043415918946266174 -0.2865152955055237 0.3540973365306854 0.1240069717168808 -0.1602020114660263 0.06791680306196213 -0.5144271850585938 -0.024289468303322792 -0.25094324350357056 0.039067115634679794 -0.015945328399538994 0.08180300146341324 0.24751922488212585 0.02988981455564499 -0.20299629867076874 -0.12545469403266907 -0.14008083939552307 0.1026650220155716 0.2923872172832489 -0.2169739007949829 0.48466289043426514 0.2209090143442154 0.17955002188682556 -0.14752957224845886 0.11122112721204758 -0.3065621554851532 0.19176699221134186 -0.22822906076908112 -0.48907822370529175 0.0011463979026302695 -0.42404359579086304 -0.6413193941116333 -0.5212024450302124 0.2540241777896881 -0.06463982164859772 0.13023214042186737 0.6435643434524536
29136537_63000768.xml	-0.023625310510396957 -0.09834978729486465 -0.08693339675664902 -0.1417400985956192 -0.6043384075164795 0.39949679374694824 0.10972320288419724 -0.04558486491441727 0.17436324059963226 -0.12335770577192307 -0.0905371904373169 -0.018806710839271545 0.0143910963088274 0.12734924256801605 -0.38790228962898254 0.37098613381385803 0.01699834130704403 -0.4566340148448944 -0.09016548097133636 -0.3727510869503021 -0.08800617605447769 -0.15961717069149017 0.016508694738149643 -0.006697254721075296 -0.04364335909485817 0.09361716359853745 -0.12410561740398407 -0.3232068419456482 -0.1335686892271042 -0.19261860847473145 0.2344268560409546 0.32073691487312317 -0.1622762680053711 0.23921941220760345 0.15654972195625305 0.21875061094760895 -0.045956287533044815 0.25355520844459534 -0.48189499974250793 0.14075927436351776 -0.015423942357301712 -0.3575417995452881 0.09816984832286835 -0.6363674998283386 -0.6758331656455994 -0.41798967123031616 0.040603652596473694 -0.02168884314596653 0.13637594878673553 0.5169328451156616
29136575_62977714.xml	-0.1808268427848816 0.17657369375228882 -0.11614324152469635 0.4866635799407959 -0.01711573265492916 0.0627269297838211 -0.11836261302232742 0.17493511736392975 0.2767537236213684 -0.07638653367757797 -0.3750148117542267 -0.11067923158407211 -0.037751227617263794 0.1273621767759323 -0.32763341069221497 0.12488704174757004 0.0005793518503196537 -0.6945887207984924 -0.102836012840271 -0.42218631505966187 -0.24275042116641998 -0.11041881889104843 0.19814254343509674 0.06244923919439316 -0.19339241087436676 0.22362235188484192 -0.19245368242263794 -0.13519512116909027 0.3654117286205292 -0.39465323090553284 0.10761245340108871 0.3460078835487366 0.22283822298049927 0.08502984791994095 -0.21817246079444885 0.11331469565629959 -0.5230091214179993 0.2275475263595581 -0.27386489510536194 0.1565188616514206 0.06225917860865593 -0.3471647799015045 0.06865239143371582 0.016218163073062897 -0.5005766749382019 -0.04378066211938858 0.2588481605052948 0.10034211724996567 -0.05253669619560242 0.37366458773612976
29136575_62979694.xml	-0.17310047149658203 0.09788311272859573 -0.16204528510570526 0.28729578852653503 -0.11576032638549805 0.06856940686702728 -0.3035651445388794 0.09574702382087708 0.17290647327899933 -0.1447996348142624 -0.45663607120513916 -0.07515569776296616 -0.043721865862607956 0.08446353673934937 -0.4778333604335785 0.003242254490032792 -0.04063533991575241 -0.8789044618606567 -0.09511847794055939 -0.4505241811275482 -0.14277805387973785 -0.007486557122319937 0.2372174710035324 -0.01996838115155697 -0.20422793924808502 0.33928653597831726 -0.25016918778419495 -0.23053444921970367 0.3525322675704956 -0.4488725960254669 0.15923801064491272 0.16499453783035278 0.30427849292755127 0.0732010081410408 -0.08308202773332596 0.09500092267990112 -0.47379356622695923 0.17150545120239258 -0.3297492563724518 -0.02441750280559063 0.03275864198803902 -0.4278028607368469 -0.09225089848041534 -0.06331449747085571 -0.347190797328949 -0.08134783059358597 0.27887389063835144 0.10544876009225845 0.02605736069381237 -0.10143238306045532
29136030_62979799.xml	0.18944476544857025 -0.03597817197442055 -0.1881726235151291 -0.16032178699970245 -0.07845942676067352 0.1680387705564499 0.29444462060928345 0.057412050664424896 0.019964594393968582 -0.11450042575597763 0.18146678805351257 -0.15208472311496735 -0.10615810006856918 0.20860318839550018 -0.30230292677879333 -0.030752286314964294 0.06867422163486481 0.1347053200006485 0.23415754735469818 0.024063020944595337 0.41302546858787537 0.25834712386131287 -0.00352762290276587 -0.08447325974702835 -0.10837505757808685 -0.2184520661830902 -0.030585819855332375 -0.17948652803897858 0.22135715186595917 0.013089225627481937 0.0007719974382780492 0.02068931609392166 0.00738995848223567 0.4816702604293823 -0.0753370076417923 -0.01575794257223606 -0.06918814778327942 0.06329818814992905 -0.36909762024879456 0.06580878049135208 0.3038065731525421 -0.1318293660879135 -0.5782870054244995 0.2632635533809662 -0.14031952619552612 0.023505937308073044 0.09193425625562668 0.04955710470676422 -0.09135811030864716 0.20411862432956696
29136221_62980457.xml	-0.06298920512199402 0.40568313002586365 1.0529112815856934 0.8791054487228394 -0.06559552252292633 0.12815356254577637 0.13218069076538086 -0.10935141146183014 -0.1188095360994339 0.35763612389564514 -0.5756675601005554 -0.5623701810836792 -0.15083110332489014 0.4048113524913788 -0.12375053018331528 -0.5405378937721252 -0.31878772377967834 -1.33206045627594 -0.2882553040981293 -0.9040040373802185 0.12606947124004364 0.12716880440711975 -0.45648089051246643 -0.24448063969612122 -0.020591674372553825 0.2631048262119293 -0.006594753358513117 -0.7528525590896606 -0.02427341416478157 -1.1432217359542847 0.25513145327568054 0.5459496378898621 0.0007193965138867497 0.6246024370193481 -0.2729093134403229 0.437912255525589 -0.09876120835542679 0.556911826133728 -0.28367236256599426 0.3945492208003998 -0.281283974647522 -0.6042847037315369 -0.3163653612136841 0.0014096673112362623 -0.011871145106852055 0.3236706554889679 0.9460147023200989 -0.13207286596298218 -0.013429506681859493 -0.34366273880004883
29136509_62984308.xml	0.08683142811059952 0.12401454150676727 -0.1830473244190216 -0.22857125103473663 -0.0003967059310525656 0.27908822894096375 0.24830572307109833 -0.04511800408363342 0.03732024505734444 -0.27043241262435913 -0.03377825766801834 -0.1726330816745758 -0.2939474284648895 0.13778571784496307 -0.4525664746761322 -0.00042007266893051565 -0.2353740781545639 -0.3418765962123871 0.061326052993535995 -0.024069849401712418 0.10258621722459793 0.3023088574409485 0.12193728983402252 -0.18235129117965698 -0.21381525695323944 -0.13981884717941284 -0.048915088176727295 -0.09448014944791794 0.3384201228618622 0.014746597036719322 0.12205178290605545 -0.01261866744607687 -0.12542203068733215 0.19280517101287842 -0.0659094825387001 0.12205064296722412 -0.05853218957781792 -0.04666084051132202 -0.05347488820552826 0.10687889903783798 0.26450294256210327 -0.05486229434609413 -0.4227108955383301 0.14930814504623413 -0.3448978662490845 0.0733959972858429 -0.09829188138246536 0.18821822106838226 -0.016933083534240723 0.10271522402763367
29136575_62991846.xml	-0.17174310982227325 -0.10624292492866516 -0.07336633652448654 0.026221852749586105 0.03735661134123802 0.3268207609653473 -0.05474455654621124 -0.04660113528370857 0.21838104724884033 -0.04775410518050194 -0.3897501826286316 -0.24630947411060333 -0.33246320486068726 0.08781542629003525 -0.29694220423698425 0.1956855058670044 -0.26123541593551636 -0.695447564125061 -0.13111840188503265 -0.32374855875968933 -0.4649578630924225 -0.23361581563949585 -0.040958378463983536 0.09654684364795685 0.003785317298024893 0.0947713553905487 -0.16980905830860138 -0.17811600863933563 0.22705116868019104 -0.483773410320282 0.319219172000885 0.4547775983810425 0.18902474641799927 -0.047655388712882996 -0.11040061712265015 0.030810419470071793 -0.5980233550071716 0.5295438170433044 -0.40319785475730896 -0.5048518180847168 -0.08417490124702454 -0.07002969086170197 0.22676043212413788 -0.4819279909133911 -0.406220018863678 0.35316789150238037 0.23759476840496063 0.07403972744941711 0.023901844397187233 0.2998228371143341
29137105_63007013.xml	-0.11347698420286179 0.37245360016822815 0.06400223821401596 -0.5786818265914917 -0.09973247349262238 0.20506121218204498 0.15634799003601074 -0.005022896453738213 -0.1415925920009613 -0.04502840340137482 -0.19653500616550446 -0.02637365087866783 -0.5943170785903931 -0.06734111160039902 -0.6037134528160095 -0.28763771057128906 0.08302001655101776 -0.09032352268695831 -0.09166638553142548 1.597719528945163e-05 0.1378227323293686 0.2880151867866516 0.051349297165870667 -0.2861703932285309 -0.006642303895205259 0.2513228952884674 -0.04438191279768944 0.313267320394516 0.08077448606491089 0.12134834378957748 0.0036257270257920027 0.025412721559405327 0.023661937564611435 -0.029480820521712303 0.26321351528167725 -0.03697671741247177 -0.07590477913618088 0.169997900724411 0.12274817377328873 -0.24310436844825745 0.024401437491178513 -0.2782973051071167 -0.552757978439331 -0.015549039468169212 0.10397981852293015 -0.018063778057694435 -0.023827724158763885 -0.08099420368671417 -0.10017956048250198 0.1312878578901291
29137342_62996070.xml	0.15927459299564362 -0.03972802311182022 -0.14920096099376678 -0.4241452217102051 -0.15842671692371368 0.1714150458574295 0.1487034410238266 -0.04653424024581909 0.18955248594284058 -0.22354157269001007 -0.09204751998186111 -0.16792891919612885 -0.2602764368057251 -0.012981164269149303 -0.3138298988342285 -0.10366712510585785 -0.19591212272644043 -0.004196761175990105 0.13324040174484253 0.012711076065897942 0.353085458278656 0.21252551674842834 0.15281999111175537 -0.22801755368709564 -0.0212369617074728 -0.06872010976076126 -0.16562685370445251 0.0040496885776519775 0.305578351020813 0.17435556650161743 0.1648140549659729 -0.0001392523554386571 -0.03580765798687935 0.4883333444595337 0.06806676089763641 -0.22875553369522095 -0.29356148838996887 0.13546934723854065 -0.2100893259048462 -0.22376975417137146 0.1907978653907776 0.04880844056606293 -0.28354495763778687 -0.18636755645275116 0.03731098398566246 -0.12688320875167847 -0.04164423793554306 -0.10014855116605759 -0.11257196217775345 0.07356760650873184
29137460_63003080.xml	-0.17017248272895813 0.04919153451919556 -0.35907816886901855 -0.3337728977203369 0.0034887490328401327 -0.2985178828239441 -0.2071775496006012 -0.014427860267460346 0.43735483288764954 -0.25704073905944824 -0.02470351569354534 -0.0789741724729538 0.10481096059083939 0.0045259976759552956 -0.4454945921897888 0.11281007528305054 -0.3813015818595886 -0.3789435029029846 -0.02053338661789894 -0.34650754928588867 -0.3390505015850067 0.1850118190050125 0.14105822145938873 0.33808279037475586 0.10290642082691193 0.02126411534845829 -0.1737896353006363 -0.18648047745227814 0.334029883146286 -0.17788264155387878 0.42988649010658264 0.16068227589130402 0.13449634611606598 0.11601345241069794 -0.18446789681911469 0.10496710240840912 -0.5938456654548645 -0.10332272946834564 -0.3980260193347931 0.07951071858406067 -0.06681496649980545 0.02406332641839981 -0.2792781889438629 -0.6836633682250977 -0.12122845649719238 -0.0910973846912384 -0.20896725356578827 -0.3841509521007538 0.1464921087026596 0.17847967147827148
29137606_63001624.xml	0.13749286532402039 -0.45027610659599304 0.4855111241340637 -0.3153778612613678 0.11669227480888367 -0.26243913173675537 -0.004841533489525318 0.15408384799957275 0.25484389066696167 0.23547805845737457 -0.3940891623497009 0.21240702271461487 -0.0295428317040205 0.4467414617538452 -0.20277762413024902 0.1434895396232605 -0.3130880892276764 0.41230127215385437 -0.021890761330723763 -0.04321432486176491 -0.09361901879310608 -0.3426525592803955 -0.07725343108177185 -0.23709401488304138 0.038607239723205566 -0.2226809859275818 0.11639924347400665 0.26429373025894165 0.3039727210998535 0.5250150561332703 0.11300317943096161 0.46185141801834106 -0.011824817396700382 0.1295109987258911 -0.05436394736170769 0.17995423078536987 -0.536479651927948 0.11825086921453476 -0.2911687195301056 -0.7436781525611877 -0.18519213795661926 0.08282346278429031 0.09725769609212875 -0.01705041341483593 0.4021567106246948 -0.002114255214110017 0.21759091317653656 -0.4785923361778259 0.06778906285762787 0.3853221535682678
29137870_62981711.xml	0.08844879269599915 0.30579835176467896 0.07683537155389786 0.1318211853504181 -0.4502682089805603 0.09121017903089523 0.1257811337709427 0.11664830148220062 -0.01163438055664301 -0.00032258668215945363 -0.29416584968566895 0.05522354319691658 -0.16635547578334808 -0.1307210922241211 -0.4250861704349518 0.00037668392178602517 0.38221877813339233 -0.20576678216457367 0.2391979843378067 -0.3214118778705597 0.19547773897647858 -0.3145732283592224 0.46853893995285034 -0.12842673063278198 -0.05229606106877327 0.6461582779884338 -0.35893410444259644 -0.11075255274772644 0.106528140604496 -0.4940779209136963 -0.022739842534065247 0.21211376786231995 0.30294352769851685 0.21796049177646637 0.05333810672163963 -0.09734074026346207 -0.6872520446777344 0.5311879515647888 -0.18585778772830963 0.022508572787046432 -0.3498985767364502 -0.5873839855194092 -0.15791773796081543 0.32191652059555054 -0.00012120969768147916 -0.3853154480457306 0.5650014281272888 0.06399045139551163 0.032362572848796844 0.2664482891559601
29138053_62979918.xml	0.42232218384742737 -0.18397049605846405 0.1467076539993286 0.01544851902872324 -0.24548214673995972 -0.23703058063983917 0.3896685242652893 -0.2563074827194214 0.1573113650083542 -0.3051840364933014 -0.4236195385456085 -0.2579971253871918 -0.3107454776763916 0.07814223319292068 0.01755964756011963 -0.0686190202832222 -0.09372631460428238 0.24789558351039886 0.2103920578956604 -0.5100418329238892 -0.024889817461371422 -0.9059398770332336 0.8127208948135376 -0.27443644404411316 0.14675220847129822 0.3169884979724884 -0.5110824108123779 -0.26221320033073425 0.4471836984157562 -0.1831277757883072 -0.23951101303100586 0.5955135822296143 0.16013772785663605 0.12359977513551712 -0.03790410980582237 0.159786194562912 -0.44374096393585205 0.2618680000305176 0.06462293863296509 0.2237003594636917 -0.18564105033874512 -0.2643356919288635 -0.4749597907066345 0.15148073434829712 0.29549065232276917 -0.4176177382469177 -0.024905366823077202 -0.0036331156734377146 0.6047079563140869 0.22752077877521515
29138229_62988935.xml	0.2423933893442154 -0.1654404252767563 -0.0625099390745163 -0.766095757484436 -0.18645823001861572 0.0987205058336258 0.3405795097351074 0.26880377531051636 0.10107121616601944 -0.32580211758613586 0.15249936282634735 -0.38797619938850403 -0.48328787088394165 -0.3194130063056946 -0.4645592272281647 -0.22898852825164795 -0.1308574080467224 -0.3497873544692993 0.41108131408691406 0.21706373989582062 0.2812654972076416 0.15578363835811615 -0.1888236701488495 -0.0199296772480011 0.08698129653930664 -0.3519728183746338 -0.2819804251194 -0.09033222496509552 -0.18752643465995789 0.3541348874568939 -0.11188380420207977 -0.2527233064174652 -0.10866174846887589 0.2414408177137375 -0.1951344609260559 0.021069394424557686 -0.16617245972156525 0.25512945652008057 -0.18608863651752472 -0.4422491788864136 0.31624510884284973 -0.14516499638557434 -0.33414986729621887 -0.45523396134376526 -0.290038138628006 0.2958795130252838 -0.08606479316949844 -0.08152693510055542 -0.07035574316978455 0.038441624492406845
29138621_62980110.xml	0.16293266415596008 -0.3089185953140259 0.13425381481647491 0.16132137179374695 0.06675708293914795 -0.227934330701828 0.15047311782836914 -0.14787892997264862 -0.02835828624665737 -0.1264931857585907 0.005838555283844471 -0.19116206467151642 -0.17747731506824493 -0.09615469723939896 -0.44121184945106506 -0.2630676031112671 6.159155418572482e-06 -0.1429898887872696 0.062020134180784225 -0.006853308063000441 0.5791259407997131 0.023549547418951988 -0.0713765025138855 -0.32321086525917053 0.010830679908394814 0.12643930315971375 -0.2688978314399719 -0.25549811124801636 0.11915169656276703 0.29586127400398254 0.08781559765338898 0.1152539849281311 0.2932661175727844 0.1783086359500885 -0.13861051201820374 0.2046993523836136 -0.14341740310192108 -0.08792693167924881 -0.4089060127735138 -0.06415299326181412 0.13776512444019318 -0.29248109459877014 -0.6335625648498535 0.28759780526161194 0.09852480888366699 0.07032209634780884 0.2125510722398758 -0.07754553109407425 0.082430399954319 -0.27121081948280334
29138764_62979324.xml	0.19179044663906097 0.2276090383529663 0.3214455246925354 -0.5048208236694336 -0.39492565393447876 0.18940670788288116 -0.28896450996398926 0.3124736249446869 0.38068825006484985 0.17125724256038666 -0.4205195903778076 0.4037551283836365 -0.0009198173647746444 -0.04656798392534256 -0.1192726418375969 -0.10966845601797104 -0.06889788061380386 0.10915132611989975 -0.41581177711486816 0.01802508346736431 0.1220284104347229 -0.14133599400520325 0.25065213441848755 -0.47301509976387024 0.18268154561519623 0.05771505832672119 0.08661577105522156 0.45021891593933105 0.37400195002555847 0.3524962067604065 0.3215008080005646 0.3323976397514343 -0.46061620116233826 0.6837637424468994 -0.3356894552707672 0.1584852933883667 -0.33501750230789185 -0.6689081192016602 0.14538006484508514 0.11752902716398239 -0.10562247037887573 0.14653842151165009 -0.0450647808611393 0.10211485624313354 0.24039039015769958 -0.1403414011001587 0.03664888069033623 -0.2492869794368744 0.24273395538330078 0.6878846287727356
29139080_62980478.xml	-0.20166394114494324 0.3714977502822876 -0.16660268604755402 -0.20924930274486542 -0.1606600284576416 -0.013772394508123398 -0.043232422322034836 0.295918345451355 0.11338771134614944 -0.013431715779006481 -0.2992701828479767 0.15160362422466278 -0.2741599380970001 -0.051152896136045456 -0.3482644855976105 -0.23196788132190704 -0.151564821600914 -0.1772235631942749 -0.345696359872818 -0.3253512978553772 -0.13902682065963745 0.2516339123249054 0.1238882914185524 -0.0003628971171565354 -0.09031301736831665 0.3864133059978485 -0.02060255967080593 0.06919483095407486 0.18989641964435577 0.04068045690655708 0.21113301813602448 0.1830684095621109 0.25802332162857056 0.150630921125412 0.19275040924549103 0.03417937085032463 -0.29348012804985046 0.018803909420967102 -0.10378659516572952 -0.277463436126709 -0.027770083397626877 -0.4313517212867737 -0.3897531032562256 -0.015139402821660042 -0.1245841532945633 0.09231209009885788 0.1822648048400879 -0.327484667301178 -0.06260556727647781 0.1964937150478363
29136777_62982047.xml	0.18539771437644958 0.11383599787950516 -0.14246727526187897 0.012477325275540352 0.1355503499507904 -0.16244946420192719 0.13247184455394745 0.6376876831054688 0.05500247702002525 -0.231821209192276 0.2778642475605011 -0.06361618638038635 -0.1237889751791954 -0.2977777123451233 -0.313173770904541 -0.041230667382478714 0.3848610520362854 0.057833362370729446 0.5888324975967407 -0.15745078027248383 -0.23313087224960327 0.003329724073410034 0.22966980934143066 -0.21253520250320435 -0.10729728639125824 -0.14106814563274384 -0.20173069834709167 -0.05328355357050896 -0.048445895314216614 -0.11660631746053696 -0.3775063455104828 -0.08333280682563782 -0.12005869299173355 0.2081819772720337 -0.22502906620502472 0.17361076176166534 -0.6972878575325012 -0.2719605267047882 -0.03745723143219948 0.36390283703804016 0.060487665235996246 -0.2099197655916214 -0.7429631352424622 0.19584795832633972 0.15137958526611328 -0.15313720703125 0.0983864963054657 -0.22587010264396667 0.06479042768478394 0.3616815507411957
29136777_62985499.xml	0.26796063780784607 -0.03577035292983055 -0.174001544713974 -0.32012686133384705 0.16624754667282104 -0.15570873022079468 -0.08747260272502899 0.4140453040599823 0.08347448706626892 -0.3033924996852875 0.23713836073875427 -0.036219578236341476 -0.19481161236763 -0.34645238518714905 -0.60886150598526 -0.05391936004161835 -0.05213116109371185 -0.05501767247915268 0.6666069626808167 -0.1268172562122345 -0.04167952015995979 0.2949765920639038 0.017801957204937935 -0.04371542111039162 -0.09272435307502747 -0.2103848159313202 -0.2549532949924469 0.037005845457315445 0.16941405832767487 0.03892878443002701 -0.23285150527954102 -0.2634066641330719 -0.0436362624168396 0.5163977146148682 -0.15448905527591705 0.005047093611210585 -0.6698463559150696 -0.28960639238357544 -0.06831178069114685 0.3389699459075928 0.09296701848506927 -0.04141131043434143 -0.8698837757110596 0.18222485482692719 0.1769375205039978 0.0946263000369072 -0.022702012211084366 0.0009356716764159501 -0.019553447142243385 -0.09071475267410278
29136777_62998124.xml	0.17508943378925323 0.03240973874926567 -0.3364448547363281 -0.642676830291748 0.09718994051218033 -0.23491260409355164 0.004778685513883829 0.39392200112342834 -0.04109271615743637 -0.30924469232559204 0.30572742223739624 -0.22967998683452606 -0.24474114179611206 -0.3860206604003906 -0.6056703925132751 -0.14298215508460999 -0.041408736258745193 -0.24754692614078522 0.6150017976760864 -0.10663814842700958 -0.045037705451250076 0.23551727831363678 0.04005333408713341 0.23301370441913605 0.07399390637874603 -0.24516203999519348 -0.2612449824810028 -0.11746390908956528 -0.11295931041240692 -0.07972532510757446 -0.24050602316856384 -0.31190505623817444 0.12243116647005081 0.27476316690444946 -0.14710760116577148 -0.014303743839263916 -0.586980402469635 -0.06975404173135757 -0.22718925774097443 0.14740191400051117 0.02438044175505638 -0.08628247678279877 -0.7652344107627869 -0.17169246077537537 0.08722614496946335 0.09752528369426727 -0.06637843698263168 -0.16067776083946228 0.0002969708584714681 -0.035215023905038834
29136811_62977847.xml	0.18244454264640808 0.02146303839981556 -0.2307366281747818 -0.14808130264282227 -0.26520538330078125 -0.2856071889400482 -0.08065148442983627 0.25143083930015564 0.401448130607605 -0.387249231338501 -0.12694846093654633 -0.21343234181404114 -0.4388642907142639 -0.3898843228816986 -0.26785698533058167 -0.3383244574069977 -0.4457895755767822 0.2361060529947281 -0.20793496072292328 -0.544501006603241 -0.18877828121185303 -0.008778401650488377 0.40473470091819763 0.0525730736553669 0.1442452222108841 0.23121345043182373 -0.036718737334012985 -0.25373995304107666 0.6248296499252319 0.2831031382083893 0.1817762404680252 0.23513898253440857 0.1313210427761078 0.39985427260398865 0.03952876478433609 -0.07452613115310669 -0.6375266909599304 0.2165629267692566 0.048541583120822906 -0.1304599791765213 -0.07419249415397644 -0.1920659840106964 -0.11464137583971024 0.367891788482666 0.01172846369445324 -0.228118434548378 0.007001325022429228 -0.5025452375411987 0.6528415679931641 0.23480293154716492
29136811_62981790.xml	0.26541849970817566 -0.033965643495321274 -0.4074908196926117 -0.32519516348838806 -0.19502794742584229 0.32461118698120117 0.21359103918075562 0.5343413352966309 0.018793145194649696 -0.3082394003868103 0.07735751569271088 -0.25201719999313354 -0.6559141278266907 -0.3230897784233093 -0.31018388271331787 -0.20238487422466278 -0.3390333652496338 0.24914513528347015 0.3559013903141022 -0.15028364956378937 -0.17990529537200928 0.23443986475467682 -0.026007262989878654 0.034398049116134644 -0.006001968402415514 0.005265525542199612 -0.10970043390989304 -0.21747612953186035 0.11412754654884338 0.06328181177377701 -0.11260034888982773 0.07549513876438141 0.10032837092876434 1.0052000284194946 -0.2665950059890747 -0.12652334570884705 -0.825465738773346 0.24925518035888672 -0.30311697721481323 0.2371976673603058 -0.003941411152482033 0.018496599048376083 -0.1931581348180771 0.23062533140182495 0.22357599437236786 -0.14619968831539154 -0.015958067029714584 -0.2833985984325409 0.09775201231241226 -0.24214403331279755
29136811_62996458.xml	0.17997758090496063 0.03448691964149475 -0.17651158571243286 -0.16147145628929138 -0.26084867119789124 -0.33011484146118164 -0.019780142232775688 0.21840593218803406 0.38462692499160767 -0.4356081783771515 -0.09286187589168549 -0.23875200748443604 -0.4730324149131775 -0.39113712310791016 -0.2736952304840088 -0.411119282245636 -0.4794110059738159 0.220997616648674 -0.16869783401489258 -0.598004937171936 -0.15459409356117249 -0.14366067945957184 0.4554980397224426 0.06312234699726105 0.18838870525360107 0.21903906762599945 -0.0008728018146939576 -0.2037525326013565 0.6310176253318787 0.3787649869918823 0.157634437084198 0.1959502100944519 0.1287226378917694 0.3800048828125 0.0022333620581775904 -0.08476089686155319 -0.6313607692718506 0.19034597277641296 0.12025410681962967 -0.10047350823879242 -0.05353042110800743 -0.20606620609760284 -0.13347116112709045 0.3561333417892456 0.08518636971712112 -0.2645166218280792 -0.04619332775473595 -0.4731678068637848 0.6755439639091492 0.2251959890127182
29136825_62978593.xml	0.019318122416734695 0.19928015768527985 0.06245698034763336 0.008970847353339195 0.02011020854115486 0.0029297044966369867 0.018343720585107803 0.13865898549556732 0.338145911693573 -0.06036262586712837 -0.2066466510295868 -0.09338647127151489 -0.12602420151233673 0.1935039609670639 -0.17028583586215973 0.16019991040229797 -0.16728731989860535 -0.0008037580410018563 -0.3734239339828491 -0.35528677701950073 -0.19322887063026428 0.18879075348377228 0.14080259203910828 -0.2893957197666168 -0.2173822820186615 0.08894723653793335 0.030078405514359474 0.4729134738445282 0.4855608642101288 0.3212641477584839 0.33843398094177246 0.32834330201148987 -0.2511279582977295 0.42946258187294006 -0.1907701939344406 -0.021646270528435707 -0.43837448954582214 -0.19645701348781586 0.033339355140924454 0.21713124215602875 0.33351758122444153 0.2087271809577942 0.07156972587108612 -0.2548069953918457 -0.2574077248573303 -0.2618176341056824 -0.17129859328269958 -0.18439938127994537 -0.2076045423746109 0.757606565952301
29136825_62981657.xml	-0.018313048407435417 -0.07336907833814621 -0.2670382857322693 -0.15145264565944672 -0.013643978163599968 0.2072785645723343 -0.11278024315834045 0.05453622341156006 0.029295504093170166 -0.10530316829681396 -0.14569967985153198 -0.31250640749931335 -0.059768736362457275 0.4352874755859375 -0.3111872971057892 -0.00022140594955999404 -0.3894486725330353 -0.04329768940806389 -0.12514710426330566 -0.2709369361400604 0.07343460619449615 0.3836227357387543 0.09702039510011673 -0.19642603397369385 -0.3832716941833496 0.050910063087940216 -0.0904749408364296 -0.055524636059999466 0.42288026213645935 -0.02535349689424038 0.09599654376506805 0.3884523808956146 0.06299492716789246 0.5279791355133057 -0.19257397949695587 -0.22331179678440094 -0.32746729254722595 0.0318748913705349 -0.25336459279060364 0.39638108015060425 0.20774447917938232 0.03364095091819763 -0.2521427273750305 0.25565576553344727 -0.08645546436309814 -0.2324366420507431 -0.08600756525993347 -0.02330809459090233 0.06207876652479172 0.12804003059864044
29136825_63002995.xml	0.011441330425441265 0.021110057830810547 -0.1785012185573578 -0.31000322103500366 -0.266177237033844 0.2553064525127411 0.12496072053909302 -0.0898604765534401 0.19211378693580627 -0.03861122205853462 -0.12151613086462021 -0.1858654022216797 0.09223379194736481 0.42375314235687256 -0.32682105898857117 0.16501009464263916 -0.23134590685367584 -0.0575174055993557 -0.3789563775062561 -0.11716316640377045 -0.07562924921512604 0.2310669869184494 -0.15705443918704987 0.06606663018465042 -0.13858425617218018 0.11535143107175827 -0.04465164244174957 -0.23708409070968628 0.25861668586730957 -0.11486547440290451 0.23903301358222961 0.41310998797416687 0.06548766791820526 0.5206102728843689 -0.1660849153995514 -0.13627052307128906 -0.07715678960084915 0.008581195026636124 -0.44656363129615784 0.25434410572052 0.12454760819673538 0.026407144963741302 -0.07825446873903275 -0.34767159819602966 -0.46123939752578735 -0.25151127576828003 -0.14071418344974518 -0.10187797993421555 0.06329623609781265 0.3906213939189911
29136825_63007672.xml	0.12904198467731476 -0.0011531891068443656 -0.00024303294776473194 -0.05574202165007591 0.0363568440079689 0.07709526270627975 0.03709676116704941 0.10269063711166382 0.26172858476638794 0.04587680473923683 -0.057261887937784195 -0.35791149735450745 0.13554707169532776 0.6558501124382019 -0.21277494728565216 0.21734066307544708 -0.3791881501674652 0.12350402027368546 -0.04903174191713333 -0.014990026131272316 -0.1697598099708557 0.2479514330625534 0.14029422402381897 0.050668977200984955 -0.35197433829307556 -0.25745144486427307 0.181058868765831 -0.011660964228212833 0.7398149967193604 -0.07284363359212875 -0.018466155976057053 0.4602825343608856 0.09129655361175537 0.45824211835861206 -0.3403400778770447 -0.28757554292678833 -0.4247199594974518 0.18413542211055756 -0.26758694648742676 0.20828326046466827 0.2456520050764084 0.2093026041984558 0.13501061499118805 0.449571818113327 -0.30432572960853577 -0.07209876924753189 0.01836433634161949 0.0007020924240350723 0.031634390354156494 0.6470766663551331
29136844_62977546.xml	-0.22000953555107117 0.48134639859199524 -0.09552907943725586 0.19036513566970825 0.00038698926800861955 -0.2977931797504425 -0.1485213339328766 0.2576228678226471 0.42368584871292114 -0.23039598762989044 -0.2854898273944855 0.06144953891634941 -0.05398878455162048 0.1539081633090973 -0.11078877002000809 0.09690403193235397 0.02789660170674324 -0.06297057121992111 -0.3460274636745453 -0.42915892601013184 -0.2977302670478821 -0.21033427119255066 0.054657209664583206 0.10873051732778549 0.10672544687986374 0.31039339303970337 0.19009599089622498 0.16059048473834991 0.12076292932033539 0.19187228381633759 0.12727554142475128 0.29272422194480896 0.46925559639930725 0.2690890431404114 0.0786452442407608 0.21422645449638367 -0.6770367622375488 -0.0752904936671257 -0.25146302580833435 0.16126830875873566 0.14852547645568848 -0.20319485664367676 -0.3154876232147217 -0.39595291018486023 -0.022699085995554924 -0.09872042387723923 -0.09203315526247025 -0.3220400810241699 0.29655373096466064 0.5007061958312988
29136844_62981256.xml	-0.2611929774284363 0.3495936095714569 -0.19472935795783997 0.009363580495119095 -0.006951222661882639 -0.3964211642742157 -0.1970469206571579 0.06954476982355118 0.3690378963947296 -0.38965627551078796 -0.3340315520763397 -0.007010837085545063 -0.11596275120973587 0.08054760098457336 -0.20620320737361908 -0.06697341799736023 -0.21028751134872437 -0.26856496930122375 -0.28358912467956543 -0.31972551345825195 -0.10408660769462585 -0.1267012357711792 0.08586955070495605 -0.012091591022908688 0.16315776109695435 0.32022926211357117 0.1098889708518982 0.018128758296370506 0.07175679504871368 0.2087869495153427 0.14297173917293549 0.1295374631881714 0.5506192445755005 0.24708576500415802 0.22768837213516235 0.1968272179365158 -0.7245963215827942 0.05471813678741455 -0.31779319047927856 -0.21991606056690216 0.07748909294605255 -0.23791185021400452 -0.3989175260066986 -0.42674827575683594 0.22015897929668427 -0.07124491035938263 -0.012216871604323387 -0.3975340723991394 0.33359551429748535 0.006517383735626936
29136844_62998687.xml	-0.13863112032413483 0.4002378284931183 -0.06790003925561905 0.08976902067661285 0.029562827199697495 -0.1709473729133606 -0.31915828585624695 -0.030320508405566216 0.4813178777694702 -0.3492397964000702 -0.32259613275527954 -0.24745354056358337 -0.32315558195114136 0.092930369079113 -0.2879163324832916 0.10966788977384567 -0.22356683015823364 -0.40626052021980286 -0.4378427565097809 -0.17750178277492523 -0.1885848194360733 -0.11285409331321716 0.022235658019781113 0.051795147359371185 0.04620542749762535 0.17448094487190247 -0.0018456251127645373 -0.08309530466794968 0.07031960040330887 0.1637284755706787 0.2367575615644455 0.07188129425048828 0.4433414936065674 0.21083499491214752 0.244776651263237 0.16900493204593658 -0.6093637943267822 0.21729491651058197 -0.20509472489356995 -0.16351358592510223 0.04656638205051422 -0.05983073636889458 -0.3585551679134369 -0.6980557441711426 0.14523866772651672 -0.004971266724169254 -0.24602408707141876 -0.2362421452999115 0.4668333828449249 0.06205688416957855
29137105_62979721.xml	-0.15091171860694885 0.47155246138572693 0.037108033895492554 -0.2962450385093689 -0.11100173741579056 0.3740977346897125 0.1965768188238144 0.26651516556739807 0.022745443508028984 0.07808124274015427 -0.02160184271633625 0.2008788287639618 -0.36852243542671204 0.16583655774593353 -0.4821231961250305 -0.1109359860420227 0.23923222720623016 0.22579127550125122 -0.13597212731838226 -0.05245838686823845 0.047024354338645935 0.33947068452835083 -0.02812250144779682 -0.24506068229675293 -0.03138751536607742 0.22835691273212433 0.06131685525178909 0.48044639825820923 0.17425958812236786 0.09751719981431961 -0.050002437084913254 0.1732669174671173 -0.10878593474626541 0.16125904023647308 0.17014284431934357 -0.050037797540426254 -0.08742444962263107 0.01242956891655922 0.07614500820636749 0.028505345806479454 0.07680720835924149 -0.22965610027313232 -0.6162195205688477 0.27730792760849 -0.05424689128994942 0.10863318294286728 0.11086294054985046 -0.2032148540019989 -0.23685505986213684 0.4953778386116028
29137105_62985612.xml	-0.14728094637393951 0.45385387539863586 0.0025944304652512074 -0.4514092803001404 -0.17691567540168762 0.32716789841651917 0.16751138865947723 0.1284567266702652 -0.116741843521595 -0.007726291660219431 -0.13480360805988312 0.18144932389259338 -0.408164918422699 0.07038390636444092 -0.6492456793785095 -0.21893292665481567 0.09821152687072754 0.05999157950282097 -0.0037560618948191404 -0.09331285208463669 0.1349720060825348 0.3820469379425049 0.026001358404755592 -0.2940443158149719 -0.07734692841768265 0.246163010597229 0.006619438994675875 0.34580889344215393 0.15637998282909393 0.035654958337545395 -0.03789116442203522 -0.02906781993806362 0.020204631611704826 0.134818896651268 0.2667151987552643 -0.003427352523431182 -0.021706368774175644 0.07419351488351822 0.12753452360630035 -0.11610858142375946 0.0984896868467331 -0.3010963797569275 -0.7116924524307251 0.2720044255256653 0.01654430292546749 -0.025656433776021004 0.10626999288797379 -0.13711996376514435 -0.15247750282287598 0.10873575508594513
29137149_62978994.xml	0.10964328050613403 0.22294612228870392 -0.19139741361141205 -0.1992894560098648 -0.24760711193084717 0.16214519739151 0.4920297861099243 0.11779346317052841 0.18341153860092163 -0.08602991700172424 0.18004855513572693 -0.008032465353608131 0.03521227836608887 0.4024120569229126 -0.10595252364873886 0.06944628804922104 -0.05097879841923714 0.19075171649456024 -0.14638929069042206 0.051781222224235535 -0.2384265661239624 0.2616937458515167 0.07903975993394852 0.045853231102228165 -0.08083105832338333 0.05924180895090103 0.22795964777469635 -0.18645095825195312 0.2869153320789337 -0.15777342021465302 0.11122503876686096 0.43647992610931396 0.10926219820976257 0.530672550201416 -0.3087921738624573 -0.07703014463186264 -0.28512880206108093 -0.0401233434677124 -0.45057642459869385 0.3439064919948578 0.24609212577342987 0.036122601479291916 -0.1283668875694275 0.1533266305923462 -0.41746261715888977 -0.14385180175304413 0.12003857642412186 -0.0793292373418808 0.01506905909627676 0.7070649266242981
29137149_62983807.xml	0.17527490854263306 -0.043087054044008255 -0.12448462098836899 -0.22645394504070282 -0.05365443602204323 0.0039385841228067875 0.33940058946609497 0.06790824234485626 -0.0721965953707695 -0.01345587708055973 0.017303431406617165 -0.083296999335289 -0.09052159637212753 0.37439537048339844 -0.14253392815589905 -0.05008050426840782 0.012873918749392033 0.2349584400653839 -0.131572425365448 0.005358972121030092 -0.032356683164834976 0.15281376242637634 0.0667758509516716 -0.16997066140174866 -0.041076481342315674 0.17762933671474457 0.16050061583518982 -0.11200802773237228 0.17747250199317932 0.003663066541776061 -0.01583140157163143 0.49992549419403076 0.22353032231330872 0.4552622437477112 -0.23262342810630798 -0.07116327434778214 -0.3491232693195343 -0.005788139533251524 -0.45429089665412903 0.24976007640361786 0.1071893647313118 -0.02067406475543976 -0.23167124390602112 0.2027580291032791 -0.029931876808404922 -0.1665915995836258 0.15188777446746826 -0.15214617550373077 0.023206597194075584 0.42074641585350037
29137149_63002660.xml	0.21318024396896362 0.029669085517525673 -0.1892748326063156 -0.10588911175727844 0.2076215296983719 0.197491854429245 0.27974605560302734 -0.011212844401597977 -0.23540137708187103 0.1650606244802475 -0.19595475494861603 -0.22870279848575592 -0.48240071535110474 0.6256256699562073 -0.4110455811023712 0.09477486461400986 0.30638009309768677 0.09778134524822235 -0.5577881336212158 0.2157823145389557 -0.3388981819152832 0.15106652677059174 -0.1333383470773697 -0.15939487516880035 0.107001394033432 -0.13052017986774445 0.115421362221241 -0.11400587111711502 0.17799808084964752 -0.25904226303100586 -0.045193783938884735 0.2785201072692871 0.1960567981004715 0.21199868619441986 -0.3327885568141937 0.18671008944511414 -0.10186654329299927 0.23143815994262695 -0.5614738464355469 0.06381940096616745 0.4146205484867096 0.3644496202468872 0.14033477008342743 -0.11955457925796509 -0.24575616419315338 -0.255054771900177 -0.02797067165374756 -0.43101373314857483 0.003369703656062484 0.4918604791164398
29137210_62978311.xml	-0.007694903761148453 0.12589038908481598 -0.24442601203918457 -0.12764543294906616 -0.1625954657793045 0.19235859811306 0.09802153706550598 0.15798769891262054 0.211125448346138 -0.20916324853897095 -0.1725240796804428 -0.3027417063713074 -0.18616411089897156 0.30795320868492126 -0.1568678617477417 -0.14801664650440216 -0.34571513533592224 -0.06653396785259247 -0.15544472634792328 -0.2887401580810547 0.023898474872112274 0.3284996449947357 0.1271996796131134 -0.1279294490814209 -0.25989004969596863 0.16197434067726135 -0.08330120146274567 -0.2818911075592041 0.2802281081676483 0.007925226353108883 0.06428511440753937 0.32479897141456604 -0.0361897274851799 0.5706401467323303 -0.1764974296092987 -0.15265564620494843 -0.23455962538719177 0.2269439995288849 -0.21520084142684937 0.11057829856872559 0.25247326493263245 0.09948958456516266 -0.11403220146894455 0.15117508172988892 -0.05780415236949921 -0.08717095106840134 0.026273038238286972 -0.2903839647769928 -0.08713419735431671 0.25967326760292053
29137210_62983729.xml	0.09975781291723251 0.05283457785844803 -0.2260059416294098 -0.15993335843086243 -0.1019534319639206 0.27369406819343567 0.04579467698931694 0.10697037726640701 0.20644445717334747 -0.17557069659233093 -0.28856754302978516 -0.0965915247797966 -0.19443480670452118 0.30516517162323 -0.30712568759918213 -0.04390951991081238 -0.321442574262619 0.03275461122393608 -0.14559891819953918 -0.18861998617649078 -0.016571015119552612 0.26181116700172424 0.09734602272510529 -0.24646347761154175 -0.20569919049739838 0.13761232793331146 -0.12945279479026794 -0.15386636555194855 0.38699114322662354 0.07406690716743469 0.11638598889112473 0.306843638420105 -0.027162082493305206 0.6069424152374268 -0.14268644154071808 -0.159997820854187 -0.25431886315345764 0.04286752641201019 -0.10897238552570343 0.06320053339004517 0.15247167646884918 0.11506616324186325 -0.20029063522815704 0.1536044478416443 -0.04411553218960762 -0.20536071062088013 -0.01577848382294178 -0.20463772118091583 -0.012277601286768913 0.11359068006277084
