29562815_63996380.xml	0.11019378155469894	0.009742849506437778	-0.02316228672862053	-0.24247021973133087	0.06566143780946732	-0.4670448303222656	0.12858840823173523	-0.009111897088587284	0.15670154988765717	-0.18379586935043335	-0.22285214066505432	0.1694648712873459	-0.1430349498987198	0.1697784960269928	-0.02895558439195156	-0.2726612985134125	-0.17662756145000458	-0.14918233454227448	0.005775466561317444	-0.26506251096725464	-0.04434223100543022	-0.07864852249622345	0.345175564289093	-0.29139554500579834	-0.10112303495407104	0.09894741326570511	0.21977761387825012	0.17286209762096405	0.41354280710220337	0.3596910238265991	0.11021678149700165	0.25010064244270325	0.07929777354001999	0.17452017962932587	0.03506118431687355	-0.018257951363921165	-0.592284619808197	-0.3235900104045868	-0.04869326204061508	-0.01654164120554924	0.12078914791345596	-0.340533584356308	-0.2750033438205719	-0.12994705140590668	0.18107250332832336	0.160018652677536	0.10907039791345596	-0.005264894105494022	-0.24637989699840546	0.3514004051685333
29562815_63999402.xml	0.2127915620803833	-0.17490564286708832	0.536190390586853	-0.07039225846529007	-0.02443663217127323	-0.3068992495536804	-0.18021312355995178	-0.13348904252052307	0.12820474803447723	-0.038132667541503906	-0.11573577672243118	0.06360659748315811	0.032069478183984756	0.4736831784248352	-0.2610137164592743	-0.10190913826227188	-0.10979607701301575	-0.12957997620105743	0.16725459694862366	0.1036781594157219	-0.03779111057519913	-0.013950415886938572	0.051506925374269485	0.027486104518175125	-0.5083562135696411	-0.4825524389743805	0.3276617228984833	0.14591184258460999	0.7147819399833679	0.7437777519226074	-0.4582776427268982	-0.11549441516399384	0.09406037628650665	0.254236102104187	0.11289072781801224	0.04140492156147957	-0.30138030648231506	-0.12480509281158447	0.10651391744613647	-0.09953389316797256	0.12206318974494934	-0.2830779552459717	0.04209296405315399	0.19869181513786316	-0.2320030778646469	0.04145875945687294	0.21523208916187286	0.03723883256316185	-0.052937526255846024	0.5050663948059082
29562815_64002499.xml	0.13904200494289398	-0.4383130967617035	0.2833152115345001	-0.7318452596664429	0.05492660775780678	-0.40519851446151733	0.19135682284832	-0.5489552021026611	-0.06519081443548203	-0.019152436405420303	-0.005684412084519863	0.03148159384727478	0.1342163234949112	0.27154019474983215	-0.32923659682273865	-0.16061127185821533	-0.2184515744447708	-0.07621321827173233	0.07924880087375641	0.1794494241476059	0.16040818393230438	-0.02743653766810894	0.025226322934031487	0.09075673669576645	0.17000623047351837	-0.09389743208885193	0.2816484570503235	-0.11191154271364212	0.45181211829185486	0.24679060280323029	-0.057920191437006	0.16013707220554352	0.33709627389907837	-0.22003993391990662	-0.13338498771190643	-0.2055034339427948	-0.3665129542350769	0.06434585154056549	-0.44018855690956116	-0.14348889887332916	0.18901389837265015	-0.21581999957561493	-0.09346155822277069	-0.002997587900608778	0.04192722216248512	0.02394423820078373	0.12922601401805878	0.23043420910835266	0.08546271920204163	0.5648334622383118
29563126_63997042.xml	0.15026655793190002	0.13184376060962677	0.022413967177271843	-0.08637546747922897	-0.05418608710169792	-0.14284271001815796	0.08884964883327484	0.09805436432361603	0.2918357253074646	-0.15098673105239868	-0.12628154456615448	0.10081764310598373	-0.10877479612827301	0.09257933497428894	-0.0690331906080246	-0.02365115098655224	-0.047698598355054855	0.01557767391204834	-0.14851388335227966	-0.20218853652477264	-0.17336724698543549	0.04915546625852585	0.2914689779281616	-0.3366209864616394	-0.12731531262397766	0.16891734302043915	0.15743286907672882	0.20940907299518585	0.454597145318985	0.27911198139190674	0.20944637060165405	0.2671523690223694	-0.10497771203517914	0.3834151327610016	-0.09710286557674408	-0.1011497750878334	-0.6733165383338928	-0.1821158230304718	0.013909751549363136	0.08210284262895584	0.03798884525895119	-0.06086282804608345	0.017143143340945244	-0.054419755935668945	0.0014673671685159206	-0.09995297342538834	0.09930092841386795	-0.059351596981287	-0.09744368493556976	0.6493920087814331
29563126_64002923.xml	0.180669903755188	0.07035824656486511	0.24773861467838287	-0.22076323628425598	-0.1451328843832016	0.03522881865501404	0.22385643422603607	0.13297560811042786	0.36472463607788086	-0.10508671402931213	-0.04175892099738121	-0.3271303176879883	0.2959194779396057	0.4957989454269409	-0.2786828279495239	-0.012737351469695568	-0.0766976922750473	0.14086243510246277	0.23632141947746277	0.21739226579666138	0.0836140438914299	0.2640710771083832	0.0752304345369339	-0.04745542258024216	-0.3379422724246979	-0.34319111704826355	0.008403852581977844	-0.06103941798210144	0.6336730122566223	0.19844821095466614	-0.5350627899169922	0.20778197050094604	-0.11570141464471817	0.4937165081501007	-0.2839841842651367	-0.2812556326389313	-0.1547122597694397	0.3070327341556549	0.21197952330112457	-0.1346166431903839	0.029767362400889397	0.21496541798114777	-0.07291872799396515	0.49847254157066345	-0.2428591400384903	-0.1851692795753479	0.23112526535987854	-0.29603317379951477	0.058874279260635376	0.6137951612472534
29563126_64006673.xml	0.17974261939525604	-0.48505812883377075	0.397318571805954	-0.49569475650787354	-0.04595579952001572	-0.24805869162082672	0.10036066174507141	-0.46435829997062683	0.10443340986967087	0.016488824039697647	-0.1250365823507309	0.014447959139943123	0.18059155344963074	0.0945255383849144	-0.32882362604141235	-0.04205181822180748	-0.13161543011665344	0.16105736792087555	-0.12441226840019226	0.047622062265872955	0.1274023801088333	-0.037111010402441025	-0.15956555306911469	-0.0058181630447506905	0.28447726368904114	0.09314094483852386	0.10681813210248947	-0.18586592376232147	0.40854355692863464	0.3469599187374115	0.07640001177787781	0.18055680394172668	0.14129537343978882	0.0613582618534565	-0.24413664638996124	-0.10074982047080994	-0.3317015767097473	0.18380026519298553	-0.3513847589492798	-0.24852119386196136	0.18742616474628448	0.03451426699757576	0.1288570761680603	0.03469454124569893	0.07889045029878616	-0.2913264334201813	0.12333358824253082	-0.08282270282506943	0.23326829075813293	0.675405740737915
29563126_64029812.xml	0.1321675181388855	0.08342023193836212	0.3744073808193207	-0.13697892427444458	-0.12705059349536896	0.2703024446964264	0.37384453415870667	0.10898194462060928	0.38647618889808655	0.024371875450015068	-0.026348749175667763	-0.29157376289367676	0.08406974375247955	0.5568528175354004	-0.39046382904052734	0.08258037269115448	-0.1787041276693344	0.28622138500213623	0.08204929530620575	0.2344202995300293	0.4600783586502075	0.3259318768978119	0.11268730461597443	-0.24285054206848145	-0.15538986027240753	-0.06815096735954285	-0.37215229868888855	-0.3711332082748413	0.19306893646717072	-0.15976320207118988	-0.21308155357837677	0.12299556285142899	-0.140289306640625	0.33248385787010193	-0.23850899934768677	-0.0008752006688155234	0.18602648377418518	0.2998772859573364	-0.03454503417015076	-0.28859105706214905	0.06929046660661697	0.04092523828148842	-0.8016633987426758	0.530583918094635	0.0911320149898529	-0.35485410690307617	0.08989676088094711	-0.5226609706878662	0.13661110401153564	0.06475237756967545
29563152_63998695.xml	-0.039748094975948334	0.17141349613666534	0.8636040091514587	0.5411781668663025	0.3164615333080292	-0.5490747690200806	-0.3183622360229492	-0.23952116072177887	0.44651830196380615	0.43863004446029663	-0.6301105618476868	-0.22099599242210388	-0.48319944739341736	0.12924811244010925	-0.44186392426490784	-0.2622651755809784	-0.3241904377937317	0.0666017085313797	-0.8683832287788391	0.09583529084920883	-0.07617834210395813	-0.022426679730415344	-0.01446244865655899	-0.07589317858219147	-0.1035444512963295	0.552611768245697	-0.10663890838623047	-0.013684388250112534	0.5661432147026062	0.1517648547887802	0.30974316596984863	0.5901034474372864	0.7646321654319763	-0.07500307261943817	-0.17578427493572235	0.05608636513352394	-0.5714794397354126	0.16131259500980377	-0.4020663797855377	-0.502639651298523	0.27695339918136597	-0.028519589453935623	-0.018654238432645798	0.5495522618293762	0.3424043357372284	-0.32381975650787354	0.19381849467754364	-0.47811341285705566	0.03386920690536499	0.21206189692020416
29563152_64004391.xml	-0.0736498013138771	0.39103710651397705	0.5914937257766724	-0.06277645379304886	-0.07355127483606339	-0.10993991792201996	0.03510450944304466	-0.15120550990104675	0.28334882855415344	0.2470228672027588	-0.5234252214431763	0.06157773360610008	-0.3399220407009125	0.37883585691452026	-0.40843066573143005	-0.372591108083725	0.03469948098063469	0.3478338420391083	-0.28859201073646545	0.45296338200569153	0.004146679304540157	0.08656176179647446	0.013865077868103981	0.1269853264093399	-0.00026817171601578593	0.4825594425201416	0.14815540611743927	-0.09189092367887497	0.6226235032081604	0.08642955124378204	-0.3184322118759155	0.39059722423553467	0.6123219132423401	0.47548311948776245	-0.12414758652448654	-0.2746443450450897	-0.5679838061332703	0.42363476753234863	-0.12788531184196472	-0.4629383087158203	-0.1540171205997467	0.0010568622965365648	0.06586633622646332	0.6409897804260254	0.2976381182670593	-0.15761128067970276	0.48265358805656433	-0.5409666895866394	-0.07256586104631424	0.22580251097679138
29563152_64007820.xml	-0.1266469955444336	0.13124297559261322	0.42120951414108276	-0.32608798146247864	-0.06145438924431801	-0.2956256866455078	0.20168738067150116	-0.1171296089887619	0.313868910074234	0.21279361844062805	-0.40370139479637146	-0.27303582429885864	-0.25967392325401306	0.27128884196281433	-0.27866294980049133	-0.48883455991744995	0.024662647396326065	0.4559497535228729	-0.30542001128196716	0.5560258626937866	0.027471186593174934	0.20344021916389465	0.09503288567066193	0.041423436254262924	0.028791742399334908	0.37257063388824463	0.15710033476352692	-0.3481300175189972	0.40912216901779175	-0.030996723100543022	-0.29826274514198303	0.593887448310852	0.6779042482376099	0.032956115901470184	-0.10780058056116104	-0.45942604541778564	-0.4671665132045746	0.5878013372421265	-0.317182332277298	-0.6938289999961853	-0.07209497690200806	-0.08343514055013657	-0.04602714255452156	0.4088716506958008	0.2927055060863495	-0.3394378125667572	0.30752718448638916	-0.6801964044570923	0.23482605814933777	0.33137819170951843
29563152_64031529.xml	-0.17438700795173645	0.20991191267967224	0.4811205267906189	-0.0388779491186142	-0.3890317380428314	0.0869646817445755	0.2427714318037033	0.09885232895612717	0.30583080649375916	0.2797810435295105	-0.11452870070934296	-0.20360924303531647	-0.06586043536663055	0.37004801630973816	-0.1696435511112213	-0.37245631217956543	-0.426093190908432	0.4034327268600464	0.026638632640242577	0.30590441823005676	0.3869621157646179	0.2833554744720459	0.12881675362586975	0.05152859911322594	-0.3506207764148712	0.10905783623456955	0.04918884113430977	-0.48293861746788025	0.10636656731367111	-0.13882380723953247	-0.2517891228199005	0.402164101600647	0.6655679941177368	0.3858126699924469	0.05824369192123413	-0.5379152894020081	-0.41197869181632996	0.4770028591156006	-0.5739866495132446	-0.4325825273990631	-0.13269707560539246	-0.3776938021183014	-0.3908357322216034	0.6763305068016052	0.4715125262737274	-0.36200734972953796	0.43531718850135803	-0.6503443717956543	-0.10210273414850235	0.12144066393375397
29563251_63996223.xml	0.1109369769692421	-0.051808953285217285	0.2004602700471878	-0.021083785220980644	0.06680714339017868	-0.2907142639160156	0.22411099076271057	-0.05489267781376839	0.1273900866508484	-0.12130999565124512	0.03197787329554558	-0.016261499375104904	-0.06080764904618263	-0.027203742414712906	-0.23790785670280457	-0.06840384751558304	0.14563174545764923	-0.2685362696647644	0.16757787764072418	-0.020416202023625374	0.14057587087154388	0.01692122407257557	0.06450996547937393	-0.2705090045928955	-0.046357765793800354	-0.030285989865660667	0.06602878123521805	0.11832108348608017	0.2911108732223511	0.36034613847732544	0.043683137744665146	0.10276037454605103	-0.1005558967590332	0.07834741473197937	-0.19661909341812134	0.32811450958251953	-0.4480508863925934	-0.11801812052726746	-0.1087731420993805	-0.09897690266370773	-0.007907112129032612	-0.22464771568775177	-0.19865338504314423	-0.018528690561652184	-0.024335993453860283	0.22052834928035736	0.23818399012088776	-0.006016805302351713	-0.13592395186424255	0.38612449169158936
29563251_64001370.xml	0.28771063685417175	0.0177058856934309	0.4759366810321808	-0.06514555960893631	0.04497550427913666	-0.16107898950576782	0.3464577794075012	-0.16484571993350983	0.2371337115764618	-0.09516251087188721	-0.030061546713113785	-0.1605200618505478	-0.0037445512134581804	0.2334800362586975	-0.37746408581733704	-0.06466108560562134	0.4439619183540344	-0.1311735212802887	0.2746909260749817	0.42712822556495667	0.16476649045944214	-0.00048477371456101537	-0.12073897570371628	0.021546779200434685	0.012090060859918594	-0.32141953706741333	0.04553702473640442	0.13588137924671173	0.6288360357284546	0.4703763723373413	-0.4614812731742859	-0.08074866980314255	-0.15609146654605865	0.3152126669883728	-0.4766591191291809	0.2620319426059723	-0.25501710176467896	0.24871422350406647	0.2397739738225937	-0.17754322290420532	-0.006681154482066631	0.058039985597133636	0.080953449010849	0.2398615926504135	-0.42239734530448914	0.24304740130901337	0.2863317131996155	-0.11891733109951019	-0.08076834678649902	0.6884521245956421
29563251_64008150.xml	-0.07371439039707184	-0.2645972967147827	0.19658426940441132	-0.077976755797863	-0.03830946981906891	-0.09447145462036133	0.7244632244110107	-0.1674320548772812	0.2793227434158325	-0.14450357854366302	-0.005292058922350407	-0.05446496605873108	0.10301775485277176	0.06066739559173584	-0.10285626351833344	-0.0907849445939064	-0.12956050038337708	-0.07049039751291275	0.30004751682281494	0.39861956238746643	0.22275161743164062	-0.18122944235801697	-0.00311159691773355	-0.09578558802604675	0.18475618958473206	-0.007733233273029327	-0.14651964604854584	-0.647487998008728	-0.045668113976716995	-0.04649756848812103	0.011737610213458538	0.4221995770931244	0.39368322491645813	-0.05301285907626152	-0.4921472668647766	0.45965316891670227	-0.35475820302963257	0.1545167863368988	-0.5813581943511963	-0.4898890554904938	-0.19119638204574585	-0.3094175457954407	-0.39068803191185	0.290168434381485	-0.10964927822351456	0.05506213381886482	0.2775849401950836	-0.3525877594947815	0.33378148078918457	0.19500978291034698
29563251_64031049.xml	0.15959858894348145	-0.04810813441872597	0.19577832520008087	-0.4950256645679474	-0.24757471680641174	0.45205792784690857	0.15585990250110626	0.3947926461696625	0.26492342352867126	0.2352571040391922	-0.3226914703845978	-0.18385037779808044	0.01620364934206009	-0.1383845955133438	-0.22593306005001068	-0.42867934703826904	-0.025786010548472404	-0.1801299899816513	-0.1455550342798233	0.08238093554973602	0.7272724509239197	-0.26515939831733704	0.10749164968729019	-0.09141992032527924	0.24992826581001282	0.25267016887664795	-0.21764647960662842	-0.2945859134197235	-0.15280932188034058	-0.0667777806520462	-0.24921630322933197	0.011686643585562706	-0.12522538006305695	0.1531548798084259	-0.6662476062774658	0.8771466016769409	0.07431474328041077	-0.23913505673408508	-0.06515707820653915	-0.5062709450721741	-0.3374241888523102	-0.07854026556015015	-0.9252045154571533	0.8737593293190002	-0.13399559259414673	0.29657602310180664	0.30242183804512024	-0.2683674395084381	0.3563805818557739	-0.19742543995380402
29563253_64001627.xml	-0.10139669477939606	0.4983578622341156	0.17875076830387115	-0.4145964980125427	-0.18296676874160767	-0.12193995714187622	0.22493351995944977	0.19272996485233307	0.10515469312667847	-0.09199772030115128	-0.3437250554561615	0.07678784430027008	0.10869590938091278	0.6370419263839722	-0.5210554599761963	0.009385274723172188	-0.00028564169770106673	0.19774767756462097	-0.017274754121899605	0.2473919689655304	0.09492485970258713	-0.14951103925704956	-0.04421553388237953	0.09509086608886719	0.04270118847489357	0.21824587881565094	0.41460850834846497	0.12728442251682281	0.19993659853935242	0.3245891034603119	-0.4657916724681854	0.20787641406059265	0.6562740206718445	0.27243271470069885	0.07886487245559692	-0.38806700706481934	-0.21689721941947937	0.39282119274139404	0.02194826677441597	0.023754606023430824	-0.07529079169034958	-0.19105879962444305	-0.33301815390586853	0.5328783392906189	-0.14238688349723816	-0.036163330078125	0.23652437329292297	-0.11204107850790024	0.1866259127855301	0.534029483795166
29563253_64012860.xml	-0.17799468338489532	0.35453253984451294	0.06472201645374298	-0.16862881183624268	-0.018855301663279533	-0.11501637101173401	0.06718885153532028	0.055194538086652756	0.0536571703851223	-0.08742832392454147	-0.31486475467681885	-0.41068291664123535	-0.18227016925811768	0.561323344707489	-0.4779549837112427	-0.0041872248984873295	-0.16691875457763672	-0.05411635339260101	-0.5121023058891296	0.1651974469423294	0.04397951811552048	-0.06050797179341316	-0.1403757631778717	0.10727176815271378	0.021184448152780533	0.2297920137643814	0.24015241861343384	-0.3015591502189636	-0.013188688084483147	0.16912025213241577	-0.08669990301132202	0.4036664366722107	0.8492406010627747	-0.014301836490631104	0.028598668053746223	-0.2974533140659332	-0.026957672089338303	0.45896297693252563	-0.41806909441947937	0.02452036179602146	0.351640522480011	-0.06858190894126892	-0.3042391538619995	0.2565372884273529	-0.28878656029701233	-0.10194570571184158	-0.0028560380451381207	-0.10165690630674362	0.3336479961872101	0.43072032928466797
29563253_64032781.xml	-0.2468654066324234	0.42400869727134705	-0.13212959468364716	-0.23570168018341064	0.10026621073484421	0.1742805391550064	-0.08594302088022232	0.17943888902664185	-0.13456721603870392	0.007477330509573221	-0.27391576766967773	-0.15522223711013794	-0.2542949914932251	1.0032198429107666	-0.4788966178894043	0.23076561093330383	0.03146333619952202	-0.08237984031438828	-0.46047163009643555	0.010952507145702839	0.19985631108283997	0.12322671711444855	-0.08302262425422668	-0.20688694715499878	-0.1490730345249176	0.28739726543426514	0.2690064311027527	-0.14005112648010254	-0.20211268961429596	-0.02946281246840954	0.061050474643707275	0.21100828051567078	0.47987091541290283	0.2365262657403946	0.2038266807794571	-0.021697986871004105	-0.00875950325280428	0.4551229476928711	-0.466408908367157	0.2397949993610382	0.24793559312820435	-0.23425379395484924	-0.7807486653327942	0.06234514340758324	0.2896672189235687	-0.038613494485616684	-0.06551609933376312	-0.04156680405139923	0.18959593772888184	0.128762885928154
29563340_63997930.xml	-0.04506244510412216	0.13154613971710205	0.05213622376322746	-0.12387856841087341	-0.03716288506984711	-0.22502343356609344	0.048790883272886276	0.030559789389371872	0.19539956748485565	-0.013902971521019936	-0.0654708594083786	0.03347606956958771	-0.14375975728034973	0.06063389033079147	-0.16463685035705566	-0.2593933939933777	0.11205871403217316	-0.02011001482605934	-0.061453573405742645	-0.13551601767539978	-0.03487757593393326	0.11865722388029099	0.07886378467082977	-0.20225925743579865	-0.10815075784921646	0.17682933807373047	0.14514285326004028	0.21103964745998383	0.3658323287963867	0.2901597321033478	0.1643858104944229	0.2828623056411743	0.05884059891104698	0.18642476201057434	0.008052611723542213	-0.042270783334970474	-0.4616420567035675	-0.07351449131965637	-0.09620606899261475	-0.07626563310623169	0.14965680241584778	-0.32440733909606934	-0.2539292573928833	-0.1460275650024414	0.12838925421237946	0.15247003734111786	0.12079256027936935	-0.03736761957406998	-0.19461126625537872	0.49562323093414307
29563340_64009336.xml	0.09200356155633926	0.018675189465284348	0.008072616532444954	-0.4085184931755066	-0.13033297657966614	0.10395383089780807	0.227718785405159	0.01786995120346546	0.2154403179883957	0.0504625141620636	-0.03581348806619644	-0.4550800025463104	-0.015587790869176388	0.4787589907646179	-0.3246658444404602	-0.07587084174156189	-0.1095152273774147	0.13243308663368225	0.08216894418001175	0.1711132973432541	0.06913674622774124	0.14858503639698029	-0.14746907353401184	0.2540631592273712	-0.11337176710367203	-0.3565604090690613	0.18917018175125122	-0.14500081539154053	0.43210792541503906	0.09600584208965302	-0.2276342213153839	0.3597117066383362	0.08189006894826889	0.3503204882144928	-0.16168905794620514	-0.323946475982666	-0.03195086866617203	0.4966736435890198	-0.1178225576877594	-0.22762128710746765	0.13656075298786163	0.03700202703475952	-0.06587283313274384	0.12589755654335022	-0.3233228623867035	0.25197240710258484	0.0451478436589241	-0.06567669659852982	-0.14644171297550201	0.7247169017791748
29563340_64010513.xml	0.07436817139387131	0.2264615297317505	0.4923035800457001	0.096901074051857	0.12579309940338135	0.00940276775509119	-0.14343909919261932	-0.1651020646095276	0.25226229429244995	0.156697615981102	-0.09035153687000275	-0.3622952997684479	-0.11415628343820572	0.4407830536365509	-0.5417430400848389	-0.06133073940873146	0.22671116888523102	-0.08438025414943695	-0.2009645700454712	0.35113203525543213	-0.10156439989805222	0.20274688303470612	-0.22290858626365662	0.10019277036190033	-0.32747283577919006	-0.2281133085489273	0.0755225196480751	0.2245042771100998	0.8053789734840393	0.2356928288936615	-0.2798483669757843	0.06898348778486252	0.13707245886325836	0.26158666610717773	-0.24257907271385193	-0.1720057874917984	-0.1213921308517456	0.2545929253101349	0.20857341587543488	-0.06353091448545456	0.3145095407962799	0.13855426013469696	-0.0002175566041842103	0.16532936692237854	-0.3632458746433258	0.037632592022418976	0.08128238469362259	0.06731733679771423	-0.07823890447616577	0.6469721794128418
29563340_64032640.xml	0.28770366311073303	0.01622936874628067	0.7699809670448303	-0.09361881762742996	-0.33011531829833984	0.12965165078639984	0.27983295917510986	0.03410720080137253	-0.14757519960403442	0.0974232405424118	0.16519692540168762	-0.242392897605896	-0.16305631399154663	0.20296026766300201	-0.4649629592895508	-0.02312840148806572	-0.040155332535505295	0.0990392416715622	0.4333876967430115	-0.10347930341959	0.8115788698196411	0.23295286297798157	-0.11115282773971558	-0.06978829950094223	-0.2637960910797119	-0.1720394343137741	-0.015320259146392345	-0.32501307129859924	-0.09881142526865005	0.18954521417617798	-0.284861296415329	-0.28744715452194214	0.009843824431300163	0.4935741722583771	0.23075935244560242	0.48556631803512573	0.040896784514188766	0.296735942363739	-0.3975275456905365	-0.07262444496154785	-0.057896651327610016	-0.322783499956131	-0.6344839930534363	0.5951690077781677	-0.017849186435341835	-0.18706780672073364	0.4090507924556732	-0.2270793318748474	-0.1425415724515915	-0.03152839094400406
29563380_63995906.xml	0.27369213104248047	0.033192794770002365	0.10023035854101181	0.13482484221458435	0.04152768477797508	-0.18861201405525208	0.3252539038658142	0.049175530672073364	0.12506479024887085	-0.19968989491462708	0.2266952097415924	-0.0365484319627285	-0.16253314912319183	-0.21800264716148376	-0.20239250361919403	-0.15455158054828644	0.1844966560602188	-0.14042779803276062	0.10517524182796478	-0.09538185596466064	0.23701609671115875	-0.012004806660115719	0.13333085179328918	-0.3198227286338806	-0.06305211782455444	-0.12202207744121552	0.08186520636081696	0.10021332651376724	0.2251281887292862	0.3820464313030243	0.09341326355934143	-0.07108263671398163	-0.09916504472494125	0.29783231019973755	-0.0549357570707798	0.06512965261936188	-0.384358286857605	-0.25908583402633667	-0.05056197941303253	-0.04974507912993431	0.14497359097003937	-0.13763545453548431	-0.36107367277145386	-0.021318338811397552	-0.030100926756858826	0.15130563080310822	0.24819758534431458	0.030758315697312355	-0.2829264998435974	0.47460681200027466
29563380_63999490.xml	0.3523806929588318	-0.052786651998758316	0.3753321170806885	0.11506801098585129	0.16625478863716125	-0.10002882778644562	0.5891097187995911	0.0740957260131836	0.21294595301151276	-0.18973463773727417	0.2781825363636017	-0.3287493586540222	-0.04226604476571083	0.1149311289191246	-0.23653891682624817	-0.1479446142911911	0.2686832547187805	0.05128807947039604	0.22319097816944122	0.32940199971199036	0.025848601013422012	-0.14736448228359222	-0.07516071200370789	-0.20509910583496094	-0.14235171675682068	-0.5002625584602356	-0.024485521018505096	-0.07253294438123703	0.34016281366348267	0.351815402507782	-0.5077942609786987	-0.012853619642555714	-0.003562626428902149	0.24210788309574127	-0.3613746166229248	0.07707574218511581	-0.15278291702270508	0.17559568583965302	0.25889307260513306	-0.519496500492096	0.05898255854845047	0.25896623730659485	-0.3358377516269684	0.37913861870765686	-0.2969406247138977	0.33918824791908264	0.4287568926811218	-0.2823076546192169	-0.018928393721580505	0.6841056942939758
29563380_64002893.xml	0.2217549979686737	-0.21492989361286163	0.14912866055965424	-0.16492612659931183	-0.11390982568264008	-0.10276781767606735	0.2108764797449112	-0.18805986642837524	0.17129623889923096	-0.16201356053352356	0.014581659808754921	-0.5555385947227478	-0.17141595482826233	-0.21323451399803162	-0.5686743259429932	-0.0978693962097168	-0.0967981293797493	-0.3864584267139435	0.11928297579288483	0.19247545301914215	0.38462361693382263	-0.10999538004398346	-0.0924232006072998	0.1062905415892601	0.07751171290874481	-0.2712526321411133	-0.29007428884506226	-0.274470716714859	0.21672838926315308	0.24689336121082306	0.0038871318101882935	-0.06445920467376709	0.10458265990018845	-0.05750960484147072	-0.20565450191497803	0.03750411421060562	0.031294431537389755	0.3689435124397278	-0.1877487301826477	-0.3916263282299042	0.10990770161151886	-0.15242153406143188	-0.12990936636924744	-0.06843103468418121	-0.4301334321498871	0.22264698147773743	-0.011616989970207214	0.014813948422670364	0.1370619833469391	0.26398810744285583
29563414_63996304.xml	0.14833009243011475	0.04692267253994942	0.03087650053203106	-0.06340797990560532	0.011941451579332352	-0.07366873323917389	0.4053322672843933	-0.02877652831375599	-0.009252568706870079	-0.05659855157136917	0.1876208335161209	0.1558484137058258	-0.08744129538536072	0.1087523028254509	-0.260311484336853	0.04412003234028816	0.25055429339408875	-0.0948207899928093	0.0676722377538681	0.09500829875469208	-0.03410736471414566	0.0029356477316468954	0.09523352235555649	-0.18476301431655884	0.05131081864237785	0.06327244639396667	0.25834694504737854	-0.08402198553085327	0.2002173364162445	0.01785832643508911	0.1021832823753357	0.12809017300605774	-0.00446590781211853	0.1250697672367096	-0.23405596613883972	0.2899879813194275	-0.43144240975379944	-0.22321604192256927	-0.2641792297363281	0.16092510521411896	0.014031276106834412	-0.28935909271240234	-0.301104873418808	0.154491126537323	-0.1621556133031845	0.005295544397085905	0.22501415014266968	0.11015413701534271	0.06967265158891678	0.46453437209129333
29563414_63998508.xml	0.4394112229347229	0.09743835031986237	0.4659936726093292	-0.05248025059700012	-0.07155054062604904	-0.009094771929085255	0.374464213848114	-0.015309091657400131	0.17920860648155212	-0.01217666082084179	0.10399674624204636	-0.2010224163532257	-0.12189459800720215	0.2838478982448578	-0.3791833221912384	0.06225641071796417	0.21125414967536926	0.005781029816716909	0.21596738696098328	0.4048241972923279	-0.017042212188243866	0.10230091214179993	-0.17818836867809296	0.1384684294462204	-0.1606881469488144	-0.6221678256988525	0.34186822175979614	-0.002902217907831073	0.47505927085876465	0.40779921412467957	-0.4166043698787689	-0.14358283579349518	-0.12186268717050552	0.3115040063858032	-0.2339170277118683	0.28207191824913025	-0.10513737797737122	0.2696320116519928	0.1392851024866104	-0.23773153126239777	0.0488261952996254	0.05279004946351051	0.06361138820648193	0.4304976165294647	-0.6055715084075928	0.17534568905830383	0.2508036196231842	-0.059053972363471985	-0.007806685753166676	0.8434953689575195
29563414_64001865.xml	0.2610725164413452	-0.002620510058477521	0.3068983256816864	-0.3798123598098755	-0.11339505761861801	0.0005867803120054305	0.4807930588722229	-0.16959071159362793	0.18557703495025635	-0.08901549130678177	0.16229932010173798	-0.5397441983222961	-0.06514372676610947	0.1951017677783966	-0.4170313775539398	-0.03104095160961151	0.02132398448884487	-0.1328795999288559	0.26001930236816406	0.345174103975296	0.26286381483078003	0.13058523833751678	-0.14512349665164948	0.1385679692029953	0.052185993641614914	-0.361741304397583	0.09583939611911774	-0.23597949743270874	0.3693380057811737	0.16348084807395935	-0.1330523043870926	0.15414898097515106	-0.08330193907022476	0.08691263943910599	-0.28149908781051636	0.07947243005037308	0.011118007823824883	0.4526780843734741	-0.15738114714622498	-0.20342382788658142	0.14219632744789124	0.04678935557603836	-0.06620132923126221	0.15847758948802948	-0.49922463297843933	0.26447391510009766	0.08707085251808167	0.06588780134916306	0.017778122797608376	0.6716023087501526
29563414_64016471.xml	0.3602306544780731	-0.45403215289115906	0.44010624289512634	0.40932998061180115	0.4836375415325165	0.24695727229118347	0.0785474106669426	-0.28356724977493286	-0.2778942883014679	0.09889408200979233	0.037581074982881546	-0.058059729635715485	-0.5113884806632996	0.41634973883628845	-0.013227829709649086	0.055438585579395294	0.03283073753118515	0.06514368951320648	-0.1636095494031906	-0.11264701187610626	0.6932075619697571	0.13667765259742737	-0.12732605636119843	-0.22448895871639252	0.009153904393315315	-0.26906195282936096	-0.11691096425056458	-0.6516948342323303	-0.16742916405200958	0.28271734714508057	0.1253592073917389	-0.25264036655426025	0.15087218582630157	0.32089459896087646	0.025603877380490303	0.6179987192153931	-0.12443164736032486	0.06433462351560593	-0.7127165794372559	0.0013594930060207844	0.4376184046268463	-0.18069890141487122	-0.7342953085899353	0.2563623785972595	0.463183730840683	0.08571723103523254	0.09840798377990723	-0.08351179957389832	-0.35673651099205017	0.3334246575832367
29563525_63996342.xml	0.3223227858543396	-0.12483106553554535	0.15168963372707367	0.34176746010780334	0.1457526534795761	-0.28976431488990784	0.04644235596060753	-0.058558374643325806	0.08528725802898407	-0.18309904634952545	-0.09136740118265152	-0.2690747082233429	-0.3192874491214752	-0.12545645236968994	-0.2210112363100052	-0.27326464653015137	0.12112418562173843	-0.20241834223270416	-0.3508957028388977	-0.43974241614341736	0.06422867625951767	-0.14888077974319458	0.19863416254520416	-0.618543267250061	-0.08269395679235458	0.27541840076446533	-0.043705590069293976	-0.0565013661980629	0.18764151632785797	0.214421808719635	0.25246283411979675	0.28438103199005127	0.0955987349152565	0.18000927567481995	-0.07573418319225311	-0.061585504561662674	-0.36860334873199463	-0.2230204939842224	-0.17493143677711487	0.1825457364320755	0.4059631824493408	0.07729356735944748	-0.0978250727057457	-0.09690995514392853	0.09982677549123764	-0.25842419266700745	0.13219709694385529	0.025897923856973648	-0.20343849062919617	0.4122231900691986
29563525_64000923.xml	0.4183850884437561	-0.07335898280143738	0.22676344215869904	0.16572324931621552	0.049115587025880814	0.10554921627044678	0.10635050386190414	-0.13544875383377075	0.17691996693611145	-0.19925792515277863	-0.09699774533510208	-0.3321395814418793	-0.19095084071159363	0.2987307608127594	-0.46243783831596375	-0.10816067457199097	0.18066757917404175	-0.1391506791114807	-0.10377178341150284	0.11399812251329422	-0.022781148552894592	-0.021540462970733643	0.0017123122233897448	-0.2257276475429535	-0.06574005633592606	-0.0906306579709053	-0.05157260596752167	-0.07591436803340912	0.6014411449432373	0.21928241848945618	-0.2751615047454834	0.1433277726173401	0.06231462582945824	0.3989926278591156	-0.25795453786849976	-0.3088306486606598	-0.16272297501564026	0.21254444122314453	0.14087645709514618	0.2654886543750763	0.29884082078933716	0.37452447414398193	0.2148585021495819	0.2136210799217224	-0.464360773563385	-0.08089744299650192	0.18227775394916534	0.04716535657644272	-0.10953027009963989	0.5723162293434143
29563525_64024289.xml	0.2884233593940735	-0.6350432634353638	-0.3910738229751587	-0.07667073607444763	0.39815422892570496	-0.061948470771312714	0.23922096192836761	-0.21274133026599884	-0.499047189950943	-0.14791184663772583	-0.1951807737350464	0.08717840909957886	-0.28888165950775146	0.29556480050086975	-0.6647374629974365	-0.2483808696269989	-0.023450134322047234	0.09688281267881393	-0.6028248071670532	-0.008832321502268314	-0.1729826033115387	0.06634093821048737	-0.33983883261680603	-0.5112895369529724	0.0901162326335907	-0.31667038798332214	-0.3024638593196869	-0.2586688697338104	0.029519593343138695	-0.030340515077114105	0.16899029910564423	-0.03302103281021118	0.3272140920162201	0.06177785247564316	-0.38787055015563965	-0.10946077853441238	-0.1912126988172531	0.17377714812755585	-0.6681199073791504	0.0033278425689786673	0.38241875171661377	-0.07863010466098785	0.23355095088481903	0.042782314121723175	0.04393976181745529	0.028732256963849068	-0.22243008017539978	-0.15065263211727142	-0.14666306972503662	0.30899542570114136
29563530_63997634.xml	0.27500882744789124	-0.013749747537076473	0.0921148955821991	0.09874264150857925	0.019998423755168915	-0.05330662801861763	0.43121781945228577	-0.08189323544502258	0.08036139607429504	-0.12512964010238647	0.20133602619171143	0.10947064310312271	-0.16074731945991516	-0.07954108715057373	-0.25777241587638855	-0.08630713820457458	0.2000846117734909	-0.10490787029266357	0.1239478588104248	0.14993524551391602	0.257508784532547	-0.06255719810724258	0.04036569222807884	-0.27824699878692627	0.03488502651453018	-0.08194559812545776	0.07566811889410019	-0.10278420895338058	0.13631391525268555	0.1335974633693695	0.10518293082714081	-0.02104215882718563	0.05979218706488609	0.2634349763393402	-0.11163870245218277	0.1544976383447647	-0.36996209621429443	-0.2804778516292572	-0.3126339912414551	-0.026423081755638123	0.08130953460931778	-0.1695348620414734	-0.454213410615921	0.10604914277791977	-0.04072895273566246	0.059067729860544205	0.2885380983352661	0.09302141517400742	-0.16610626876354218	0.2481558620929718
29563530_64006842.xml	0.3030087351799011	0.014888381585478783	0.4446781277656555	0.31624746322631836	0.1719834953546524	-0.33990278840065	0.567531168460846	0.12795041501522064	0.15740157663822174	-0.07119268923997879	0.15167751908302307	-0.4135246276855469	0.32260045409202576	0.12881852686405182	-0.32291749119758606	-0.03653355687856674	0.24271994829177856	-0.06550053507089615	0.4730106294155121	0.23008233308792114	0.3236083686351776	0.08949661254882812	0.027506178244948387	-0.219977006316185	-0.33469530940055847	-0.4403442144393921	-0.06974320113658905	-0.06768769025802612	0.3667730391025543	0.24605093896389008	-0.5023804903030396	0.10929188132286072	0.03990397974848747	0.2763192355632782	-0.43432673811912537	0.2038085013628006	-0.20953333377838135	-0.021287968382239342	0.0811409279704094	-0.3077743947505951	-0.01521227601915598	0.033180173486471176	-0.5819917917251587	0.5436409711837769	-0.1071217954158783	0.023320898413658142	0.4694240093231201	-0.18800778687000275	-0.2102384716272354	0.4670219123363495
29563530_64016118.xml	0.1036958172917366	0.006387750618159771	0.15989962220191956	0.1543956995010376	-0.19663061201572418	-0.3596231937408447	0.5001963973045349	-0.18916070461273193	0.3915300667285919	-0.31152498722076416	0.3791826069355011	-0.5197674036026001	0.19273774325847626	-0.06926359981298447	-0.22724288702011108	-0.17347237467765808	0.1786498874425888	0.009937589056789875	0.30176451802253723	0.06387565284967422	0.5638651847839355	0.0695633590221405	-0.05379738658666611	-0.08525046706199646	-0.15578046441078186	-0.25133216381073	-0.0878632515668869	-0.4194081425666809	0.17529863119125366	0.09792520850896835	-0.24647487699985504	-0.012139402329921722	-0.01645984686911106	0.03371709585189819	-0.2733234167098999	-0.10736968368291855	-0.002748330356553197	-0.09059003740549088	-0.17342111468315125	-0.3416965901851654	0.27632543444633484	-0.09011847525835037	-0.5318759679794312	0.37176838517189026	-0.32554590702056885	-0.1659647524356842	0.3390008509159088	-0.2773861587047577	0.040145523846149445	0.33013588190078735
29563530_64023346.xml	0.46603822708129883	0.23584915697574615	0.4702959358692169	-0.10860582441091537	-0.39822354912757874	0.09951405227184296	0.06262052804231644	0.42892804741859436	-0.11539801955223083	0.20916664600372314	0.16873414814472198	-0.36781787872314453	0.06505929678678513	-0.10790785402059555	-0.19934731721878052	-0.41892680525779724	-0.0012275073677301407	-0.23772135376930237	0.18138757348060608	-0.025116469711065292	0.7982686161994934	0.3896922171115875	0.1527470499277115	-0.3803543448448181	-0.3288189470767975	-0.5054811835289001	0.1813952773809433	-0.37955886125564575	-0.2922300696372986	-0.04281063377857208	-0.18915508687496185	-0.22343020141124725	-0.19285571575164795	0.6491768956184387	-0.11408351361751556	0.5129892230033875	0.19815382361412048	-0.4594970941543579	-0.20536062121391296	-0.05334881693124771	-0.01089735608547926	-0.1598561555147171	-1.0561076402664185	0.4185274839401245	0.35903820395469666	0.15279369056224823	0.37556204199790955	-0.3385521471500397	0.04876774176955223	0.04848300665616989
29563669_63996819.xml	0.14536233246326447	-0.08175071328878403	0.18852567672729492	0.10616722702980042	0.1765011101961136	-0.28441885113716125	0.2859436869621277	-0.026539241895079613	0.05870581790804863	0.023188427090644836	0.07233760505914688	0.2975054085254669	-0.11245738714933395	0.15025275945663452	-0.07946736365556717	-0.0046142651699483395	0.28897935152053833	-0.04703611508011818	0.02798508293926716	-0.010159366764128208	0.024155698716640472	-0.1451709121465683	0.12724758684635162	-0.3312118649482727	0.08425142616033554	0.07321658730506897	0.27960464358329773	0.10600492358207703	0.17195303738117218	0.23267674446105957	0.15682625770568848	0.2291470766067505	-0.024696025997400284	0.0645129382610321	-0.20359443128108978	0.3896685540676117	-0.6096040606498718	-0.36580994725227356	-0.3021221160888672	0.08249543607234955	-0.03949064388871193	-0.3451068699359894	-0.30994006991386414	0.004657672718167305	0.13818097114562988	0.13713297247886658	0.25125154852867126	0.005312765017151833	-0.10770715773105621	0.5098193883895874
29563669_63999455.xml	0.23520570993423462	-0.026197565719485283	0.4471838176250458	-0.2590124309062958	0.14215584099292755	-0.3199218809604645	0.34046539664268494	-0.11348291486501694	0.02425287663936615	-0.02022767812013626	-0.0040170312859117985	-0.15866214036941528	-0.07952719181776047	0.30063971877098083	-0.49511033296585083	-0.12954498827457428	0.2857794463634491	-0.2158423215150833	0.4001733064651489	0.33102402091026306	0.22450949251651764	0.08137640357017517	-0.08017261326313019	-0.09943316876888275	0.03170111030340195	-0.3979417085647583	0.11699282377958298	0.23324987292289734	0.5050672888755798	0.3956526219844818	-0.44458678364753723	-0.16649150848388672	-0.07958507537841797	0.08076691627502441	-0.3201144337654114	0.31327295303344727	-0.30261802673339844	0.19982092082500458	0.09586606174707413	-0.2787182927131653	-0.0001159361272584647	-0.008930428884923458	-0.01992775872349739	0.21228574216365814	-0.22583436965942383	0.24809151887893677	0.3516693413257599	-0.17770177125930786	-0.18465018272399902	0.3613693118095398
29563669_64005172.xml	0.2830779552459717	-0.09615311771631241	0.24161052703857422	-0.40476834774017334	-0.0436256043612957	-0.1693396270275116	0.36736756563186646	0.006027339491993189	0.08001073449850082	0.007972374558448792	0.16333884000778198	-0.4116823673248291	0.05118097364902496	0.2226591259241104	-0.42358654737472534	0.06910745799541473	0.029696492478251457	-0.08342421799898148	0.30115532875061035	0.2790260314941406	0.18637901544570923	0.12397628277540207	-0.038320768624544144	0.17995014786720276	-0.00941401720046997	-0.3977367579936981	0.13297800719738007	-0.11056049168109894	0.372352659702301	0.22968998551368713	-0.1557624191045761	0.19761791825294495	-0.008922696113586426	0.010825052857398987	-0.2681778073310852	0.16069605946540833	-0.09752433747053146	0.3472333252429962	-0.149459108710289	-0.16883327066898346	-0.01831609569489956	-0.14171132445335388	-0.18562829494476318	0.25418150424957275	-0.433918833732605	0.3591414988040924	0.10242218524217606	0.06851723790168762	0.14590425789356232	0.6839967966079712
29563669_64021086.xml	0.09739129990339279	0.07943502068519592	0.16086219251155853	-0.1622244268655777	0.07833201438188553	-0.0188421830534935	0.48313242197036743	0.2561013400554657	-0.26245546340942383	0.19242453575134277	0.2927296459674835	-0.014062019996345043	-0.1449795812368393	0.6675620079040527	-0.09191223233938217	0.029718825593590736	0.2607659697532654	-0.04135889559984207	0.29409798979759216	0.11357837170362473	0.23920373618602753	0.34993550181388855	0.268921822309494	-0.20173248648643494	-0.26782718300819397	-0.16018430888652802	0.23973910510540009	-0.4435303211212158	-0.2978391647338867	-0.28487956523895264	-0.14766192436218262	0.009348970837891102	-0.019773514941334724	-0.01569870486855507	-0.13057014346122742	0.7135584950447083	-0.3713323175907135	0.22339117527008057	-0.6031588315963745	-0.20774589478969574	-0.20420074462890625	-0.5716284513473511	-0.8615684509277344	0.3809994161128998	0.41574352979660034	-0.0739324614405632	0.3810666501522064	-0.3279176652431488	0.17491036653518677	0.12183354794979095
29563669_64035317.xml	0.13124129176139832	-0.002324640052393079	-0.26117372512817383	-0.5492263436317444	-0.012006417848169804	0.05524512380361557	0.4241476058959961	0.005423837807029486	-0.22708866000175476	-0.08091006428003311	0.020686442032456398	-0.24669134616851807	-0.37941083312034607	0.5122876167297363	-0.30110445618629456	-0.2696669101715088	0.20697028934955597	-0.07520049065351486	0.10695690661668777	0.18345069885253906	0.3059025704860687	0.4290422201156616	-0.11688148230314255	0.030934931710362434	0.19075080752372742	-0.18905335664749146	0.025915442034602165	-0.2523967921733856	0.016580183058977127	-0.06236600503325462	-0.3042060136795044	-0.07653260976076126	0.0003751752956304699	0.24643391370773315	-0.32201507687568665	0.3457808494567871	0.018297474831342697	0.4984610974788666	-0.32686227560043335	-0.07112276554107666	0.24492600560188293	-0.13588465750217438	-0.4128674566745758	0.14766645431518555	-0.19909347593784332	0.3131123185157776	0.09741748869419098	-0.37508848309516907	0.08411575853824615	0.10090334713459015
29563713_63997502.xml	0.16459719836711884	0.22732122242450714	0.09662959724664688	-0.13630318641662598	0.0891374722123146	0.05572223663330078	0.3390730321407318	0.14496120810508728	0.0630340501666069	-0.17701242864131927	-0.060910265892744064	0.4603062868118286	-0.18476906418800354	-0.011252360418438911	-0.5057068467140198	0.14353875815868378	0.1511249542236328	-0.2081095576286316	0.17708976566791534	-0.020354051142930984	0.05564830079674721	0.08184598386287689	0.11955399066209793	-0.5353062748908997	-0.01417695265263319	-0.09787853062152863	0.03577164560556412	0.5193121433258057	0.30560678243637085	0.3299444615840912	0.10444864630699158	-0.15609502792358398	-0.3961290121078491	0.17070239782333374	0.0031407703645527363	0.4741734564304352	-0.34765130281448364	-0.4256860613822937	0.25365304946899414	-0.07357680797576904	-0.14924223721027374	-0.21856829524040222	-0.6079618334770203	0.15626740455627441	-0.10426691919565201	0.09346000850200653	0.19270195066928864	0.041671428829431534	-0.18758365511894226	0.28115221858024597
29563713_64003317.xml	0.24946296215057373	0.12455106526613235	0.6005783677101135	0.21594752371311188	0.4541472792625427	-0.08028559386730194	0.2047504037618637	-0.01986234448850155	0.18801908195018768	-0.021179523319005966	-0.23049506545066833	0.010739310644567013	-0.27864834666252136	0.23086954653263092	-0.4909839630126953	0.11260728538036346	0.3938656449317932	-0.21896608173847198	0.0927455946803093	0.30903568863868713	0.15691399574279785	-0.04814941808581352	-0.03643178194761276	-0.4060094356536865	-0.0759015902876854	-0.37920936942100525	-0.11005044728517532	0.5413835048675537	0.563529372215271	0.5844184160232544	-0.3466326892375946	-0.1815047264099121	-0.382062703371048	0.09809809923171997	-0.3477094769477844	0.5356959700584412	-0.27016547322273254	-0.0012820697156712413	0.5219541192054749	-0.34065988659858704	-0.09073822945356369	0.20757992565631866	-0.2011421173810959	0.36066338419914246	-0.09624015539884567	0.24062946438789368	0.26108577847480774	-0.14229771494865417	-0.3034525513648987	0.5423213243484497
29563713_64008804.xml	0.2487940937280655	0.33078664541244507	0.18151289224624634	-0.3748534917831421	0.0047136093489825726	-0.026039110496640205	0.5005636215209961	-0.16801565885543823	0.23437388241291046	-0.16733959317207336	-0.10087881982326508	-0.16657091677188873	-0.2167224884033203	0.17302179336547852	-0.4880274534225464	0.12678055465221405	0.2917269766330719	-0.05975786969065666	0.1205943152308464	0.3147493898868561	0.04282455891370773	0.024758649989962578	-0.24749267101287842	-0.023696547374129295	0.10953928530216217	-0.4764256775379181	0.22143299877643585	0.38836395740509033	0.4945238530635834	0.41938915848731995	-0.21552562713623047	-0.1645210087299347	-0.5298749804496765	0.26421111822128296	-0.31636062264442444	0.08734726905822754	-0.12616103887557983	0.18219482898712158	0.3784621059894562	-0.4330747723579407	0.0271848663687706	0.37825652956962585	0.181465744972229	0.026244813576340675	-0.5053242444992065	0.049469172954559326	0.119649238884449	-0.17575152218341827	-0.2719806134700775	0.8406579494476318
29563713_64019883.xml	0.12939509749412537	-0.014281416311860085	0.37522655725479126	-0.4308130443096161	-0.01882195845246315	0.15416105091571808	-0.017951559275388718	0.200701504945755	-0.31165117025375366	0.19836510717868805	-0.3424026668071747	0.042846422642469406	-0.29811060428619385	0.4887978732585907	-0.37312081456184387	0.03894931077957153	-0.08163266628980637	0.1100979819893837	0.18385900557041168	-0.33279985189437866	0.4975516200065613	0.3958987295627594	0.00393332727253437	-0.6777065396308899	-0.3681167960166931	-0.0330636203289032	0.06970357894897461	0.3774963915348053	-0.027576902881264687	0.4404231905937195	-0.1356545239686966	0.019441545009613037	-0.43394413590431213	0.6065622568130493	0.25627583265304565	0.39565393328666687	-0.3135068714618683	0.1692325919866562	0.051734331995248795	-0.13214115798473358	-0.27884364128112793	-0.11491549015045166	-0.5041396021842957	0.15827178955078125	0.711584210395813	-0.32428982853889465	0.22179557383060455	-0.45442822575569153	-0.43893712759017944	-0.08850262314081192
29563714_64000171.xml	0.3192981779575348	0.04400566592812538	-0.018480252474546432	0.07840614020824432	0.0817764550447464	-0.10462833195924759	0.3745085895061493	0.028687497600913048	0.08480244129896164	-0.16507987678050995	0.23491105437278748	-0.08723480999469757	-0.2026158571243286	-0.022264331579208374	-0.15862764418125153	-0.1272752583026886	0.032717153429985046	-0.18817022442817688	0.16621577739715576	0.07979883998632431	0.15463535487651825	0.04798082634806633	0.13535034656524658	-0.1650349199771881	-0.11186272650957108	-0.2852081060409546	0.0869198888540268	-0.1003449484705925	0.18790510296821594	0.08114108443260193	0.007232079282402992	-0.07427864521741867	0.10337479412555695	0.24929198622703552	-0.14398649334907532	0.03703870624303818	-0.39481088519096375	-0.15428060293197632	-0.2407650202512741	-0.057277925312519073	0.14095841348171234	-0.13888174295425415	-0.4191444218158722	0.15307587385177612	-0.059939440339803696	0.24301813542842865	0.24024176597595215	0.11206439882516861	-0.2676163911819458	0.34334316849708557
29563714_64004850.xml	0.4405200779438019	0.02888360619544983	0.19246257841587067	-0.1286724954843521	-0.044488001614809036	-0.1577121764421463	0.39420199394226074	-0.0901605635881424	0.16920094192028046	-0.14050590991973877	0.1595696061849594	-0.36971592903137207	0.001098361797630787	0.2276112586259842	-0.35795262455940247	-0.13003602623939514	0.15411736071109772	-0.27590468525886536	0.3633844554424286	0.41842037439346313	0.2519746720790863	0.1465369313955307	-0.08059515804052353	0.34775370359420776	-0.10361774265766144	-0.5538446307182312	0.0006719172815792263	-0.16995133459568024	0.5033019781112671	0.21765117347240448	-0.47563716769218445	-0.23955059051513672	0.21957993507385254	0.44954660534858704	-0.4160953164100647	0.053619008511304855	-0.17200295627117157	0.3662104606628418	-0.1100035011768341	-0.26897624135017395	0.1319299191236496	0.05933777987957001	-0.15166743099689484	0.2536950707435608	-0.5487880706787109	0.37817463278770447	0.3527931571006775	0.0024046332109719515	-0.11560706049203873	0.4163578152656555
29563714_64017557.xml	0.26725372672080994	0.13201871514320374	0.035999469459056854	-0.08608432859182358	0.006064990535378456	-0.018626661971211433	0.5376982688903809	0.0075346906669437885	-0.2596910297870636	0.030398620292544365	0.11516895890235901	-0.2606770992279053	-0.179313063621521	0.35511207580566406	-0.2849208414554596	-0.13558216392993927	-0.0020821858197450638	-0.29628175497055054	0.3347287178039551	0.0339575819671154	0.5427429676055908	0.28983333706855774	0.041292447596788406	-0.0349745936691761	-0.014950783923268318	0.014088843017816544	-0.02980397269129753	-0.5697797536849976	-0.07131385058164597	-0.36724862456321716	-0.1927005648612976	-0.18456721305847168	0.18879283964633942	0.5392329096794128	-0.16649700701236725	0.3690468966960907	-0.32703545689582825	0.3169814944267273	-0.5700801014900208	-0.20866793394088745	-0.1175946518778801	-0.3131079077720642	-0.8064160943031311	0.3444278836250305	0.27895134687423706	0.2527143657207489	0.5416319966316223	-0.20512594282627106	-0.2757067382335663	-0.30286234617233276
29563714_64027233.xml	0.3622061610221863	0.20548509061336517	-0.2735506296157837	-0.27004387974739075	-0.003372941631823778	0.17452391982078552	0.5306840538978577	0.14610710740089417	-0.1401771605014801	-0.05832485854625702	0.11736312508583069	-0.48508891463279724	-0.3580903708934784	0.17730781435966492	-0.37636280059814453	-0.10798468440771103	-0.13285090029239655	-0.20102018117904663	0.232241690158844	0.06190378963947296	0.37987956404685974	0.36749523878097534	-0.08814860880374908	0.10974664986133575	-0.07613836228847504	-0.4585898518562317	-0.0008437809301540256	-0.24813376367092133	-0.16872259974479675	-0.23151880502700806	-0.12475138157606125	-0.10493551939725876	0.03438299521803856	0.47320401668548584	-0.1634012758731842	0.17663533985614777	-0.02711261622607708	0.43726015090942383	-0.3347649872303009	-0.2858293652534485	0.04086039215326309	-0.008664730936288834	-0.6338806748390198	0.15574109554290771	-0.11582659184932709	0.3691365420818329	0.13263435661792755	-0.13537144660949707	-0.3186424970626831	0.15916962921619415
29563714_64031466.xml	0.17415258288383484	-0.29480522871017456	0.11359495669603348	-0.23982909321784973	-0.2850416600704193	-0.08999752253293991	0.4766237735748291	-0.04330836236476898	-0.1277109831571579	-0.001316556823439896	0.21573692560195923	0.00534055894240737	-0.05673596262931824	0.2516430914402008	-0.27827131748199463	-0.09976521134376526	0.04136631265282631	-0.11692653596401215	0.23790580034255981	-0.025316480547189713	0.18255053460597992	-0.15780127048492432	-0.18479390442371368	0.052819713950157166	0.08267578482627869	-0.4705687463283539	0.4758458435535431	-0.6260836720466614	-0.13843543827533722	-0.11422146111726761	-0.05920640006661415	-0.16796034574508667	0.12649917602539062	0.161986842751503	0.16834767162799835	0.43666014075279236	-0.1139921247959137	0.022024083882570267	-0.8536032438278198	-0.3477100729942322	0.29120439291000366	-0.47175949811935425	-0.14413006603717804	-0.23873963952064514	-0.3349616527557373	-0.1676817685365677	0.39017364382743835	-0.226411834359169	-0.113497793674469	0.20703260600566864
29563855_63996308.xml	-0.00782886054366827	0.08899492770433426	-0.1748252660036087	0.27384620904922485	0.24888856709003448	-0.24277271330356598	-0.2265651375055313	0.13590271770954132	0.2289360761642456	-0.3757305443286896	0.007648342289030552	-0.14866630733013153	-0.19540935754776	0.10668307542800903	-0.2631925642490387	0.17290009558200836	-0.21247154474258423	-0.23909467458724976	-0.1105719730257988	-0.29847413301467896	-0.29510393738746643	-0.012331884354352951	0.19534245133399963	-0.3060709238052368	-0.05632803961634636	-0.1734868884086609	0.25532305240631104	0.43806192278862	0.4785761535167694	0.29917246103286743	0.0853976309299469	0.03197450935840607	0.2311609983444214	0.2107160985469818	0.03912912309169769	0.0890422835946083	-0.9016249775886536	-0.13976433873176575	-0.20846055448055267	0.34194430708885193	0.15166521072387695	0.07742761075496674	-0.3592030107975006	-0.06605645269155502	0.20174869894981384	-0.04388420283794403	-0.021322481334209442	-0.058614734560251236	0.3687454164028168	0.029217656701803207
29563855_64002541.xml	0.06286069750785828	0.13616040349006653	0.28343939781188965	0.3470882773399353	0.2433125078678131	-0.10634464770555496	-0.13546013832092285	0.06551945954561234	0.41740962862968445	-0.3264017105102539	0.007604561746120453	-0.5737553238868713	-0.11750857532024384	0.3318290710449219	-0.4014219045639038	0.30410337448120117	-0.142975851893425	-0.17578275501728058	-0.02871093899011612	0.08736182749271393	-0.2633283734321594	-0.0994366928935051	-0.02908133715391159	-0.07879353314638138	-0.0537455715239048	-0.5643923282623291	0.31107810139656067	0.5454415678977966	0.8142609000205994	0.5731539130210876	-0.3489916920661926	0.10523394495248795	0.14219070971012115	0.27903279662132263	-0.1886853277683258	-0.013265922665596008	-0.6340894103050232	0.28422990441322327	0.08760027587413788	0.3034655451774597	0.12005456537008286	0.5500279664993286	0.06185626611113548	0.14966093003749847	-0.17400774359703064	0.13252267241477966	0.03997321426868439	-0.14285169541835785	0.3386920988559723	0.3572813868522644
29563855_64006212.xml	0.08602647483348846	-0.045094482600688934	-0.06502715498209	-0.1603166162967682	0.012646867893636227	-0.28217270970344543	-0.14931577444076538	-0.06832852959632874	0.20094192028045654	-0.41069307923316956	-0.023119637742638588	-0.6848275065422058	-0.06286575645208359	0.35397568345069885	-0.45509499311447144	0.15921716392040253	-0.3189263343811035	-0.273630827665329	-0.049214333295822144	0.0215021762996912	-0.1774880290031433	-0.009736587293446064	-0.09303243458271027	0.16906176507472992	0.050891559571027756	-0.45411616563796997	0.2700488865375519	0.23762232065200806	0.5172377824783325	0.38832658529281616	-0.3795997202396393	-0.0038852703291922808	0.3745920658111572	0.20752617716789246	-0.040100518614053726	-0.18394900858402252	-0.5282021760940552	0.4388331472873688	-0.2066354751586914	0.16262826323509216	0.008985351771116257	0.30628037452697754	-0.0338345430791378	-0.29940465092658997	-0.20224620401859283	0.08501534909009933	-0.07655739039182663	-0.203542560338974	0.5638337135314941	-0.0012460689758881927
29563855_64028849.xml	-0.008509932085871696	0.14791488647460938	0.408498078584671	0.3050631284713745	-0.06468058377504349	0.13059327006340027	-0.045167554169893265	0.34245023131370544	0.3896281123161316	-0.12085068970918655	0.39781808853149414	-0.4933323264122009	0.0582139678299427	0.6042493581771851	-0.31842902302742004	0.4103494882583618	-0.1296853870153427	0.2558123767375946	0.056786127388477325	-0.06335628032684326	0.44120052456855774	-0.02198946289718151	0.20919878780841827	-0.0239608995616436	-0.14754095673561096	-0.519223153591156	-0.0563126839697361	0.0011097175301983953	0.17173615097999573	0.22677581012248993	-0.3496711850166321	-0.21317894756793976	0.22710928320884705	0.39321762323379517	0.24078425765037537	0.03227604180574417	-0.17582355439662933	0.3533150851726532	-0.43429699540138245	0.08987510949373245	0.16777700185775757	0.11689837276935577	-0.9319835305213928	0.1745908409357071	0.3444806933403015	-0.31336209177970886	0.07749328017234802	-0.5506504774093628	0.49803704023361206	-0.09415926039218903
29563915_63996065.xml	0.3588922619819641	-0.11317330598831177	0.0998838022351265	-0.10998184978961945	0.24913296103477478	-0.3109601140022278	0.6312958002090454	-0.3092426359653473	0.17617186903953552	-0.4746209979057312	-0.021112265065312386	0.07638046145439148	-0.534766435623169	-0.05674104765057564	0.2780182957649231	-0.14352098107337952	-0.27493613958358765	0.041649483144283295	0.10398609936237335	-0.12252496927976608	0.16837254166603088	-0.6359161138534546	0.4668520987033844	-0.18855993449687958	0.18291625380516052	-0.01893351413309574	0.14753586053848267	-0.24034060537815094	0.2580079734325409	0.3314360976219177	0.15536928176879883	0.180967316031456	0.12381249666213989	0.2773096263408661	0.0821860060095787	0.16405624151229858	-0.43340787291526794	-0.5752089023590088	-0.06642322242259979	-0.19177788496017456	0.23935748636722565	-0.34235596656799316	-0.6993283629417419	-0.011570275761187077	-0.13907836377620697	0.48453885316848755	0.0019398980075493455	0.3664725124835968	-0.16197921335697174	0.5967921614646912
29563915_64003208.xml	0.23205605149269104	-0.20018623769283295	0.13235409557819366	-0.6658951640129089	0.15421675145626068	-0.5261322855949402	0.568100094795227	-0.47167012095451355	-0.12133470177650452	-0.1530267298221588	0.08938382565975189	-0.6030420660972595	-0.233356773853302	0.5133618116378784	-0.13301587104797363	-0.02967234142124653	-0.09838999807834625	0.21403074264526367	0.3875581920146942	0.1499142050743103	0.7980977296829224	-0.3570730686187744	0.17939819395542145	0.29119786620140076	0.12342055141925812	-0.4988993704319	0.2592720091342926	-0.28879186511039734	0.31922873854637146	0.20101459324359894	-0.3795122504234314	0.11404769122600555	-0.12893307209014893	0.02703522890806198	-0.10293952375650406	-0.25473877787590027	0.07198263704776764	-0.036074746400117874	-0.11046630144119263	-0.053888529539108276	0.25437456369400024	-0.27466458082199097	-0.4736223518848419	0.3244973123073578	-0.3337341248989105	0.22610053420066833	-0.174382746219635	0.2859717011451721	-0.1124737486243248	0.5716772675514221
29563915_64005435.xml	0.3610602915287018	-0.7011052966117859	0.3150406777858734	-0.38622263073921204	0.23026809096336365	-0.7809099555015564	0.4525916576385498	-0.7044325470924377	-0.21247300505638123	-0.3196846544742584	-0.11243759840726852	-0.0808168277144432	-0.022663695737719536	0.01357132289558649	-0.12398791313171387	-0.15881045162677765	-0.029612304642796516	-0.026706375181674957	0.28257516026496887	-0.04204830527305603	0.5847423076629639	-0.7253358364105225	0.2960607707500458	0.13013945519924164	0.33708637952804565	-0.19789066910743713	0.1226782351732254	-0.32301992177963257	0.36124664545059204	0.5521517395973206	-0.21628454327583313	-0.006632489617913961	0.27344897389411926	-0.01174924150109291	-0.10589653998613358	0.05690889433026314	-0.1731407195329666	-0.3960740566253662	-0.298977792263031	-0.3037690818309784	0.30103957653045654	-0.43539169430732727	-0.4438152611255646	-0.16150137782096863	-0.026132972911000252	0.1249040737748146	0.05851344019174576	0.33553940057754517	-0.002539572538807988	0.49798646569252014
29563915_64027819.xml	0.23527799546718597	-0.04322303831577301	0.3249003291130066	-0.6169386506080627	-0.012297671288251877	-0.08692559599876404	0.6424321532249451	-0.20116713643074036	-0.07185614109039307	-0.23474416136741638	-0.10122860968112946	-0.34509268403053284	-0.22659452259540558	0.5072346925735474	-0.22590620815753937	-0.14742495119571686	-0.057415660470724106	0.21757765114307404	0.5149577856063843	0.22704121470451355	0.901893675327301	-0.19088968634605408	0.44026196002960205	0.03373859450221062	0.011102551594376564	-0.15274955332279205	-0.24309027194976807	-0.47751712799072266	0.09951364248991013	0.1642294079065323	-0.47920212149620056	0.005925740581005812	-0.0710228830575943	0.18936215341091156	0.020662974566221237	0.19728565216064453	0.44989722967147827	-0.0644596591591835	0.08403049409389496	-0.2303118258714676	0.10070478916168213	-0.43563684821128845	-1.2006109952926636	0.3759419322013855	-0.020643582567572594	-0.057550858706235886	-0.1631888598203659	0.032770585268735886	0.09777224808931351	0.08966995775699615
29564026_63996356.xml	0.19313381612300873	-0.04167654737830162	0.14220458269119263	0.022010548040270805	0.14089559018611908	-0.2210291028022766	0.4196109473705292	-0.11756907403469086	-0.07348798960447311	-0.009975030086934566	0.14250940084457397	0.33319520950317383	-0.07496587187051773	0.23623035848140717	-0.17134593427181244	0.018349820747971535	0.26007723808288574	-0.09513425081968307	0.08589063584804535	0.09249424934387207	-0.007778269704431295	-0.15643039345741272	0.1714927852153778	-0.2787691354751587	0.019929230213165283	0.02667211927473545	0.3383745551109314	-0.03825844079256058	0.22092869877815247	0.03642335906624794	0.07792342454195023	0.1368831843137741	0.05289203301072121	0.06439212709665298	-0.19971783459186554	0.36399123072624207	-0.5344393849372864	-0.45510050654411316	-0.3633422553539276	0.16493166983127594	-0.012257589027285576	-0.37330612540245056	-0.3971858620643616	0.16590002179145813	-0.0023113165516406298	0.06228113919496536	0.29941657185554504	0.1840735226869583	-0.03914286196231842	0.3574323058128357
29564026_63999434.xml	0.4684107005596161	-0.06905927509069443	0.4213155508041382	-0.12043005973100662	0.3764239251613617	-0.3044966757297516	0.41211411356925964	-0.019705714657902718	-0.016935229301452637	0.09780938178300858	-0.0222178902477026	0.1769155114889145	-0.1256730854511261	0.4796455204486847	-0.4228459298610687	0.17344863712787628	0.344387024641037	-0.004397828597575426	0.3212388753890991	0.5099635124206543	-0.0014341672649607062	-0.09921277314424515	0.056398503482341766	-0.0706000104546547	0.031208906322717667	-0.5383707284927368	0.3194333016872406	0.37996989488601685	0.5822513699531555	0.38843074440956116	-0.4176124930381775	-0.017728298902511597	-0.092371366918087	0.08191163837909698	-0.4286835789680481	0.34817901253700256	-0.4744510352611542	-0.04048030823469162	0.1322043091058731	-0.12201135605573654	-0.14645138382911682	-0.054441481828689575	-0.15782800316810608	0.5224878191947937	-0.19433853030204773	0.33655470609664917	0.2732008695602417	0.08249783515930176	-0.08591458946466446	0.6725828647613525
29564026_64004975.xml	0.23347815871238708	-0.3031119704246521	0.3343985676765442	-0.21488341689109802	0.16359791159629822	-0.39211198687553406	0.6357487440109253	-0.2541241943836212	-0.019578980281949043	-0.14532916247844696	0.23035308718681335	-0.4307839572429657	0.046295277774333954	0.26995277404785156	-0.11372900754213333	-0.16534945368766785	0.1770022064447403	0.04515130817890167	0.4004552364349365	0.3650780916213989	0.39238685369491577	-0.11391618847846985	0.23726557195186615	-0.21368370950222015	-0.0878407284617424	-0.33416223526000977	0.11885297298431396	-0.31644871830940247	0.1571573168039322	0.0537291057407856	-0.3375137150287628	0.1989404261112213	0.2180456668138504	-0.25771573185920715	-0.29487183690071106	0.009219314903020859	-0.19680358469486237	-0.1727176308631897	-0.3204047381877899	-0.19655068218708038	0.1987401694059372	-0.21957877278327942	-0.5558893084526062	0.17572088539600372	-0.06419922411441803	-0.20600460469722748	0.11651543527841568	0.028552159667015076	0.08166397362947464	0.43906643986701965
29564026_64012694.xml	0.35196512937545776	0.2502496838569641	0.41392505168914795	-0.4452461302280426	0.03269754350185394	0.15223652124404907	0.144821435213089	0.0695309042930603	-0.3495723605155945	0.39575114846229553	0.04436091333627701	0.058709654957056046	-0.4004511535167694	0.16437628865242004	-0.20505967736244202	-0.3433469533920288	0.40311792492866516	-0.0038762541953474283	0.02072191797196865	0.2591438591480255	0.7770284414291382	-0.11586233973503113	0.4406028389930725	-0.18803824484348297	0.20286299288272858	-0.08035396784543991	0.43257832527160645	-0.01378950197249651	-0.018106993287801743	-0.36321863532066345	-0.0497719906270504	-0.15165306627750397	0.13076937198638916	0.3351312279701233	-0.09436696767807007	0.2512582242488861	-0.21004465222358704	-0.6869184970855713	-0.31612831354141235	0.14054378867149353	-0.06205850467085838	-0.3803985118865967	-0.9506930112838745	0.31889668107032776	0.40412625670433044	0.4291800260543823	0.2228710800409317	0.19745910167694092	-0.2036220282316208	0.08572021871805191
29564026_64025066.xml	0.2647484242916107	-0.09410233795642853	-0.11211996525526047	-0.4550617039203644	0.12976515293121338	0.36059898138046265	0.7191888689994812	-0.09975617378950119	-0.13476157188415527	0.022792667150497437	0.43323057889938354	-0.0568888783454895	-0.4197064936161041	0.25021427869796753	-0.3582175374031067	0.11235041171312332	0.16848404705524445	0.05861186236143112	0.2999221384525299	0.44908177852630615	0.3216509222984314	0.05552380904555321	0.09201367944478989	-0.07596714049577713	0.1760963499546051	-0.5572976469993591	0.27220213413238525	-0.02898317575454712	0.03684408590197563	-0.36740097403526306	0.10888785123825073	-0.13996464014053345	0.049444232136011124	0.04723096266388893	-0.14194044470787048	-0.051411475986242294	-0.35098958015441895	0.017834218218922615	-0.6502913236618042	-0.011904881335794926	0.27659130096435547	-0.08183000236749649	-0.45893192291259766	0.051262255758047104	-0.27361389994621277	0.05010494962334633	0.028489351272583008	0.2645035982131958	-0.25654637813568115	0.4030340909957886
29563253_63996284.xml	-0.0959060788154602	0.5450937747955322	0.007357922848314047	-0.17194771766662598	-0.11678282171487808	-0.5733684301376343	0.23354116082191467	0.21997815370559692	0.10200849920511246	-0.12784932553768158	-0.1964660882949829	0.10456448048353195	-0.07230495661497116	0.17009399831295013	0.011714000254869461	-0.13968755304813385	0.10416369140148163	0.08653397113084793	-0.5270644426345825	-0.20678120851516724	0.00646667554974556	-0.16411612927913666	0.12192638963460922	-0.1336211860179901	0.15551118552684784	0.63257896900177	0.4790281653404236	0.032162848860025406	-0.22309891879558563	0.24919985234737396	0.09846746921539307	0.3145006000995636	0.6232090592384338	0.2218848466873169	0.20673438906669617	-0.032061491161584854	-0.5030665993690491	0.0119057297706604	-0.29674720764160156	-0.010202240198850632	0.14154043793678284	-0.42954564094543457	-0.5164725184440613	-0.01586952991783619	0.07160954922437668	-0.1687101125717163	0.23205575346946716	-0.21295668184757233	0.21156913042068481	0.6676844358444214
29563525_64004485.xml	0.1927759200334549	-0.6952078342437744	0.22829486429691315	-0.04822023585438728	0.10019852221012115	-0.2333606481552124	0.0700395479798317	-0.45106998085975647	0.05856231972575188	-0.16022856533527374	-0.11945268511772156	-0.2817496359348297	0.1878078281879425	-0.06572780758142471	-0.37115147709846497	-0.20338785648345947	0.02683798037469387	-0.11636589467525482	-0.19422312080860138	-0.0820586308836937	0.2590981423854828	-0.08287646621465683	0.05752516910433769	-0.47287118434906006	0.04389265924692154	0.06694963574409485	-0.1656797230243683	-0.5063468217849731	0.3325064480304718	0.2324865162372589	0.03409585729241371	0.2995932102203369	0.2210959494113922	-0.17785626649856567	-0.18798284232616425	-0.11404268443584442	-0.06952217221260071	0.08428976684808731	-0.3635421395301819	-0.2509717643260956	0.47027158737182617	0.120877206325531	-0.1061321496963501	-0.017712540924549103	0.20617975294589996	-0.5824611783027649	0.1472494751214981	-0.1108231320977211	0.26261529326438904	0.4717712104320526
29563714_64008914.xml	0.301845520734787	-0.08727900683879852	0.12943436205387115	-0.4018259346485138	-0.1884339302778244	-0.009882255457341671	0.3237757682800293	-0.2299758493900299	0.15339034795761108	-0.19248045980930328	0.19739528000354767	-0.4641542136669159	-0.05294723063707352	-0.011092694476246834	-0.47368600964546204	-0.030817754566669464	-0.1684567779302597	-0.39287063479423523	0.3379163444042206	0.30049097537994385	0.38843831419944763	0.07022225856781006	-0.05541205033659935	0.18226934969425201	-0.02783372439444065	-0.39697912335395813	-0.1413557380437851	-0.20784613490104675	0.17157962918281555	0.14586004614830017	-0.128572016954422	-0.05749887228012085	0.12344367057085037	0.07354145497083664	-0.13702695071697235	-0.12011630088090897	-0.11878319084644318	0.29783833026885986	-0.20334328711032867	-0.291620135307312	-0.11792981624603271	-0.123912513256073	-0.33519279956817627	-0.06354857981204987	-0.3687465190887451	0.3190149664878845	0.13629946112632751	0.135267972946167	-0.016727689653635025	0.3285156190395355
29564040_63998194.xml	0.04396045207977295	0.2837893068790436	0.07057515531778336	-0.12983083724975586	-0.07141713052988052	-0.09490323066711426	0.07656344771385193	0.026369882747530937	0.269167423248291	-0.10018138587474823	-0.06533681601285934	0.12481223791837692	-0.21113140881061554	-0.06410638988018036	-0.20961877703666687	-0.1566338837146759	0.057053275406360626	-0.07840020954608917	-0.13288861513137817	-0.10001635551452637	-0.1197979673743248	0.0961880013346672	0.18357622623443604	-0.31318172812461853	-0.10517817735671997	0.2133900225162506	0.18077833950519562	0.33263108134269714	0.40887531638145447	0.31001678109169006	0.19106125831604004	0.22613023221492767	-0.03240921348333359	0.20572099089622498	0.05573147535324097	-0.11026986688375473	-0.5589360594749451	-0.15235470235347748	0.0721888393163681	0.007876375690102577	0.035534217953681946	-0.21649591624736786	-0.21012112498283386	-0.107659250497818	0.06870577484369278	0.09756691753864288	0.12759216129779816	0.030451588332653046	-0.17743979394435883	0.6319807171821594
29564507_64035098.xml	0.06002667173743248	0.08918266743421555	0.1673862487077713	0.46979793906211853	-0.22454382479190826	-0.22580662369728088	0.059156741946935654	-0.008382189087569714	0.17381924390792847	0.04531077295541763	-0.25526076555252075	0.19391466677188873	-0.22197118401527405	-0.39371684193611145	-0.17549332976341248	-0.144169881939888	0.6795898079872131	-0.44743821024894714	0.11936444789171219	-0.3046382665634155	0.28285321593284607	-0.601608395576477	0.38816168904304504	-0.1958876997232437	0.22282937169075012	0.5456361174583435	-0.20836855471134186	-0.1341692954301834	0.003972809761762619	-0.34759336709976196	0.1887313276529312	0.020120825618505478	0.15786923468112946	0.13913537561893463	0.004302376415580511	0.3005867600440979	-0.7642137408256531	0.3291320502758026	-0.3526482582092285	-0.31387317180633545	-0.12079858779907227	-0.8539802432060242	-0.26836255192756653	-0.1200781837105751	0.20951129496097565	-0.18350377678871155	0.5363348722457886	0.13899201154708862	-0.008627176284790039	0.284384161233902
29564628_64024804.xml	0.16558611392974854	-0.17040467262268066	-0.09902989864349365	-0.6658782958984375	-0.018553979694843292	0.3155023455619812	0.15905097126960754	-0.15629832446575165	-0.20141886174678802	0.10926887392997742	0.01819891668856144	0.33628275990486145	0.22341887652873993	0.581143856048584	-0.5154963731765747	0.5384420156478882	-0.21145682036876678	0.35995933413505554	0.103514164686203	-0.10796388238668442	0.2518376410007477	0.3640952408313751	-0.26561450958251953	0.06597790122032166	-0.06861390918493271	-0.4090913236141205	0.3320733904838562	0.17124336957931519	0.20847615599632263	0.09263014793395996	0.0013179476372897625	-0.1279112696647644	-0.4296380579471588	0.3632342219352722	0.01685563288629055	-0.046941496431827545	-0.2171829789876938	0.09584955871105194	-0.12497448176145554	-0.06727819889783859	-0.09337922930717468	0.04447969049215317	-0.3962498605251312	0.4244140684604645	-0.10853695869445801	-0.2669869363307953	0.06597869098186493	0.11473239958286285	0.06010041385889053	0.6823835372924805
29564769_64031846.xml	0.4305281937122345	0.15633457899093628	-0.2078932523727417	-0.0810772031545639	-0.0052006980404257774	0.3625558018684387	0.4674222767353058	-0.016382278874516487	-0.11402756720781326	0.5530676245689392	0.22466593980789185	-0.055775780230760574	-0.14849314093589783	0.9779222011566162	-0.6378911137580872	0.16427288949489594	0.4535227119922638	0.25575879216194153	0.45203113555908203	-0.010130214504897594	0.5476638078689575	0.7346231341362	0.5368022322654724	-0.3566693067550659	-0.008222338743507862	0.336789071559906	-0.07263008505105972	0.026823103427886963	-0.27856022119522095	-0.02792806550860405	-0.13014936447143555	0.1534969061613083	-0.06267623603343964	0.33926302194595337	-0.38262075185775757	0.3137115240097046	-0.04161632061004639	0.11323206126689911	0.05804409459233284	-0.20490001142024994	-0.04604417830705643	-0.49145838618278503	-0.8450011610984802	0.01447873841971159	0.2104720175266266	-0.4847216308116913	0.19224050641059875	-0.5399624109268188	0.27788835763931274	-0.20452304184436798
29564890_64001755.xml	0.2798406779766083	-0.26870715618133545	0.41247832775115967	-0.20494408905506134	0.4002896249294281	-0.3054118752479553	0.26976799964904785	-0.1458754539489746	-0.21878688037395477	0.1327448934316635	0.009922455064952374	0.1924518644809723	0.21755452454090118	0.38811516761779785	-0.5048574209213257	0.0359807051718235	0.230614572763443	-0.10184033215045929	0.27640974521636963	0.2199983447790146	0.309234082698822	0.12404904514551163	-0.20130829513072968	-0.08897759765386581	0.1097770482301712	-0.43786582350730896	0.15841570496559143	0.2786702513694763	0.498950719833374	0.3204802870750427	-0.4706559181213379	-0.2598901391029358	-0.040914956480264664	0.09135881066322327	-0.4195629358291626	0.3759215176105499	-0.3851264417171478	0.13831475377082825	0.05812542513012886	-0.13328783214092255	0.010327896103262901	-0.11002153903245926	-0.2863205671310425	0.6907789707183838	-0.08537984639406204	0.20431652665138245	0.49705737829208374	-0.014079917222261429	-0.11814528703689575	0.551876962184906
29565085_64001599.xml	0.37069740891456604	0.1807684302330017	0.0891977921128273	0.3343091309070587	-0.1570136845111847	-0.04544892534613609	0.36536288261413574	0.1804613471031189	0.45188117027282715	-0.405667245388031	0.1392003744840622	0.15284407138824463	-0.057204484939575195	-0.44813230633735657	-0.10494565218687057	0.1574370265007019	-0.05088435113430023	-0.21494485437870026	0.2655583620071411	-0.21140173077583313	-0.2858300507068634	-0.540034830570221	0.6966126561164856	-0.28056028485298157	0.12131708860397339	0.13372822105884552	-0.40596309304237366	-0.04051335155963898	0.3215189278125763	-0.24340097606182098	0.02125232107937336	0.1824219673871994	0.09016464650630951	0.2166667878627777	0.11041394621133804	0.04836363345384598	-0.8753271102905273	-0.19205403327941895	0.12835006415843964	-0.2661883533000946	-0.6280571222305298	-0.10146855562925339	-0.5401172041893005	0.0583546906709671	0.06512418389320374	-0.11924099922180176	0.503878653049469	-0.18106107413768768	0.22321480512619019	0.23074156045913696
29565513_64000259.xml	0.11855550855398178	-0.07747595757246017	0.16074815392494202	0.08325881510972977	-0.19891425967216492	-0.037074699997901917	0.08477646857500076	0.609965443611145	0.1502729207277298	-0.299139142036438	-0.179851695895195	-0.08527977019548416	-0.042264316231012344	-0.09040789306163788	-0.2776102125644684	0.23687127232551575	0.4338426887989044	-0.3973708152770996	0.20642253756523132	-0.01291627436876297	0.22926242649555206	-0.8283310532569885	0.06560372561216354	0.06950508058071136	0.23868247866630554	0.4582672715187073	-0.462327241897583	-0.5131799578666687	-0.19248221814632416	0.3386610150337219	-0.3146042227745056	0.027154656127095222	0.17658646404743195	0.6375543475151062	-0.25500723719596863	0.048405054956674576	-0.6416266560554504	0.7677290439605713	0.043178707361221313	-0.15676499903202057	-0.12452009320259094	-0.4490527808666229	0.02039213478565216	0.036912161856889725	-0.4509561359882355	0.012326021678745747	0.4841935336589813	-0.0005599353462457657	0.5066157579421997	0.50124591588974
29566132_63996178.xml	-0.15995444357395172	0.1802472472190857	-0.04599587991833687	-0.17413194477558136	-0.11801888048648834	-0.3177129030227661	-0.15543662011623383	0.25899526476860046	0.2439105063676834	0.012810247018933296	-0.3533386290073395	0.19712258875370026	-0.19701285660266876	0.09258841723203659	-0.045088957995176315	-0.3687180280685425	-0.04878738150000572	0.12657158076763153	-0.3194970488548279	-0.4282695949077606	0.02649574913084507	0.024037668481469154	0.24594725668430328	-0.14946049451828003	-0.047009099274873734	0.4714972972869873	0.014168868772685528	0.07064913958311081	0.22364991903305054	0.21439608931541443	0.10889958590269089	0.3092629611492157	0.21514074504375458	0.2761194109916687	0.14271800220012665	-0.10681792348623276	-0.5648969411849976	0.018741749227046967	-0.14083045721054077	-0.2857353091239929	-0.00918219331651926	-0.5358559489250183	-0.3118858337402344	0.05101205036044121	0.2808116376399994	-0.0878916010260582	0.26428425312042236	-0.46968895196914673	-0.04387033358216286	0.31215837597846985
29566402_63998257.xml	-0.04783659800887108	-0.046228308230638504	0.1730934977531433	0.387531578540802	0.2980385422706604	-0.41246381402015686	-0.38443008065223694	-0.13231578469276428	0.5658767223358154	-0.029560111463069916	0.05376605689525604	-0.10771119594573975	-0.20053787529468536	-0.21983438730239868	-0.36927157640457153	-0.037226635962724686	-0.02256251499056816	-0.09953726828098297	-0.3861290514469147	-0.18253958225250244	-0.20815280079841614	-0.1579321026802063	0.08625134825706482	0.14269177615642548	0.09793827682733536	0.012130611576139927	-0.19918674230575562	0.04995639994740486	0.5284457206726074	0.04672415554523468	0.44525986909866333	0.14798226952552795	0.3874182403087616	-0.02950342744588852	-0.1467561572790146	-0.08524828404188156	-0.7011919617652893	-0.4222978949546814	-0.42548367381095886	0.09780672192573547	0.25310513377189636	0.04650275409221649	-0.1818685680627823	-0.3495040237903595	-0.08521394431591034	-0.2930101156234741	-0.10815675556659698	-0.24022343754768372	0.06525538861751556	0.42704641819000244
29566597_63997623.xml	0.08697184920310974	0.01452637743204832	-0.1434004008769989	-0.05828296020627022	0.03775633126497269	-0.19743236899375916	0.1584896296262741	0.1746000200510025	0.13514237105846405	-0.12615270912647247	-0.027730392292141914	0.4160982072353363	0.1018860712647438	0.13994364440441132	-0.2263263463973999	0.06944451481103897	-0.019865840673446655	-0.2790078818798065	0.032028548419475555	-0.0899580642580986	-0.03881635516881943	-0.0411941222846508	0.2333649843931198	-0.21598419547080994	-0.08204260468482971	0.03974930942058563	-0.038654573261737823	0.1708049774169922	0.22400310635566711	0.23691602051258087	0.026645110920071602	0.10449419915676117	0.012559852562844753	0.21940656006336212	-0.06083669885993004	0.1761949211359024	-0.5059041380882263	-0.4018011689186096	-0.0858507975935936	-0.058861616998910904	-0.3035231828689575	-0.42202258110046387	-0.49735310673713684	-0.0412631593644619	-0.06529410928487778	0.22365283966064453	0.3095187246799469	-0.06878799200057983	-0.08437298983335495	0.2075718492269516
29566733_63996986.xml	0.0581769235432148	0.24459868669509888	0.15010999143123627	0.03896274417638779	0.18496233224868774	-0.49748435616493225	-0.0614079013466835	-0.07946615666151047	0.03945418447256088	-0.11558081209659576	-0.25230348110198975	-0.23521392047405243	-0.5601897239685059	0.010129791684448719	-0.07182420790195465	-0.573348879814148	-0.20261207222938538	-0.14422637224197388	-0.37678995728492737	-0.38346588611602783	0.22668345272541046	-0.14934217929840088	0.3323403298854828	-0.10382227599620819	-0.24449412524700165	0.19257096946239471	-0.10175615549087524	0.07211897522211075	0.15206913650035858	0.22366411983966827	-0.009733711369335651	0.0017852874007076025	0.4864461421966553	0.086478091776371	0.2778630554676056	-0.21597856283187866	-0.25379636883735657	-0.3124624192714691	-0.06584648787975311	-0.24035610258579254	0.40843465924263	-0.4039362967014313	-0.6834332942962646	-0.11279281228780746	0.20131322741508484	0.029569227248430252	0.017439447343349457	-0.07697036117315292	-0.3912528455257416	0.1785839945077896
29564040_64004968.xml	0.13016308844089508	0.17138861119747162	0.5313982963562012	-0.26641085743904114	-0.22467772662639618	0.21343782544136047	0.05844984948635101	-0.04346084967255592	0.19275130331516266	0.06383926421403885	0.07979429513216019	-0.09609855711460114	-0.09489012509584427	0.3131890296936035	-0.41164615750312805	0.0005792885785922408	0.05887211486697197	0.08851823955774307	0.14028072357177734	0.21588420867919922	-0.10608627647161484	0.15051348507404327	-0.1335456669330597	0.07858403027057648	-0.35507965087890625	-0.5220120549201965	0.42819613218307495	0.23197081685066223	0.5431106090545654	0.4898953437805176	-0.37854620814323425	-0.02839845046401024	-0.1055912971496582	0.25747838616371155	0.14942221343517303	-0.151108056306839	-0.20068377256393433	0.2443864792585373	0.25781014561653137	-0.21733100712299347	0.013750228099524975	-0.029811562970280647	0.13891799747943878	0.24237267673015594	-0.3828068673610687	-0.013801832683384418	0.21383050084114075	-0.01490685436874628	-0.13811969757080078	0.9577847123146057
29564040_64011737.xml	-0.033141378313302994	0.2035331279039383	0.09375152736902237	-0.5631003379821777	-0.29980412125587463	0.07945359498262405	0.11412099003791809	-0.14565789699554443	0.22976204752922058	-0.053209368139505386	0.0159178264439106	-0.38022950291633606	-0.13507166504859924	0.3645242750644684	-0.33263033628463745	-0.3546381890773773	0.15823809802532196	-0.06544916331768036	0.0043776389211416245	0.2421771138906479	0.16664116084575653	0.42418938875198364	-0.21319617331027985	0.18853600323200226	-0.07290097326040268	-0.046098701655864716	0.06942620873451233	0.025289732962846756	0.46527066826820374	0.2622869610786438	-0.23456694185733795	0.11564105749130249	0.0251612551510334	0.23077809810638428	-0.21203115582466125	-0.3099614977836609	-0.06825375556945801	0.6139236092567444	0.04874968156218529	0.032256755977869034	0.26447609066963196	-0.04736999794840813	0.055504560470581055	-0.11142090708017349	-0.4184550344944	0.1924724578857422	-0.02043437585234642	-0.10853312909603119	0.028574958443641663	0.6592801809310913
29564040_64031762.xml	-0.12842532992362976	0.2701338529586792	0.41937798261642456	-0.00766573054715991	-0.09776052087545395	0.18941080570220947	0.11974404007196426	-0.27667269110679626	-0.11175305396318436	0.22170110046863556	0.008677557110786438	0.09066274762153625	-0.24570365250110626	0.551787257194519	-0.6446542143821716	0.14835599064826965	0.13480684161186218	-0.03179919347167015	-0.11913981288671494	-0.08037181943655014	0.3405764698982239	0.3628123104572296	-0.3883552551269531	-0.4130273163318634	-0.3183407187461853	0.18525178730487823	0.34822311997413635	-0.1533871442079544	0.0323636420071125	0.02260773628950119	0.08357495814561844	-0.11101730167865753	-0.2824265658855438	0.29328784346580505	0.31112197041511536	0.35881251096725464	-0.15323162078857422	-0.1342817097902298	-0.23660479485988617	-0.09811718016862869	-0.050585534423589706	-0.18990051746368408	-0.5731675028800964	0.09908661991357803	0.2343434989452362	-0.2183159738779068	0.3588062822818756	-0.23304298520088196	-0.35887008905410767	-0.2011868804693222
29564280_63996608.xml	-0.055613137781620026	0.006221982184797525	0.036582402884960175	-0.11334923654794693	-0.042204055935144424	-0.16996033489704132	0.4249652624130249	0.20758531987667084	0.1316772997379303	-0.1602514684200287	0.09111876785755157	0.3267686069011688	0.06627746671438217	-0.19185633957386017	-0.2686775028705597	0.03455487638711929	0.1536252796649933	-0.21466214954853058	0.17964036762714386	-0.2003130465745926	0.31421443819999695	-0.060456909239292145	0.10321415215730667	-0.17905142903327942	0.20787078142166138	0.02195914089679718	-0.17215445637702942	0.41926467418670654	0.05138110741972923	0.34208226203918457	0.15966805815696716	-0.03463152423501015	-0.1227056160569191	0.07995598763227463	-0.12191710621118546	0.37692028284072876	-0.3102295696735382	-0.35177862644195557	-0.2550755739212036	-0.07876762747764587	0.024016644805669785	-0.40201276540756226	-0.5286171436309814	-0.2411327064037323	-0.35129794478416443	0.20882470905780792	0.21543268859386444	-0.24786576628684998	-0.2701990306377411	0.3509443998336792
29564280_64004105.xml	0.17834657430648804	0.12036440521478653	0.4947502911090851	0.13554821908473969	0.14355096220970154	-0.36934417486190796	0.5545406937599182	0.283998966217041	0.3786645531654358	-0.11223864555358887	0.04462967440485954	-0.04337705671787262	0.2051527351140976	-0.04010286554694176	-0.20069007575511932	-0.07545589655637741	0.27415579557418823	-0.15132662653923035	0.3398813307285309	0.21892008185386658	0.2406226396560669	-0.08864590525627136	0.21299946308135986	-0.1602182686328888	-0.019863607361912727	-0.34430229663848877	-0.18674726784229279	0.2336745411157608	0.23232442140579224	0.4496103823184967	-0.4457164704799652	-0.0593775138258934	-0.10325983911752701	0.0130386957898736	-0.4216151237487793	0.3479308784008026	-0.2444986253976822	-0.12363804876804352	0.2998352646827698	-0.5801020264625549	-0.11136430501937866	-0.09234502166509628	-0.4623599648475647	0.13706551492214203	-0.21117597818374634	0.18231132626533508	0.37739965319633484	-0.5592823028564453	-0.17711757123470306	0.6527062654495239
29564280_64007081.xml	0.07317779213190079	-0.07248645275831223	0.29061463475227356	-0.42459484934806824	-0.14851589500904083	-0.10004353523254395	0.4588269889354706	0.02236657589673996	0.23447275161743164	-0.2303798794746399	0.06807859241962433	-0.1099611148238182	0.03909696266055107	-0.22491437196731567	-0.6916406750679016	0.02215339057147503	-0.14545287191867828	-0.2635904550552368	0.38548702001571655	0.12176880240440369	0.5114333033561707	0.03275423124432564	-0.10934965312480927	-0.04560907557606697	0.21834959089756012	-0.279779851436615	-0.3203657567501068	0.31667885184288025	0.223319411277771	0.5213867425918579	-0.03947893902659416	-0.1322840303182602	-0.09196832776069641	-0.02621132880449295	-0.05844874307513237	0.14582300186157227	-0.024099495261907578	0.06983587145805359	-0.018934737890958786	-0.38606566190719604	-0.07175587862730026	-0.13941507041454315	-0.4362587332725525	-0.11507807672023773	-0.5403093695640564	0.3194667398929596	0.1266235113143921	-0.234111025929451	-0.17951852083206177	0.2126656025648117
29564280_64016060.xml	0.11306976526975632	0.22622914612293243	0.5841542482376099	-0.5329416990280151	-0.5502220392227173	0.2283255010843277	0.023257432505488396	0.16928085684776306	0.09699061512947083	0.20926472544670105	-0.1361556053161621	0.228395476937294	-0.009477696381509304	0.13929012417793274	-0.5137531161308289	-0.2157379686832428	0.25875502824783325	-0.06070840731263161	0.112823486328125	0.3224174976348877	0.8863507509231567	0.055264126509428024	-0.14996691048145294	-0.019736506044864655	0.41767141222953796	-0.1271190196275711	-0.13041110336780548	-0.18239718675613403	0.029802188277244568	0.1731519252061844	-0.19129344820976257	-0.3985011875629425	-0.25379687547683716	0.4810425043106079	-0.1684121936559677	0.6178852915763855	0.23103120923042297	0.002782901981845498	-0.14887501299381256	-0.0012697132769972086	-0.11292359977960587	-0.34892237186431885	-0.5103185176849365	0.3821950852870941	-0.25446560978889465	0.17957621812820435	0.2613712549209595	-0.47344863414764404	0.33329489827156067	-0.021270250901579857
29564404_63995900.xml	0.17678669095039368	-0.14593537151813507	0.10950534790754318	0.30202239751815796	-0.08298639953136444	-0.16837555170059204	0.2051326036453247	-0.1711389571428299	0.31044241786003113	0.17229430377483368	-0.28236299753189087	0.3084734082221985	0.042162373661994934	0.22484903037548065	0.07000384479761124	0.3310615122318268	-0.022677309811115265	0.21655723452568054	-0.47945520281791687	-0.13942280411720276	-0.309813529253006	-0.5427829623222351	0.12377067655324936	-0.2577131390571594	0.09183068573474884	0.3761218786239624	0.007500478532165289	-0.09612785279750824	0.27473315596580505	-0.14832401275634766	0.4274614751338959	0.5974895358085632	0.1664726883172989	0.5013860464096069	-0.18649278581142426	0.2528015971183777	-0.7201257348060608	-0.17793092131614685	-0.5795856714248657	-0.08399572223424911	0.023415766656398773	-0.14330630004405975	-0.020869048312306404	-0.27356570959091187	0.06340499222278595	-0.25100308656692505	0.192463681101799	-0.1385602504014969	0.17621469497680664	0.5424044132232666
29564404_63997798.xml	0.2153727412223816	-0.16489410400390625	0.38036584854125977	0.2372022420167923	-0.11717617511749268	-0.006610930431634188	0.0950932577252388	-0.29071715474128723	0.48005053400993347	0.08402169495820999	-0.3232770562171936	0.14923273026943207	0.10112577676773071	0.4696209728717804	-0.2009076327085495	0.31445232033729553	0.10764753818511963	0.17126038670539856	-0.3207499384880066	0.2608374059200287	-0.27176058292388916	-0.4949435889720917	-0.05534468591213226	-0.05116448923945427	0.05873667076230049	0.1503816545009613	-0.10526525974273682	-0.13151317834854126	0.7301746010780334	0.08291550725698471	-0.06144222617149353	0.30959218740463257	0.031194832175970078	0.5187488198280334	-0.30510857701301575	0.09208477288484573	-0.3961484730243683	0.111138254404068	-0.21959659457206726	-0.11246668547391891	0.0626421570777893	0.17753717303276062	0.30994755029678345	0.021099653095006943	-0.3286556005477905	-0.23521097004413605	0.27027907967567444	-0.1774827539920807	0.2500210702419281	0.5717454552650452
29564404_64007918.xml	0.10974039882421494	-0.2536066770553589	0.10218941420316696	-0.017743727192282677	-0.22203022241592407	-0.03687533736228943	0.1819370836019516	-0.24865521490573883	0.29934248328208923	0.0318976566195488	-0.25545576214790344	-0.02801802195608616	-0.03925248980522156	0.4414424002170563	-0.13394254446029663	0.0470198430120945	-0.05192440375685692	0.15219205617904663	-0.34731602668762207	0.18621449172496796	-0.10557303577661514	-0.3654271364212036	-0.006325129885226488	-0.0458977185189724	0.20652729272842407	0.28676387667655945	-0.190210223197937	-0.3690808415412903	0.3694152235984802	-0.019949814304709435	-0.045969367027282715	0.5164636373519897	0.25365573167800903	0.36572203040122986	-0.2939806580543518	0.0025330865755677223	-0.386355459690094	0.41649383306503296	-0.5042601823806763	-0.002218885812908411	0.06518242508172989	0.03170179948210716	0.1931348592042923	-0.06369742751121521	-0.16124826669692993	-0.05678259953856468	0.22487510740756989	-0.3764971196651459	0.3755495846271515	0.3873814046382904
29564404_64028644.xml	0.1712208092212677	-0.0765000581741333	-0.15592922270298004	-0.33578231930732727	-0.25709372758865356	0.5983029007911682	0.018772685900330544	0.33812499046325684	0.23189592361450195	0.4087756872177124	-0.33291903138160706	0.07683059573173523	0.27553752064704895	0.41614609956741333	0.12887588143348694	-0.015858136117458344	0.1508162021636963	-0.05671144649386406	-0.6312670707702637	0.08249308913946152	0.16966886818408966	-0.29761576652526855	0.3702218532562256	-0.4269695580005646	-0.049127694219350815	0.28681039810180664	-0.10865073651075363	-0.3952829837799072	0.046575162559747696	-0.4692267179489136	0.07989074289798737	0.39766374230384827	-0.24773545563220978	0.6170238256454468	-0.5149565935134888	0.43674758076667786	-0.17952249944210052	-0.3499433994293213	-0.38996264338493347	-0.3247082233428955	-0.2235468029975891	0.14238746464252472	-0.8412085175514221	0.10988273471593857	0.392917662858963	-0.2518889009952545	0.310857355594635	-0.2609288990497589	0.31689032912254333	-0.03448604792356491
29564446_63998224.xml	-0.02966424636542797	0.10894152522087097	0.04493071883916855	0.23066970705986023	0.16344091296195984	-0.13743901252746582	-0.07357253134250641	0.07937400788068771	0.3108147084712982	-0.38041743636131287	-0.19909603893756866	-0.03648229315876961	-0.15261705219745636	0.14239563047885895	-0.27252957224845886	0.12501944601535797	-0.08257938921451569	-0.33341673016548157	-0.3737482726573944	-0.16358955204486847	-0.11241978406906128	-0.057585567235946655	0.07352686673402786	-0.6054876446723938	-0.11213424056768417	0.09005288034677505	0.13511765003204346	0.3671738803386688	0.22559265792369843	0.47190380096435547	0.21156470477581024	0.13241040706634521	0.07827205210924149	0.07303486764431	-0.022854434326291084	0.07449539750814438	-0.5046277046203613	-0.28829270601272583	-0.12190559506416321	0.1994222104549408	0.38205334544181824	0.08552313596010208	-0.23271289467811584	-0.19346079230308533	-0.10860832035541534	-0.043251026421785355	-0.05145353451371193	-0.00883843470364809	0.12110932171344757	0.3495011031627655
29564446_64001895.xml	0.09113554656505585	0.2521989047527313	0.28284066915512085	0.07363185286521912	0.12948091328144073	0.007084111217409372	0.04711466655135155	0.04186010733246803	0.41512927412986755	-0.3079516291618347	-0.13227765262126923	-0.37215569615364075	0.15332883596420288	0.5772171020507812	-0.4994453191757202	0.318450927734375	0.10424880683422089	-0.23259185254573822	-0.0927029550075531	0.3776598274707794	0.015145317651331425	0.01152055338025093	-0.26361775398254395	-0.1507015824317932	-0.05193392559885979	-0.4184560477733612	0.3575584292411804	0.24995553493499756	0.5252936482429504	0.4397636651992798	-0.3655768036842346	-0.1729358583688736	0.0791555643081665	0.3509962558746338	-0.18918243050575256	-0.13568075001239777	-0.22408954799175262	0.46994370222091675	0.14625833928585052	0.07130704075098038	0.4300268292427063	0.4224008023738861	0.040909018367528915	0.17696920037269592	-0.5243902206420898	0.049525897949934006	0.028807979077100754	0.07538537681102753	0.2632571756839752	0.6698821783065796
29564446_64005450.xml	0.005869050044566393	-0.10544587671756744	0.2701219320297241	-0.3296532928943634	-0.09457656741142273	0.13436689972877502	-0.05795436352491379	-0.08508509397506714	0.21687625348567963	-0.16011221706867218	-0.0594613291323185	-0.6079095005989075	0.04636668786406517	0.4632941782474518	-0.5479643940925598	0.35999104380607605	-0.273635596036911	-0.05954260006546974	-0.10341526567935944	0.2526974678039551	0.14077790081501007	0.0009896839037537575	-0.3065628409385681	-0.16630323231220245	-0.027651842683553696	-0.4353092312812805	0.43376636505126953	-0.012284191325306892	0.19780543446540833	0.40234148502349854	-0.04649762064218521	0.07096860557794571	0.16145221889019012	0.13735786080360413	0.07159149646759033	-0.28416433930397034	-0.16572929918766022	0.5853644609451294	-0.2575523555278778	-0.055657271295785904	0.4558834135532379	0.2845229506492615	0.13250046968460083	-0.04762052744626999	-0.3482917845249176	-0.2572984993457794	-0.19042067229747772	0.08698052912950516	0.5276782512664795	0.5813813209533691
29564446_64023461.xml	-0.10123734176158905	0.1321193128824234	0.29947376251220703	-0.04255358502268791	-0.15365323424339294	0.1570105403661728	0.18743716180324554	0.2528344690799713	0.26323074102401733	-0.1747589260339737	-0.019533870741724968	-0.41429468989372253	0.2503471374511719	0.6464787721633911	-0.3978874981403351	0.27169105410575867	-0.085341677069664	0.12315396964550018	0.06481798738241196	0.20704880356788635	0.2664228081703186	0.13596941530704498	-0.07490772008895874	-0.30951887369155884	-0.26121240854263306	-0.1719266027212143	0.1953480988740921	-0.21661950647830963	-0.0696052834391594	0.1909058690071106	-0.2959001362323761	0.18021158874034882	0.224473237991333	0.16143624484539032	-0.06075084209442139	0.08572078496217728	0.07163189351558685	0.49272724986076355	-0.2563548684120178	0.0871300920844078	0.3490983247756958	0.012376637198030949	-0.5908164978027344	0.5062755942344666	-0.11530029773712158	-0.42357388138771057	-0.048915110528469086	-0.2048141062259674	0.6288506984710693	0.3656279444694519
29564507_64035112.xml	-0.03024371899664402	0.03021339327096939	0.4553492069244385	0.29945099353790283	-0.06916669756174088	-0.1942499577999115	0.3146995007991791	-0.0006465662736445665	0.36034923791885376	-0.08400767296552658	-0.21740370988845825	0.05693627893924713	-0.07094161957502365	-0.1627446711063385	-0.24960637092590332	-0.18107226490974426	0.7642323970794678	-0.2151135355234146	0.3186587989330292	0.11939656734466553	-0.09836773574352264	-0.6915313005447388	0.17025180160999298	-0.2643263638019562	0.20737507939338684	0.1779511272907257	-0.15177421271800995	-0.0527021549642086	0.2749203145503998	-0.11577586829662323	-0.3116530478000641	0.14032873511314392	0.17888204753398895	-0.18729418516159058	-0.11175966262817383	0.06292024999856949	-0.6372247934341431	0.44263195991516113	-0.01752035692334175	-0.7575390934944153	-0.12113664299249649	-0.35291746258735657	0.06689881533384323	-0.09358593076467514	-0.035595521330833435	-0.010345511138439178	0.6231697797775269	-0.21543286740779877	-0.031071951612830162	0.6286475658416748
29564507_64035121.xml	-0.034947916865348816	0.0559171661734581	0.4190640151500702	0.1787855476140976	-0.3760620653629303	-0.22615885734558105	0.12556180357933044	-0.10219217836856842	0.3215460777282715	-0.06811225414276123	-0.13926975429058075	-0.1873893290758133	-0.030866507440805435	-0.2682483494281769	-0.30917832255363464	-0.24818632006645203	0.5260213613510132	-0.3701760768890381	0.3329549729824066	-0.0906013771891594	0.2554287612438202	-0.4334774315357208	0.3186078667640686	-0.07017169147729874	0.1277754157781601	0.36894354224205017	-0.2738840878009796	-0.5092974305152893	0.09729453921318054	-0.42127999663352966	-0.12575821578502655	0.008417005650699139	0.27932751178741455	-0.1431276798248291	-0.05326711758971214	0.07611309736967087	-0.4975804388523102	0.5861661434173584	-0.23667758703231812	-0.6005008220672607	-0.1753094643354416	-0.7207528352737427	-0.17507323622703552	-0.016070974990725517	0.0639926940202713	-0.2259511798620224	0.5251208543777466	-0.0868927538394928	0.2319328337907791	0.25718265771865845
29564507_64035128.xml	0.020197829231619835	-0.15153391659259796	0.2505156695842743	0.15472085773944855	-0.31752029061317444	-0.14521373808383942	0.08514177054166794	0.12199784815311432	-0.018803860992193222	0.11740323156118393	-0.1536060869693756	0.05606048181653023	-0.05760720744729042	0.09941299259662628	-0.2172919660806656	-0.13939961791038513	0.7148953676223755	-0.167329803109169	0.3839053511619568	-0.3627566695213318	0.39891719818115234	-0.24633847177028656	0.25414279103279114	-0.44298863410949707	-0.02813345193862915	0.27217897772789	-0.08608072251081467	-0.4618200659751892	-0.2952224612236023	-0.29211509227752686	0.03345606476068497	0.1669517606496811	-0.005165693815797567	0.09163377434015274	0.1876053363084793	0.38520097732543945	-0.4792293310165405	0.6103195548057556	-0.5424375534057617	-0.44603797793388367	-0.10550928115844727	-0.7662743926048279	-0.40802082419395447	-0.22346311807632446	0.654392421245575	-0.3952156603336334	0.5050528049468994	-0.22867994010448456	-0.005637035705149174	0.2142287790775299
29564507_64035141.xml	0.20816299319267273	-0.07628969848155975	-0.12729397416114807	0.010532841086387634	-0.3385220766067505	-0.3612831234931946	0.26152166724205017	-0.08241777122020721	-0.03267659991979599	-0.030989661812782288	-0.33524906635284424	0.029177626594901085	-0.3290673792362213	-0.03128961846232414	-0.39988988637924194	-0.3492116332054138	0.8576989769935608	-0.29843077063560486	0.21347178518772125	-0.11582230031490326	-0.03572618216276169	-0.3019023835659027	-0.012581929564476013	0.0028443983756005764	0.5255138278007507	0.29873982071876526	0.07391095161437988	-0.30710718035697937	0.027534807100892067	-0.4115467667579651	-0.1856204867362976	-0.05615254491567612	0.3195825219154358	0.1395750343799591	-0.07982873916625977	0.1772262454032898	-0.4624802768230438	0.6260716319084167	-0.5671570301055908	-0.5621334910392761	0.23141717910766602	-0.5425211191177368	0.09122023731470108	-0.6465534567832947	0.013118426315486431	0.06544538587331772	0.5313587188720703	-0.3211204409599304	-0.06470353156328201	0.09320591390132904
