28892244_62465311.xml	0.10656659305095673 0.3079162538051605 -0.015110841020941734 -0.12517833709716797 -0.05224660784006119 -0.0990847498178482 0.4293827712535858 -0.2003297060728073 0.06667039543390274 -0.2110843062400818 0.0939934030175209 0.1435556858778 -0.10556164383888245 -0.0176014993339777 -0.44728603959083557 0.13273991644382477 0.29017749428749084 -0.23813042044639587 0.08380484580993652 -0.09211640805006027 0.25840094685554504 0.1438426524400711 -0.1912754476070404 -0.36470794677734375 -0.07228095084428787 -0.049534689635038376 0.19347451627254486 0.28021302819252014 0.21446043252944946 0.34645670652389526 0.10580377280712128 -0.030129695311188698 -0.5224651098251343 0.15492036938667297 -0.08138398081064224 0.2610548138618469 -0.25747519731521606 -0.36449360847473145 0.11915569752454758 0.08611200004816055 -0.08427488803863525 -0.09122495353221893 -0.3639112710952759 0.05685330927371979 -0.2869747281074524 0.10293668508529663 0.21069999039173126 0.12670643627643585 -0.290882408618927 0.44227296113967896
28892244_62472712.xml	0.15995918214321136 -0.11661752313375473 0.131582573056221 0.028510132804512978 0.2135048508644104 -0.36169761419296265 0.3470200300216675 0.017164643853902817 -0.08783598244190216 0.009074538946151733 0.08590329438447952 -0.0043610152788460255 0.01650049351155758 0.1013021394610405 -0.3409821093082428 -0.1126294657588005 0.08468147367238998 -0.2848135828971863 0.23188351094722748 -0.0010941872606053948 0.16270101070404053 0.02359718270599842 0.018361873924732208 -0.27630090713500977 -0.0629672259092331 -0.16678276658058167 0.21725058555603027 0.10219067335128784 0.22053644061088562 0.31957292556762695 -0.058860428631305695 0.1798439770936966 -0.025737881660461426 0.12341529875993729 -0.2746788561344147 0.36553242802619934 -0.4796487092971802 -0.12034184485673904 -0.20183324813842773 -0.04837236553430557 -0.04240211471915245 -0.22852593660354614 -0.30881842970848083 0.1871350258588791 0.10645349323749542 0.32790592312812805 0.3615484833717346 -0.048611562699079514 -0.23138642311096191 0.32315483689308167
28892244_62478249.xml	0.1115717664361 0.32706907391548157 0.20945972204208374 0.07228875905275345 0.08497530966997147 0.019894717261195183 0.22388869524002075 -0.09307491034269333 0.024979406967759132 -0.02785532921552658 0.10647446662187576 -0.0350697822868824 -0.2153526097536087 -0.03623072803020477 -0.4592846632003784 0.07163695991039276 0.18428698182106018 -0.3619036376476288 -0.20118312537670135 0.08062213659286499 -0.17090636491775513 0.2096691131591797 -0.05237818509340286 -0.24865825474262238 -0.23014801740646362 -0.01525755226612091 0.17106489837169647 0.2513198256492615 0.30495938658714294 0.10686717182397842 0.12046106159687042 0.017777349799871445 -0.011785993352532387 0.05079824849963188 -0.005353976506739855 0.1936490535736084 -0.2919250726699829 -0.33668386936187744 0.04099847748875618 0.11875703185796738 0.03291550651192665 -0.09444908052682877 -0.32665717601776123 -0.13287515938282013 -0.35008615255355835 0.0894598588347435 0.11676710844039917 0.2306823432445526 -0.1746668666601181 0.4877300560474396
28892244_62485617.xml	-0.10491172969341278 0.006646991707384586 0.03624530881643295 -0.269117146730423 0.3846421539783478 0.13739843666553497 0.11182080209255219 0.11492051184177399 0.016055872663855553 0.032115060836076736 0.046413540840148926 -0.11123861372470856 -0.20315217971801758 0.532635509967804 -0.6061419248580933 0.0002697950694710016 -0.15140964090824127 -0.39435282349586487 0.11328992992639542 0.05654012784361839 0.09025479853153229 0.3934054374694824 -0.177846297621727 -0.11041766405105591 -0.15408356487751007 -0.09062786400318146 0.07566841691732407 0.08773747086524963 -0.11009141057729721 -0.4004594683647156 -0.23922324180603027 -0.1910703331232071 -0.17993268370628357 0.028468340635299683 0.08276289701461792 0.43991491198539734 -0.2757423222064972 -0.09023428708314896 0.06397559493780136 -0.36701247096061707 0.04376397281885147 -0.26890283823013306 -0.8568752408027649 0.0657736286520958 -0.42187726497650146 0.15976282954216003 -0.013916348107159138 -0.10958120971918106 -0.3472602069377899 -0.2975796163082123
28892244_62495189.xml	-0.0983128696680069 0.20838400721549988 0.09410503506660461 0.25357893109321594 0.24839374423027039 0.06621437519788742 0.12452831864356995 0.03724219277501106 0.13418297469615936 0.11755149066448212 -0.0005606638151220977 0.0809694156050682 -0.20121492445468903 0.22974111139774323 -0.4453016519546509 0.0500088594853878 0.08530645817518234 -0.42587122321128845 -0.3689594864845276 -0.06479140371084213 -0.052460502833127975 0.13372555375099182 -0.2661511301994324 -0.06259801238775253 -0.040921956300735474 -0.09217847138643265 0.04452104866504669 0.1157158762216568 0.07545916736125946 0.05706758424639702 0.19254672527313232 0.11296907812356949 0.011205649003386497 -0.10024114698171616 -0.09259078651666641 0.5312489867210388 -0.01091031078249216 -0.37787926197052 -0.2012677788734436 0.04361823573708534 0.2343216985464096 -0.267108678817749 -0.5830919146537781 -0.23078936338424683 -0.4384862184524536 0.4331957995891571 0.011660458520054817 -0.08193281292915344 -0.2901207506656647 0.3482906222343445
28892246_62463787.xml	0.2797771096229553 -0.019918354228138924 0.13998888432979584 0.17303940653800964 0.09495645761489868 -0.10059359669685364 0.05827726051211357 0.060264572501182556 0.00691047590225935 -0.24786195158958435 -0.19620230793952942 -0.14464819431304932 -0.3930690288543701 -0.22417950630187988 -0.42431098222732544 -0.05789311230182648 0.05367005616426468 -0.1053927019238472 -0.3610839545726776 -0.3698156476020813 -0.044343024492263794 0.011328032240271568 0.1702570617198944 -0.6783206462860107 -0.1060548722743988 0.3332168757915497 -0.1585168093442917 0.29308781027793884 0.25864070653915405 0.3579445481300354 0.2730119526386261 0.2658383846282959 -0.01928124576807022 0.2613929808139801 -0.017307549715042114 -0.022936804220080376 -0.25776147842407227 -0.2950831651687622 0.0722360610961914 0.165451318025589 0.24283652007579803 0.1289258450269699 -0.20105275511741638 -0.11328866332769394 0.016804803162813187 -0.3562292158603668 -0.004137648269534111 -0.0296391062438488 -0.12947937846183777 0.3885616362094879
28892246_62468418.xml	0.22452671825885773 -0.30705657601356506 0.022533321753144264 0.18850046396255493 -0.028290322050452232 -0.14544761180877686 0.0285633597522974 -0.008084503933787346 0.16823621094226837 -0.24910856783390045 -0.04215433448553085 -0.45818763971328735 -0.023188691586256027 -0.006402157247066498 -0.3563762307167053 -0.30360648036003113 -0.03369133174419403 -0.06011534482240677 -0.12036416679620743 -0.2239951193332672 0.2528080642223358 -0.017977599054574966 0.2262672781944275 -0.5500779151916504 -0.29703688621520996 0.07457656413316727 -0.18732580542564392 -0.32723984122276306 0.3212289810180664 0.19963952898979187 -0.011312928050756454 0.37002110481262207 0.1584700495004654 0.17243079841136932 -0.07750684767961502 -0.32617655396461487 -0.023974476382136345 -0.04455694928765297 -0.03597482293844223 0.0739106684923172 0.3836604356765747 -0.0200834721326828 -0.3782764673233032 0.25007757544517517 0.0017099896213039756 -0.4557048976421356 0.062459614127874374 -0.002363082952797413 0.174383282661438 0.22192634642124176
28892246_62488852.xml	0.11057771742343903 -0.49276724457740784 -0.12033914029598236 -0.21254152059555054 0.06069570034742355 0.3694799840450287 0.06913119554519653 0.01986527442932129 -0.2052025943994522 -0.17470546066761017 0.07982837408781052 0.025462495163083076 -0.08625331521034241 0.36023038625717163 -0.49183353781700134 0.10784581303596497 -0.1325257420539856 -0.11128672957420349 -0.12010680139064789 -0.22095772624015808 0.07800080627202988 0.2268018275499344 0.17511878907680511 -0.43776148557662964 -0.1971966177225113 -0.3481218218803406 0.0063366973772645 -0.5167400240898132 0.02595202438533306 -0.12608228623867035 0.0786108523607254 -0.10751646757125854 -0.02010875567793846 -0.006795109715312719 0.22020919620990753 -0.04505808278918266 0.11639656871557236 0.07306461781263351 -0.44594162702560425 -0.17964154481887817 0.45917603373527527 -0.061469607055187225 -0.42737969756126404 0.09543406963348389 0.016520947217941284 -0.6463084816932678 0.07437758147716522 -0.11584940552711487 0.18166865408420563 0.2367507368326187
28892246_62501485.xml	0.309884250164032 -0.1252569854259491 -0.10571617633104324 -0.04603387415409088 0.08620008081197739 0.30811604857444763 0.033351048827171326 0.020619910210371017 -0.013003951869904995 -0.1654868870973587 -0.40622979402542114 -0.261909544467926 -0.5073242783546448 0.1390615552663803 -0.6638078689575195 -0.018475716933608055 -0.06638547778129578 -0.11676636338233948 -0.22482572495937347 -0.24714180827140808 0.1837185025215149 0.1401149332523346 0.0021045920439064503 -0.6237009167671204 -0.06050891801714897 0.06353132426738739 -0.2197200059890747 0.041334666311740875 0.11474182456731796 0.10612035542726517 0.19697029888629913 0.26200494170188904 -0.1669221818447113 0.3699912428855896 0.04970854893326759 -0.036167409271001816 0.11946847289800644 0.11289454996585846 -0.005652768537402153 0.015520012006163597 0.2014545500278473 0.2846939265727997 -0.38885167241096497 -0.10308099538087845 0.15676291286945343 -0.173160582780838 -0.1712055802345276 -0.1099262684583664 -0.1872107982635498 -0.04457686468958855
28892248_62466218.xml	-0.4769761562347412 0.3121787905693054 -0.03323287516832352 -0.12327342480421066 -0.07364284247159958 -0.22471344470977783 0.215791717171669 -0.0078064678236842155 0.3380764424800873 0.08111092448234558 -0.3046201765537262 0.2078867256641388 -0.4187193810939789 0.37136757373809814 0.23553064465522766 0.03114965185523033 -0.22934411466121674 0.3396467864513397 0.08344399183988571 -0.8345902562141418 -0.5831682682037354 -0.7105308175086975 0.2516365349292755 0.6791203618049622 0.528293788433075 0.004042195621877909 -0.17579928040504456 0.12046976387500763 0.7234312891960144 -0.35426852107048035 0.22677300870418549 0.12818270921707153 0.16410982608795166 0.13195878267288208 -0.05750441178679466 0.4075677692890167 -0.6131467819213867 -0.08796662092208862 -0.5273963809013367 0.054801683872938156 0.35717856884002686 -0.49940913915634155 -0.3642653524875641 -0.7746603488922119 0.04443201422691345 0.11039265245199203 -0.2589690685272217 -0.5366930365562439 -0.020955875515937805 0.41149890422821045
28892248_62472480.xml	-0.5841978788375854 0.44914889335632324 -0.24098412692546844 -0.12673330307006836 -0.19990558922290802 -0.4464663565158844 0.15373608469963074 -0.46904152631759644 0.4726434350013733 -0.10464182496070862 -0.16448874771595 -0.11411333084106445 -0.4862349331378937 0.38393691182136536 0.2732493579387665 0.0533243827521801 -0.24138709902763367 0.2950954735279083 0.08585500717163086 -0.8417999744415283 -0.40446189045906067 -0.7245705127716064 -0.004706508945673704 0.8981267809867859 0.39826488494873047 -0.016117742285132408 -0.02749992534518242 -0.25202587246894836 0.7794716954231262 -0.3206055462360382 0.20436203479766846 0.20444923639297485 0.0008640696760267019 0.007389044854789972 -0.14210376143455505 0.16582630574703217 -0.6197599768638611 -0.09799233824014664 -0.6282128691673279 0.07273047417402267 0.24593697488307953 -0.40269556641578674 -0.11287645995616913 -0.5075909495353699 0.05899352580308914 0.23183082044124603 -0.2052106261253357 -0.45207124948501587 0.08058995753526688 0.35862234234809875
28892248_62487077.xml	-0.5457785129547119 0.43470481038093567 -0.10653845220804214 -0.08027539402246475 -0.1399109661579132 -0.3068075180053711 0.2175271213054657 -0.3285081684589386 0.5421159267425537 -0.0500558577477932 -0.23305445909500122 0.08566689491271973 -0.4368404746055603 0.30418309569358826 0.1556629091501236 0.1039227694272995 -0.3109828233718872 0.3111259937286377 0.11034766584634781 -0.7795891165733337 -0.44318458437919617 -0.6896086931228638 0.0815436840057373 0.8444023132324219 0.4324246048927307 0.03753933683037758 -0.1100410595536232 -0.10651953518390656 0.7460489273071289 -0.2143823802471161 0.1594025194644928 0.15509730577468872 0.036619883030653 0.09408710896968842 -0.12029657512903214 0.2041584849357605 -0.5911729335784912 -0.10631287097930908 -0.45309746265411377 0.09092677384614944 0.19937461614608765 -0.3400740325450897 -0.27587220072746277 -0.49852490425109863 -0.016215885058045387 0.2056637555360794 -0.22722068428993225 -0.4899050295352936 0.033839575946331024 0.3616415560245514
28892317_62464524.xml	0.013614000752568245 0.3265477120876312 0.10292096436023712 0.09537704288959503 -0.11658720672130585 0.23792089521884918 -0.01588951051235199 0.07365965098142624 0.5522344708442688 -0.1987963616847992 -0.4385645389556885 0.19768182933330536 -0.4078053832054138 -0.022778332233428955 -0.10615496337413788 0.16338154673576355 -0.15231074392795563 0.018799403682351112 -0.41073742508888245 -0.2792874574661255 -0.2723180949687958 -0.030708882957696915 0.2589118182659149 -0.2605469226837158 -0.048072949051856995 0.4008888006210327 -0.06474141031503677 0.11955488473176956 0.44108468294143677 0.04881894588470459 0.5529869794845581 0.13042868673801422 -0.1429811716079712 0.49889126420021057 -0.13759972155094147 0.19108739495277405 -0.7319951057434082 -0.12775705754756927 -0.013080284930765629 -0.10074300318956375 0.061860132962465286 -0.0045601376332342625 0.2711786925792694 -0.13412952423095703 -0.22606855630874634 -0.5667299032211304 -0.11207745969295502 -0.22091303765773773 0.09261173754930496 0.5397959351539612
28892317_62470786.xml	-0.046392057090997696 0.015799207612872124 0.046011783182621 -0.008866687305271626 -0.25230076909065247 0.14982569217681885 -0.13669182360172272 -0.1320195496082306 0.5303593277931213 -0.15224814414978027 -0.448421448469162 -0.12611183524131775 -0.2231995165348053 0.12495191395282745 -0.1407577395439148 -0.051350031048059464 -0.3371416926383972 0.034305389970541 -0.24339988827705383 -0.25130143761634827 0.09360209852457047 0.00160032173153013 0.1035684272646904 -0.08368287235498428 -0.05875243991613388 0.3620532751083374 -0.13429394364356995 -0.3579559624195099 0.5012736320495605 -0.08322914689779282 0.4356386363506317 0.23405225574970245 0.05007462948560715 0.4840362071990967 -0.21047304570674896 -0.03704310208559036 -0.5829393863677979 0.23091284930706024 -0.30074936151504517 0.006714645307511091 0.16813838481903076 -0.17104607820510864 0.22032323479652405 0.15634383261203766 -0.18511128425598145 -0.513194739818573 -0.12168312072753906 -0.09986665844917297 0.29438844323158264 0.23932307958602905
28892317_62482943.xml	-0.23338504135608673 -0.21177896857261658 -0.23994368314743042 -0.4662875533103943 0.06771743297576904 0.4630206823348999 0.03002985566854477 0.21847301721572876 0.2056683450937271 -0.07928784936666489 -0.009730180725455284 -0.08324909210205078 -0.04742812365293503 0.8299508094787598 -0.244021475315094 0.16732218861579895 -0.22075243294239044 0.13640666007995605 0.00027317527565173805 0.07283446192741394 -0.1705152690410614 0.3991469144821167 0.12602588534355164 -0.1010279506444931 -0.2678666114807129 0.10209175199270248 0.08220905065536499 -0.3189176321029663 0.12742102146148682 -0.7124767303466797 -0.017328277230262756 0.11213335394859314 -0.12922348082065582 0.27281615138053894 -0.2041548192501068 -0.02528912015259266 -0.5902323722839355 0.13166867196559906 -0.378359317779541 -0.10539019107818604 0.17864251136779785 -0.1285708099603653 -0.06720561534166336 0.28985562920570374 -0.5305266976356506 -0.8596023321151733 -0.19010935723781586 -0.28677862882614136 0.27863436937332153 -0.053085681051015854
28892399_62464410.xml	0.24027904868125916 0.0947534590959549 -0.0018703409004956484 -0.22592400014400482 0.056683074682950974 -0.12684203684329987 0.5294774174690247 0.023383112624287605 0.03129110485315323 -0.36862191557884216 -0.08649760484695435 0.148377925157547 -0.2750856280326843 -0.018020624294877052 -0.2126743495464325 -0.05712762847542763 -0.152795672416687 -0.020053721964359283 0.2839885950088501 -0.12352107465267181 0.17058105766773224 -0.05025095120072365 0.3195243179798126 -0.2816733419895172 -0.05532769486308098 -0.09608427435159683 0.04931384325027466 0.29426875710487366 0.2835412919521332 0.26937803626060486 0.006546874530613422 -0.06363669782876968 -0.009010779671370983 0.35683491826057434 -0.05799094960093498 0.003777821082621813 -0.3772515058517456 -0.5155394673347473 -0.08080024272203445 0.09500531107187271 0.2292945832014084 -0.07666027545928955 -0.5033850073814392 0.02747194468975067 -0.16349385678768158 0.03451291844248772 0.015806950628757477 0.07451529055833817 -0.41350358724594116 0.23864105343818665
28892399_62485982.xml	0.32446199655532837 0.08348323404788971 0.2164636254310608 -0.15402956306934357 0.1760622262954712 -0.24068716168403625 0.5902703404426575 -0.037855364382267 -0.0534340962767601 -0.162331223487854 -0.02822095714509487 0.019295046105980873 -0.2658071517944336 0.022240005433559418 -0.04827440157532692 0.038137342780828476 0.10630250722169876 0.06903602927923203 0.17715173959732056 -0.13159051537513733 0.093187615275383 -0.15166954696178436 0.20947633683681488 -0.25722092390060425 0.061883438378572464 -0.10778435319662094 0.24559195339679718 0.4918367862701416 0.2423800379037857 0.3396194875240326 0.05568729713559151 0.09102633595466614 -0.0586826466023922 0.2781015634536743 -0.1643582582473755 0.1035071611404419 -0.561964213848114 -0.5096078515052795 -0.06505510956048965 0.17094166576862335 0.1580284833908081 -0.0059520648792386055 -0.19122281670570374 -0.22913424670696259 -0.2338859587907791 0.06152787804603577 -0.004460306838154793 0.09728866815567017 -0.5308716893196106 0.732469379901886
28892500_62463856.xml	0.0732981264591217 0.11100637912750244 0.37298622727394104 -0.13409137725830078 -0.07332775741815567 -0.05583479255437851 0.36906686425209045 -0.030677329748868942 0.23869913816452026 -0.17436541616916656 -0.08455494791269302 0.03687413036823273 -0.12600232660770416 -0.17877306044101715 -0.44172585010528564 0.024077359586954117 0.12435419112443924 -0.09449493885040283 0.17878931760787964 0.023089783266186714 0.2669641375541687 -0.04210439324378967 -0.07157519459724426 -0.28909096121788025 0.1637168526649475 0.0938127338886261 -0.1541101336479187 0.3794260323047638 0.257870078086853 0.5679196715354919 0.05639892816543579 0.1428411304950714 -0.2101874053478241 0.17156830430030823 -0.18343998491764069 0.37189316749572754 -0.17299221456050873 -0.1554935872554779 0.10769546031951904 -0.05109143257141113 -0.054379355162382126 -0.06798083335161209 -0.26854926347732544 -0.022479288280010223 -0.3057379722595215 0.14837686717510223 0.09569668024778366 -0.16293618083000183 -0.14161069691181183 0.48515409231185913
28892500_62469532.xml	-0.03088212013244629 -0.24830932915210724 0.1597260981798172 -0.17621064186096191 -0.07435155659914017 -0.19615615904331207 0.2589539885520935 -0.11195087432861328 0.14794473350048065 -0.14080476760864258 0.0663541629910469 -0.1752883642911911 0.05516039952635765 0.07533133029937744 -0.3437054753303528 -0.18098372220993042 0.01685166545212269 -0.19405058026313782 0.2868374288082123 -0.0006804819568060338 0.44042354822158813 0.011183212511241436 -0.03173666074872017 -0.11050345748662949 0.06354706734418869 -0.035806652158498764 -0.08188037574291229 -0.1510867029428482 0.3056831359863281 0.3427562415599823 -0.04082302004098892 0.22278417646884918 -0.031054412946105003 0.06503241509199142 -0.23908202350139618 0.25438740849494934 -0.13336655497550964 0.09485170990228653 -0.29683640599250793 0.01891993172466755 0.1372392177581787 -0.30698826909065247 -0.3046245872974396 0.18161827325820923 -0.18820223212242126 0.2802526652812958 0.15442632138729095 -0.05687467381358147 0.03071162849664688 0.18603581190109253
28892500_62476466.xml	0.1548839956521988 0.06129182130098343 0.2782207727432251 -0.31824445724487305 -0.08549117296934128 -0.08334577083587646 0.46609535813331604 -0.13457633554935455 0.052536070346832275 -0.16354796290397644 -0.03711884096264839 -0.1890467256307602 -0.11342700570821762 0.014314851723611355 -0.44101616740226746 -0.023867186158895493 -0.006030622404068708 -0.1527758091688156 0.1962408572435379 0.08065503090620041 0.224795401096344 0.08964057266712189 -0.11744271218776703 -0.07320400327444077 0.05181635543704033 -0.0396009124815464 -0.04758678004145622 0.12287396937608719 0.23224802315235138 0.29881182312965393 -0.07258954644203186 0.12394272536039352 -0.01363686565309763 0.1130961999297142 -0.18077467381954193 0.20589835941791534 -0.0939679816365242 -0.05298630893230438 -0.05365708842873573 0.04427013918757439 0.05182284861803055 -0.06684897094964981 -0.2876737415790558 -0.004704318009316921 -0.44672641158103943 0.09896215051412582 0.05029764026403427 0.037907134741544724 -0.14391465485095978 0.3648828864097595
28892500_62482522.xml	0.1770474910736084 -0.1401321142911911 -0.17763130366802216 -0.3737669289112091 -0.036333996802568436 -0.12129728496074677 0.36228129267692566 -0.12866191565990448 0.03987434133887291 -0.2494916468858719 -0.08266083896160126 -0.11983445286750793 -0.25468266010284424 0.168854758143425 -0.6602148413658142 -0.23155684769153595 0.11151187866926193 -0.08058518171310425 0.5945612192153931 0.11789010465145111 0.18513824045658112 0.15781839191913605 -0.19932572543621063 -0.3301844000816345 0.011879263445734978 0.13150809705257416 -0.078968845307827 -0.00046637209015898407 -0.32133281230926514 -0.4510606825351715 -0.9216981530189514 0.05415649712085724 -0.0412323884665966 0.2100101262331009 -0.15584729611873627 0.6824669241905212 0.02110736444592476 0.004919146653264761 0.0987626314163208 -0.487600713968277 0.29898351430892944 -0.11399131268262863 -0.6334507465362549 0.6938952207565308 -0.23787017166614532 -0.3097350299358368 0.08668909221887589 -0.5679707527160645 0.11095016449689865 -0.35398614406585693
28892500_62498345.xml	0.26157239079475403 0.07870271801948547 -0.46777787804603577 -0.0715373232960701 -0.2611340582370758 -0.11614016443490982 0.28544941544532776 -0.37400925159454346 0.3120349049568176 -0.1349107325077057 -0.15206508338451385 -0.2039295881986618 -0.4096098244190216 0.014313469640910625 -0.4108983278274536 -0.030952073633670807 0.05622079595923424 -0.11712798476219177 0.5741448998451233 -0.2772543430328369 0.4338412582874298 0.09292534738779068 -0.5378794074058533 -0.2996034026145935 0.10264164954423904 0.11106564849615097 0.09316673129796982 -0.09350670874118805 -0.5425809025764465 -0.2893853187561035 -0.35674139857292175 0.4653877913951874 -0.389868825674057 0.4255674183368683 -0.09917301684617996 0.8205398321151733 0.06537416577339172 0.11557882279157639 -0.1767217218875885 -0.24126103520393372 0.2937757968902588 -0.22499431669712067 -0.5672648549079895 0.28370562195777893 0.22801019251346588 0.29336872696876526 -0.05055397376418114 -0.39418312907218933 -0.18877685070037842 0.07529355585575104
28892518_62463773.xml	0.11292095482349396 0.06189465895295143 0.047524336725473404 -0.24873775243759155 0.031149907037615776 -0.3276155889034271 0.250762403011322 0.15815645456314087 0.030446739867329597 -0.11145420372486115 -0.1774732917547226 0.3364289700984955 -0.0009733737097121775 0.010305924341082573 -0.38395997881889343 0.03941322863101959 -0.10171560943126678 -0.18153318762779236 0.06288646161556244 -0.22768045961856842 -0.015642911195755005 0.0649399384856224 0.1744791716337204 -0.4043230414390564 -0.05398617684841156 0.04122462868690491 0.05162204056978226 0.5387510657310486 0.24569429457187653 0.3787945508956909 0.1258053034543991 0.1130300834774971 -0.13839299976825714 0.22782669961452484 -0.0045472015626728535 0.2647293210029602 -0.48019373416900635 -0.4516887962818146 -0.03745122626423836 -0.08034876734018326 -0.1141762062907219 -0.15023596584796906 -0.3687899708747864 -0.2112468034029007 0.025105487555265427 0.02528464049100876 0.20046009123325348 -0.20991042256355286 -0.2524097263813019 0.17320039868354797
28892518_62469893.xml	0.06834767013788223 -0.07679173350334167 0.01400404516607523 -0.2529224157333374 0.04137956723570824 -0.2703184187412262 0.2108752578496933 0.12525424361228943 0.07181080430746078 -0.03043689951300621 0.0011307713575661182 0.0693432167172432 0.16869010031223297 0.27422818541526794 -0.34711211919784546 0.04388294368982315 -0.08696454763412476 -0.09686493873596191 0.2141581028699875 -0.030912870541214943 0.07027650624513626 0.10387071967124939 0.0776507705450058 -0.1146567240357399 -0.11543379724025726 -0.15248030424118042 0.12643811106681824 0.24514247477054596 0.41735702753067017 0.2926720976829529 -0.0890236496925354 0.2538132071495056 -0.00807871576398611 0.1416807472705841 -0.18802060186862946 0.05082947388291359 -0.3865751624107361 -0.16671912372112274 -0.14900556206703186 0.0515022799372673 -0.02799038216471672 -0.211476668715477 -0.26331856846809387 0.19762839376926422 -0.16071000695228577 0.1618964523077011 0.23839175701141357 -0.03602590411901474 -0.11091603338718414 0.34200409054756165
28892518_62479966.xml	0.15163056552410126 0.28418681025505066 -0.12380630522966385 -0.8143624067306519 -0.13095329701900482 0.04780227318406105 0.13533678650856018 0.6048329472541809 -0.1722833216190338 0.24695923924446106 -0.08520888537168503 0.11951106786727905 0.1834721714258194 0.40039119124412537 -0.2718667984008789 -0.18337318301200867 0.20202715694904327 -0.2403661608695984 -0.05949058383703232 0.45353570580482483 -0.04579975828528404 0.3732586205005646 0.3120822310447693 -0.2130642831325531 0.03603913262486458 -0.7125038504600525 0.41482987999916077 0.18667617440223694 0.19159577786922455 -0.41940319538116455 -0.3254215717315674 -0.15240664780139923 -0.34940338134765625 0.3302871584892273 -0.497697651386261 0.2846356928348541 -0.05509689077734947 -0.3952989876270294 -0.04874836653470993 -0.17262490093708038 0.09694555401802063 0.046253547072410583 -0.4352482557296753 0.22701294720172882 -0.1568891704082489 -0.02796083129942417 0.16902169585227966 -0.4649776220321655 0.3532772958278656 0.3021875023841858
28892518_62487859.xml	0.08577888458967209 -0.02971251681447029 -0.22330519556999207 -0.40138593316078186 -0.0028511316049844027 0.08928132057189941 0.23928768932819366 0.09965700656175613 -0.03178166598081589 -0.06526888161897659 -0.06009141728281975 -0.05872306972742081 -0.039308615028858185 0.3634245693683624 -0.37172427773475647 0.005120411049574614 -0.1825655996799469 -0.21692460775375366 0.26340121030807495 -0.053823072463274 0.20221638679504395 0.30401724576950073 0.025891710072755814 -0.1785193830728531 -0.09249639511108398 -0.17617760598659515 0.06536269187927246 0.06849490106105804 0.1552373468875885 0.06944608688354492 0.028123943135142326 0.16222891211509705 -0.14046718180179596 0.3373950123786926 -0.13311782479286194 0.10030742734670639 -0.29064619541168213 0.10882844775915146 -0.17028601467609406 -0.03837106376886368 -0.08044356107711792 -0.144191175699234 -0.42864206433296204 -0.06313233077526093 0.04169668257236481 0.28764548897743225 0.0960831418633461 -0.0945349857211113 -0.23426750302314758 0.13766036927700043
28892524_62464350.xml	0.26593005657196045 0.14082710444927216 0.20638824999332428 0.04604678973555565 -0.00935239065438509 -0.06326227635145187 0.24088309705257416 0.006383824162185192 0.21401019394397736 -0.1712387055158615 0.003541009034961462 0.18800614774227142 -0.15738636255264282 -0.18726244568824768 -0.24102117121219635 0.058124855160713196 0.14684109389781952 -0.08556412905454636 0.07540135085582733 -0.08368515223264694 0.2032463550567627 0.024424202740192413 0.0902368426322937 -0.42624837160110474 -0.07269793748855591 0.001076207496225834 -0.08488501608371735 0.48995980620384216 0.24805814027786255 0.4179554879665375 0.15087077021598816 -0.053061820566654205 -0.17464661598205566 0.3792065978050232 -0.022475456818938255 0.09044460207223892 -0.5427592992782593 -0.3534526824951172 0.03383992984890938 -0.02848208136856556 -0.07622750848531723 -0.04278668388724327 -0.35846930742263794 -0.1769196093082428 0.045158501714468 -0.005887441802769899 0.1900905817747116 -0.007424168288707733 -0.347668319940567 0.4153135120868683
28892524_62472136.xml	0.20886404812335968 -0.19465093314647675 0.13282795250415802 -0.03225212171673775 -0.04595475271344185 -0.11840285360813141 0.20277872681617737 -0.08451593667268753 0.09716716408729553 -0.1330350786447525 0.09493021667003632 -0.2556408941745758 0.018991032615303993 0.054049331694841385 -0.36625051498413086 -0.15290381014347076 -0.05097904056310654 -0.04715069383382797 0.2772843837738037 0.002339907456189394 0.5103158354759216 0.055220868438482285 -0.06811768561601639 -0.12790338695049286 -0.10929618775844574 -0.14938394725322723 -0.10858562588691711 -0.10831493139266968 0.30721431970596313 0.2734512388706207 -0.14619743824005127 0.11083380877971649 0.07548602670431137 0.35422852635383606 -0.1370566487312317 -0.1365964710712433 -0.21824108064174652 0.028728492558002472 -0.25699907541275024 0.0728432685136795 0.0820126086473465 -0.11101337522268295 -0.40372008085250854 0.28454914689064026 -0.06283826380968094 0.15441586077213287 0.21128986775875092 0.05214788764715195 -0.15917396545410156 0.1605522483587265
28892524_62480340.xml	0.18995589017868042 0.06315117329359055 -0.27346470952033997 -0.2601425349712372 0.09393086284399033 0.1951323002576828 0.6778268814086914 0.2695697546005249 -0.17231960594654083 0.11210674047470093 0.06812801957130432 -0.25733688473701477 -0.046633411198854446 0.5128154754638672 -0.3292538523674011 -0.07418403029441833 0.4949093461036682 0.17638158798217773 0.2432069033384323 0.33451470732688904 0.1588117629289627 0.3846837282180786 -0.10809367895126343 -0.015134474262595177 0.02730323188006878 -0.5440099835395813 0.09408311545848846 -0.1002180352807045 0.17133136093616486 -0.42976343631744385 -0.39326807856559753 -0.15579423308372498 0.043150290846824646 0.551359236240387 -0.4397610127925873 0.20437154173851013 -0.17032214999198914 0.4050728678703308 -0.47425922751426697 -0.36448413133621216 0.3624621629714966 0.08841915428638458 -0.3816767930984497 0.14132536947727203 -0.2736586630344391 -0.2750801742076874 0.27320027351379395 -0.4784114360809326 -0.17614524066448212 0.2984559237957001
28892538_62463706.xml	0.2663392424583435 -0.04866277426481247 0.4014984965324402 -0.17742156982421875 -0.2592407166957855 -0.00644975621253252 0.12624599039554596 0.22652964293956757 0.5320630669593811 -0.2587931156158447 -0.12198488414287567 0.04408684000372887 -0.26915329694747925 -0.3693472146987915 -0.19089293479919434 -0.11617635935544968 -0.0890936329960823 0.18674303591251373 0.11932609230279922 0.039443206042051315 0.11843765527009964 -0.20065639913082123 -0.08319917321205139 -0.20997056365013123 0.0354347825050354 0.2853457033634186 -0.3550691604614258 0.1784941852092743 0.13822373747825623 0.6309066414833069 -0.08376005291938782 0.09123252332210541 -0.008275074884295464 0.5888366103172302 -0.206050306558609 -0.17037394642829895 -0.541746199131012 -0.2573975920677185 0.056127410382032394 -0.01592065766453743 0.1121181771159172 -0.042779408395290375 -0.11200913786888123 -0.0659811943769455 -0.18784098327159882 -0.17537131905555725 0.03204168751835823 -0.14615270495414734 -0.025417132303118706 0.3279796540737152
28892538_62470462.xml	0.17430365085601807 -0.24082975089550018 0.22257383167743683 -0.37950506806373596 -0.34421998262405396 -0.1682600975036621 0.1836593598127365 0.20680497586727142 0.29146888852119446 -0.15866006910800934 0.10207770019769669 -0.22311189770698547 0.0033576360438019037 -0.1764700710773468 -0.18054799735546112 -0.2444242686033249 -0.08686292916536331 0.12474746257066727 0.23600755631923676 0.03304383531212807 0.1765691488981247 0.0522829107940197 -0.23233291506767273 0.027841567993164062 -0.04219983145594597 0.16315878927707672 -0.24713134765625 -0.10574335604906082 0.11314865201711655 0.4081660807132721 -0.20580191910266876 0.19741636514663696 0.15631631016731262 0.674586832523346 -0.3339298367500305 -0.24448058009147644 -0.4281414747238159 -0.05628089979290962 -0.4121091067790985 0.1624622792005539 0.3940680921077728 -0.10229785740375519 -0.11118990182876587 -0.12965969741344452 -0.24908743798732758 -0.13786077499389648 0.13092182576656342 -0.151124507188797 -0.04468953609466553 0.23355820775032043
28892538_62500579.xml	0.13313443958759308 0.18277190625667572 0.13555291295051575 -0.27609318494796753 -0.028433291241526604 0.29869601130485535 0.4951925277709961 0.06831774115562439 0.017607510089874268 0.042740143835544586 -0.06410214304924011 -0.3377109169960022 -0.246266707777977 0.36264902353286743 -0.1615610420703888 0.005397378001362085 0.0679856389760971 0.04988991841673851 0.2464451640844345 -0.08071578294038773 0.43916743993759155 0.30081799626350403 -0.13750357925891876 -0.15466009080410004 -0.04059063270688057 -0.05291542038321495 0.006182685494422913 0.10256142914295197 -0.012732202187180519 0.21016550064086914 0.058505862951278687 0.34608620405197144 -0.39861029386520386 0.5704288482666016 -0.31878119707107544 0.3705742061138153 -0.08683674782514572 0.368211567401886 -0.08090399950742722 0.1988918036222458 0.07805489003658295 -0.025338616222143173 -0.42809000611305237 -0.09288206696510315 0.01281958632171154 0.2946241497993469 -0.12299928814172745 -0.106562040746212 -0.4296620190143585 0.6340824365615845
28892543_62475495.xml	-0.1188628152012825 0.11115728318691254 0.1678529977798462 0.1653517484664917 0.21513736248016357 -0.7748490571975708 -0.10136914253234863 -0.09633093327283859 0.37434300780296326 -0.28121888637542725 0.04941666126251221 -0.17388613522052765 0.215589240193367 0.10180451720952988 -0.3624040186405182 0.0035171082708984613 -0.08379609882831573 -0.14697310328483582 -0.1041414886713028 -0.10223111510276794 0.05985262989997864 -0.09793701767921448 0.1158323660492897 -0.20923537015914917 0.19816766679286957 0.29994386434555054 0.2127062976360321 -0.08781377226114273 0.16466853022575378 0.18973781168460846 0.21801985800266266 0.12948760390281677 0.7490366101264954 0.1799599826335907 -0.06722235679626465 -0.034807100892066956 -0.7868859767913818 -0.07352375984191895 -0.6730892062187195 0.165459543466568 0.47225314378738403 0.17301525175571442 -0.5393553972244263 -0.23044453561306 0.4932178258895874 -0.21957336366176605 0.06934310495853424 -0.3137737214565277 0.26136094331741333 0.11813294887542725
28892543_62478184.xml	-0.0834735780954361 0.2892187237739563 0.14491668343544006 0.2278597503900528 0.27715083956718445 -0.5510778427124023 0.037115879356861115 0.034564144909381866 0.28553056716918945 -0.2816609740257263 0.09604185819625854 -0.13716867566108704 0.2113492786884308 0.09368111938238144 -0.3682524263858795 0.11964241415262222 0.059537142515182495 -0.11819988489151001 -0.22665640711784363 -0.09424463659524918 -0.18549178540706635 0.059605639427900314 0.0941237211227417 -0.39935463666915894 -0.053121987730264664 0.20298442244529724 0.20310430228710175 0.06236417219042778 0.03938864544034004 0.06670866906642914 0.20738326013088226 0.09869956225156784 0.6105318069458008 0.056465454399585724 -0.038335658609867096 0.07422156631946564 -0.6711050271987915 -0.45141303539276123 -0.41416388750076294 0.15479256212711334 0.32578763365745544 0.2644135653972626 -0.6675527691841125 -0.3787648379802704 0.28234273195266724 -0.5997776389122009 0.009032108820974827 -0.3517872095108032 0.2214914709329605 0.27539941668510437
28892543_62488285.xml	-0.5078376531600952 -0.048486363142728806 -0.2469603568315506 -0.16365431249141693 0.5119747519493103 -0.5188019871711731 0.07168417423963547 -0.6035681366920471 0.13226377964019775 -0.43963512778282166 -0.0363217368721962 -0.08846671134233475 0.4754825234413147 0.18711483478546143 -0.4004194736480713 0.23077264428138733 0.04651729762554169 -0.21521101891994476 -0.1488843709230423 -0.1789265275001526 0.20037463307380676 0.08528583496809006 -0.2912754714488983 -0.29470986127853394 0.26415345072746277 -0.19901719689369202 0.2902943789958954 -0.12528763711452484 -0.03202301263809204 0.12499653548002243 0.1764642894268036 -0.1410621553659439 0.296732634305954 -0.13732804358005524 -0.09091918915510178 0.0015634966548532248 -0.6351311206817627 0.03121110238134861 -0.6541370749473572 -0.4779142141342163 0.6443162560462952 0.5302211046218872 -0.5924148559570312 -0.5511854887008667 0.8378278613090515 -0.6973176002502441 0.013540707528591156 -0.4821360111236572 0.20126000046730042 0.30514436960220337
28892552_62464397.xml	0.10742098093032837 -0.01127194706350565 0.04400637373328209 0.20284980535507202 0.05119938403367996 -0.3665056824684143 0.29203593730926514 0.10870975255966187 -0.013978713192045689 -0.12186736613512039 -0.17888754606246948 -0.009412803687155247 -0.08329235017299652 -0.13383130729198456 -0.40225809812545776 -0.056011542677879333 0.19060085713863373 -0.30378952622413635 -0.38540908694267273 -0.44241198897361755 -0.0021209295373409986 -0.06909874826669693 0.07785046100616455 -0.40522128343582153 0.1329021006822586 0.4826979637145996 -0.003994471859186888 -0.027698764577507973 0.07058104872703552 0.2693866491317749 0.3671588897705078 0.36400771141052246 0.020844897255301476 0.11150972545146942 -0.12584304809570312 0.4508761167526245 -0.12556537985801697 -0.21366770565509796 -0.15610799193382263 0.05240382254123688 0.21803468465805054 -0.17591750621795654 -0.2477135956287384 -0.22062791883945465 -0.2628510892391205 -0.15142911672592163 0.16852091252803802 -0.14534196257591248 -0.015404803678393364 0.3822587728500366
28892552_62470292.xml	0.04709198698401451 -0.30441954731941223 0.032029036432504654 0.1212967112660408 -0.006952568888664246 -0.3224855065345764 0.29957348108291626 0.05811968818306923 0.02420928329229355 -0.12822115421295166 0.09180015325546265 -0.463213175535202 0.22056564688682556 0.08413250744342804 -0.383108526468277 -0.17505165934562683 0.14804698526859283 -0.1257413923740387 -0.19759009778499603 -0.12651339173316956 0.15722708404064178 0.0028867132496088743 0.11193040013313293 -0.24480007588863373 -0.12095866352319717 0.182490736246109 -0.05491646006703377 -0.5393638014793396 0.26004886627197266 0.1782601773738861 0.04971747100353241 0.5687640905380249 0.2133331149816513 0.0018674606690183282 -0.28660696744918823 0.08750161528587341 0.1385909616947174 0.05201093107461929 -0.27782323956489563 0.14169229567050934 0.3385956287384033 -0.22290675342082977 -0.2502928674221039 0.23926912248134613 -0.3797279894351959 -0.34227240085601807 0.08416725695133209 -0.0710645243525505 0.38307836651802063 0.5367070436477661
28892552_62484249.xml	0.23470225930213928 0.024438051506876945 -0.22130398452281952 0.4545205235481262 -0.0846753790974617 -0.2037540078163147 0.3158833682537079 0.05375853553414345 0.1287585198879242 -0.2225438952445984 0.05165127292275429 -0.38848787546157837 -0.027596864849328995 0.39400792121887207 0.006230689585208893 -0.26608774065971375 0.3347521424293518 -0.1502375304698944 -0.13404494524002075 -0.4389677941799164 0.30426153540611267 0.2733321189880371 -0.17076867818832397 -0.4318801760673523 -0.0949295312166214 0.2540244162082672 0.00040345784509554505 -0.45153558254241943 -0.09373794496059418 0.17474552989006042 0.407198041677475 0.7212862372398376 -0.28556129336357117 0.2704885005950928 -0.4668741822242737 0.151531383395195 0.2514723539352417 -0.056447308510541916 -0.05022701248526573 -0.18620365858078003 0.18199169635772705 -0.328185111284256 -0.6171831488609314 0.020838070660829544 -0.0046274131163954735 -0.19306783378124237 0.1995221972465515 -0.38558271527290344 0.2703547477722168 0.16778185963630676
28892552_62486170.xml	0.28205758333206177 -0.09351955354213715 0.12205826491117477 0.32763850688934326 -0.10639948397874832 -0.18732020258903503 0.15659074485301971 0.2793172299861908 -0.12676654756069183 -0.09162931889295578 -0.03220502287149429 0.05625351145863533 -0.14849010109901428 -0.08472653478384018 -0.4023728370666504 0.003532271832227707 0.0403311550617218 -0.23524199426174164 -0.37362542748451233 -0.5084101557731628 -0.17679348587989807 0.0058143832720816135 0.08594595640897751 -0.30626291036605835 -0.19436219334602356 0.1717529296875 0.34352654218673706 -0.42393165826797485 -0.015601163730025291 0.36026817560195923 0.34142619371414185 0.25556454062461853 0.0315774530172348 0.24902930855751038 0.16529123485088348 0.5522637367248535 -0.0033083034213632345 -0.23477376997470856 -0.25023239850997925 -0.0252304095774889 0.1679747998714447 -0.24842095375061035 -0.15285757184028625 0.033984795212745667 -0.30373021960258484 -0.27133819460868835 0.25264403223991394 -0.143320232629776 0.09120047092437744 0.47423210740089417
28892552_62493172.xml	0.1796198934316635 -0.22362950444221497 -0.18152575194835663 0.04137460142374039 -0.05271858721971512 0.10064470022916794 0.30922335386276245 0.24977152049541473 -0.27457889914512634 -0.22307756543159485 0.013930931687355042 -0.050551727414131165 -0.13450299203395844 0.40270349383354187 -0.4075695872306824 -0.02990139275789261 0.30343446135520935 -0.2139318436384201 -0.05355875566601753 -0.0212510097771883 -0.21084851026535034 0.24190272390842438 0.07083452492952347 -0.2899499535560608 -0.2596869468688965 -0.15443141758441925 0.25839900970458984 -0.5629643797874451 0.0881759375333786 0.12733808159828186 -0.13234089314937592 0.08131374418735504 0.05743328854441643 0.29442325234413147 -0.06794265657663345 0.3959452211856842 0.10932944715023041 0.1396859884262085 -0.28628215193748474 0.01200702041387558 0.2512831389904022 -0.21766571700572968 -0.20817947387695312 0.0022449095267802477 -0.39653804898262024 -0.2937603294849396 0.16439440846443176 -0.20982295274734497 0.2959972321987152 0.306281715631485
28892632_62464272.xml	0.13786229491233826 0.15650643408298492 0.12834396958351135 -0.13421879708766937 0.0756545439362526 -0.16175656020641327 0.35515329241752625 0.11986392736434937 0.01431641448289156 -0.10808315128087997 -0.002664490370079875 0.15570230782032013 -0.13732589781284332 -0.02778952568769455 -0.29180216789245605 0.03476487845182419 0.1599530428647995 -0.1690264791250229 0.10304929316043854 -0.11668098717927933 0.07681268453598022 0.09683757275342941 0.06755474209785461 -0.33991992473602295 0.003386240918189287 0.0157049261033535 0.09199172258377075 0.39577892422676086 0.18580232560634613 0.4148351550102234 0.12743040919303894 0.09198642522096634 -0.23816050589084625 0.17784607410430908 -0.11767435818910599 0.42109543085098267 -0.36269280314445496 -0.2914261221885681 0.04737480729818344 0.06536640226840973 -0.011103890836238861 -0.23051875829696655 -0.36606332659721375 -0.0849585011601448 -0.11928761005401611 0.1422230750322342 0.10176914185285568 -0.02381259575486183 -0.22424539923667908 0.5348523259162903
28892632_62469536.xml	0.12961015105247498 -0.10723764449357986 0.14566846191883087 -0.16003763675689697 0.05634216219186783 -0.2446301132440567 0.24859926104545593 -0.09762313216924667 -0.033054418861866 -0.025477230548858643 0.036389220505952835 -0.2645520269870758 0.08876843750476837 0.1709587275981903 -0.4209679067134857 -0.11830344051122665 -0.006845476571470499 -0.2910328209400177 0.35203903913497925 0.007862269878387451 0.3665815591812134 0.1996251791715622 -0.11280471831560135 -0.11916378885507584 -0.15461425483226776 -0.21396151185035706 0.06449820846319199 -0.03225904330611229 0.3315390348434448 0.23715436458587646 -0.1610790491104126 0.13422127068042755 -0.027257127687335014 0.12686584889888763 -0.23043033480644226 0.24183540046215057 -0.24588409066200256 0.09554324299097061 -0.1959037482738495 0.0319252572953701 0.007482953369617462 -0.2337149679660797 -0.34971556067466736 0.2877991497516632 -0.10120740532875061 0.3381490409374237 0.24785634875297546 0.07871635258197784 -0.1393478959798813 0.21337389945983887
28892632_62494762.xml	0.1852705478668213 -0.10288751125335693 -0.0035782286431640387 -0.3528819680213928 -0.18224716186523438 0.11778078228235245 0.20226795971393585 -0.0503968670964241 -0.19010473787784576 -0.07474631071090698 0.3882922828197479 0.03156917914748192 0.06246916577219963 0.33861061930656433 -0.3068709671497345 -0.0004273828526493162 -0.2566874027252197 0.07179714739322662 0.13894183933734894 -0.416668564081192 0.5998272895812988 0.5210198760032654 -0.13324517011642456 -0.019461384043097496 -0.13223765790462494 -0.2695021629333496 0.1804465800523758 -0.3319261372089386 -0.04558884724974632 -0.12686507403850555 -0.1489151567220688 -0.4290466606616974 -0.19146628677845 0.4794061779975891 0.1556359827518463 -0.10382920503616333 -0.12252195179462433 0.1832742989063263 -0.5533930659294128 -0.0035397580359131098 0.30267953872680664 -0.08810312300920486 -0.6348509788513184 0.504633903503418 0.1662304848432541 -0.1628430187702179 0.49046188592910767 -0.23601731657981873 -0.30867061018943787 0.1934826821088791
28892633_62466460.xml	-0.15292397141456604 0.3593173325061798 0.2439126819372177 -0.12403981387615204 -0.20339708030223846 0.04202459380030632 0.12072736769914627 0.1294531524181366 0.28323373198509216 0.003993294667452574 -0.37770354747772217 0.47758948802948 -0.28429847955703735 -0.07690697908401489 -0.2568657696247101 -0.1412084549665451 0.1468505561351776 0.17221157252788544 -0.16852295398712158 -0.24248287081718445 -0.0685904324054718 -0.03664271906018257 0.05965491384267807 -0.31464168429374695 0.13934552669525146 0.5876212120056152 0.015255818143486977 0.2668378949165344 0.2268277406692505 0.1627873331308365 0.2996842861175537 0.10863779485225677 -0.009344259276986122 0.31200525164604187 0.052558012306690216 0.1486363708972931 -0.6277316808700562 -0.11527762562036514 -0.05704345554113388 -0.23591239750385284 -0.07112796604633331 -0.3128127455711365 -0.08207904547452927 -0.04917753115296364 0.12859399616718292 -0.35448041558265686 0.21015693247318268 -0.36500978469848633 -0.09922640770673752 0.3268386423587799
28892633_62471470.xml	-0.2683010995388031 0.2303769737482071 0.11951454728841782 -0.16191427409648895 -0.36854463815689087 -0.2683037221431732 -0.05330613628029823 -0.4681369364261627 0.576330304145813 -0.06338530778884888 -0.24159514904022217 0.1399744302034378 -0.18030543625354767 0.0383385568857193 -0.16976101696491241 -0.1882995367050171 0.23712188005447388 0.2070731669664383 -0.24286778271198273 -0.217918261885643 0.2953413128852844 -0.18318362534046173 -0.18101264536380768 -0.01660127006471157 0.06694918870925903 0.4764604866504669 0.2523610293865204 -0.25240179896354675 0.40016669034957886 0.18070130050182343 0.2770099341869354 0.17118072509765625 -0.24646629393100739 0.122344970703125 -0.014700938016176224 -0.25386112928390503 -0.5149017572402954 -0.03822309151291847 -0.17908906936645508 -0.2621697783470154 0.0025120845530182123 -0.27695339918136597 0.2326168715953827 0.14552707970142365 0.0687391459941864 -0.39363521337509155 0.20660272240638733 -0.1722613126039505 0.03240017220377922 0.4329356551170349
28892633_62492048.xml	-0.09388935565948486 -0.2468360811471939 0.5454984903335571 -0.20693284273147583 -0.06317366659641266 -0.14298970997333527 -0.14770421385765076 0.20385132730007172 0.13301891088485718 0.026256820186972618 -0.02486855909228325 0.1498292237520218 -0.29496392607688904 0.2048044055700302 -0.40866193175315857 -0.28466886281967163 0.1779269129037857 0.14913219213485718 -0.1735897809267044 -0.34177979826927185 0.23045746982097626 -0.17768824100494385 0.10206084698438644 -0.3340403139591217 0.0419839546084404 0.48878470063209534 -0.028897572308778763 -0.07716327160596848 -0.3242737054824829 -0.09709460288286209 -0.06892798095941544 -0.16983933746814728 -0.0370694100856781 0.1765110343694687 0.46006813645362854 0.09102646261453629 -0.48587334156036377 0.0033927715849131346 -0.2999860942363739 -0.6734816431999207 0.13386937975883484 -0.30262911319732666 -0.2621936500072479 -0.1868358850479126 0.07880710065364838 -0.8056091070175171 0.30355244874954224 -0.6592233180999756 -0.2565310299396515 -0.19239981472492218
28892654_62481691.xml	0.5350052118301392 0.014852039515972137 -0.0720360279083252 -0.05423733592033386 -0.5329946279525757 -0.21115939319133759 -0.391459196805954 0.16570647060871124 0.05533372238278389 -0.18638916313648224 -0.5910135507583618 -0.35795438289642334 0.01083874236792326 -0.005297994241118431 -0.2327110767364502 -0.2603066861629486 -0.1627092957496643 -0.1331377625465393 -0.829702615737915 -0.16532117128372192 -0.09243034571409225 0.16507871448993683 0.0921320915222168 -0.5790948867797852 -0.2159734070301056 0.20988236367702484 -0.5680908560752869 -0.664890706539154 0.03613270819187164 -0.17845650017261505 0.4945752024650574 0.3735865354537964 -0.22288057208061218 0.8584195375442505 -0.455384761095047 0.15274953842163086 -0.11187759041786194 -0.08258675783872604 -0.4433819055557251 0.14095337688922882 -0.12078777700662613 -0.36217689514160156 0.24280177056789398 -0.35065770149230957 0.19278927147388458 0.5590246915817261 -0.35960596799850464 -0.1386847048997879 0.28015372157096863 0.3469848930835724
28892654_62486081.xml	0.1389436572790146 -0.2822485566139221 -0.21230903267860413 0.39285245537757874 -0.17753483355045319 -0.37031012773513794 -0.2367929220199585 0.1767871379852295 0.2241142988204956 -0.1420479416847229 -0.44876205921173096 -0.19885559380054474 0.18885771930217743 0.2050303965806961 -0.2628266513347626 0.07318592816591263 -0.21253637969493866 0.04943105950951576 -0.5894982814788818 -0.6820381283760071 -0.15904882550239563 0.03650226071476936 0.06833738833665848 -0.3459208011627197 -0.36787572503089905 0.30811598896980286 -0.6334843635559082 -0.22369015216827393 0.40619218349456787 -0.11463703215122223 0.4145934581756592 0.36707979440689087 0.10278083384037018 0.4322548508644104 -0.2711135447025299 0.03508688509464264 -0.48976072669029236 0.12571313977241516 -0.570138156414032 0.12500154972076416 0.11937591433525085 -0.6030334830284119 0.24867410957813263 -0.044963445514440536 -0.31722819805145264 -0.09485438466072083 -0.12280930578708649 -0.19280824065208435 0.19560591876506805 0.2545625567436218
28892654_62494435.xml	-0.044832147657871246 -0.4169416129589081 -0.30733129382133484 -0.029335511848330498 -0.1819145679473877 0.02696683071553707 0.07351674139499664 0.0939924418926239 0.0996682420372963 -0.09932338446378708 -0.3078369200229645 -0.006386750377714634 0.42391517758369446 0.5904951691627502 -0.5602856874465942 0.42166829109191895 0.05455448850989342 0.23340144753456116 -0.4932570457458496 -0.04261135682463646 -0.2700379192829132 0.12497350573539734 0.0036239326000213623 -0.6036302447319031 -0.3774217963218689 -0.011838549748063087 -0.6502794027328491 -0.27773234248161316 0.3734258711338043 -0.45256224274635315 0.24158963561058044 0.41854342818260193 -0.10366162657737732 0.21877464652061462 -0.20674829185009003 -0.09280218929052353 -0.1167013868689537 0.060142699629068375 -0.7140544652938843 0.02941855974495411 0.09494761377573013 -0.440970778465271 -0.008127802051603794 -0.31969374418258667 -0.3275177478790283 -0.5212103724479675 -0.20689424872398376 -0.2531692385673523 0.3060687184333801 0.14535999298095703
28892670_62464241.xml	0.48539191484451294 0.2489967942237854 0.3436536192893982 0.09727399051189423 -0.4241035282611847 0.4094561040401459 0.40646892786026 0.16071800887584686 -0.079647958278656 0.20090658962726593 -0.34355518221855164 -0.0313589945435524 -0.4209699332714081 0.5389681458473206 -0.09062647074460983 -0.18989428877830505 0.22293461859226227 -0.17258921265602112 -0.1017243042588234 -0.4141828119754791 0.5394646525382996 -0.29370659589767456 0.19411726295948029 -0.35259491205215454 0.6352809071540833 0.2670567035675049 -0.16264382004737854 -0.03723728656768799 -0.3204008936882019 -0.9333815574645996 0.5332775115966797 0.6607370376586914 0.1983606517314911 0.39400342106819153 -0.3720824420452118 -0.0014302630443125963 0.004180831369012594 -0.13255701959133148 -0.43562376499176025 0.2778906524181366 -0.23315249383449554 -0.46814897656440735 -0.47914454340934753 -0.23258967697620392 -0.041122496128082275 0.24507732689380646 0.2362259179353714 -0.17815697193145752 0.015290961600840092 -0.0449676550924778
28892670_62468589.xml	0.5089448690414429 0.23141510784626007 0.34475427865982056 0.18814675509929657 -0.5082059502601624 0.29290926456451416 0.419221967458725 0.15583136677742004 -0.016519151628017426 0.1807885318994522 -0.3205029368400574 -0.09554707258939743 -0.32221412658691406 0.538119912147522 -0.1525377482175827 -0.2716575264930725 0.12658676505088806 -0.13436685502529144 -0.12395837157964706 -0.3483280837535858 0.6301716566085815 -0.3501147925853729 0.2378339171409607 -0.2447689175605774 0.719785749912262 0.21416503190994263 -0.13266810774803162 -0.16710536181926727 -0.33981403708457947 -0.9593020081520081 0.4227212071418762 0.6785649657249451 0.2918280363082886 0.42916885018348694 -0.3630119562149048 -0.0759342759847641 0.14745117723941803 -0.15377533435821533 -0.4922173023223877 0.3388720750808716 -0.14660000801086426 -0.4946945905685425 -0.4250178635120392 -0.12142661213874817 -0.09312064945697784 0.2680354714393616 0.12625649571418762 -0.23601911962032318 0.03141086548566818 0.09626739472150803
28892670_62476327.xml	0.349227637052536 0.389803022146225 0.24597197771072388 0.29222068190574646 -0.5065149664878845 0.31129348278045654 0.38731157779693604 -0.08190219849348068 -0.020422520115971565 0.1669391244649887 -0.2245675027370453 -0.07210186123847961 -0.4544375240802765 0.43671914935112 -0.17490260303020477 -0.0675494596362114 0.2660001218318939 -0.1637568324804306 -0.11801090836524963 -0.5038446187973022 0.7617574334144592 -0.3979058861732483 0.11549747735261917 -0.29414233565330505 0.601508378982544 0.16655808687210083 -0.07563810795545578 -0.1318512111902237 -0.3156300485134125 -1.0080552101135254 0.6203168630599976 0.4821762144565582 0.10826127231121063 0.38465726375579834 -0.28708088397979736 -0.2031959444284439 0.02053670957684517 -0.3149363100528717 -0.44185829162597656 0.1653790920972824 -0.16455766558647156 -0.4266153573989868 -0.392047256231308 -0.17261479794979095 -0.11377961188554764 0.23158632218837738 0.2872186303138733 -0.2341829091310501 -0.03401975333690643 -0.08216217160224915
28892670_62484168.xml	0.14097310602664948 0.3351472020149231 0.14679299294948578 0.20161683857440948 -0.47504177689552307 0.4913002848625183 0.5695528388023376 0.11981811374425888 0.02675539441406727 0.10530112683773041 -0.26463985443115234 -0.17426249384880066 -0.2667926847934723 0.38566556572914124 -0.01894497685134411 -0.044569410383701324 0.3246592581272125 0.030530663207173347 0.0607018806040287 -0.35834792256355286 0.7192686796188354 -0.42300787568092346 0.18968190252780914 -0.37157711386680603 0.4449261426925659 -0.11360035836696625 -0.08798874914646149 -0.29910898208618164 -0.38712140917778015 -1.0368480682373047 0.5198608636856079 0.5956183075904846 0.049771253019571304 0.30061474442481995 -0.4402460753917694 -0.4235917031764984 0.09290795028209686 -0.3627208471298218 -0.5651775598526001 0.010484431870281696 -0.15373414754867554 -0.4241688549518585 -0.5959435105323792 -0.12328910082578659 -0.024826910346746445 0.08712456375360489 0.1347714066505432 -0.40179967880249023 0.06271404027938843 0.035393547266721725
28892670_62491572.xml	0.32613900303840637 0.3189389705657959 0.09246229380369186 0.02197089046239853 -0.4350947141647339 0.20981565117835999 0.33566316962242126 -0.0855572447180748 -0.10653644800186157 0.16105036437511444 -0.4680402874946594 -0.18572302162647247 -0.5342957973480225 0.4423418939113617 -0.04114590585231781 -0.12269385904073715 0.35612326860427856 -0.03318404406309128 -0.21794036030769348 -0.480859637260437 0.7385529279708862 -0.4478420317173004 -0.030784983187913895 -0.26766473054885864 0.643615186214447 0.2715451121330261 -0.045159608125686646 -0.07758049666881561 -0.4459253251552582 -0.8303952813148499 0.528441309928894 0.6085843443870544 0.046974193304777145 0.35581037402153015 -0.37011465430259705 -0.14098544418811798 -0.02393382415175438 -0.15064559876918793 -0.49126455187797546 0.16935250163078308 -0.2915443778038025 -0.3575228750705719 -0.3757968842983246 -0.18602459132671356 0.04120589420199394 0.2897128760814667 0.1150977835059166 -0.19258293509483337 -0.00033351723686791956 0.015030751936137676
28892716_62465067.xml	-0.2511342763900757 0.4870230555534363 0.9612340927124023 0.6998780369758606 -0.004694350529462099 0.19964313507080078 0.06252932548522949 -0.08518703281879425 -0.06917846202850342 0.2108178287744522 -0.7125437259674072 -0.25626039505004883 -0.10641593486070633 0.11250799149274826 -0.454181045293808 -0.2909190356731415 -0.2021782249212265 -1.237073302268982 -0.3717740774154663 -0.7468894720077515 0.11576581001281738 0.039113786071538925 -0.22575214505195618 -0.32197269797325134 -0.274482786655426 0.37075963616371155 -0.1688826084136963 -0.6478335857391357 0.011591596528887749 -0.9738879799842834 0.06614957004785538 0.33425772190093994 -0.15596161782741547 0.5688974857330322 -0.036896053701639175 0.7670688033103943 -0.19087913632392883 0.44510623812675476 -0.2395058125257492 0.38547828793525696 -0.3704231381416321 -0.15169695019721985 -0.4291475713253021 0.047547366470098495 0.2047477513551712 0.3272760212421417 0.8546432256698608 -0.012125582434237003 -0.2806999385356903 -0.17084279656410217
28892716_62470750.xml	-0.1601400226354599 0.26439765095710754 1.1570740938186646 0.64997798204422 -0.285228967666626 0.09700296819210052 -0.01657460629940033 -0.1289314478635788 -0.09513396769762039 0.20036299526691437 -0.5952139496803284 -0.4758092761039734 0.03362460061907768 0.16544504463672638 -0.3168533742427826 -0.3627758324146271 -0.4292137622833252 -1.3153005838394165 -0.3632700741291046 -0.7032400369644165 0.15098635852336884 0.040660105645656586 -0.2681313157081604 -0.08021154254674911 -0.40686163306236267 0.1550016850233078 -0.12791509926319122 -0.9564368724822998 -0.09429926425218582 -0.7704871892929077 -0.06827029585838318 0.3961876630783081 0.040685251355171204 0.46838486194610596 -0.022211072966456413 0.7001391649246216 -0.23207971453666687 0.7012015581130981 -0.4703136384487152 0.3226087987422943 -0.27619245648384094 -0.32012125849723816 -0.31269368529319763 0.13972221314907074 0.22235584259033203 0.3200755715370178 0.8470625877380371 -0.05245652049779892 -0.16551977396011353 -0.20757748186588287
28892716_62493544.xml	-0.2683646082878113 0.32244953513145447 1.042030930519104 0.6757599711418152 -0.04452250897884369 0.04252573847770691 0.02705749310553074 -0.17007513344287872 0.12628944218158722 0.2929360270500183 -0.6611506938934326 -0.5552582144737244 -0.09211453795433044 0.3021184504032135 -0.4679356813430786 -0.4254693388938904 -0.3428884446620941 -1.2488466501235962 -0.3451884984970093 -0.6015999913215637 0.05779293179512024 0.038315147161483765 -0.279427170753479 -0.13624154031276703 -0.1665312498807907 0.06853754073381424 -0.06014035642147064 -1.0345674753189087 0.0654587596654892 -1.0238699913024902 -0.12273047119379044 0.27588415145874023 0.034808166325092316 0.6073296666145325 -0.2597683370113373 0.5396446585655212 0.0029646840412169695 0.8309916257858276 -0.32938697934150696 0.3578287959098816 -0.2738148868083954 -0.16490109264850616 -0.09110494703054428 0.050503410398960114 0.18090827763080597 0.5005762577056885 0.8861075639724731 -0.17970938980579376 -0.13057012856006622 -0.052422016859054565
28892801_62465233.xml	0.3031649589538574 0.26429101824760437 0.1058838814496994 -0.02413996309041977 -0.07890418916940689 0.15009805560112 0.4915766417980194 0.05103674903512001 0.1415727585554123 -0.19158196449279785 0.2215040624141693 0.06362602859735489 -0.1722126454114914 -0.1248207837343216 -0.3710670471191406 0.05978387966752052 0.1978568583726883 -0.08186962455511093 0.06553889065980911 0.0800313726067543 0.13729804754257202 0.08290191739797592 -0.03415399789810181 -0.22487401962280273 -0.016872189939022064 -0.13998769223690033 0.050816405564546585 0.16363485157489777 0.18226797878742218 0.2208971232175827 0.045648377388715744 -0.1028556302189827 -0.17420005798339844 0.37864020466804504 -0.05727009102702141 0.10548815876245499 -0.20562683045864105 -0.2907598316669464 0.031085997819900513 0.011309085413813591 0.03336441516876221 0.030249737203121185 -0.4210582375526428 0.021458717063069344 -0.349376916885376 0.051806651055812836 0.18255938589572906 0.042404986917972565 -0.28605014085769653 0.5313857197761536
28892801_62470426.xml	0.288035124540329 -0.06091002747416496 0.04145895317196846 0.001964649884030223 -0.04396362602710724 0.02020537108182907 0.3844963014125824 -0.012375515885651112 0.07769006490707397 -0.13422256708145142 0.24604929983615875 -0.20992876589298248 -0.11495216935873032 0.006723193451762199 -0.3777778148651123 -0.16466401517391205 0.06989069283008575 -0.049171119928359985 0.20141826570034027 0.1264989972114563 0.324603408575058 0.026877395808696747 -0.12088494002819061 -0.05432108789682388 -0.013894954696297646 -0.30798012018203735 0.028547730296850204 -0.19891387224197388 0.1744377166032791 0.14656299352645874 -0.1216200664639473 0.009454024024307728 0.11214454472064972 0.2761552631855011 -0.18459054827690125 -0.034920722246170044 -0.11353614181280136 -0.02205168642103672 -0.2666803300380707 -0.004058256279677153 0.1900058090686798 -0.04537979140877724 -0.40245744585990906 0.3030499815940857 -0.2949366569519043 0.21093346178531647 0.22183749079704285 0.037642817944288254 -0.14060644805431366 0.34159842133522034
28892801_62478793.xml	0.24398279190063477 0.3727313280105591 -0.0776493176817894 -0.0086573651060462 -0.09783502668142319 -0.20140288770198822 0.5047472715377808 -0.14486593008041382 0.11337196826934814 -0.23093387484550476 0.23121178150177002 -0.08041432499885559 -0.12659570574760437 -0.14374011754989624 -0.3525930941104889 0.06339028477668762 0.18224447965621948 -0.22074346244335175 0.03427445515990257 -0.02871452458202839 0.20152074098587036 0.15882892906665802 -0.17813929915428162 -0.11227039247751236 -0.09968404471874237 -0.2131330668926239 0.18355529010295868 0.14999347925186157 0.10735497623682022 0.21329882740974426 0.08399223536252975 -0.1848737746477127 -0.28890126943588257 0.29332610964775085 -0.13679906725883484 0.09419240802526474 -0.2435077279806137 -0.31297609210014343 -0.03456118330359459 -0.1720825880765915 0.023371005430817604 0.0550241619348526 -0.32665392756462097 -0.04832039400935173 -0.3332885503768921 0.0967869684100151 0.2556964159011841 -0.004427928477525711 -0.34137117862701416 0.4170871675014496
28892801_62496802.xml	0.0597921684384346 0.2170412242412567 -0.18062768876552582 -0.551303505897522 -0.16905514895915985 0.3281668424606323 0.7111873030662537 0.0393756739795208 -0.21633505821228027 0.008970174007117748 -0.01194384228438139 -0.23571081459522247 -0.30463215708732605 0.2891886532306671 -0.5716063976287842 -0.10508179664611816 -0.1074189767241478 -0.16930045187473297 0.48560085892677307 0.057775214314460754 0.5031352043151855 0.4479139447212219 -0.1536996215581894 0.15704557299613953 0.24240191280841827 -0.3314698040485382 0.013433742336928844 -0.3728333115577698 -0.036153100430965424 -0.6408182382583618 0.014113216660916805 -0.37346306443214417 -0.005252278409898281 0.44390764832496643 -0.13435804843902588 0.49587109684944153 -0.04247536510229111 0.5575928688049316 -0.7433940768241882 -0.4324187636375427 0.33171460032463074 -0.20931899547576904 -0.527935802936554 0.182478666305542 -0.19493229687213898 -0.019516857340931892 0.236065074801445 -0.30610373616218567 -0.27427443861961365 -0.24634189903736115
28892857_62464972.xml	0.18196231126785278 0.30206939578056335 0.0989125445485115 -0.29789233207702637 -0.1801857352256775 0.04050693288445473 0.328412264585495 0.08318979293107986 0.26149699091911316 -0.17015472054481506 -0.15222564339637756 0.16196683049201965 -0.15523488819599152 -0.04926609620451927 -0.2427406907081604 0.10843183100223541 -0.06199138984084129 0.045755237340927124 -0.1427093893289566 -0.14803211390972137 -0.11501595377922058 0.12879443168640137 0.17678776383399963 -0.4139862358570099 -0.05037310719490051 0.23434478044509888 0.04177779704332352 0.5258758664131165 0.370310515165329 0.40965962409973145 0.3040298521518707 0.2655428647994995 -0.2303955852985382 0.5109671354293823 -0.07584983110427856 -0.04394318535923958 -0.5092865228652954 -0.2381647229194641 0.18310880661010742 0.08745077252388 -0.04620174691081047 0.08443582057952881 -0.06637203693389893 -0.26648542284965515 -0.1465415209531784 -0.250252366065979 -0.02545514516532421 -0.09398949891328812 -0.2116297334432602 0.7413954138755798
28892399_62470077.xml	0.3023073375225067 0.08194602280855179 -0.15452595055103302 -0.16618163883686066 -0.0167609341442585 -0.3131769001483917 0.4991852939128876 -0.38153764605522156 0.1415417343378067 -0.33539092540740967 0.06163092702627182 -0.18900758028030396 -0.21849322319030762 0.24123011529445648 -0.15807443857192993 -0.05351593717932701 -0.05779431760311127 0.022628359496593475 0.2931373119354248 -0.0003386777825653553 0.3880070745944977 -0.12539008259773254 -0.02793700248003006 0.010992532595992088 -0.10272014141082764 -0.30872321128845215 0.23752307891845703 -0.1363067775964737 0.39461076259613037 0.2551199793815613 -0.1414768546819687 0.06191226467490196 -0.1026102676987648 0.210299551486969 -0.19909842312335968 -0.32172197103500366 -0.28152015805244446 -0.33264872431755066 -0.06906784325838089 0.1092250868678093 0.12248066812753677 0.004197608679533005 -0.2380615472793579 0.41715243458747864 -0.3054257333278656 0.1809006780385971 0.14310315251350403 0.27137741446495056 -0.33818283677101135 0.4099750220775604
28892543_62469436.xml	-0.03202187642455101 0.2775084674358368 0.15929388999938965 0.21806900203227997 0.3161033093929291 -0.6525982022285461 0.04502879083156586 0.041710905730724335 0.21942642331123352 -0.23775866627693176 0.07077988982200623 0.09131718426942825 0.10115381330251694 0.045347508043050766 -0.43596142530441284 0.2537200152873993 0.12687557935714722 -0.0015392032219097018 -0.36450985074043274 -0.10346164554357529 -0.17135806381702423 -0.0554201602935791 0.11549755185842514 -0.3624071180820465 0.23514921963214874 0.3614858388900757 0.299273282289505 0.26611948013305664 0.0942830890417099 0.17325977981090546 0.3716907799243927 0.07835475355386734 0.5047882795333862 0.24522997438907623 0.014757937751710415 0.15384541451931 -0.7700581550598145 -0.41602030396461487 -0.48734816908836365 0.25869083404541016 0.3304288685321808 0.2569485604763031 -0.5461977124214172 -0.34307339787483215 0.26837560534477234 -0.48708704113960266 0.03080618754029274 -0.3020482659339905 0.19467991590499878 0.3273877203464508
28892654_62483661.xml	0.15189294517040253 -0.16007909178733826 -0.1566792130470276 0.39488503336906433 -0.14401347935199738 -0.29551032185554504 -0.2021002620458603 0.1356872022151947 0.23090678453445435 -0.2490125149488449 -0.5439427495002747 0.08396678417921066 0.09655606001615524 0.040286608040332794 -0.3600568175315857 0.24614888429641724 -0.16459916532039642 -0.054796721786260605 -0.653315544128418 -0.6663632392883301 -0.22388526797294617 0.054106954485177994 0.11247171461582184 -0.5249149203300476 -0.3589663803577423 0.4402550756931305 -0.785903811454773 0.11283553391695023 0.3682498335838318 0.02659069187939167 0.47081881761550903 0.233317568898201 -0.08216600120067596 0.4934738576412201 -0.18883010745048523 0.21236708760261536 -0.45154184103012085 -0.18714077770709991 -0.40464910864830017 0.04011238366365433 0.0671130046248436 -0.488389790058136 -0.00316591071896255 -0.292341947555542 -0.29065316915512085 -0.172434002161026 -0.15280529856681824 -0.20711374282836914 0.14830268919467926 0.10826501995325089
28892857_62471274.xml	0.11146924644708633 -0.0010999650694429874 -0.003231409937143326 -0.3652498424053192 -0.21808435022830963 0.02410069666802883 0.16055811941623688 -0.020495502278208733 0.2538694441318512 -0.1800805628299713 -0.17686311900615692 -0.06477218866348267 -0.014484365470707417 0.17328256368637085 -0.30991291999816895 -0.06297081708908081 -0.263516366481781 0.09176117181777954 0.015970343723893166 -0.14019402861595154 0.1140666976571083 0.14012578129768372 0.07898318767547607 -0.23859448730945587 -0.09335185587406158 0.14402414858341217 -0.039206597954034805 0.12973596155643463 0.43714380264282227 0.3054375946521759 0.07558005303144455 0.32224979996681213 -0.07867027074098587 0.43581923842430115 -0.09601284563541412 -0.232064887881279 -0.2615794539451599 -0.013664442114531994 -0.014450655318796635 0.12478284537792206 0.10152074694633484 -0.008292904123663902 -0.1277754157781601 0.08907482773065567 -0.14547927677631378 -0.14548154175281525 -0.008065689355134964 -0.0857769027352333 -0.05895397439599037 0.3631882965564728
28893200_62485371.xml	-0.25043559074401855 -0.08534180372953415 -0.17893542349338531 -0.3464241921901703 0.33441972732543945 0.0532241053879261 0.38085392117500305 -0.1823914498090744 -0.12944886088371277 0.15764674544334412 -0.16514544188976288 0.17571043968200684 0.2170974463224411 0.5169315338134766 -0.17887499928474426 -0.1423826515674591 0.26325204968452454 0.2544192671775818 0.06892572343349457 0.07750611007213593 0.32892653346061707 0.43240272998809814 -0.2053035944700241 -0.258245050907135 -0.03806774690747261 -0.244271919131279 0.13283812999725342 -0.19566766917705536 -1.1622230886132456e-05 -0.1874035745859146 -0.14989730715751648 0.11578138172626495 -0.0750972330570221 0.020788542926311493 -0.24549724161624908 0.06362780928611755 -0.3280644416809082 0.2969348728656769 -0.2659568786621094 -0.6822485327720642 0.05384340509772301 -0.14963982999324799 -0.7674006819725037 0.15742287039756775 0.7405120134353638 -0.16867420077323914 0.28639692068099976 -0.44143417477607727 -0.2289605438709259 0.5189120173454285
28893286_62484920.xml	0.09968078136444092 0.3061119019985199 0.1875743269920349 -0.4435354769229889 -0.286396861076355 -0.05276832729578018 0.2846258580684662 -0.006104223430156708 0.1718839555978775 -0.14743825793266296 -0.1438385248184204 0.0071458457969129086 0.02173701301217079 0.09474889934062958 -0.33612075448036194 0.07721001654863358 -0.1806103140115738 -0.10660888999700546 -0.11444946378469467 -0.1983877718448639 -0.07014572620391846 0.23222476243972778 0.08803471177816391 -0.31161195039749146 -0.09523093700408936 0.2750614285469055 0.008127192966639996 0.4702528715133667 0.25958168506622314 0.32988494634628296 0.1535634994506836 0.22590216994285583 -0.18517084419727325 0.5328982472419739 -0.0491427406668663 -0.07395816594362259 -0.3872499465942383 -0.15683816373348236 0.034009285271167755 -0.042089443653821945 -0.08703610301017761 0.18832825124263763 -0.0762777253985405 -0.5242376923561096 -0.0501074343919754 -0.25081056356430054 0.12817466259002686 -0.3040717542171478 -0.29984718561172485 0.41872283816337585
28893554_62479877.xml	0.07113460451364517 -0.29745951294898987 0.2788538336753845 -0.28537774085998535 0.06092067435383797 -0.3328910768032074 0.34112659096717834 -0.06005166471004486 -0.048218294978141785 0.0352567657828331 -0.105866938829422 -0.12285572290420532 0.22935746610164642 0.3615884482860565 -0.48616117238998413 0.04356188699603081 0.04618596285581589 0.06660809367895126 0.27793022990226746 0.01161721907556057 0.38625380396842957 -0.0009100296883843839 -0.23714692890644073 -0.07546019554138184 0.04437664896249771 -0.10839702188968658 0.005586481653153896 0.17441917955875397 0.2924574017524719 0.42774641513824463 -0.17644500732421875 0.3647926151752472 -0.004654636140912771 0.22239847481250763 -0.29337990283966064 0.2526586651802063 -0.10838360339403152 -0.04582357034087181 -0.2384113371372223 0.017304185777902603 -0.011364267207682133 -0.1827828586101532 -0.3741748332977295 0.12481345981359482 -0.2173127681016922 0.1304250806570053 0.1794758141040802 -0.11807848513126373 -0.09995000064373016 0.2960141599178314
28893724_62481065.xml	0.11875487864017487 0.36504843831062317 -0.08891011029481888 -0.21411114931106567 -0.28732427954673767 0.02999906800687313 0.00769281480461359 0.0906095877289772 0.411884069442749 -0.3692242503166199 -0.08253832906484604 -0.29872167110443115 -0.31130093336105347 -0.19914518296718597 -0.3978107273578644 0.04862923175096512 -0.5041177868843079 0.008371071889996529 -0.23278136551380157 -0.3141632378101349 -0.268511563539505 0.11438310146331787 0.11149067431688309 0.31766289472579956 -0.028238194063305855 -0.05608401075005531 -0.18611043691635132 0.3157139718532562 0.5304650664329529 0.28145888447761536 0.027772359549999237 0.22637537121772766 0.058830708265304565 0.35034069418907166 0.0809384286403656 -0.14440414309501648 -0.2589828372001648 -0.09716297686100006 0.19739346206188202 0.23679876327514648 -0.22604422271251678 0.07850901037454605 -0.2931945323944092 -0.15323559939861298 -0.5022178292274475 -0.07712773978710175 -0.25083357095718384 -0.19846077263355255 0.26869115233421326 0.34594467282295227
28893862_62489734.xml	0.060137927532196045 0.3019823431968689 -0.289642333984375 -0.34030187129974365 0.14308848977088928 -0.19987700879573822 -0.1953328549861908 -0.11324752122163773 0.2314455360174179 0.034400057047605515 0.035485830157995224 -0.14449338614940643 -0.1508801281452179 0.26063019037246704 -0.46510064601898193 0.08553508669137955 0.3024289309978485 0.34237703680992126 0.07397125661373138 -0.20276176929473877 0.01900671049952507 0.22555522620677948 -0.09539356827735901 0.11941301822662354 0.043596815317869186 -0.12427756190299988 0.22666825354099274 0.0871632769703865 0.3527434766292572 0.029098525643348694 0.10543367266654968 0.1996193528175354 -0.36633938550949097 0.44138190150260925 -0.026523251086473465 -0.1672428697347641 -0.4768333435058594 0.07435982674360275 0.09255020320415497 0.07727005332708359 -0.2464812994003296 0.2762486934661865 -0.4959820508956909 -0.19556079804897308 0.6031058430671692 0.008468248881399632 -0.15571467578411102 -0.25762397050857544 -0.11204738914966583 0.5320073366165161
28894110_62482968.xml	0.2121427059173584 0.06860686093568802 0.2752535343170166 0.1926863193511963 -0.22762274742126465 0.3735824525356293 0.21610049903392792 -0.04024062678217888 0.2627885937690735 0.07595249265432358 0.28475022315979004 -0.34890440106391907 -0.40288662910461426 -0.006260118447244167 -0.2859887480735779 0.035931508988142014 0.13764625787734985 -0.03614834323525429 0.23378868401050568 -0.44583314657211304 0.18032892048358917 -0.5829070210456848 -0.2870142459869385 0.4554755985736847 0.5568603873252869 -0.19119107723236084 -0.3486253023147583 0.20089662075042725 -0.014786592684686184 -0.30329999327659607 -0.03387420251965523 0.3713952600955963 0.20680220425128937 -0.012702749110758305 0.13213348388671875 -0.2976420223712921 -0.34924033284187317 0.41175907850265503 -0.0834374725818634 -0.12603731453418732 -0.5004562735557556 -0.43886232376098633 -0.5372798442840576 -0.37888941168785095 -0.37001174688339233 0.33458852767944336 0.22711847722530365 -0.13906872272491455 0.07527800649404526 0.26541340351104736
28894458_62470894.xml	-0.018254030495882034 0.31378528475761414 -0.19712747633457184 -0.3203047811985016 -0.4716014564037323 -0.012884359806776047 0.3774104118347168 -0.33334970474243164 0.3379434049129486 -0.1793683022260666 -0.1843877136707306 0.15813972055912018 0.09985440224409103 0.15030471980571747 -0.3739679157733917 0.1724703162908554 -0.05479535460472107 -0.038342900574207306 -0.18303360044956207 -0.08980666846036911 0.29456982016563416 -0.024354565888643265 -0.31440243124961853 0.07507632672786713 0.05790100246667862 0.3727506995201111 -0.004789706785231829 -0.19127684831619263 0.02605835162103176 0.14411303400993347 0.16141587495803833 0.2677513360977173 -0.1453118622303009 0.4329535961151123 -0.18228328227996826 -0.1657266467809677 -0.25734683871269226 -0.12543885409832 -0.10612411051988602 -0.026963969692587852 -0.4812278747558594 -0.05945926904678345 -0.08739056438207626 0.007917922921478748 -0.3650462329387665 -0.2458241730928421 0.20083341002464294 -0.19149070978164673 -0.04172636196017265 0.2708433270454407
28894652_62468446.xml	0.0783454105257988 -0.13017050921916962 0.020856088027358055 -0.24432016909122467 0.03679296374320984 -0.1023549735546112 0.3405655026435852 -0.070569708943367 -0.10919271409511566 -0.03823531046509743 0.1913701742887497 -0.2188621610403061 0.04409525915980339 0.16779018938541412 -0.34372198581695557 -0.025934426113963127 0.070297971367836 -0.14223217964172363 0.2531861960887909 0.026447687298059464 0.29590117931365967 0.20457735657691956 -0.046621374785900116 -0.09113308787345886 -0.036371905356645584 -0.1448983997106552 0.08539356291294098 -0.01002559345215559 0.2688348889350891 0.12497727572917938 -0.05444151908159256 0.17202001810073853 -0.011913514696061611 0.10605349391698837 -0.2577424943447113 0.17875954508781433 -0.25882452726364136 0.055060941725969315 -0.25849589705467224 0.17828527092933655 0.11224833875894547 -0.27060970664024353 -0.33843645453453064 0.28401631116867065 -0.2779110074043274 0.15920580923557281 0.14239244163036346 0.1522117555141449 -0.010977677069604397 0.38219887018203735
28895003_62484630.xml	0.05823449790477753 0.44384878873825073 0.2702600657939911 0.06729759275913239 -0.2354910969734192 -0.24037592113018036 0.0876675546169281 -0.27747994661331177 -0.1534225195646286 0.3176150321960449 -0.38498979806900024 0.015751732513308525 0.06729725003242493 0.25647932291030884 -0.0665588229894638 0.026239918544888496 -0.0271486584097147 -0.2797246277332306 -0.6117768287658691 -0.33088603615760803 0.13310031592845917 0.23206043243408203 -0.31081199645996094 0.16960851848125458 -0.04099666699767113 0.8904187083244324 -0.2580678164958954 0.17982342839241028 -0.043053582310676575 -0.09005315601825714 0.5010635256767273 0.6682895421981812 0.654697060585022 0.6050152778625488 -0.12925809621810913 -0.002661303849890828 -0.4502682387828827 -0.269228458404541 -0.27507323026657104 -0.09887543320655823 -0.5643091797828674 -0.7305060625076294 -0.3944304287433624 -0.46149370074272156 -0.27184322476387024 -0.652489423751831 0.33425596356391907 -0.27597081661224365 -0.0059003992937505245 0.07085980474948883
28895133_62464590.xml	-0.12835261225700378 0.24886561930179596 0.41693058609962463 -0.1350419819355011 -0.2419378161430359 -0.35216423869132996 0.5458340644836426 -0.04370266944169998 0.15421922504901886 0.27464666962623596 -0.06489209830760956 0.5274158716201782 -0.16151918470859528 -0.07717382907867432 0.07218745350837708 -0.09480778872966766 0.33787694573402405 0.7281287908554077 -0.6683154106140137 0.08594624698162079 0.18632298707962036 -0.3347005844116211 -0.06863280385732651 0.3371715545654297 0.561661958694458 0.8786220550537109 -0.3328399360179901 0.18438975512981415 0.05614342540502548 0.09273160994052887 -0.08861660957336426 0.30373430252075195 0.9402616024017334 0.6699701547622681 0.009383459575474262 -0.30902227759361267 -0.6199133396148682 -0.007028691004961729 -0.6684564352035522 -0.29536107182502747 -0.05743573233485222 -0.23178446292877197 -0.25657135248184204 -0.034690067172050476 -0.46988531947135925 -0.28404858708381653 0.7019132375717163 -0.9476497173309326 -0.1459294557571411 0.5927543044090271
28892857_62489866.xml	-0.07933410257101059 -0.24997594952583313 -0.3746809959411621 -0.6427189111709595 -0.18770042061805725 0.31006500124931335 0.4109015464782715 -0.41953396797180176 -0.10813161730766296 -0.03991270810365677 0.12712378799915314 0.3935602605342865 0.33772531151771545 0.3478710651397705 -0.3727155029773712 0.37061846256256104 0.0637659877538681 0.14953607320785522 -0.01684766262769699 0.00010506347462069243 0.17877432703971863 0.2610657215118408 -0.09409524500370026 -0.2622244656085968 0.0485466793179512 -0.1720387190580368 0.24397210776805878 -0.1844222992658615 0.06901974976062775 -0.2958207428455353 0.06802422553300858 -0.06846432387828827 -0.40818703174591064 0.03590487688779831 -0.040328096598386765 -0.059235233813524246 -0.2571549117565155 -0.022144155576825142 -0.4693721830844879 -0.2257133573293686 0.0971919372677803 -0.04680923372507095 -0.3142107129096985 0.12960173189640045 0.05079713836312294 -0.766030490398407 0.2297133058309555 -0.12273439764976501 0.2645365297794342 0.45133692026138306
28892866_62464394.xml	-0.04778837040066719 0.3756975531578064 0.3947257697582245 -0.10118016600608826 -0.0799296498298645 -0.12394632399082184 0.20730489492416382 -0.016794171184301376 0.23329299688339233 -0.025122670456767082 -0.01492725033313036 0.024899203330278397 -0.2183622270822525 -0.23339404165744781 -0.47117647528648376 -0.15218587219715118 0.22605763375759125 -0.13807962834835052 0.04013989865779877 0.029321253299713135 0.10477655380964279 0.054616529494524 -0.06625257432460785 -0.1693050116300583 -0.025441545993089676 0.15009650588035583 0.04762895777821541 0.4446376860141754 0.2972463369369507 0.4511027932167053 0.07507779449224472 0.10789723694324493 -0.03362753614783287 -0.030533697456121445 0.04479533061385155 0.15899279713630676 -0.25166475772857666 -0.07770835608243942 0.18770922720432281 -0.14783398807048798 -0.014474964700639248 -0.31319597363471985 -0.38585197925567627 -0.03354038670659065 -0.13535046577453613 0.2962709963321686 0.11047468334436417 0.038678206503391266 -0.22313503921031952 0.5950789451599121
28892866_62470876.xml	-0.1393597573041916 0.0016094876918941736 0.45386597514152527 -0.09826555103063583 -0.2368428111076355 -0.16046656668186188 0.053138285875320435 -0.06543909013271332 0.09223850816488266 0.08520647138357162 0.09538577497005463 -0.09316875040531158 -0.026866044849157333 0.05149158090353012 -0.44457095861434937 -0.2839750051498413 0.14730475842952728 0.014989004470407963 0.18883360922336578 -0.0810500904917717 0.33941587805747986 0.14971500635147095 -0.3046620786190033 0.038582898676395416 -0.19770760834217072 -0.0687340721487999 0.28708893060684204 0.02473851665854454 0.22022446990013123 0.5741047263145447 -0.16193582117557526 0.16272269189357758 0.0414140522480011 0.02962453104555607 0.23266515135765076 0.1795821636915207 0.014187298715114594 0.004845259711146355 -0.1753278523683548 -0.07767559587955475 0.14487770199775696 -0.5771451592445374 -0.41858628392219543 0.17077898979187012 -0.14922143518924713 0.2836341857910156 0.19900007545948029 -0.0638333261013031 -0.15160676836967468 0.456991970539093
28892866_62486305.xml	-0.37867653369903564 0.18248909711837769 0.18563710153102875 -0.2653123438358307 0.15320993959903717 0.13448330760002136 0.4012279212474823 0.017872946336865425 0.09776042401790619 0.20677079260349274 -0.026826202869415283 -0.38937583565711975 0.09951043128967285 0.5084705352783203 -0.6079751253128052 -0.11561082303524017 0.35170841217041016 -0.11948727071285248 0.1385558694601059 0.3895065486431122 0.17622026801109314 0.18953022360801697 -0.12720562517642975 0.010403202846646309 -0.14234544336795807 -0.505668580532074 0.06453965604305267 -0.28586214780807495 0.25488772988319397 -0.5131862163543701 -0.24019216001033783 0.014045977964997292 0.05820660665631294 -0.26583948731422424 -0.0851045474410057 0.10433287173509598 0.1963941603899002 0.40652552247047424 -0.05890848487615585 -0.8616499304771423 0.2939969301223755 -0.3478085994720459 -0.7123939394950867 -0.007496350910514593 -0.2370954006910324 -0.20624811947345734 0.1438276618719101 -0.20602743327617645 -0.0870216116309166 0.36590373516082764
28892866_62492955.xml	-0.07087565958499908 0.37743815779685974 0.1189689040184021 -0.1564759761095047 -0.3451234698295593 -0.06704163551330566 0.10271889716386795 -0.1814652979373932 0.19013985991477966 0.13356293737888336 0.17005591094493866 -0.4866659641265869 -0.3490943908691406 0.08238648623228073 -0.16087780892848969 -0.23529690504074097 0.10872850567102432 -0.05875537544488907 -0.013799866661429405 -0.2026928961277008 0.36393383145332336 0.2801087200641632 -0.5279089212417603 0.3349926471710205 -0.3042570948600769 -0.3017154037952423 0.4603004455566406 -0.1276600956916809 -0.2023244947195053 0.4772528409957886 -0.007724963128566742 0.14132457971572876 -0.28795090317726135 0.15039946138858795 0.104318767786026 0.10894894599914551 0.0051390863955020905 0.39514726400375366 -0.030638430267572403 -0.2743886411190033 0.024229329079389572 -0.4196687638759613 -0.21984192728996277 -0.11567165702581406 -0.10250802338123322 0.5288053154945374 0.006472168490290642 -0.082366943359375 -0.3201494812965393 0.9280034899711609
28892918_62464057.xml	0.2652549743652344 0.1522422581911087 0.320255309343338 -0.016864625737071037 -0.10965828597545624 0.028471894562244415 0.40039584040641785 0.0034361390862613916 0.25478073954582214 -0.22004419565200806 0.036232735961675644 0.04769473150372505 -0.21114258468151093 -0.3064228892326355 -0.3959982097148895 0.01577172987163067 0.14892558753490448 -0.028426682576537132 0.08512157201766968 -0.0075493911281228065 0.3270728290081024 -0.055534422397613525 -0.052151963114738464 -0.30830901861190796 0.1292494386434555 -0.0139350900426507 -0.16686099767684937 0.3728812038898468 0.15179425477981567 0.5248720049858093 0.09106078743934631 -0.04681197926402092 -0.23268593847751617 0.28853774070739746 -0.12291604280471802 0.14571182429790497 -0.16983620822429657 -0.24734504520893097 0.16191956400871277 -0.08013998717069626 -0.015804387629032135 0.023750578984618187 -0.38455185294151306 -0.05139613524079323 -0.21840693056583405 0.052655529230833054 0.10940761864185333 -0.10117051750421524 -0.2396373450756073 0.5160290002822876
28892918_62467556.xml	0.215923473238945 -0.10708338022232056 0.14972862601280212 0.03370894119143486 -0.07660587131977081 -0.09793169051408768 0.21696171164512634 -0.08557379990816116 0.1646060049533844 -0.13435502350330353 0.15994158387184143 -0.18570318818092346 -0.05921188369393349 -0.032768066972494125 -0.2750864028930664 -0.2002025544643402 0.09638040512800217 -0.031072497367858887 0.21589308977127075 -0.04418547451496124 0.5478400588035583 0.02259611338376999 -0.08888871967792511 -0.1825558990240097 -0.0698714479804039 -0.09348811954259872 -0.10339462012052536 -0.12098302692174911 0.22030995786190033 0.3766995370388031 -0.016816776245832443 0.05119505524635315 0.018052607774734497 0.363870769739151 -0.09818568080663681 0.03553823381662369 -0.11808692663908005 -0.06238139420747757 -0.2089458853006363 0.0764191597700119 0.17240631580352783 -0.20235863327980042 -0.482972115278244 0.19675107300281525 -0.055502746254205704 0.15972469747066498 0.17561648786067963 0.046026214957237244 -0.19152328372001648 0.22185088694095612
28892918_62476895.xml	0.13905400037765503 -0.06891309469938278 0.12281116843223572 -0.30532729625701904 -0.16330479085445404 0.16245299577713013 0.5866348743438721 0.19430795311927795 -0.11353956907987595 0.0633392259478569 0.32330989837646484 -0.36150673031806946 0.15348191559314728 0.41849493980407715 -0.2881987988948822 0.05012880638241768 0.2320988029241562 0.12893535196781158 0.22474408149719238 0.12999504804611206 0.297382116317749 0.20404928922653198 -0.08501821756362915 0.01667182147502899 -0.23483441770076752 -0.633720338344574 0.17760765552520752 -0.4189269244670868 -0.06312229484319687 -0.19942820072174072 -0.3150027096271515 -0.08791624754667282 -0.08986193686723709 0.17236341536045074 -0.08770005404949188 0.239149272441864 0.17784225940704346 0.20849186182022095 -0.42268386483192444 -0.2691246569156647 0.19150705635547638 -0.2629126012325287 -0.5455321073532104 0.16550645232200623 -0.4413893520832062 -0.43371060490608215 0.1464007943868637 -0.21159707009792328 0.09614504128694534 0.5803812742233276
28892918_62490283.xml	0.2742025852203369 0.30120813846588135 -0.07788296043872833 0.059181470423936844 -0.11252148449420929 0.03697190433740616 0.4365963041782379 -0.16032354533672333 0.30670392513275146 -0.07238875329494476 0.2321138232946396 -0.308817982673645 -0.307142972946167 0.005421984940767288 -0.1769087016582489 -0.047846756875514984 0.2709118127822876 0.04766780883073807 0.017493464052677155 -0.11282982677221298 0.6525242924690247 0.1493530571460724 -0.3477119505405426 -0.1034637838602066 0.0017019808292388916 -0.3155907094478607 0.11589503288269043 -0.06691447645425797 -0.08601165562868118 0.3353425860404968 0.17174150049686432 -0.08385010808706284 -0.5690514445304871 0.5199425220489502 -0.13153775036334991 0.06071564927697182 -0.07916469126939774 0.12105754762887955 -0.011119627393782139 -0.16998976469039917 0.0757572203874588 0.13629822432994843 -0.4174302816390991 -0.12422080338001251 -0.006523150019347668 0.36256152391433716 0.09234257787466049 -0.13707758486270905 -0.5060935616493225 0.6499537825584412
28893079_62464732.xml	0.02997615560889244 0.28036418557167053 0.28553780913352966 0.33780214190483093 0.5327264070510864 -0.1451970934867859 0.03698321059346199 0.015494766645133495 0.4122503101825714 -0.39212915301322937 -0.7407695055007935 0.2636503577232361 -0.7331781387329102 0.3408566415309906 -0.03749699890613556 0.1780923306941986 -0.5372285842895508 -0.26651260256767273 -0.6767538785934448 -0.31842127442359924 -0.4220139980316162 -0.6679883003234863 0.19907532632350922 -0.5571073889732361 -0.10040310025215149 0.15464428067207336 0.20355582237243652 0.1991899460554123 0.15538115799427032 0.3067970871925354 0.3923124670982361 0.04492388293147087 0.326237291097641 -0.00734426686540246 0.13483507931232452 0.4166000187397003 -0.5845814347267151 -0.5404589176177979 -0.009862691164016724 -0.3012703061103821 0.5149796009063721 0.08074063807725906 -0.43455836176872253 -0.016574541106820107 -0.12461413443088531 -0.050183869898319244 -0.1872701197862625 0.12029987573623657 0.18576212227344513 0.2790863811969757
28893079_62473558.xml	-0.029083937406539917 0.09741827845573425 0.2954285442829132 0.10521227866411209 0.2267133891582489 -0.6280064582824707 -0.15146119892597198 -0.3332957327365875 0.3676082193851471 -0.48855704069137573 -0.8315305113792419 -0.3883099853992462 -0.2897929549217224 0.39961108565330505 -0.25976675748825073 -0.03925306722521782 -0.6180643439292908 -0.5178408026695251 -0.3123871386051178 -0.2273205667734146 0.18163956701755524 -0.5659766793251038 0.0771382674574852 -0.1723528355360031 -0.08780521899461746 0.07464440166950226 0.15513849258422852 -0.17524047195911407 0.1263606697320938 0.4340609312057495 0.12178955227136612 -0.07199427485466003 0.656870424747467 -0.012243657372891903 -0.05623333156108856 0.1863609403371811 -0.38284504413604736 -0.03629495948553085 -0.2360578179359436 -0.26354360580444336 0.560674786567688 -0.12901249527931213 -0.2539895176887512 -0.13894811272621155 0.052660468965768814 -0.21940569579601288 -0.3356499671936035 0.1195533350110054 0.3804962933063507 -0.08712489157915115
28893079_62489714.xml	-0.21031509339809418 0.25690576434135437 -0.24713940918445587 -0.003599646268412471 0.37421417236328125 -0.46990811824798584 -0.16120825707912445 -0.22977623343467712 0.29322874546051025 -0.3479421138763428 -0.4916405975818634 -0.06776950508356094 -0.10887233167886734 1.2510958909988403 0.0295626949518919 0.2656762897968292 0.0841803327202797 -0.18713781237602234 -0.39741387963294983 0.041156817227602005 0.10886250436306 -0.3969191014766693 0.049938272684812546 -0.40515953302383423 -0.27728453278541565 -0.3996645510196686 0.6243322491645813 -0.33269721269607544 -0.04826429858803749 0.16958707571029663 0.0553855374455452 -0.24640099704265594 0.07036542892456055 -0.10270195454359055 0.06140270084142685 0.06852331757545471 -0.3185579478740692 -0.13590988516807556 -0.22891765832901 -0.41791167855262756 0.6145212650299072 -0.05450953170657158 -0.4561900496482849 -0.4015827476978302 0.420706182718277 -0.4484632909297943 -0.24935290217399597 -0.014591801911592484 0.42192670702934265 0.1771678924560547
28893079_62501421.xml	0.12702766060829163 0.3781602382659912 0.2734091281890869 0.6038388609886169 0.3495677411556244 -0.485598623752594 -0.096015065908432 -0.19430533051490784 0.3323479890823364 -0.44093766808509827 -0.9317965507507324 -0.4259405732154846 -0.4031358063220978 0.5710018277168274 0.16606931388378143 0.038870714604854584 -0.22201575338840485 -0.3364338278770447 -0.37713372707366943 -0.2932473123073578 0.25498315691947937 -0.4233708381652832 -0.006944060325622559 -0.3304816484451294 -0.2451840490102768 0.35222548246383667 0.20584572851657867 -0.1670234352350235 -0.06611929833889008 0.5440247654914856 0.18759553134441376 0.1471875011920929 0.547785758972168 0.5882743000984192 -0.1555682122707367 0.4344218373298645 -0.4919389486312866 -0.08265944570302963 -0.1760849505662918 0.10416626185178757 0.46552079916000366 -0.08574719727039337 -0.5383173227310181 -0.3311191499233246 0.30516868829727173 0.035476066172122955 -0.38074785470962524 0.22453778982162476 0.022700482979416847 0.19106093049049377
28893200_62466053.xml	-0.004070297349244356 0.531887948513031 0.20211921632289886 -0.2938096523284912 -0.20476333796977997 0.10697738081216812 0.295684278011322 0.04759892448782921 0.24567925930023193 -0.11778298765420914 -0.10742145031690598 0.18821750581264496 -0.3001411259174347 -0.1862158328294754 -0.40351927280426025 -0.03921633958816528 0.009783504530787468 -0.07789410650730133 -0.17245952785015106 -0.06895729899406433 -0.10875628143548965 0.21700938045978546 0.0843515545129776 -0.28558045625686646 -0.04654133319854736 0.26176464557647705 0.05627404525876045 0.5879690051078796 0.2928774952888489 0.35221514105796814 0.2529911994934082 0.10986369103193283 -0.12968195974826813 0.26122480630874634 0.07977317273616791 -0.015460855327546597 -0.3570442795753479 -0.17242245376110077 0.25644394755363464 -0.06801582872867584 0.006472093053162098 -0.09998073428869247 -0.29542550444602966 -0.259370356798172 -0.18237203359603882 0.010700007900595665 0.021066246554255486 -0.02768014371395111 -0.3027069866657257 0.637030303478241
28893200_62468332.xml	-0.06267217546701431 0.06842981278896332 0.05893654376268387 -0.33392927050590515 -0.12492828816175461 -0.044710539281368256 0.036110665649175644 -0.04124141484498978 0.1926683783531189 -0.07099775224924088 -0.08018506318330765 -0.06446642428636551 -0.09979306906461716 0.08010922372341156 -0.3338681757450104 -0.2184896171092987 -0.031970467418432236 -0.034986697137355804 0.07335280627012253 -0.03478151187300682 0.15363024175167084 0.20748068392276764 0.05480014905333519 -0.18632866442203522 -0.10784383118152618 0.1126624271273613 0.050249334424734116 0.13354532420635223 0.38694000244140625 0.24268275499343872 0.06718669831752777 0.2336079627275467 0.02875949814915657 0.20321683585643768 0.040213778614997864 -0.1294662356376648 -0.30053794384002686 0.09902284294366837 -0.05673322081565857 -0.02887587621808052 0.11831248551607132 -0.2340066283941269 -0.2570931613445282 -0.014763581566512585 0.027336258441209793 0.07810387760400772 0.07194298505783081 -0.023058626800775528 -0.11607181280851364 0.35017624497413635
28893200_62490841.xml	-0.17495208978652954 0.5341498851776123 -0.15567708015441895 -0.4782131314277649 -0.22148233652114868 0.41901805996894836 0.3557153344154358 -0.20860986411571503 0.060699865221977234 0.04163310304284096 -0.04121009632945061 -0.06265927851200104 -0.17680774629116058 0.3222077488899231 -0.6274186968803406 0.07208134233951569 0.09282555431127548 -0.025211205706000328 0.1245369166135788 -0.007175731938332319 0.3203226625919342 0.42910850048065186 -0.4443458616733551 -0.0789232924580574 -0.08088324218988419 -0.06660343706607819 0.27620846033096313 0.3104744851589203 0.1602533906698227 -0.07653501629829407 0.06611191481351852 0.09574206173419952 -0.3961254954338074 0.3799096345901489 0.05634735897183418 -0.16383527219295502 -0.1612357646226883 0.11579927802085876 0.05445946007966995 0.02610604651272297 -0.07367871701717377 -0.048242758959531784 -0.3955862522125244 -0.059146128594875336 -0.2297191023826599 0.09409850835800171 0.039898570626974106 0.014657959342002869 -0.5000853538513184 0.357426255941391
28893200_62498050.xml	0.047545913606882095 0.302503764629364 0.13810792565345764 -0.2504780888557434 -0.15090958774089813 0.058523789048194885 0.11578129976987839 -0.043812986463308334 -0.04434572532773018 0.21749384701251984 0.025887180119752884 -0.29542505741119385 -0.21155628561973572 0.4554786682128906 -0.28084516525268555 -0.052521370351314545 -0.026957478374242783 -0.005168601870536804 0.0444972962141037 -0.17768387496471405 0.17584770917892456 0.39693915843963623 -0.31256532669067383 -0.08404679596424103 -0.43276888132095337 -0.3560783267021179 0.585824191570282 0.050216227769851685 0.06695638597011566 0.19153931736946106 -0.16877220571041107 0.1281941831111908 -0.31435802578926086 0.37488171458244324 0.10553660243749619 -0.0694110319018364 -0.27990031242370605 0.3382278382778168 0.009580782614648342 -0.1273556351661682 -0.11289622634649277 -0.05964939668774605 -0.12108129262924194 0.14402800798416138 0.1875927895307541 0.21394549310207367 0.2531825304031372 -0.13479426503181458 -0.5113866329193115 0.6787493228912354
28893223_62464024.xml	0.21309445798397064 0.6687220335006714 0.37437474727630615 0.0478842556476593 -0.029405798763036728 0.14395171403884888 -0.11352256685495377 0.15520566701889038 0.1634957194328308 -0.4109291136264801 -0.12838953733444214 0.07352106273174286 -0.5192992687225342 0.07353528589010239 -0.3635004162788391 -0.36161354184150696 0.16676466166973114 0.009698737412691116 -0.1821303367614746 -0.4619833827018738 0.6003033518791199 0.2361786961555481 -0.2234100103378296 -0.35017624497413635 -0.0031321218702942133 0.500906229019165 0.277052640914917 0.5271336436271667 -0.17740486562252045 0.43393614888191223 -0.2395113855600357 -0.3857709765434265 0.20044438540935516 0.1339968889951706 0.5344599485397339 -0.28851747512817383 -0.3408142030239105 0.19164961576461792 -0.16510887444019318 -0.11228987574577332 -0.20188689231872559 -0.4729979634284973 -0.512681782245636 0.358036607503891 0.562615156173706 -0.5164395570755005 0.09167084097862244 -0.0756118968129158 0.2567020356655121 0.24058115482330322
28893223_62467780.xml	-0.252545028924942 0.44038188457489014 0.31997382640838623 0.037056539207696915 -0.2541716694831848 -0.35211417078971863 -0.09179027378559113 0.09710846096277237 0.31066542863845825 -0.21180978417396545 -0.21652288734912872 -0.18662019073963165 -0.22568126022815704 -0.08616506308317184 -0.3046547472476959 -0.4558533728122711 0.06172342970967293 0.027826393023133278 -0.23675571382045746 -0.2453850656747818 0.5527679920196533 -0.10344807803630829 -0.05162447318434715 -0.22961702942848206 0.08829283714294434 0.6249458193778992 0.0073051187209784985 0.07391933351755142 -0.14737547934055328 0.326908677816391 -0.1343705803155899 -0.03269456699490547 0.6360620856285095 0.24796639382839203 0.3563559651374817 -0.2743348777294159 -0.3807234466075897 0.4098811447620392 -0.26531872153282166 -0.23533995449543 0.2955659329891205 -0.37370023131370544 -0.6748374700546265 0.22475190460681915 0.38553643226623535 -0.15606631338596344 0.3307788670063019 -0.34334689378738403 0.13801516592502594 0.06328008323907852
28893223_62478962.xml	-0.4276328980922699 0.46715185046195984 0.10081260651350021 -0.2358422875404358 -0.112389475107193 -0.3053129315376282 0.10929091274738312 0.28385311365127563 0.2338186502456665 -0.13471487164497375 -0.15145887434482574 -0.1818198263645172 0.033102694898843765 0.3219793736934662 -0.21814699470996857 -0.276892751455307 0.3325372636318207 -0.048328809440135956 -0.04941321164369583 0.14159047603607178 0.3165121376514435 0.08011601865291595 -0.03540800139307976 -0.3270860016345978 -0.030300358310341835 0.19339001178741455 0.2742351293563843 0.014409197494387627 -0.2930659055709839 0.008258498273789883 -0.164852574467659 -0.032402824610471725 0.5600191950798035 0.1422969549894333 0.22785885632038116 -0.13660167157649994 -0.32061567902565 0.502892792224884 -0.4834769666194916 -0.6745049953460693 0.44489482045173645 -0.23865601420402527 -0.8308143615722656 -0.2267061024904251 0.5936639904975891 -0.35810935497283936 0.33720239996910095 -0.48383447527885437 0.14066344499588013 0.04092384874820709
